{"learner":{"attributes":{"best_iteration":"99","best_ntree_limit":"100","scikit_learn":"{\"use_label_encoder\": null, \"n_estimators\": 100, \"objective\": \"multi:softmax\", \"max_depth\": 7, \"max_leaves\": null, \"max_bin\": null, \"grow_policy\": null, \"learning_rate\": 0.1, \"verbosity\": null, \"booster\": null, \"tree_method\": null, \"gamma\": null, \"min_child_weight\": null, \"max_delta_step\": null, \"subsample\": 0.8, \"sampling_method\": null, \"colsample_bytree\": null, \"colsample_bylevel\": null, \"colsample_bynode\": null, \"reg_alpha\": null, \"reg_lambda\": null, \"scale_pos_weight\": null, \"base_score\": null, \"missing\": NaN, \"num_parallel_tree\": null, \"random_state\": null, \"n_jobs\": null, \"monotone_constraints\": null, \"interaction_constraints\": null, \"importance_type\": null, \"gpu_id\": null, \"validate_parameters\": null, \"predictor\": null, \"enable_categorical\": false, \"feature_types\": null, \"max_cat_to_onehot\": null, \"max_cat_threshold\": null, \"eval_metric\": \"mlogloss\", \"early_stopping_rounds\": null, \"callbacks\": null, \"kwargs\": {\"num_class\": 3}, \"classes_\": [0, 1, 2], \"n_classes_\": 3, \"_estimator_type\": \"classifier\"}"},"feature_names":["Species_Acinetobacter baumannii","Species_Acinetobacter baylyi","Species_Acinetobacter bereziniae","Species_Acinetobacter calcoaceticus","Species_Acinetobacter colistiniresistens","Species_Acinetobacter courvalinii","Species_Acinetobacter dijkshoorniae","Species_Acinetobacter guillouiae","Species_Acinetobacter haemolyticus","Species_Acinetobacter johnsonii","Species_Acinetobacter junii","Species_Acinetobacter lactucae","Species_Acinetobacter lwoffii","Species_Acinetobacter nosocomialis","Species_Acinetobacter pitii","Species_Acinetobacter proteolyticus","Species_Acinetobacter radioresistens","Species_Acinetobacter schindleri","Species_Acinetobacter seifertii","Species_Acinetobacter soli","Species_Acinetobacter spp","Species_Acinetobacter ursingii","Species_Acinetobacter variabilis","Species_Aeromonas hydrophila","Species_Alcaligenes faecalis","Species_Bordetella trematum","Species_Citrobacter amalonaticus","Species_Citrobacter braakii","Species_Citrobacter freundii","Species_Citrobacter koseri","Species_Citrobacter sedlakii","Species_Citrobacter spp","Species_Enterobacter asburiae","Species_Enterobacter bugandensis","Species_Enterobacter cloacae","Species_Enterobacter hormaechi","Species_Enterobacter kobei","Species_Enterobacter ludwigii","Species_Enterobacter roggenkampii","Species_Enterobacter spp","Species_Enterobacter xiangfangensis","Species_Escherichia coli","Species_Escherichia spp","Species_Klebsiella aerogenes","Species_Klebsiella oxytoca","Species_Klebsiella pneumoniae","Species_Klebsiella spp","Species_Klebsiella variicola","Species_Morganella morganii","Species_Myroides odoratimimus","Species_Proteus hauseri","Species_Proteus mirabilis","Species_Proteus penneri","Species_Proteus spp","Species_Proteus vulgaris","Species_Providencia alcalifaciens","Species_Providencia rettgeri","Species_Providencia spp","Species_Providencia stuartii","Species_Pseudomonas aeruginosa","Species_Pseudomonas fulva","Species_Pseudomonas putida","Species_Pseudomonas putida/fluorescens Group","Species_Pseudomonas spp","Species_Raoultella ornithinolytica","Species_Serratia liquefaciens","Species_Serratia marcescens","Species_Serratia spp","Species_Serratia ureilytica","Family_Enterobacterales","Family_Enterobacteriaceae","Family_Non-Enterobacterales","Family_Non-Enterobacteriaceae","Country_Cameroon","Country_Ghana","Country_Ivory Coast","Country_Kenya","Country_Malawi","Country_Morocco","Country_Nigeria","Country_South Africa","Country_Uganda","Gender_Female","Gender_Male","Age Group_0 to 2 Years","Age Group_13 to 18 Years","Age Group_19 to 64 Years","Age Group_3 to 12 Years","Age Group_65 to 84 Years","Age Group_85 and Over","Age Group_Unknown","Speciality_Emergency Room","Speciality_General Unspecified ICU","Speciality_Medicine General","Speciality_Medicine ICU","Speciality_None Given","Speciality_Other","Speciality_Pediatric General","Speciality_Pediatric ICU","Speciality_Surgery General","Speciality_Surgery ICU","Source_Abscess","Source_Appendix","Source_Bladder","Source_Blood","Source_Bone","Source_Bronchoalveolar lavage","Source_Bronchus","Source_Burn","Source_CSF","Source_Carbuncle","Source_Catheters","Source_Cellulitis","Source_Cervix","Source_Colon","Source_Decubitus","Source_Diverticulum","Source_Endotracheal aspirate","Source_Eye","Source_Furuncle","Source_Gall Bladder","Source_Gastric Abscess","Source_Genitourinary: Other","Source_Impetiginous lesions","Source_Intestinal: Other","Source_Kidney","Source_Liver","Source_Lungs","Source_None Given","Source_Pancreas","Source_Peritoneal Fluid","Source_Prostate","Source_Respiratory: Other","Source_Skin","Source_Skin: Other","Source_Sputum","Source_Stomach","Source_Thoracentesis Fluid","Source_Ulcer","Source_Ureter","Source_Urethra","Source_Urine","Source_Wound"],"feature_types":["float","float","float","float","float","float","float","float","float","float","float","float","float","float","float","float","float","float","float","float","float","float","float","float","float","float","float","float","float","float","float","float","float","float","float","float","float","float","float","float","float","float","float","float","float","float","float","float","float","float","float","float","float","float","float","float","float","float","float","float","float","float","float","float","float","float","float","float","float","float","float","float","float","float","float","float","float","float","float","float","float","float","float","float","float","float","float","float","float","float","float","float","float","float","float","float","float","float","float","float","float","float","float","float","float","float","float","float","float","float","float","float","float","float","float","float","float","float","float","float","float","float","float","float","float","float","float","float","float","float","float","float","float","float","float","float","float","float","float","float","float","float","float"],"gradient_booster":{"model":{"gbtree_model_param":{"num_parallel_tree":"1","num_trees":"300","size_leaf_vector":"0"},"tree_info":[0,1,2,0,1,2,0,1,2,0,1,2,0,1,2,0,1,2,0,1,2,0,1,2,0,1,2,0,1,2,0,1,2,0,1,2,0,1,2,0,1,2,0,1,2,0,1,2,0,1,2,0,1,2,0,1,2,0,1,2,0,1,2,0,1,2,0,1,2,0,1,2,0,1,2,0,1,2,0,1,2,0,1,2,0,1,2,0,1,2,0,1,2,0,1,2,0,1,2,0,1,2,0,1,2,0,1,2,0,1,2,0,1,2,0,1,2,0,1,2,0,1,2,0,1,2,0,1,2,0,1,2,0,1,2,0,1,2,0,1,2,0,1,2,0,1,2,0,1,2,0,1,2,0,1,2,0,1,2,0,1,2,0,1,2,0,1,2,0,1,2,0,1,2,0,1,2,0,1,2,0,1,2,0,1,2,0,1,2,0,1,2,0,1,2,0,1,2,0,1,2,0,1,2,0,1,2,0,1,2,0,1,2,0,1,2,0,1,2,0,1,2,0,1,2,0,1,2,0,1,2,0,1,2,0,1,2,0,1,2,0,1,2,0,1,2,0,1,2,0,1,2,0,1,2,0,1,2,0,1,2,0,1,2,0,1,2,0,1,2,0,1,2,0,1,2,0,1,2,0,1,2,0,1,2,0,1,2,0,1,2,0,1,2,0,1,2,0,1,2],"trees":[{"base_weights":[2.687099E-4,-1.8953378E-1,1.1393453E0,-3.9883643E-2,-5.1055026E-1,1.1781987E0,-2.7149326E-1,-8.424134E-2,1.1508951E0,-5.2235156E-1,-1.7142862E-1,1.2044829E0,-3.19149E-1,-4.4162443E-1,8.181818E-1,-2.1849489E-1,2.0194885E-1,1.30622E0,-1.094891E-1,-5.284526E-1,1.7341E-2,2.4463515E-1,-4.8837215E-1,1.2235843E0,4.511274E-2,-6.923078E-1,1.0909091E0,-6.8571436E-1,-1.485149E-1,-6.751243E-2,-3.9323473E-1,3.6363192E-3,7.588035E-1,1.3463415E0,-5.172414E-1,-3.223141E-1,9.6E-1,-5.373295E-1,-2.9174316E-1,2.7906972E-1,-6.2264156E-1,5.0270265E-1,-6.31579E-1,-7.24138E-1,8.5714287E-1,1.2335883E0,-9.230773E-2,-2.752294E-1,1.0909091E0,-5.172414E-1,-3.973643E-8,-1.5616444E-1,1.0900593E-1,-5.280666E-1,-2.8861576E-1,-3.018481E-1,2.6236022E-1,7.967097E-1,-3.092784E-1,1.3795837E0,-4.8000002E-1,-6.774194E-1,6.486486E-1,-5.413274E-1,-6.976748E-2,-3.835052E-1,3.913043E-1,4.6788988E-1,-5.172414E-1,6.213018E-1,-4.8000002E-1,1.2722114E0,8.791064E-1,-6.1224496E-1,9.6E-1,-6.6666675E-1,6.486486E-1,-1.7037822E-1,1.1294117E0,3.5623368E-2,9.0461534E-1,-5.427839E-1,8.5714287E-1,-3.0080867E-1,9.473684E-1,-3.5359463E-1,6.6101694E-1,1.22448936E-1,9.8315465E-1,8.3050144E-1,2.0134224E-1,-6.6666675E-1,9.6E-1,-5.4774725E-1,-2.584616E-1,7.8947365E-1,-6.6666675E-1,-5.0381684E-1,1.18811846E-1,6.315789E-1,-4.2857146E-1,6.185567E-1,-4.2857146E-1,7.659574E-1,-8.1081115E-2,1.2928516E0,8.533724E-1,9.414226E-1,-1.13207586E-1],"categories":[],"categories_nodes":[],"categories_segments":[],"categories_sizes":[],"default_left":[1,1,1,1,1,1,1,1,1,1,1,1,1,1,0,1,1,1,1,1,1,1,1,1,1,0,0,0,1,1,1,1,1,1,0,1,0,1,1,1,0,1,0,0,0,1,1,1,0,0,0,1,1,1,1,1,1,1,1,0,0,0,0,1,1,1,1,1,0,1,0,1,1,0,0,0,0,0,0,0,0,0,0,0,0,0,0,0,0,0,0,0,0,0,0,0,0,0,0,0,0,0,0,0,0,0,0,0,0],"id":0,"left_children":[1,3,5,7,9,11,13,15,17,19,21,23,25,27,-1,29,31,33,35,37,39,41,43,45,47,-1,-1,-1,49,51,53,55,57,59,-1,61,-1,63,65,67,-1,69,-1,-1,-1,71,73,75,-1,-1,-1,77,79,81,83,85,87,89,91,-1,-1,-1,-1,93,95,97,99,101,-1,103,-1,105,107,-1,-1,-1,-1,-1,-1,-1,-1,-1,-1,-1,-1,-1,-1,-1,-1,-1,-1,-1,-1,-1,-1,-1,-1,-1,-1,-1,-1,-1,-1,-1,-1,-1,-1,-1,-1],"loss_changes":[1.3409655E3,2.5538777E2,4.8880737E1,1.9168753E2,6.6753235E0,3.4322876E1,4.9136257E0,1.3444019E2,2.5658264E1,5.386078E0,7.8118143E0,1.8716797E1,8.998661E0,1.4642038E0,0E0,6.280227E1,1.2339803E2,9.19104E0,3.7742121E0,3.2363281E0,3.393518E0,6.1715546E0,1.1230152E1,1.1091431E1,5.2509923E0,0E0,0E0,0E0,6.1454415E-1,2.0028238E1,1.5415894E1,6.528399E1,1.2127075E1,7.5766144E0,0E0,5.074971E0,0E0,2.8693542E0,3.945558E0,2.3971658E0,0E0,2.6939259E0,0E0,0E0,0E0,1.0213379E1,4.5392776E0,4.812299E0,0E0,0E0,0E0,1.575486E1,2.4962551E1,1.0271194E1,9.683788E0,1.91063E1,4.498075E1,5.539749E0,5.5290723E0,0E0,0E0,0E0,0E0,2.6584473E0,7.877601E0,3.3166127E0,1.780974E0,1.9009073E0,0E0,1.9699945E0,0E0,5.329468E0,5.335251E0,0E0,0E0,0E0,0E0,0E0,0E0,0E0,0E0,0E0,0E0,0E0,0E0,0E0,0E0,0E0,0E0,0E0,0E0,0E0,0E0,0E0,0E0,0E0,0E0,0E0,0E0,0E0,0E0,0E0,0E0,0E0,0E0,0E0,0E0,0E0,0E0],"parents":[2147483647,0,0,1,1,2,2,3,3,4,4,5,5,6,6,7,7,8,8,9,9,10,10,11,11,12,12,13,13,15,15,16,16,17,17,18,18,19,19,20,20,21,21,22,22,23,23,24,24,28,28,29,29,30,30,31,31,32,32,33,33,35,35,37,37,38,38,39,39,41,41,45,45,46,46,47,47,51,51,52,52,53,53,54,54,55,55,56,56,57,57,58,58,63,63,64,64,65,65,66,66,67,67,69,69,71,71,72,72],"right_children":[2,4,6,8,10,12,14,16,18,20,22,24,26,28,-1,30,32,34,36,38,40,42,44,46,48,-1,-1,-1,50,52,54,56,58,60,-1,62,-1,64,66,68,-1,70,-1,-1,-1,72,74,76,-1,-1,-1,78,80,82,84,86,88,90,92,-1,-1,-1,-1,94,96,98,100,102,-1,104,-1,106,108,-1,-1,-1,-1,-1,-1,-1,-1,-1,-1,-1,-1,-1,-1,-1,-1,-1,-1,-1,-1,-1,-1,-1,-1,-1,-1,-1,-1,-1,-1,-1,-1,-1,-1,-1,-1],"split_conditions":[5E-1,5E-1,5E-1,5E-1,5E-1,5E-1,5E-1,5E-1,5E-1,5E-1,5E-1,5E-1,5E-1,5E-1,8.1818186E-2,5E-1,5E-1,5E-1,5E-1,5E-1,5E-1,5E-1,5E-1,5E-1,5E-1,-6.923078E-2,1.0909092E-1,-6.857144E-2,5E-1,5E-1,5E-1,5E-1,5E-1,5E-1,-5.1724143E-2,5E-1,9.6E-2,5E-1,5E-1,5E-1,-6.2264156E-2,5E-1,-6.31579E-2,-7.24138E-2,8.571429E-2,5E-1,5E-1,5E-1,1.0909092E-1,-5.1724143E-2,-3.973643E-9,5E-1,5E-1,5E-1,5E-1,5E-1,5E-1,5E-1,5E-1,1.3795838E-1,-4.8000004E-2,-6.7741945E-2,6.486487E-2,5E-1,5E-1,5E-1,5E-1,5E-1,-5.1724143E-2,5E-1,-4.8000004E-2,5E-1,5E-1,-6.1224498E-2,9.6E-2,-6.666668E-2,6.486487E-2,-1.7037822E-2,1.1294117E-1,3.5623368E-3,9.046154E-2,-5.4278392E-2,8.571429E-2,-3.0080868E-2,9.473684E-2,-3.5359465E-2,6.610169E-2,1.2244894E-2,9.831547E-2,8.305015E-2,2.0134224E-2,-6.666668E-2,9.6E-2,-5.4774728E-2,-2.584616E-2,7.8947365E-2,-6.666668E-2,-5.0381687E-2,1.1881185E-2,6.315789E-2,-4.2857148E-2,6.185567E-2,-4.2857148E-2,7.6595746E-2,-8.108112E-3,1.2928516E-1,8.5337244E-2,9.414226E-2,-1.1320759E-2],"split_indices":[0,41,77,20,76,75,98,79,79,102,141,81,101,97,0,70,59,75,94,96,86,124,89,73,141,0,0,0,104,78,45,45,101,95,0,87,0,138,69,97,0,88,0,0,0,79,101,94,0,0,0,107,134,67,108,35,84,98,87,0,0,0,0,90,82,81,142,99,0,96,0,87,91,0,0,0,0,0,0,0,0,0,0,0,0,0,0,0,0,0,0,0,0,0,0,0,0,0,0,0,0,0,0,0,0,0,0,0,0],"split_type":[0,0,0,0,0,0,0,0,0,0,0,0,0,0,0,0,0,0,0,0,0,0,0,0,0,0,0,0,0,0,0,0,0,0,0,0,0,0,0,0,0,0,0,0,0,0,0,0,0,0,0,0,0,0,0,0,0,0,0,0,0,0,0,0,0,0,0,0,0,0,0,0,0,0,0,0,0,0,0,0,0,0,0,0,0,0,0,0,0,0,0,0,0,0,0,0,0,0,0,0,0,0,0,0,0,0,0,0,0],"sum_hessian":[6.200444E3,5.315555E3,8.8488885E2,3.626222E3,1.6893333E3,8.6133325E2,2.3555553E1,3.4968887E3,1.2933333E2,1.6319999E3,5.733333E1,8.466666E2,1.4666666E1,2.0888887E1,2.6666665E0,2.3804443E3,1.1164443E3,1.1511111E2,1.4222221E1,1.6137777E3,1.8222221E1,2.4888887E1,3.2444443E1,8.3288885E2,1.3777777E1,1.1999999E1,2.6666665E0,1.0666666E1,1.0222221E1,1.2777777E3,1.1026666E3,8.2399994E2,2.9244443E2,1.12888885E2,2.222222E0,1.2444444E1,1.7777777E0,1.5542222E3,5.9555553E1,1.3333332E1,4.8888884E0,1.9555553E1,5.333333E0,2.7999998E1,4.444444E0,8.266666E2,6.222222E0,1.1111111E1,2.6666665E0,2.222222E0,7.9999995E0,8.506666E2,4.2711108E2,4.7999997E2,6.226666E2,3.7777774E2,4.462222E2,2.8266666E2,9.777777E0,1.1111111E2,1.7777777E0,9.333333E0,3.111111E0,1.5408888E3,1.3333332E1,5.2888885E1,6.666666E0,1.1111111E1,2.222222E0,1.7777777E1,1.7777777E0,7.431111E2,8.355555E1,4.444444E0,1.7777777E0,7.9999995E0,3.111111E0,8.4222217E2,8.444444E0,3.9199997E2,3.511111E1,4.7555554E2,4.444444E0,6.173333E2,5.333333E0,3.5911108E2,1.8666666E1,3.7466666E2,7.155555E1,2.6711108E2,1.5555554E1,7.9999995E0,1.7777777E0,1.5057777E3,3.511111E1,5.333333E0,7.9999995E0,4.2666664E1,1.0222221E1,5.333333E0,1.3333333E0,9.777777E0,1.3333333E0,1.4666666E1,3.111111E0,7.0622217E2,3.6888885E1,7.8666664E1,4.8888884E0],"tree_param":{"num_deleted":"0","num_feature":"143","num_nodes":"109","size_leaf_vector":"0"}},{"base_weights":[7.4453293E-3,-2.1696322E-1,6.0426396E-1,-4.1266707E-1,1.4647067E-1,5.642778E-1,9.406621E-1,-5.279352E-1,-9.714534E-2,7.9488955E-2,7.191087E-1,5.7657117E-1,-4.4378704E-1,9.9291694E-1,-6.31579E-1,-5.6028414E-1,1.0866141E0,-1.6359487E-1,8.041237E-1,1.0902405E-1,-7.348315E-1,7.5155276E-1,-5.853659E-1,5.8885276E-1,-2.1126765E-1,-7.04698E-1,1.0344827E0,1.0110605E0,-4.8000002E-1,-5.650604E-1,1.1052631E0,1.1883657E0,-5.172414E-1,-2.9016298E-1,1.9304344E-1,9.907621E-1,-6.3934433E-1,1.547139E-1,-3.6221203E-1,6.2625337E-1,1.1135734E0,6.054448E-1,-2.521013E-2,-7.0909095E-1,1.2631578E0,1.024918E0,-4.2857146E-1,-5.7124543E-1,5.0442475E-1,1.2815534E0,5.4098356E-1,-3.2421964E-1,4.647887E-1,-2.1614912E-1,5.457481E-1,1.0750605E0,-5.172414E-1,7.414778E-2,4.1461563E-1,-4.043356E-1,1.0909091E0,6.783349E-1,-6.1224496E-1,1.2462908E0,-5.4545456E-1,5.755916E-1,9.446064E-1,-5.240175E-1,8.1021893E-1,1.0673732E0,7.183098E-1,-5.751246E-1,7.8947365E-1,-6.1224496E-1,1.1917808E0,1.3263158E0,5.454545E-1,1.1707317E0,-5.172414E-1,-3.7210938E-1,2.3324393E-1,-6.461539E-1,8.980892E-1,-4.8270682E-1,9.8657715E-1,7.880987E-1,-1.4457837E-1,1.1486146E0,-4.8000002E-1,4.1333456E-2,7.122302E-1,3.4040707E-1,9.061583E-1,-4.6107185E-1,3.333333E-1,5.9231585E-1,1.255814E0,5.5486137E-1,1.0212766E0,1.1494435E0,6.088019E-1,-1.1111116E-1,-7.0700645E-1,2.7272725E-1,1.3043479E0,1.0840336E0,-4.2857146E-1,9.7790056E-1,-5.853659E-1],"categories":[],"categories_nodes":[],"categories_segments":[],"categories_sizes":[],"default_left":[1,1,1,1,1,1,1,1,1,1,1,1,1,1,0,1,1,1,1,1,0,1,0,1,1,0,0,1,0,1,0,1,0,1,1,1,0,1,1,1,1,1,1,0,0,1,0,1,1,1,1,1,1,1,1,1,0,1,1,1,0,1,0,0,0,1,1,1,1,1,1,0,0,0,0,0,0,0,0,0,0,0,0,0,0,0,0,0,0,0,0,0,0,0,0,0,0,0,0,0,0,0,0,0,0,0,0,0,0],"id":1,"left_children":[1,3,5,7,9,11,13,15,17,19,21,23,25,27,-1,29,31,33,35,37,-1,39,-1,41,43,-1,-1,45,-1,47,-1,49,-1,51,53,55,-1,57,59,61,63,65,67,-1,-1,69,-1,71,73,75,77,79,81,83,85,87,-1,89,91,93,-1,95,-1,-1,-1,97,99,101,103,105,107,-1,-1,-1,-1,-1,-1,-1,-1,-1,-1,-1,-1,-1,-1,-1,-1,-1,-1,-1,-1,-1,-1,-1,-1,-1,-1,-1,-1,-1,-1,-1,-1,-1,-1,-1,-1,-1,-1],"loss_changes":[8.2760266E2,3.194688E2,2.2182373E1,1.0611972E2,6.026021E1,1.8989258E1,1.5241989E1,1.1226843E2,4.6984634E1,3.3968014E1,7.404335E0,1.4579132E1,7.971527E0,5.0966644E0,0E0,1.7302734E1,7.523247E0,3.298243E1,1.5151463E1,2.9349758E1,0E0,6.605728E0,0E0,1.5004852E1,1.8267107E1,0E0,0E0,3.8462372E0,0E0,1.4121338E1,0E0,1.7265205E0,0E0,1.4003288E1,2.7780087E1,6.672058E0,0E0,2.5954893E1,7.8203735E0,8.277489E0,9.511532E0,1.3960999E1,1.6954391E1,0E0,0E0,1.4389496E0,0E0,1.14313965E1,1.0366674E1,4.0782547E-1,5.1223645E0,1.3865295E1,1.19727745E1,2.9151752E1,1.7383123E1,5.8001556E0,0E0,1.983165E1,1.039542E1,5.0876446E0,0E0,5.0901184E0,0E0,0E0,0E0,1.1621826E1,7.164665E0,1.8439574E0,3.6871405E0,4.1227264E0,8.581751E0,0E0,0E0,0E0,0E0,0E0,0E0,0E0,0E0,0E0,0E0,0E0,0E0,0E0,0E0,0E0,0E0,0E0,0E0,0E0,0E0,0E0,0E0,0E0,0E0,0E0,0E0,0E0,0E0,0E0,0E0,0E0,0E0,0E0,0E0,0E0,0E0,0E0,0E0],"parents":[2147483647,0,0,1,1,2,2,3,3,4,4,5,5,6,6,7,7,8,8,9,9,10,10,11,11,12,12,13,13,15,15,16,16,17,17,18,18,19,19,21,21,23,23,24,24,27,27,29,29,31,31,33,33,34,34,35,35,37,37,38,38,39,39,40,40,41,41,42,42,45,45,47,47,48,48,49,49,50,50,51,51,52,52,53,53,54,54,55,55,57,57,58,58,59,59,61,61,65,65,66,66,67,67,68,68,69,69,70,70],"right_children":[2,4,6,8,10,12,14,16,18,20,22,24,26,28,-1,30,32,34,36,38,-1,40,-1,42,44,-1,-1,46,-1,48,-1,50,-1,52,54,56,-1,58,60,62,64,66,68,-1,-1,70,-1,72,74,76,78,80,82,84,86,88,-1,90,92,94,-1,96,-1,-1,-1,98,100,102,104,106,108,-1,-1,-1,-1,-1,-1,-1,-1,-1,-1,-1,-1,-1,-1,-1,-1,-1,-1,-1,-1,-1,-1,-1,-1,-1,-1,-1,-1,-1,-1,-1,-1,-1,-1,-1,-1,-1,-1],"split_conditions":[5E-1,5E-1,5E-1,5E-1,5E-1,5E-1,5E-1,5E-1,5E-1,5E-1,5E-1,5E-1,5E-1,5E-1,-6.31579E-2,5E-1,5E-1,5E-1,5E-1,5E-1,-7.3483154E-2,5E-1,-5.853659E-2,5E-1,5E-1,-7.0469804E-2,1.0344827E-1,5E-1,-4.8000004E-2,5E-1,1.10526316E-1,5E-1,-5.1724143E-2,5E-1,5E-1,5E-1,-6.393444E-2,5E-1,5E-1,5E-1,5E-1,5E-1,5E-1,-7.09091E-2,1.2631579E-1,5E-1,-4.2857148E-2,5E-1,5E-1,5E-1,5E-1,5E-1,5E-1,5E-1,5E-1,5E-1,-5.1724143E-2,5E-1,5E-1,5E-1,1.0909092E-1,5E-1,-6.1224498E-2,1.2462908E-1,-5.454546E-2,5E-1,5E-1,5E-1,5E-1,5E-1,5E-1,-5.7512462E-2,7.8947365E-2,-6.1224498E-2,1.1917808E-1,1.3263159E-1,5.454545E-2,1.1707317E-1,-5.1724143E-2,-3.7210938E-2,2.3324393E-2,-6.461539E-2,8.980892E-2,-4.8270684E-2,9.865772E-2,7.880987E-2,-1.4457837E-2,1.14861466E-1,-4.8000004E-2,4.1333456E-3,7.122302E-2,3.4040708E-2,9.061583E-2,-4.6107184E-2,3.333333E-2,5.9231587E-2,1.255814E-1,5.548614E-2,1.02127664E-1,1.1494435E-1,6.088019E-2,-1.1111116E-2,-7.0700645E-2,2.7272725E-2,1.304348E-1,1.0840336E-1,-4.2857148E-2,9.7790055E-2,-5.853659E-2],"split_indices":[41,70,91,69,51,102,78,8,66,39,101,135,97,90,0,139,99,88,80,97,0,99,0,90,81,0,0,84,0,14,0,135,0,108,80,88,0,78,124,138,104,75,80,0,0,80,0,136,79,96,86,91,86,51,135,73,0,48,106,76,0,134,0,0,0,100,82,69,96,89,69,0,0,0,0,0,0,0,0,0,0,0,0,0,0,0,0,0,0,0,0,0,0,0,0,0,0,0,0,0,0,0,0,0,0,0,0,0,0],"split_type":[0,0,0,0,0,0,0,0,0,0,0,0,0,0,0,0,0,0,0,0,0,0,0,0,0,0,0,0,0,0,0,0,0,0,0,0,0,0,0,0,0,0,0,0,0,0,0,0,0,0,0,0,0,0,0,0,0,0,0,0,0,0,0,0,0,0,0,0,0,0,0,0,0,0,0,0,0,0,0,0,0,0,0,0,0,0,0,0,0,0,0,0,0,0,0,0,0,0,0,0,0,0,0,0,0,0,0,0,0],"sum_hessian":[6.177333E3,4.4897773E3,1.6875554E3,2.9182222E3,1.5715554E3,1.5106666E3,1.7688889E2,2.1368887E3,7.813333E2,1.4079999E3,1.6355554E2,1.4928888E3,1.7777777E1,1.7155554E2,5.333333E0,2.0955554E3,4.1333332E1,7.284444E2,5.2888885E1,1.3595554E3,4.8444443E1,1.5999998E2,3.5555553E0,1.4702222E3,2.2666666E1,1.5555554E1,2.222222E0,1.6977777E2,1.7777777E0,2.0902222E3,5.333333E0,3.9111107E1,2.222222E0,5.377778E2,1.9066666E2,4.7111107E1,5.7777777E0,1.2399999E3,1.1955555E2,1.20888885E2,3.9111107E1,1.4315554E3,3.8666664E1,1.7333332E1,5.333333E0,1.6844443E2,1.3333333E0,2.0786665E3,1.1555555E1,3.3333332E1,5.7777777E0,5.151111E2,2.2666666E1,8.844444E1,1.0222221E2,4.4888885E1,2.222222E0,9.475555E2,2.9244443E2,1.16888885E2,2.6666665E0,1.16444435E2,4.444444E0,3.6444443E1,2.6666665E0,1.3182222E3,1.1333333E2,2.4444443E1,1.4222221E1,1.4577777E2,2.2666666E1,2.0733333E3,5.333333E0,4.444444E0,7.1111107E0,3.0666664E1,2.6666665E0,3.5555553E0,2.222222E0,4.7466663E2,4.0444443E1,6.222222E0,1.6444443E1,7.2888885E1,1.5555554E1,7.555555E1,2.6666664E1,4.3111107E1,1.7777777E0,9.0222217E2,4.5333332E1,2.5555554E2,3.6888885E1,1.08888885E2,7.9999995E0,1.0311111E2,1.3333332E1,1.2617777E3,5.6444443E1,6.8888885E1,4.4444443E1,7.9999995E0,1.6444443E1,7.5555553E0,6.666666E0,1.4444444E2,1.3333333E0,1.911111E1,3.5555553E0],"tree_param":{"num_deleted":"0","num_feature":"143","num_nodes":"109","size_leaf_vector":"0"}},{"base_weights":[-6.67952E-3,7.671648E-2,-5.0155616E-1,1.6306688E-1,-9.945813E-2,-5.214422E-1,6.788321E-1,2.5374398E-1,-4.7648754E-2,-1.1362899E-1,4.7244093E-1,-5.4071796E-1,5.744681E-1,9.4285715E-1,-1.463415E-1,2.9388613E-1,-5.779284E-1,-1.24784105E-1,2.267359E-1,-9.1730855E-2,-3.7984502E-1,6.830769E-1,-6.461539E-1,-5.49903E-1,7.8947365E-1,1.3333334E0,-3.913044E-1,1.3246753E0,-8.1081115E-2,4.3719637E-1,7.191409E-2,-6.1895365E-1,1.0344827E0,-2.0108996E-1,8.279937E-2,1.6360928E-1,1.3761468E0,-9.669198E-2,1.245283E0,-5.2941185E-1,-8.8888936E-2,1.1351348E-1,1.3489933E0,-5.6850505E-1,1.4354064E-1,1.1999999E0,-4.2857146E-1,-1.463415E-1,-5.675676E-1,-2.5544848E-8,-1.2000003E-1,4.6624988E-1,-6.510264E-1,3.4815446E-2,4.6344826E-1,-6.3995844E-1,-1.9672136E-1,-2.1894155E-1,5.581395E-1,4.5523476E-2,1.2786885E0,2.6386228E-1,-1.8380749E-1,-3.657267E-2,-1.9045897E-1,-5.6175303E-1,8.571428E-1,-3.0841127E-1,6.774193E-1,4.8837206E-1,-6.461539E-1,-6.0222393E-1,-2.737643E-1,1.3150685E0,-4.5517248E-1,5.795079E-1,2.586553E-1,-6.7192435E-1,-2.727273E-1,1.2737119E-2,1.2127659E0,6.4027536E-1,-2.3529416E-1,-6.6141737E-1,-3.3333337E-1,8.571428E-1,-6.1224496E-1,-2.4314874E-1,2.891566E-1,1.1460674E0,-6.1224496E-1,-6.2786184E-2,4.0700215E-1,3.0661318E-1,-5.555556E-1,-3.2171586E-1,3.8709673E-1,-4.3742027E-2,1.2244898E0,-2.1100402E-1,2.8326178E-1,-6.6257674E-1,-3.6263743E-1,-3.7864083E-1,8.571428E-1,1.2631578E0,-2.0000003E-1,9.438202E-1,-4.2857146E-1,-6.066259E-1,5.6603737E-2,-3.5222676E-1,7.8947365E-1],"categories":[],"categories_nodes":[],"categories_segments":[],"categories_sizes":[],"default_left":[1,1,1,1,1,1,1,1,1,1,1,1,1,1,0,1,1,1,1,1,1,1,0,1,1,0,1,0,1,1,1,1,0,1,1,1,0,1,0,1,1,1,0,1,1,0,0,0,0,0,0,1,1,1,1,1,1,1,1,1,0,1,1,1,1,1,0,1,1,1,0,1,1,0,0,0,0,0,0,0,0,0,0,0,0,0,0,0,0,0,0,0,0,0,0,0,0,0,0,0,0,0,0,0,0,0,0,0,0,0,0,0,0],"id":2,"left_children":[1,3,5,7,9,11,13,15,17,19,21,23,25,27,-1,29,31,33,35,37,39,41,-1,43,45,-1,47,-1,49,51,53,55,-1,57,59,61,-1,63,-1,65,67,69,-1,71,73,-1,-1,-1,-1,-1,-1,75,77,79,81,83,85,87,89,91,-1,93,95,97,99,101,-1,103,105,107,-1,109,111,-1,-1,-1,-1,-1,-1,-1,-1,-1,-1,-1,-1,-1,-1,-1,-1,-1,-1,-1,-1,-1,-1,-1,-1,-1,-1,-1,-1,-1,-1,-1,-1,-1,-1,-1,-1,-1,-1,-1,-1],"loss_changes":[2.5542633E2,8.059138E1,2.1305145E1,6.793351E1,1.4177679E1,1.886496E1,3.454391E0,8.314668E1,2.2681637E1,9.883955E0,1.0415795E1,1.0986313E1,1.20037E1,4.668585E0,0E0,7.541333E1,8.2328E0,1.3260514E1,1.6842203E1,1.0557204E1,5.566683E0,1.354315E1,0E0,1.11536255E1,3.6812031E0,0E0,2.4797225E-1,0E0,1.2972968E-2,4.586316E1,1.3516682E1,8.723488E-1,0E0,8.41239E0,9.991612E0,7.854196E0,0E0,8.835303E0,0E0,4.293144E0,7.7789035E0,6.1691246E0,0E0,8.144684E0,1.688686E1,0E0,0E0,0E0,0E0,0E0,0E0,3.286322E1,1.1628151E-1,2.2145557E1,1.0103823E1,4.8210907E-1,3.492807E0,7.4295845E0,1.0564463E1,8.625862E0,0E0,6.277383E0,4.1223955E0,8.705806E0,6.0215435E0,1.4393845E0,0E0,3.2440922E0,5.563328E0,6.3903837E0,0E0,2.2078552E0,7.5916014E0,0E0,0E0,0E0,0E0,0E0,0E0,0E0,0E0,0E0,0E0,0E0,0E0,0E0,0E0,0E0,0E0,0E0,0E0,0E0,0E0,0E0,0E0,0E0,0E0,0E0,0E0,0E0,0E0,0E0,0E0,0E0,0E0,0E0,0E0,0E0,0E0,0E0,0E0,0E0,0E0],"parents":[2147483647,0,0,1,1,2,2,3,3,4,4,5,5,6,6,7,7,8,8,9,9,10,10,11,11,12,12,13,13,15,15,16,16,17,17,18,18,19,19,20,20,21,21,23,23,24,24,26,26,28,28,29,29,30,30,31,31,33,33,34,34,35,35,37,37,39,39,40,40,41,41,43,43,44,44,51,51,52,52,53,53,54,54,55,55,56,56,57,57,58,58,59,59,61,61,62,62,63,63,64,64,65,65,67,67,68,68,69,69,71,71,72,72],"right_children":[2,4,6,8,10,12,14,16,18,20,22,24,26,28,-1,30,32,34,36,38,40,42,-1,44,46,-1,48,-1,50,52,54,56,-1,58,60,62,-1,64,-1,66,68,70,-1,72,74,-1,-1,-1,-1,-1,-1,76,78,80,82,84,86,88,90,92,-1,94,96,98,100,102,-1,104,106,108,-1,110,112,-1,-1,-1,-1,-1,-1,-1,-1,-1,-1,-1,-1,-1,-1,-1,-1,-1,-1,-1,-1,-1,-1,-1,-1,-1,-1,-1,-1,-1,-1,-1,-1,-1,-1,-1,-1,-1,-1,-1,-1],"split_conditions":[5E-1,5E-1,5E-1,5E-1,5E-1,5E-1,5E-1,5E-1,5E-1,5E-1,5E-1,5E-1,5E-1,5E-1,-1.463415E-2,5E-1,5E-1,5E-1,5E-1,5E-1,5E-1,5E-1,-6.461539E-2,5E-1,5E-1,1.3333334E-1,5E-1,1.3246754E-1,5E-1,5E-1,5E-1,5E-1,1.0344827E-1,5E-1,5E-1,5E-1,1.3761468E-1,5E-1,1.24528304E-1,5E-1,5E-1,5E-1,1.3489933E-1,5E-1,5E-1,1.2E-1,-4.2857148E-2,-1.463415E-2,-5.675676E-2,-2.5544848E-9,-1.2000003E-2,5E-1,5E-1,5E-1,5E-1,5E-1,5E-1,5E-1,5E-1,5E-1,1.2786886E-1,5E-1,5E-1,5E-1,5E-1,5E-1,8.571428E-2,5E-1,5E-1,5E-1,-6.461539E-2,5E-1,5E-1,1.3150685E-1,-4.5517247E-2,5.795079E-2,2.586553E-2,-6.7192435E-2,-2.7272731E-2,1.2737119E-3,1.21276595E-1,6.402754E-2,-2.3529416E-2,-6.614174E-2,-3.333334E-2,8.571428E-2,-6.1224498E-2,-2.4314875E-2,2.8915659E-2,1.1460674E-1,-6.1224498E-2,-6.2786187E-3,4.0700216E-2,3.0661318E-2,-5.555556E-2,-3.217159E-2,3.8709674E-2,-4.374203E-3,1.2244898E-1,-2.1100402E-2,2.8326178E-2,-6.625768E-2,-3.6263745E-2,-3.7864085E-2,8.571428E-2,1.2631579E-1,-2.0000003E-2,9.438202E-2,-4.2857148E-2,-6.0662594E-2,5.6603737E-3,-3.5222676E-2,7.8947365E-2],"split_indices":[0,79,81,41,135,75,141,20,69,51,14,73,93,94,0,45,75,93,90,122,82,93,0,77,101,0,103,0,104,8,73,87,0,95,124,75,0,41,0,104,69,41,0,79,104,0,0,0,0,0,0,78,99,91,124,100,98,87,101,104,0,120,99,89,95,69,0,98,88,94,0,76,91,0,0,0,0,0,0,0,0,0,0,0,0,0,0,0,0,0,0,0,0,0,0,0,0,0,0,0,0,0,0,0,0,0,0,0,0,0,0,0,0],"split_type":[0,0,0,0,0,0,0,0,0,0,0,0,0,0,0,0,0,0,0,0,0,0,0,0,0,0,0,0,0,0,0,0,0,0,0,0,0,0,0,0,0,0,0,0,0,0,0,0,0,0,0,0,0,0,0,0,0,0,0,0,0,0,0,0,0,0,0,0,0,0,0,0,0,0,0,0,0,0,0,0,0,0,0,0,0,0,0,0,0,0,0,0,0,0,0,0,0,0,0,0,0,0,0,0,0,0,0,0,0,0,0,0,0],"sum_hessian":[6.187111E3,5.295555E3,8.915555E2,3.5537776E3,1.7417777E3,8.7733325E2,1.4222221E1,2.4844443E3,1.0693333E3,1.7004443E3,4.1333332E1,8.626666E2,1.4666666E1,1.0666666E1,3.5555553E0,2.3706665E3,1.1377777E2,8.351111E2,2.3422221E2,1.5724443E3,1.2799999E2,3.511111E1,6.222222E0,8.5733325E2,5.333333E0,7.9999995E0,6.666666E0,7.5555553E0,3.111111E0,1.4399999E3,9.306666E2,1.1155555E2,2.222222E0,6.106666E2,2.2444443E2,2.231111E2,1.1111111E1,1.5675554E3,4.8888884E0,8.399999E1,4.3999996E1,1.9555553E1,1.5555554E1,8.351111E2,2.2222221E1,3.9999998E0,1.3333333E0,3.5555553E0,3.111111E0,1.3333333E0,1.7777777E0,1.4031111E3,3.6888885E1,8.511111E2,7.955555E1,1.0577777E2,5.7777777E0,5.973333E2,1.3333332E1,2.1866666E2,5.7777777E0,1.7333333E2,4.9777775E1,9.5599994E2,6.1155554E2,8.2666664E1,1.3333333E0,3.4666664E1,9.333333E0,1.3333332E1,6.222222E0,7.484444E2,8.6666664E1,7.1111107E0,1.5111111E1,9.066666E2,4.9644443E2,3.422222E1,2.6666665E0,8.364444E2,1.4666666E1,6.3555553E1,1.5999999E1,9.777777E1,7.9999995E0,1.3333333E0,4.444444E0,5.706666E2,2.6666664E1,8.888888E0,4.444444E0,1.6888889E2,4.9777775E1,1.6533333E2,7.9999995E0,4.0444443E1,9.333333E0,9.515555E2,4.444444E0,5.866666E2,2.4888887E1,5.333333E1,2.9333332E1,3.3333332E1,1.3333333E0,5.333333E0,3.9999998E0,8.888888E0,4.444444E0,7.435555E2,4.8888884E0,8.133333E1,5.333333E0],"tree_param":{"num_deleted":"0","num_feature":"143","num_nodes":"113","size_leaf_vector":"0"}},{"base_weights":[-4.3498576E-3,-1.797097E-1,9.8644614E-1,-3.8589943E-2,-4.8624566E-1,1.0157751E0,-2.0317745E-1,-8.181735E-2,1.0330685E0,-4.9411085E-1,1.8847577E-1,1.0373455E0,-2.5802207E-1,-4.0900612E-1,8.149342E-1,-2.102646E-1,1.8389606E-1,1.1793094E0,-2.4131356E-1,-5.072381E-1,-1.00289285E-1,4.893884E-1,-6.156284E-1,1.0545658E0,1.409594E-3,-6.741162E-1,1.0438584E0,-6.581087E-1,-1.5960369E-1,-6.507454E-2,-3.8365212E-1,-6.814468E-3,6.8957573E-1,1.2060142E0,-4.6338594E-1,-4.6563458E-1,8.961116E-1,-4.9079853E-1,-6.375336E-1,2.9268274E-1,-4.144512E-1,6.933488E-1,-4.967023E-1,1.0985756E0,6.790557E-1,-2.6265883E-1,6.7744064E-1,-4.6021134E-1,-5.764898E-2,-1.3277736E-1,2.1624348E-1,-5.103122E-1,-2.869192E-1,-2.9736036E-1,2.291183E-1,5.9268105E-1,9.6108115E-1,-6.7663765E-1,5.581885E-1,-4.9418688E-1,3.6113572E-1,-6.575839E-1,-4.1877642E-2,5.106201E-1,-5.93556E-1,-6.98811E-1,8.661644E-1,4.1245547E-1,9.865246E-1,1.1089824E0,-1.16825E-1,7.4428576E-1,-2.2188804E-1,-6.409697E-1,5.7323277E-1,-2.4139525E-1,1.2640896E-1,4.0450644E-1,-2.2760837E-1,-5.282656E-1,4.140452E-1,-3.0311123E-1,9.866098E-1,-3.5198942E-1,6.853958E-1,8.9810245E-2,9.22241E-1,6.1871636E-1,-1.1533084E-1,9.9177647E-1,-4.5242858E-1,-5.049631E-1,-2.8240332E-1,-4.6464118E-1,7.884022E-1,-6.8470204E-1,-2.195839E-1,-5.951182E-1,9.659122E-1,6.2723136E-1,-4.662258E-1,-8.670593E-2,1.0417893E0,1.1292311E0,6.575409E-1,-5.9845614E-1,8.86683E-1,9.6791553E-1,4.6502778E-1,-6.0640967E-1,6.109784E-1],"categories":[],"categories_nodes":[],"categories_segments":[],"categories_sizes":[],"default_left":[1,1,1,1,1,1,1,1,1,1,1,1,1,1,0,1,1,1,1,1,1,1,0,1,1,0,0,0,1,1,1,1,1,0,0,1,0,1,1,1,1,1,0,1,1,1,0,0,0,1,1,1,1,1,1,1,1,0,0,1,1,1,1,1,0,0,0,1,0,1,1,1,1,0,0,0,0,0,0,0,0,0,0,0,0,0,0,0,0,0,0,0,0,0,0,0,0,0,0,0,0,0,0,0,0,0,0,0,0,0,0],"id":3,"left_children":[1,3,5,7,9,11,13,15,17,19,21,23,25,27,-1,29,31,33,35,37,39,41,-1,43,45,-1,-1,-1,47,49,51,53,55,-1,-1,57,-1,59,61,63,65,67,-1,69,71,73,-1,-1,-1,75,77,79,81,83,85,87,89,-1,-1,91,93,95,97,99,-1,-1,-1,101,-1,103,105,107,109,-1,-1,-1,-1,-1,-1,-1,-1,-1,-1,-1,-1,-1,-1,-1,-1,-1,-1,-1,-1,-1,-1,-1,-1,-1,-1,-1,-1,-1,-1,-1,-1,-1,-1,-1,-1,-1,-1],"loss_changes":[1.075153E3,2.2741295E2,3.267285E1,1.6691124E2,8.888153E0,2.5224731E1,5.1997466E0,1.18215004E2,2.6320633E1,8.419739E0,5.0971212E0,1.5935669E1,9.330848E0,1.136446E0,0E0,5.8747505E1,1.0887246E2,6.0639343E0,4.298422E0,3.0830078E0,6.800358E0,3.3572407E0,0E0,1.3776733E1,2.9644363E0,0E0,0E0,0E0,3.1996995E-1,2.4252256E1,1.2887405E1,5.632806E1,7.563614E0,0E0,0E0,3.264643E0,0E0,4.2547607E0,2.0538483E0,5.058594E0,1.1704311E1,6.4967394E-1,0E0,1.0058105E1,5.736782E0,4.144803E0,0E0,0E0,0E0,2.8907736E1,2.0739256E1,7.8419037E0,1.2783798E1,2.001035E1,4.3705437E1,4.31942E0,3.9069595E0,0E0,0E0,3.0683289E0,2.5439143E0,1.8514175E0,4.334527E0,2.6047592E0,0E0,0E0,0E0,2.6885018E0,0E0,6.372864E0,4.1888423E0,5.085205E0,2.6670794E0,0E0,0E0,0E0,0E0,0E0,0E0,0E0,0E0,0E0,0E0,0E0,0E0,0E0,0E0,0E0,0E0,0E0,0E0,0E0,0E0,0E0,0E0,0E0,0E0,0E0,0E0,0E0,0E0,0E0,0E0,0E0,0E0,0E0,0E0,0E0,0E0,0E0,0E0],"parents":[2147483647,0,0,1,1,2,2,3,3,4,4,5,5,6,6,7,7,8,8,9,9,10,10,11,11,12,12,13,13,15,15,16,16,17,17,18,18,19,19,20,20,21,21,23,23,24,24,28,28,29,29,30,30,31,31,32,32,35,35,37,37,38,38,39,39,40,40,41,41,43,43,44,44,45,45,49,49,50,50,51,51,52,52,53,53,54,54,55,55,56,56,59,59,60,60,61,61,62,62,63,63,67,67,69,69,70,70,71,71,72,72],"right_children":[2,4,6,8,10,12,14,16,18,20,22,24,26,28,-1,30,32,34,36,38,40,42,-1,44,46,-1,-1,-1,48,50,52,54,56,-1,-1,58,-1,60,62,64,66,68,-1,70,72,74,-1,-1,-1,76,78,80,82,84,86,88,90,-1,-1,92,94,96,98,100,-1,-1,-1,102,-1,104,106,108,110,-1,-1,-1,-1,-1,-1,-1,-1,-1,-1,-1,-1,-1,-1,-1,-1,-1,-1,-1,-1,-1,-1,-1,-1,-1,-1,-1,-1,-1,-1,-1,-1,-1,-1,-1,-1,-1,-1],"split_conditions":[5E-1,5E-1,5E-1,5E-1,5E-1,5E-1,5E-1,5E-1,5E-1,5E-1,5E-1,5E-1,5E-1,5E-1,8.149342E-2,5E-1,5E-1,5E-1,5E-1,5E-1,5E-1,5E-1,-6.1562844E-2,5E-1,5E-1,-6.7411624E-2,1.04385845E-1,-6.5810874E-2,5E-1,5E-1,5E-1,5E-1,5E-1,1.20601416E-1,-4.6338595E-2,5E-1,8.9611165E-2,5E-1,5E-1,5E-1,5E-1,5E-1,-4.967023E-2,5E-1,5E-1,5E-1,6.774407E-2,-4.6021134E-2,-5.764898E-3,5E-1,5E-1,5E-1,5E-1,5E-1,5E-1,5E-1,5E-1,-6.766377E-2,5.5818852E-2,5E-1,5E-1,5E-1,5E-1,5E-1,-5.9355598E-2,-6.9881104E-2,8.661644E-2,5E-1,9.865246E-2,5E-1,5E-1,5E-1,5E-1,-6.409697E-2,5.7323277E-2,-2.4139525E-2,1.2640896E-2,4.0450644E-2,-2.2760836E-2,-5.282656E-2,4.1404523E-2,-3.0311123E-2,9.866098E-2,-3.519894E-2,6.853958E-2,8.981025E-3,9.22241E-2,6.1871637E-2,-1.1533084E-2,9.917765E-2,-4.5242857E-2,-5.049631E-2,-2.8240332E-2,-4.646412E-2,7.884022E-2,-6.84702E-2,-2.195839E-2,-5.951182E-2,9.659123E-2,6.272314E-2,-4.662258E-2,-8.670594E-3,1.0417893E-1,1.1292311E-1,6.575409E-2,-5.9845615E-2,8.86683E-2,9.679156E-2,4.650278E-2,-6.064097E-2,6.109784E-2],"split_indices":[0,41,77,20,102,75,98,79,79,76,86,81,101,97,0,70,59,75,94,91,141,97,0,79,94,0,0,0,104,71,45,45,141,0,0,87,0,131,78,124,89,82,0,73,91,141,0,0,0,45,93,132,108,35,84,101,84,0,0,81,69,74,104,88,0,0,0,85,0,87,101,71,88,0,0,0,0,0,0,0,0,0,0,0,0,0,0,0,0,0,0,0,0,0,0,0,0,0,0,0,0,0,0,0,0,0,0,0,0,0,0],"split_type":[0,0,0,0,0,0,0,0,0,0,0,0,0,0,0,0,0,0,0,0,0,0,0,0,0,0,0,0,0,0,0,0,0,0,0,0,0,0,0,0,0,0,0,0,0,0,0,0,0,0,0,0,0,0,0,0,0,0,0,0,0,0,0,0,0,0,0,0,0,0,0,0,0,0,0,0,0,0,0,0,0,0,0,0,0,0,0,0,0,0,0,0,0,0,0,0,0,0,0,0,0,0,0,0,0,0,0,0,0,0,0],"sum_hessian":[6.1860586E3,5.2565303E3,9.295286E2,3.6002234E3,1.6563066E3,9.073061E2,2.222253E1,3.46152E3,1.3870341E2,1.6374862E3,1.882038E1,8.923801E2,1.4925952E1,1.8983053E1,3.2394783E0,2.3336367E3,1.1278834E3,1.2449202E2,1.4211391E1,1.584386E3,5.3100323E1,1.3980114E1,4.840265E0,8.7777106E2,1.4609033E1,1.167629E1,3.2496624E0,8.677371E0,1.0305682E1,1.2708427E3,1.0627941E3,8.197223E2,3.081611E2,1.2276214E2,1.7298781E0,1.2363673E1,1.8477181E0,1.4111108E3,1.7327515E2,2.3621521E1,2.9478802E1,1.1830082E1,2.1500318E0,7.839647E2,9.3806335E1,1.0945152E1,3.6638808E0,1.7201214E0,8.585561E0,1.024751E3,2.4609157E2,4.5835623E2,6.0443787E2,3.6722842E2,4.5249387E2,2.2945595E2,7.870515E1,1.053217E1,1.8315028E0,1.405939E3,5.1718397E0,1.675319E2,5.74324E0,1.9299389E1,4.322131E0,2.4494198E1,4.9846034E0,7.2707705E0,4.5593114E0,7.773959E2,6.5688906E0,8.7635254E1,6.171082E0,7.69549E0,3.2496624E0,7.2217566E2,3.025754E2,1.7286028E2,7.323129E1,4.5004373E2,8.312492E0,5.9760175E2,6.8360953E0,3.4849808E2,1.8730341E1,3.7770914E2,7.478473E1,2.2143922E2,8.016717E0,7.7324356E1,1.3807921E0,1.336547E3,6.939197E1,1.7336822E0,3.4381578E0,1.5723378E2,1.0298137E1,3.9721522E0,1.7710876E0,1.7560947E1,1.7384418E0,4.53557E0,2.7352E0,7.425871E2,3.4808765E1,4.7113338E0,1.857557E0,4.7295216E1,4.034004E1,4.4079156E0,1.7631663E0],"tree_param":{"num_deleted":"0","num_feature":"143","num_nodes":"111","size_leaf_vector":"0"}},{"base_weights":[2.251989E-3,-2.0643997E-1,5.398913E-1,-3.8829806E-1,1.2766282E-1,4.9854332E-1,8.812407E-1,-4.9461746E-1,-1.0049084E-1,6.65774E-2,6.518857E-1,5.1940507E-1,-5.7896197E-2,9.32975E-1,-6.30562E-1,-5.227053E-1,9.997809E-1,-1.7003973E-1,7.70996E-1,9.373375E-2,-7.1788275E-1,7.8888196E-1,4.0483814E-1,5.31997E-1,-3.160621E-1,-7.1184087E-1,2.6121333E-1,9.4529426E-1,-4.1831392E-1,-5.278221E-1,1.0632601E0,1.1039119E0,-5.106144E-1,-2.9825196E-1,1.9798885E-1,9.194121E-1,-6.114694E-1,1.3853812E-1,-3.686817E-1,8.618225E-1,-1.7249921E-1,5.8276373E-1,-2.646546E-1,5.0448334E-1,8.5650706E-1,-6.9767016E-1,1.1095526E0,4.1342777E-1,-6.384111E-1,9.735833E-1,4.390875E-1,-5.3166157E-1,7.387414E-1,1.1736691E0,6.701677E-1,-2.2534084E-1,-5.84985E-1,-2.3469026E-1,5.4592294E-1,9.9123764E-1,-5.040249E-1,5.9467517E-2,3.7988517E-1,-4.205871E-1,3.082918E-1,9.012151E-1,-5.359434E-1,-6.3410205E-1,9.3120366E-1,6.781866E-1,-5.809372E-1,-6.466686E-1,4.5247115E-2,5.139084E-1,-3.1801596E-1,1.0484297E0,5.862018E-1,6.9669986E-1,-5.1520105E-2,1.0226005E0,6.4474034E-1,-5.3676546E-1,3.8756415E-1,-4.6323037E-1,1.2584393E0,1.2196008E0,5.9783494E-1,1.1140187E0,-4.7784638E-1,-2.5343838E-1,5.545805E-1,-6.9356877E-1,9.365888E-1,-4.546143E-1,8.15448E-1,9.786057E-2,8.209127E-1,1.0530465E0,-4.652219E-1,-6.496466E-2,2.3249583E-1,3.109142E-1,7.613775E-1,-7.2361505E-1,-1.9477983E-1,9.344712E-1,-5.028301E-1,7.553079E-1,-5.3200835E-1,-5.585969E-1,4.39196E-1,5.1875436E-1,-6.4239067E-1,-6.759057E-1,1.0064809E0,1.1618265E0,7.055845E-1,7.62013E-1,8.609819E-3,8.692717E-1,-5.210047E-1,-6.8123466E-1,9.988465E-1,1.0447259E0,-4.7920543E-1,8.760151E-1,-5.742635E-1],"categories":[],"categories_nodes":[],"categories_segments":[],"categories_sizes":[],"default_left":[1,1,1,1,1,1,1,1,1,1,1,1,1,1,0,1,1,1,1,1,0,1,1,1,1,0,1,1,0,1,0,1,0,1,1,1,0,1,1,1,1,1,1,1,1,0,0,1,0,1,0,1,1,1,1,1,1,1,1,1,0,1,1,1,0,1,0,0,0,1,0,0,1,1,1,1,1,1,1,1,1,0,0,0,0,0,0,0,0,0,0,0,0,0,0,0,0,0,0,0,0,0,0,0,0,0,0,0,0,0,0,0,0,0,0,0,0,0,0,0,0,0,0,0,0,0,0],"id":4,"left_children":[1,3,5,7,9,11,13,15,17,19,21,23,25,27,-1,29,31,33,35,37,-1,39,41,43,45,-1,47,49,-1,51,-1,53,-1,55,57,59,-1,61,63,65,67,69,71,73,75,-1,-1,77,-1,79,-1,81,83,85,87,89,91,93,95,97,-1,99,101,103,-1,105,-1,-1,-1,107,-1,-1,109,111,113,115,117,119,121,123,125,-1,-1,-1,-1,-1,-1,-1,-1,-1,-1,-1,-1,-1,-1,-1,-1,-1,-1,-1,-1,-1,-1,-1,-1,-1,-1,-1,-1,-1,-1,-1,-1,-1,-1,-1,-1,-1,-1,-1,-1,-1,-1,-1,-1,-1,-1],"loss_changes":[6.904588E2,2.6939764E2,2.3847412E1,8.7795044E1,5.0015324E1,1.7873505E1,1.5027191E1,8.850598E1,4.7145706E1,2.9917347E1,5.1984177E0,1.5755707E1,1.1965157E1,3.3736725E0,0E0,1.7262695E1,6.6997375E0,3.3993633E1,1.2361809E1,2.8128609E1,0E0,7.429039E0,7.3266106E0,1.2603943E1,1.3083956E1,0E0,5.5587654E0,2.115738E0,0E0,1.0372192E1,0E0,3.2731628E-1,0E0,1.1026966E1,2.8191118E1,5.8500557E0,0E0,2.3568874E1,4.3456993E0,5.805641E0,4.745101E0,5.7109356E0,1.6073322E0,1.0616058E1,5.2311172E0,0E0,0E0,4.471503E0,0E0,2.0386047E0,0E0,9.809631E0,4.718564E0,7.447052E-2,4.3189635E0,9.501631E0,1.8424274E1,1.9721184E1,1.2687525E1,5.0050316E0,0E0,2.0088734E1,7.785309E0,7.513298E0,0E0,4.8772507E0,0E0,0E0,0E0,4.5751E0,0E0,0E0,2.2183714E0,7.805359E0,8.214247E0,1.6927872E0,4.9748745E0,4.8651304E0,9.729767E0,5.2840576E0,7.387352E0,0E0,0E0,0E0,0E0,0E0,0E0,0E0,0E0,0E0,0E0,0E0,0E0,0E0,0E0,0E0,0E0,0E0,0E0,0E0,0E0,0E0,0E0,0E0,0E0,0E0,0E0,0E0,0E0,0E0,0E0,0E0,0E0,0E0,0E0,0E0,0E0,0E0,0E0,0E0,0E0,0E0,0E0,0E0,0E0,0E0,0E0],"parents":[2147483647,0,0,1,1,2,2,3,3,4,4,5,5,6,6,7,7,8,8,9,9,10,10,11,11,12,12,13,13,15,15,16,16,17,17,18,18,19,19,21,21,22,22,23,23,24,24,26,26,27,27,29,29,31,31,33,33,34,34,35,35,37,37,38,38,39,39,40,40,41,41,42,42,43,43,44,44,47,47,49,49,51,51,52,52,53,53,54,54,55,55,56,56,57,57,58,58,59,59,61,61,62,62,63,63,65,65,69,69,72,72,73,73,74,74,75,75,76,76,77,77,78,78,79,79,80,80],"right_children":[2,4,6,8,10,12,14,16,18,20,22,24,26,28,-1,30,32,34,36,38,-1,40,42,44,46,-1,48,50,-1,52,-1,54,-1,56,58,60,-1,62,64,66,68,70,72,74,76,-1,-1,78,-1,80,-1,82,84,86,88,90,92,94,96,98,-1,100,102,104,-1,106,-1,-1,-1,108,-1,-1,110,112,114,116,118,120,122,124,126,-1,-1,-1,-1,-1,-1,-1,-1,-1,-1,-1,-1,-1,-1,-1,-1,-1,-1,-1,-1,-1,-1,-1,-1,-1,-1,-1,-1,-1,-1,-1,-1,-1,-1,-1,-1,-1,-1,-1,-1,-1,-1,-1,-1,-1,-1],"split_conditions":[5E-1,5E-1,5E-1,5E-1,5E-1,5E-1,5E-1,5E-1,5E-1,5E-1,5E-1,5E-1,5E-1,5E-1,-6.30562E-2,5E-1,5E-1,5E-1,5E-1,5E-1,-7.1788274E-2,5E-1,5E-1,5E-1,5E-1,-7.118409E-2,5E-1,5E-1,-4.1831393E-2,5E-1,1.0632601E-1,5E-1,-5.106144E-2,5E-1,5E-1,5E-1,-6.114694E-2,5E-1,5E-1,5E-1,5E-1,5E-1,5E-1,5E-1,5E-1,-6.976702E-2,1.1095526E-1,5E-1,-6.384111E-2,5E-1,4.3908753E-2,5E-1,5E-1,5E-1,5E-1,5E-1,5E-1,5E-1,5E-1,5E-1,-5.0402492E-2,5E-1,5E-1,5E-1,3.082918E-2,5E-1,-5.359434E-2,-6.341021E-2,9.312037E-2,5E-1,-5.8093723E-2,-6.466686E-2,5E-1,5E-1,5E-1,5E-1,5E-1,5E-1,5E-1,5E-1,5E-1,-5.3676546E-2,3.8756415E-2,-4.632304E-2,1.2584393E-1,1.2196008E-1,5.9783496E-2,1.1140187E-1,-4.7784638E-2,-2.534384E-2,5.545805E-2,-6.935688E-2,9.365889E-2,-4.546143E-2,8.15448E-2,9.786057E-3,8.209127E-2,1.0530465E-1,-4.6522193E-2,-6.496466E-3,2.3249583E-2,3.109142E-2,7.613775E-2,-7.236151E-2,-1.9477984E-2,9.344712E-2,-5.028301E-2,7.553079E-2,-5.3200837E-2,-5.5859692E-2,4.39196E-2,5.187544E-2,-6.423907E-2,-6.759057E-2,1.006481E-1,1.1618265E-1,7.055845E-2,7.6201305E-2,8.6098193E-4,8.692717E-2,-5.210047E-2,-6.812347E-2,9.988465E-2,1.0447259E-1,-4.7920544E-2,8.760151E-2,-5.7426352E-2],"split_indices":[41,70,91,69,51,95,78,8,66,39,93,135,86,90,0,139,99,88,80,97,0,104,142,75,81,0,124,74,0,21,0,135,0,80,80,88,0,78,76,95,92,84,82,102,82,0,0,141,0,80,0,14,86,96,86,28,96,51,93,73,0,93,106,82,0,85,0,0,0,78,0,0,79,131,97,69,93,80,80,89,69,0,0,0,0,0,0,0,0,0,0,0,0,0,0,0,0,0,0,0,0,0,0,0,0,0,0,0,0,0,0,0,0,0,0,0,0,0,0,0,0,0,0,0,0,0,0],"split_type":[0,0,0,0,0,0,0,0,0,0,0,0,0,0,0,0,0,0,0,0,0,0,0,0,0,0,0,0,0,0,0,0,0,0,0,0,0,0,0,0,0,0,0,0,0,0,0,0,0,0,0,0,0,0,0,0,0,0,0,0,0,0,0,0,0,0,0,0,0,0,0,0,0,0,0,0,0,0,0,0,0,0,0,0,0,0,0,0,0,0,0,0,0,0,0,0,0,0,0,0,0,0,0,0,0,0,0,0,0,0,0,0,0,0,0,0,0,0,0,0,0,0,0,0,0,0,0],"sum_hessian":[6.151773E3,4.432035E3,1.7197382E3,2.8697932E3,1.5622417E3,1.536126E3,1.836121E2,2.0951147E3,7.746786E2,1.4002085E3,1.6203326E2,1.4806797E3,5.5446304E1,1.7790695E2,5.705147E0,2.0571008E3,3.8013912E1,7.1817E2,5.6508575E1,1.3542091E3,4.599935E1,1.0282182E2,5.9211437E1,1.4590524E3,2.1627325E1,1.7779804E1,3.76665E1,1.7659743E2,1.3095366E0,2.0511504E3,5.950378E0,3.5813923E1,2.199991E0,5.327592E2,1.8541081E2,5.133265E1,5.175926E0,1.235226E3,1.1898312E2,9.566706E1,7.1547575E0,4.6881638E1,1.2329801E1,1.3473698E3,1.1168261E2,1.7463358E1,4.1639676E0,3.2677914E1,4.9885855E0,1.663763E2,1.0221123E1,2.0455298E3,5.6205645E0,2.9382551E1,6.4313717E0,4.261761E2,1.0658311E2,8.278618E1,1.02624626E2,4.9155907E1,2.1767411E0,9.313437E2,3.0388226E2,1.1086178E2,8.121352E0,9.3390335E1,2.2767317E0,5.344852E0,1.8099055E0,4.3714302E1,3.1673346E0,5.0356708E0,7.29413E0,1.3324762E3,1.4893633E1,6.36272E1,4.8055405E1,1.9996492E1,1.2681422E1,1.4295741E2,2.3418879E1,2.0346487E3,1.0881086E1,1.7294044E0,3.89116E0,2.6176592E1,3.2059581E0,4.6595035E0,1.7718681E0,4.120081E2,1.4167999E1,9.999161E1,6.5915008E0,6.8919815E1,1.38663645E1,3.9545662E1,6.3078968E1,4.7420475E1,1.7354323E0,5.42112E2,3.8923175E2,2.5889157E2,4.4990692E1,4.6395523E1,6.4466255E1,9.155618E1,1.8341471E0,4.14488E1,2.2655032E0,2.7148583E0,4.579272E0,1.3274641E3,5.0119977E0,1.21108675E1,2.7827654E0,4.601791E1,1.7609293E1,3.65966E1,1.1458805E1,1.7764994E1,2.2314975E0,8.147984E0,4.533438E0,1.4118181E2,1.7756044E0,1.9920788E1,3.4980917E0],"tree_param":{"num_deleted":"0","num_feature":"143","num_nodes":"127","size_leaf_vector":"0"}},{"base_weights":[3.5328476E-4,7.743599E-2,-4.751637E-1,1.587827E-1,-9.200088E-2,-4.9599704E-1,7.2103214E-1,9.325296E-2,4.240268E-1,-1.075278E-1,5.070687E-1,-5.157873E-1,5.0265497E-1,9.252723E-1,-6.533651E-2,1.20556325E-1,-5.6355166E-1,4.7331E-1,1.2245531E-1,-8.737597E-2,-4.071129E-1,7.017174E-1,-6.2038505E-1,-5.5408466E-1,-1.853807E-1,1.1818691E0,-3.0946654E-1,1.1833787E0,4.2004464E-3,2.2060457E-1,-3.528178E-2,-5.957138E-1,9.474569E-1,6.144417E-1,2.4001878E-1,6.0114473E-1,-3.7365977E-2,-9.522681E-2,7.1561027E-1,-5.7134825E-1,-2.8444389E-1,8.922018E-1,-6.0618705E-1,-5.761615E-1,1.0792376E-1,-2.667894E-1,8.728405E-1,-5.504779E-2,-5.691227E-1,4.0469748E-1,6.782118E-2,-1.1627933E-1,2.5682887E-1,-6.199982E-1,7.8913933E-1,7.751487E-1,1.2503192E-1,3.0852225E-1,-3.0635113E-1,8.497666E-1,1.6611144E-1,-8.16994E-2,9.808602E-1,-1.6728234E-1,-2.4673989E-2,1.298723E0,-1.0923573E-1,-6.0491323E-1,-1.4516394E-1,-4.1160488E-1,-7.9475336E-2,1.1729923E0,5.882477E-2,-5.871417E-1,7.2131747E-1,1.1781601E0,-4.6657774E-1,-3.061823E-1,9.901189E-1,1.1221315E0,-3.2245636E-2,-5.573871E-1,8.355516E-1,4.5416924E-1,-6.207263E-1,3.922623E-2,4.7220775E-1,-1.8863069E-1,7.826917E-2,2.0719194E-1,1.1470205E0,-6.3930273E-1,-3.610302E-1,8.1343853E-1,-5.529826E-1,3.4964148E-2,8.767462E-1,4.5458665E-1,9.710018E-2,-4.866018E-1,6.7475684E-2,1.1685348E0,6.1981606E-1,-1.3325499E-1,4.595886E-1,-2.6668582E-2,-6.5558845E-1,-1.7594859E-1,1.2033644E0,-1.6157755E-1,6.689301E-2,8.384961E-1,-4.6509504E-1,-4.3220937E-1,-7.133342E-1,2.3544261E-1,-4.7575492E-1,-5.955719E-1,-4.113988E-2,-1.9928959E-1,9.604078E-1,1.2439055E0,-2.644018E-2,-6.1299425E-1,1.0130409E0,-5.931146E-1,2.4200256E-1,1.085874E0,-4.155023E-1,8.5448563E-1,-6.345489E-1,-4.1096616E-1,1.826814E-1],"categories":[],"categories_nodes":[],"categories_segments":[],"categories_sizes":[],"default_left":[1,1,1,1,1,1,1,1,1,1,1,1,1,1,0,1,1,1,1,1,1,1,0,1,1,0,1,0,0,1,1,1,0,1,1,1,1,1,1,1,1,1,0,1,1,1,1,1,0,1,1,1,1,1,0,1,1,1,1,1,1,1,0,1,1,0,1,1,1,1,1,1,1,1,1,0,1,1,0,0,0,0,0,0,0,0,0,0,0,0,0,0,0,0,0,0,0,0,0,0,0,0,0,0,0,0,0,0,0,0,0,0,0,0,0,0,0,0,0,0,0,0,0,0,0,0,0,0,0,0,0,0,0],"id":5,"left_children":[1,3,5,7,9,11,13,15,17,19,21,23,25,27,-1,29,31,33,35,37,39,41,-1,43,45,-1,47,-1,-1,49,51,53,-1,55,57,59,61,63,65,67,69,71,-1,73,75,77,79,81,-1,83,85,87,89,91,-1,93,95,97,99,101,103,105,-1,107,109,-1,111,113,115,117,119,121,123,125,127,-1,129,131,-1,-1,-1,-1,-1,-1,-1,-1,-1,-1,-1,-1,-1,-1,-1,-1,-1,-1,-1,-1,-1,-1,-1,-1,-1,-1,-1,-1,-1,-1,-1,-1,-1,-1,-1,-1,-1,-1,-1,-1,-1,-1,-1,-1,-1,-1,-1,-1,-1,-1,-1,-1,-1,-1,-1],"loss_changes":[2.268237E2,7.340994E1,2.1869232E1,6.2500435E1,1.6127016E1,1.7038864E1,2.499123E0,5.183262E1,1.05321045E1,1.0137573E1,1.0053739E1,1.0437973E1,9.745478E0,2.8762197E0,0E0,4.3229782E1,6.171646E0,2.000589E1,7.7828574E0,1.0029586E1,1.971632E0,9.969299E0,0E0,1.0964783E1,7.8163357E0,0E0,5.32637E-1,0E0,0E0,4.7461975E1,2.56953E1,4.3093605E0,0E0,2.9848999E1,8.791408E0,2.6113195E0,3.555499E0,7.955619E0,7.5571356E0,5.4590225E-1,1.5996895E0,7.755684E0,0E0,1.07105255E1,1.5869791E1,4.3882823E0,1.5078144E0,2.890125E0,0E0,3.911805E1,1.06646805E1,1.1978541E1,1.0181424E1,3.300743E-1,0E0,1.501593E1,6.422364E0,6.3474255E0,1.8110154E0,4.4492817E-1,9.8354185E-1,2.3416355E0,0E0,9.410851E0,9.942815E0,0E0,2.8544893E0,4.547329E-1,6.845175E-1,2.5934153E0,3.333426E0,2.1557426E0,6.6981373E0,3.6922302E0,3.148373E0,0E0,4.2989216E0,4.2121224E0,0E0,0E0,0E0,0E0,0E0,0E0,0E0,0E0,0E0,0E0,0E0,0E0,0E0,0E0,0E0,0E0,0E0,0E0,0E0,0E0,0E0,0E0,0E0,0E0,0E0,0E0,0E0,0E0,0E0,0E0,0E0,0E0,0E0,0E0,0E0,0E0,0E0,0E0,0E0,0E0,0E0,0E0,0E0,0E0,0E0,0E0,0E0,0E0,0E0,0E0,0E0,0E0,0E0,0E0,0E0],"parents":[2147483647,0,0,1,1,2,2,3,3,4,4,5,5,6,6,7,7,8,8,9,9,10,10,11,11,12,12,13,13,15,15,16,16,17,17,18,18,19,19,20,20,21,21,23,23,24,24,26,26,29,29,30,30,31,31,33,33,34,34,35,35,36,36,37,37,38,38,39,39,40,40,41,41,43,43,44,44,45,45,46,46,47,47,49,49,50,50,51,51,52,52,53,53,55,55,56,56,57,57,58,58,59,59,60,60,61,61,63,63,64,64,66,66,67,67,68,68,69,69,70,70,71,71,72,72,73,73,74,74,76,76,77,77],"right_children":[2,4,6,8,10,12,14,16,18,20,22,24,26,28,-1,30,32,34,36,38,40,42,-1,44,46,-1,48,-1,-1,50,52,54,-1,56,58,60,62,64,66,68,70,72,-1,74,76,78,80,82,-1,84,86,88,90,92,-1,94,96,98,100,102,104,106,-1,108,110,-1,112,114,116,118,120,122,124,126,128,-1,130,132,-1,-1,-1,-1,-1,-1,-1,-1,-1,-1,-1,-1,-1,-1,-1,-1,-1,-1,-1,-1,-1,-1,-1,-1,-1,-1,-1,-1,-1,-1,-1,-1,-1,-1,-1,-1,-1,-1,-1,-1,-1,-1,-1,-1,-1,-1,-1,-1,-1,-1,-1,-1,-1,-1,-1],"split_conditions":[5E-1,5E-1,5E-1,5E-1,5E-1,5E-1,5E-1,5E-1,5E-1,5E-1,5E-1,5E-1,5E-1,5E-1,-6.533651E-3,5E-1,5E-1,5E-1,5E-1,5E-1,5E-1,5E-1,-6.2038507E-2,5E-1,5E-1,1.1818691E-1,5E-1,1.1833787E-1,4.2004464E-4,5E-1,5E-1,5E-1,9.474569E-2,5E-1,5E-1,5E-1,5E-1,5E-1,5E-1,5E-1,5E-1,5E-1,-6.0618706E-2,5E-1,5E-1,5E-1,5E-1,5E-1,-5.691227E-2,5E-1,5E-1,5E-1,5E-1,5E-1,7.8913935E-2,5E-1,5E-1,5E-1,5E-1,5E-1,5E-1,5E-1,9.808602E-2,5E-1,5E-1,1.298723E-1,5E-1,5E-1,5E-1,5E-1,5E-1,5E-1,5E-1,5E-1,5E-1,1.1781601E-1,5E-1,5E-1,9.901189E-2,1.1221315E-1,-3.2245636E-3,-5.5738714E-2,8.355516E-2,4.5416925E-2,-6.207263E-2,3.922623E-3,4.7220778E-2,-1.8863069E-2,7.826917E-3,2.0719195E-2,1.14702046E-1,-6.393027E-2,-3.610302E-2,8.134385E-2,-5.5298265E-2,3.4964147E-3,8.767462E-2,4.5458667E-2,9.7100185E-3,-4.866018E-2,6.7475685E-3,1.16853476E-1,6.1981607E-2,-1.3325499E-2,4.5958858E-2,-2.6668583E-3,-6.555884E-2,-1.7594859E-2,1.20336436E-1,-1.6157756E-2,6.689301E-3,8.384961E-2,-4.6509504E-2,-4.3220937E-2,-7.133342E-2,2.3544261E-2,-4.7575492E-2,-5.955719E-2,-4.113988E-3,-1.992896E-2,9.604078E-2,1.2439056E-1,-2.644018E-3,-6.1299425E-2,1.0130409E-1,-5.931146E-2,2.4200257E-2,1.085874E-1,-4.155023E-2,8.544856E-2,-6.345489E-2,-4.1096617E-2,1.826814E-2],"split_indices":[0,79,81,59,135,75,141,20,92,100,14,79,93,94,0,41,95,78,80,13,86,94,0,77,91,0,103,0,0,45,69,75,0,104,134,104,141,82,91,59,108,41,0,73,104,95,88,82,0,8,135,93,90,100,0,107,84,99,71,106,86,124,0,48,86,0,142,82,142,69,70,71,93,76,101,0,84,93,0,0,0,0,0,0,0,0,0,0,0,0,0,0,0,0,0,0,0,0,0,0,0,0,0,0,0,0,0,0,0,0,0,0,0,0,0,0,0,0,0,0,0,0,0,0,0,0,0,0,0,0,0,0,0],"split_type":[0,0,0,0,0,0,0,0,0,0,0,0,0,0,0,0,0,0,0,0,0,0,0,0,0,0,0,0,0,0,0,0,0,0,0,0,0,0,0,0,0,0,0,0,0,0,0,0,0,0,0,0,0,0,0,0,0,0,0,0,0,0,0,0,0,0,0,0,0,0,0,0,0,0,0,0,0,0,0,0,0,0,0,0,0,0,0,0,0,0,0,0,0,0,0,0,0,0,0,0,0,0,0,0,0,0,0,0,0,0,0,0,0,0,0,0,0,0,0,0,0,0,0,0,0,0,0,0,0,0,0,0,0],"sum_hessian":[6.186212E3,5.324011E3,8.6220074E2,3.5971033E3,1.726908E3,8.480168E2,1.4183979E1,2.8855632E3,7.115399E2,1.6840798E3,4.2828133E1,8.320123E2,1.6004446E1,1.1119357E1,3.0646222E0,2.7711816E3,1.1438157E2,6.1110315E2,1.0043676E2,1.5791488E3,1.0493104E2,3.6844707E1,5.9834256E0,7.449844E2,8.7027985E1,8.467448E0,7.5369983E0,8.463029E0,2.6563277E0,1.6874325E3,1.0837493E3,1.125908E2,1.7907695E0,3.797413E2,2.3136183E2,2.444847E1,7.59883E1,1.5647318E3,1.4417057E1,4.330052E1,6.1630516E1,3.2438213E1,4.4064927E0,7.210677E2,2.3916695E1,8.150567E1,5.5223217E0,4.4190674E0,3.117931E0,7.645529E2,9.2287964E2,8.4895087E2,2.3479837E2,1.11193245E2,1.3975549E0,2.8543082E2,9.431049E1,2.0597247E2,2.5389357E1,1.495076E1,9.497708E0,7.36992E1,2.2890897E0,7.734435E2,7.9128827E2,8.109594E0,6.3074627E0,3.975052E1,3.5500033E0,3.7412155E1,2.421836E1,2.3958378E1,8.479837E0,7.155596E2,5.508113E0,7.9869986E0,1.5929697E1,7.976223E1,1.7434367E0,4.1417413E0,1.3805804E0,3.0646222E0,1.3544452E0,7.29896E2,3.4656887E1,8.629554E2,5.992424E1,6.18839E2,2.301119E2,2.2356516E2,1.123321E1,1.0211271E2,9.080531E0,2.7780914E2,7.621666E0,8.515414E1,9.156359E0,1.2113454E2,8.483793E1,1.6926237E1,8.463119E0,4.554886E0,1.0395874E1,4.97194E0,4.5257688E0,6.820539E1,5.4938154E0,7.694501E2,3.9934034E0,3.1682806E2,4.744602E2,1.3515991E0,4.9558635E0,1.7253614E1,2.2496904E1,1.7839593E0,1.7660439E0,2.4592352E1,1.2819803E1,2.2441076E1,1.7772837E0,2.2585964E1,1.3724132E0,5.1861234E0,3.2937136E0,7.1072437E2,4.8351803E0,4.204594E0,1.303519E0,1.3359095E0,1.4593787E1,6.5814735E1,1.3947494E1],"tree_param":{"num_deleted":"0","num_feature":"143","num_nodes":"133","size_leaf_vector":"0"}},{"base_weights":[-3.5951165E-3,-1.7037287E-1,8.89258E-1,-3.983672E-2,-4.6496257E-1,9.213208E-1,-3.6015728E-1,-7.968721E-2,9.369586E-1,-4.723293E-1,1.7784218E-1,9.396926E-1,-3.351528E-1,-4.8844683E-1,5.944899E-1,6.6704534E-2,-2.6412058E-1,1.0520805E0,-1.9143307E-1,-4.8536438E-1,-1.0553082E-1,3.9162073E-1,-5.784899E-1,9.49829E-1,-2.3590501E-2,-6.540573E-1,8.745825E-1,-6.54397E-1,-3.1954527E-1,-6.3607305E-2,3.1995973E-1,-4.3967962E-1,-1.3117908E-1,1.0757976E0,-4.4973084E-1,-4.3032598E-1,8.680716E-1,-4.6981928E-1,-6.098539E-1,2.9146594E-1,-4.5697057E-1,6.0691696E-1,-5.039635E-1,9.558834E-1,-2.8747605E-2,3.359464E-1,-5.5152506E-1,-5.268783E-1,-2.0850147E-1,-1.2435165E-1,1.3537765E-1,5.571344E-2,6.1917466E-1,-4.59018E-1,3.0211583E-1,-1.9545862E-1,4.0890357E-1,1.0963813E0,-4.5195636E-1,-6.6283077E-1,7.567952E-1,-4.7320732E-1,3.295082E-1,-6.4183503E-1,1.6948259E-1,5.276112E-1,-5.9531033E-1,-6.793504E-1,7.31236E-1,2.260447E-1,6.9011015E-1,9.821205E-1,7.1320254E-1,-5.530868E-1,8.2423943E-1,5.5878496E-1,-3.8648033E-1,-2.224569E-1,1.4604364E-1,-2.2567278E-2,4.8116595E-1,-2.3560506E-1,3.1464827E-1,6.5227675E-1,-2.6531067E-1,-4.7746265E-1,1.8994334E-1,3.8297713E-2,1.1363328E0,-2.0412455E-1,8.482169E-1,-3.8417128E-1,9.0993744E-1,-5.0957483E-1,-4.0656385E-1,-5.002749E-1,8.86622E-1,-6.77108E-1,-1.1580012E-1,-5.7595754E-1,1.0154483E0,6.348715E-1,-4.5274073E-1,9.8539907E-1,-5.087469E-1,9.5614743E-1,4.8516133E-1,7.594976E-1,3.1528154E-1],"categories":[],"categories_nodes":[],"categories_segments":[],"categories_sizes":[],"default_left":[1,1,1,1,1,1,1,1,1,1,1,1,1,1,0,1,1,1,1,1,1,1,0,1,1,0,0,0,1,1,1,1,1,1,0,1,0,1,1,1,1,1,0,1,1,1,0,0,0,1,1,1,1,1,1,1,1,0,0,0,0,1,1,1,1,1,0,0,0,0,0,1,1,0,0,1,0,0,0,0,0,0,0,0,0,0,0,0,0,0,0,0,0,0,0,0,0,0,0,0,0,0,0,0,0,0,0,0,0],"id":6,"left_children":[1,3,5,7,9,11,13,15,17,19,21,23,25,27,-1,29,31,33,35,37,39,41,-1,43,45,-1,-1,-1,47,49,51,53,55,57,-1,59,-1,61,63,65,67,69,-1,71,73,75,-1,-1,-1,77,79,81,83,85,87,89,91,-1,-1,-1,-1,93,95,97,99,101,-1,-1,-1,-1,-1,103,105,-1,-1,107,-1,-1,-1,-1,-1,-1,-1,-1,-1,-1,-1,-1,-1,-1,-1,-1,-1,-1,-1,-1,-1,-1,-1,-1,-1,-1,-1,-1,-1,-1,-1,-1,-1],"loss_changes":[9.1188605E2,1.9840569E2,3.8943054E1,1.3929941E2,7.586212E0,2.2013855E1,3.3318763E0,9.282567E1,1.8423714E1,7.439148E0,3.2464044E0,9.071045E0,6.082505E0,4.199047E-1,0E0,6.328975E1,3.5447273E1,5.0232086E0,3.8746943E0,2.6405945E0,7.8124776E0,3.2284982E0,0E0,5.4611816E0,2.202196E0,0E0,0E0,0E0,1.911962E-1,1.532703E1,5.1476128E1,9.536613E0,3.018362E1,4.4501953E0,0E0,3.801644E0,0E0,3.8092651E0,4.210121E0,5.8541307E0,8.31407E0,2.4558115E-1,0E0,5.1031494E0,3.41223E0,1.3335955E0,0E0,0E0,0E0,2.5788496E1,1.6216152E1,2.6253534E1,9.1154785E0,7.7380524E0,3.7524939E0,7.187851E0,3.7125515E1,0E0,0E0,0E0,0E0,3.0495605E0,3.3482347E0,2.858368E0,5.1742263E0,2.5400524E0,0E0,0E0,0E0,0E0,0E0,4.508972E0,4.6652946E0,0E0,0E0,3.9847255E-2,0E0,0E0,0E0,0E0,0E0,0E0,0E0,0E0,0E0,0E0,0E0,0E0,0E0,0E0,0E0,0E0,0E0,0E0,0E0,0E0,0E0,0E0,0E0,0E0,0E0,0E0,0E0,0E0,0E0,0E0,0E0,0E0,0E0],"parents":[2147483647,0,0,1,1,2,2,3,3,4,4,5,5,6,6,7,7,8,8,9,9,10,10,11,11,12,12,13,13,15,15,16,16,17,17,18,18,19,19,20,20,21,21,23,23,24,24,28,28,29,29,30,30,31,31,32,32,33,33,35,35,37,37,38,38,39,39,40,40,41,41,43,43,44,44,45,45,49,49,50,50,51,51,52,52,53,53,54,54,55,55,56,56,61,61,62,62,63,63,64,64,65,65,71,71,72,72,75,75],"right_children":[2,4,6,8,10,12,14,16,18,20,22,24,26,28,-1,30,32,34,36,38,40,42,-1,44,46,-1,-1,-1,48,50,52,54,56,58,-1,60,-1,62,64,66,68,70,-1,72,74,76,-1,-1,-1,78,80,82,84,86,88,90,92,-1,-1,-1,-1,94,96,98,100,102,-1,-1,-1,-1,-1,104,106,-1,-1,108,-1,-1,-1,-1,-1,-1,-1,-1,-1,-1,-1,-1,-1,-1,-1,-1,-1,-1,-1,-1,-1,-1,-1,-1,-1,-1,-1,-1,-1,-1,-1,-1,-1],"split_conditions":[5E-1,5E-1,5E-1,5E-1,5E-1,5E-1,5E-1,5E-1,5E-1,5E-1,5E-1,5E-1,5E-1,5E-1,5.9448987E-2,5E-1,5E-1,5E-1,5E-1,5E-1,5E-1,5E-1,-5.784899E-2,5E-1,5E-1,-6.5405734E-2,8.745825E-2,-6.54397E-2,5E-1,5E-1,5E-1,5E-1,5E-1,5E-1,-4.4973087E-2,5E-1,8.680716E-2,5E-1,5E-1,5E-1,5E-1,5E-1,-5.039635E-2,5E-1,5E-1,5E-1,-5.5152506E-2,-5.268783E-2,-2.0850148E-2,5E-1,5E-1,5E-1,5E-1,5E-1,5E-1,5E-1,5E-1,1.0963813E-1,-4.5195635E-2,-6.628308E-2,7.5679526E-2,5E-1,5E-1,5E-1,5E-1,5E-1,-5.9531033E-2,-6.793504E-2,7.31236E-2,2.2604471E-2,6.901102E-2,5E-1,5E-1,-5.530868E-2,8.242395E-2,5E-1,-3.8648035E-2,-2.224569E-2,1.46043645E-2,-2.2567278E-3,4.8116595E-2,-2.3560507E-2,3.1464826E-2,6.522768E-2,-2.6531069E-2,-4.7746267E-2,1.8994335E-2,3.8297714E-3,1.13633275E-1,-2.0412456E-2,8.482169E-2,-3.8417127E-2,9.099375E-2,-5.0957482E-2,-4.0656384E-2,-5.002749E-2,8.86622E-2,-6.77108E-2,-1.1580012E-2,-5.7595756E-2,1.01544835E-1,6.348715E-2,-4.5274075E-2,9.853991E-2,-5.087469E-2,9.5614746E-2,4.8516136E-2,7.594976E-2,3.1528156E-2],"split_indices":[0,41,77,20,102,75,98,70,79,76,99,81,101,97,0,79,45,75,87,91,141,97,0,73,142,0,0,0,104,45,59,138,98,95,0,94,0,131,78,124,89,78,0,79,101,92,0,0,0,71,78,45,101,85,39,108,79,0,0,0,0,79,69,74,104,88,0,0,0,0,0,74,82,0,0,82,0,0,0,0,0,0,0,0,0,0,0,0,0,0,0,0,0,0,0,0,0,0,0,0,0,0,0,0,0,0,0,0,0],"split_type":[0,0,0,0,0,0,0,0,0,0,0,0,0,0,0,0,0,0,0,0,0,0,0,0,0,0,0,0,0,0,0,0,0,0,0,0,0,0,0,0,0,0,0,0,0,0,0,0,0,0,0,0,0,0,0,0,0,0,0,0,0,0,0,0,0,0,0,0,0,0,0,0,0,0,0,0,0,0,0,0,0,0,0,0,0,0,0,0,0,0,0,0,0,0,0,0,0,0,0,0,0,0,0,0,0,0,0,0,0],"sum_hessian":[6.1218027E3,5.15896E3,9.628428E2,3.5756726E3,1.5832872E3,9.3900836E2,2.3834396E1,3.4363958E3,1.3927682E2,1.5656101E3,1.7677107E1,9.257248E2,1.3283619E1,2.1441362E1,2.3930333E0,1.9161296E3,1.5202661E3,1.2644424E2,1.2832586E1,1.5115695E3,5.404059E1,1.4157638E1,3.5194695E0,9.1609894E2,9.625848E0,1.0875905E1,2.4077144E0,9.365292E0,1.2076071E1,1.2656443E3,6.5048535E2,6.541309E2,8.661352E2,1.247577E2,1.6865433E0,1.0956092E1,1.876494E0,1.348016E3,1.6355353E2,2.5455713E1,2.8584875E1,1.1673645E1,2.483993E0,9.104889E2,5.610003E0,5.9425077E0,3.6833405E0,2.9057968E0,9.170274E0,9.6992834E2,2.9571597E2,3.460573E2,3.0442804E2,6.3788275E2,1.624821E1,7.745839E2,9.155131E1,1.23377754E2,1.3799392E0,9.531032E0,1.4250606E0,1.3427327E3,5.28333E0,1.5727594E2,6.2775908E0,2.0422342E1,5.0333705E0,2.4439194E1,4.145682E0,2.7591047E0,8.91454E0,8.189069E2,9.1582016E1,3.692052E0,1.9179511E0,4.7147274E0,1.2277802E0,7.118361E2,2.5809222E2,2.0363625E2,9.207972E1,1.6288791E2,1.8316939E2,2.9369882E2,1.0729214E1,6.205109E2,1.7371777E1,1.31389675E1,3.1092424E0,7.6900305E2,5.580832E0,3.5535786E1,5.6015522E1,8.643879E2,4.783448E2,2.1632862E0,3.1200435E0,1.4712347E2,1.0152469E1,3.5067327E0,2.770858E0,1.872594E1,1.6964006E0,8.174483E2,1.4586015E0,4.2796104E1,4.878591E1,1.4228618E0,3.2918656E0],"tree_param":{"num_deleted":"0","num_feature":"143","num_nodes":"109","size_leaf_vector":"0"}},{"base_weights":[-8.8499143E-4,-1.9708613E-1,4.810781E-1,-3.7473494E-1,1.1840485E-1,4.913984E-1,-4.4264817E-1,-4.8097318E-1,-9.4954185E-2,6.5140575E-2,5.490914E-1,4.5810455E-1,7.613759E-1,-6.726957E-1,8.8797414E-1,-5.094677E-1,8.4055287E-1,-1.5772112E-1,6.642184E-1,9.15443E-2,-7.019795E-1,4.295591E-1,9.0107673E-1,4.291203E-1,7.9722315E-1,8.064717E-1,-6.1919165E-1,-5.1419747E-1,9.6764493E-1,9.2561585E-1,-5.0878996E-1,-2.8085774E-1,1.8576482E-1,8.4154296E-1,-6.207495E-1,6.157575E-2,6.714812E-1,3.443222E-1,1.1816671E0,9.865464E-1,-4.9377725E-1,4.400606E-1,-3.294349E-1,8.245178E-1,-4.954221E-1,8.185445E-1,-4.5887345E-1,-5.184778E-1,5.970817E-1,1.0765486E0,6.177001E-1,-3.2210436E-1,1.6572471E-1,-1.9571054E-1,5.1197296E-1,9.222665E-1,-5.1947856E-1,-1.6335702E-2,3.0775782E-1,8.1235135E-1,-6.5728295E-1,3.8874575E-1,-6.316713E-1,8.059476E-1,1.1843579E0,4.5654523E-1,1.5777335E-2,-6.8304545E-1,1.0033182E0,9.49415E-1,5.96028E-1,8.292524E-1,-4.031978E-1,-5.2360296E-1,3.5565215E-1,-5.3449357E-1,1.2453737E0,8.9376825E-1,-5.4194033E-1,-3.479012E-1,3.8069975E-1,4.539363E-1,-6.737765E-1,-4.343503E-1,8.076765E-1,2.8241932E-2,8.1839275E-1,9.805136E-1,-4.5300913E-1,-1.3342406E-1,1.7203285E-1,2.5053295E-1,7.545371E-1,9.3658125E-1,2.5662822E-1,3.298005E-1,9.7092885E-1,-5.741442E-1,9.804052E-1,4.62046E-1,-6.759187E-1,-6.9431484E-1,2.8182295E-1,1.0181584E0,3.4065306E-1,8.0064046E-1,7.7579275E-4,9.37461E-1,6.735964E-1],"categories":[],"categories_nodes":[],"categories_segments":[],"categories_sizes":[],"default_left":[1,1,1,1,1,1,1,1,1,1,1,1,1,0,0,1,1,1,1,1,0,1,1,1,1,1,0,1,0,1,0,1,1,1,0,1,1,1,0,1,0,1,1,1,0,1,0,1,1,0,1,1,1,1,1,1,0,1,1,1,0,1,0,1,0,1,1,0,0,1,1,1,0,0,0,0,0,0,0,0,0,0,0,0,0,0,0,0,0,0,0,0,0,0,0,0,0,0,0,0,0,0,0,0,0,0,0,0,0],"id":7,"left_children":[1,3,5,7,9,11,13,15,17,19,21,23,25,-1,-1,27,29,31,33,35,-1,37,39,41,43,45,-1,47,-1,49,-1,51,53,55,-1,57,59,61,-1,63,-1,65,67,69,-1,71,-1,73,75,-1,77,79,81,83,85,87,-1,89,91,93,-1,95,-1,97,-1,99,101,-1,-1,103,105,107,-1,-1,-1,-1,-1,-1,-1,-1,-1,-1,-1,-1,-1,-1,-1,-1,-1,-1,-1,-1,-1,-1,-1,-1,-1,-1,-1,-1,-1,-1,-1,-1,-1,-1,-1,-1,-1],"loss_changes":[5.791255E2,2.4398561E2,1.7108673E1,8.272742E1,3.5950436E1,1.5405853E1,6.7510486E0,7.6423035E1,3.6684406E1,2.8363857E1,6.871399E0,1.5019043E1,1.2384941E1,0E0,0E0,1.4303589E1,5.4033813E0,3.007555E1,1.392346E1,2.3448803E1,0E0,7.971628E0,5.5924263E0,1.2111359E1,4.7090607E0,3.2063675E0,0E0,9.682556E0,0E0,1.2302284E0,0E0,9.685627E0,2.3485306E1,6.2038116E0,0E0,2.4676048E1,1.2946138E1,5.396476E0,0E0,4.9889755E-1,0E0,9.9375305E0,1.0616315E1,2.8513947E0,0E0,2.7403412E0,0E0,8.982727E0,6.5530705E0,0E0,5.529824E0,8.817642E0,1.1163326E1,2.126578E1,1.5032909E1,4.413349E0,0E0,2.1593418E1,7.7179146E0,3.929615E0,0E0,3.6004677E0,0E0,6.4369707E0,0E0,8.838196E0,1.0437467E1,0E0,0E0,2.8226318E0,5.481187E0,2.4448166E0,0E0,0E0,0E0,0E0,0E0,0E0,0E0,0E0,0E0,0E0,0E0,0E0,0E0,0E0,0E0,0E0,0E0,0E0,0E0,0E0,0E0,0E0,0E0,0E0,0E0,0E0,0E0,0E0,0E0,0E0,0E0,0E0,0E0,0E0,0E0,0E0,0E0],"parents":[2147483647,0,0,1,1,2,2,3,3,4,4,5,5,6,6,7,7,8,8,9,9,10,10,11,11,12,12,15,15,16,16,17,17,18,18,19,19,21,21,22,22,23,23,24,24,25,25,27,27,29,29,31,31,32,32,33,33,35,35,36,36,37,37,39,39,41,41,42,42,43,43,45,45,47,47,48,48,50,50,51,51,52,52,53,53,54,54,55,55,57,57,58,58,59,59,61,61,63,63,65,65,66,66,69,69,70,70,71,71],"right_children":[2,4,6,8,10,12,14,16,18,20,22,24,26,-1,-1,28,30,32,34,36,-1,38,40,42,44,46,-1,48,-1,50,-1,52,54,56,-1,58,60,62,-1,64,-1,66,68,70,-1,72,-1,74,76,-1,78,80,82,84,86,88,-1,90,92,94,-1,96,-1,98,-1,100,102,-1,-1,104,106,108,-1,-1,-1,-1,-1,-1,-1,-1,-1,-1,-1,-1,-1,-1,-1,-1,-1,-1,-1,-1,-1,-1,-1,-1,-1,-1,-1,-1,-1,-1,-1,-1,-1,-1,-1,-1,-1],"split_conditions":[5E-1,5E-1,5E-1,5E-1,5E-1,5E-1,5E-1,5E-1,5E-1,5E-1,5E-1,5E-1,5E-1,-6.726957E-2,8.879741E-2,5E-1,5E-1,5E-1,5E-1,5E-1,-7.0197955E-2,5E-1,5E-1,5E-1,5E-1,5E-1,-6.1919164E-2,5E-1,9.67645E-2,5E-1,-5.0878998E-2,5E-1,5E-1,5E-1,-6.2074948E-2,5E-1,5E-1,5E-1,1.1816671E-1,5E-1,-4.9377725E-2,5E-1,5E-1,5E-1,-4.954221E-2,5E-1,-4.5887347E-2,5E-1,5E-1,1.0765486E-1,5E-1,5E-1,5E-1,5E-1,5E-1,5E-1,-5.194786E-2,5E-1,5E-1,5E-1,-6.57283E-2,5E-1,-6.316713E-2,5E-1,1.1843579E-1,5E-1,5E-1,-6.8304546E-2,1.0033182E-1,5E-1,5E-1,5E-1,-4.031978E-2,-5.2360296E-2,3.5565216E-2,-5.344936E-2,1.2453737E-1,8.937683E-2,-5.4194033E-2,-3.479012E-2,3.8069975E-2,4.539363E-2,-6.737765E-2,-4.3435033E-2,8.0767654E-2,2.8241933E-3,8.183928E-2,9.805136E-2,-4.5300912E-2,-1.3342406E-2,1.7203284E-2,2.5053296E-2,7.545371E-2,9.365813E-2,2.5662823E-2,3.298005E-2,9.709289E-2,-5.741442E-2,9.804052E-2,4.62046E-2,-6.759187E-2,-6.9431484E-2,2.8182296E-2,1.0181584E-1,3.4065306E-2,8.006405E-2,7.757928E-5,9.37461E-2,6.735964E-2],"split_indices":[41,70,102,69,51,91,97,8,66,39,99,75,78,0,0,139,99,88,80,48,0,100,104,135,90,84,0,136,0,93,0,51,80,88,0,78,141,138,0,88,0,95,81,82,0,90,0,14,85,0,135,28,93,51,93,73,0,93,87,142,0,98,0,86,0,132,86,0,0,97,93,141,0,0,0,0,0,0,0,0,0,0,0,0,0,0,0,0,0,0,0,0,0,0,0,0,0,0,0,0,0,0,0,0,0,0,0,0,0],"split_type":[0,0,0,0,0,0,0,0,0,0,0,0,0,0,0,0,0,0,0,0,0,0,0,0,0,0,0,0,0,0,0,0,0,0,0,0,0,0,0,0,0,0,0,0,0,0,0,0,0,0,0,0,0,0,0,0,0,0,0,0,0,0,0,0,0,0,0,0,0,0,0,0,0,0,0,0,0,0,0,0,0,0,0,0,0,0,0,0,0,0,0,0,0,0,0,0,0,0,0,0,0,0,0,0,0,0,0,0,0],"sum_hessian":[6.122311E3,4.351472E3,1.7708387E3,2.7837766E3,1.5676957E3,1.7517356E3,1.9103184E1,2.0171182E3,7.6665845E2,1.3961775E3,1.7151814E2,1.5618267E3,1.8990889E2,1.6708883E1,2.3943007E0,1.9751449E3,4.197329E1,7.088447E2,5.781368E1,1.3505724E3,4.5605072E1,1.2969487E2,4.1823277E1,1.4409362E3,1.20890564E2,1.8430447E2,5.60441E0,1.9694904E3,5.65444E0,3.97796E1,2.1936932E0,5.2192255E2,1.869222E2,5.1106155E1,6.707522E0,1.285262E3,6.5310425E1,1.17802086E2,1.1892779E1,3.9684345E1,2.138933E0,1.4208635E3,2.0072605E1,1.1874536E2,2.1452045E0,1.829124E2,1.3920832E0,1.962465E3,7.025487E0,2.5019438E1,1.476016E1,4.7804843E2,4.3874126E1,8.6346565E1,1.0057563E2,4.8549038E1,2.5571191E0,9.769967E2,3.082653E2,5.9401558E1,5.908868E0,1.132491E2,4.5529823E0,2.3397305E1,1.628704E1,1.3676503E3,5.321322E1,1.6248888E1,3.8237169E0,7.473726E1,4.40081E1,1.8164166E2,1.2707305E0,1.9514244E3,1.1040516E1,2.6228728E0,4.402614E0,1.2107158E1,2.6530023E0,4.6160977E2,1.6438656E1,3.3003036E1,1.087109E1,7.021432E1,1.6132252E1,3.9426678E1,6.1148952E1,4.6851765E1,1.6972711E0,6.0267224E2,3.7432446E2,2.7464825E2,3.361703E1,4.7988552E1,1.1413008E1,1.0425945E2,8.989645E0,2.3686292E0,2.1028675E1,1.3616284E3,6.02189E0,1.4064486E1,3.9148735E1,6.654974E1,8.187517E0,3.2493656E1,1.1514442E1,1.04189064E2,7.74526E1],"tree_param":{"num_deleted":"0","num_feature":"143","num_nodes":"109","size_leaf_vector":"0"}},{"base_weights":[1.023134E-3,6.97357E-2,-4.3251136E-1,1.4084175E-1,-7.8484826E-2,-4.5083085E-1,7.5081927E-1,1.624484E-1,-5.2265203E-1,-9.32884E-2,4.4161066E-1,-4.666673E-1,4.430107E-1,8.8923055E-1,-1.0281961E-1,2.4722664E-1,-3.1785846E-2,-5.5435795E-1,9.185051E-1,-7.4033394E-2,-3.9231429E-1,5.8808416E-1,-5.987939E-1,-4.8685202E-1,1.645637E-1,1.0521748E0,-3.6566043E-1,1.0614128E0,1.1265017E-1,3.5489038E-1,7.27586E-2,-9.912379E-2,2.1336979E-1,-5.8588755E-1,8.2223046E-1,-8.2505584E-2,6.948269E-1,-5.2728575E-1,-2.897889E-1,1.4201964E-1,1.0556722E0,-5.2425265E-1,-1.4868204E-1,1.0769155E0,-4.0150064E-1,-5.6996644E-1,-6.791267E-2,3.774791E-1,-5.986167E-1,3.916893E-2,4.1141453E-1,-1.805926E-1,1.1643755E-1,1.7058507E-1,1.1179565E0,-6.062679E-1,-2.559093E-1,-8.966527E-2,6.8389696E-1,1.1956096E0,-3.3659872E-1,-5.928592E-1,8.5442364E-1,-3.941084E-1,-1.10273324E-1,4.123088E-1,-6.0709965E-1,-5.3573537E-1,6.2252575E-1,-2.1279883E-1,7.2187865E-1,7.9633963E-1,-5.611793E-1,4.113684E-1,-7.548235E-2,1.82721E-2,1.0982704E0,5.640583E-1,-3.0876896E-1,-2.0454904E-1,2.937634E-1,7.69659E-2,1.2051513E0,1.4249857E-1,1.1220714E0,-6.1927164E-1,-4.0604103E-1,1.401681E-1,-5.6356347E-1,-9.3304306E-2,1.1580751E0,1.3775249E0,-4.604077E-1,-6.2920076E-1,-2.354491E-1,-5.410392E-1,-7.575454E-2,-2.7542695E-1,9.82414E-1,8.736861E-1,-4.7109812E-1,-5.396954E-1,9.522416E-1,1.0123199E0,-4.5223117E-1,-3.334856E-1,3.8368297E-1,9.8035663E-1,-4.67435E-2,-6.1171764E-1,-1.6416028E-1],"categories":[],"categories_nodes":[],"categories_segments":[],"categories_sizes":[],"default_left":[1,1,1,1,1,1,1,1,1,1,1,1,1,1,0,1,1,1,0,1,1,1,0,1,1,0,1,0,0,1,1,1,1,1,0,1,1,1,1,1,0,1,1,0,1,0,0,1,0,1,1,1,1,1,0,1,1,1,1,0,0,1,0,1,1,1,0,1,1,1,1,0,1,0,0,0,0,0,0,0,0,0,0,0,0,0,0,0,0,0,0,0,0,0,0,0,0,0,0,0,0,0,0,0,0,0,0,0,0,0,0],"id":8,"left_children":[1,3,5,7,9,11,13,15,17,19,21,23,25,27,-1,29,31,33,-1,35,37,39,-1,41,43,-1,45,-1,-1,47,49,51,53,55,-1,57,59,61,63,65,-1,67,69,-1,71,-1,-1,73,-1,75,77,79,81,83,-1,85,87,89,91,-1,-1,93,-1,95,97,99,-1,101,103,105,107,-1,109,-1,-1,-1,-1,-1,-1,-1,-1,-1,-1,-1,-1,-1,-1,-1,-1,-1,-1,-1,-1,-1,-1,-1,-1,-1,-1,-1,-1,-1,-1,-1,-1,-1,-1,-1,-1,-1,-1],"loss_changes":[1.8359874E2,5.6080994E1,1.8617325E1,5.163147E1,1.3325591E1,1.1969299E1,1.6545906E0,5.736183E1,5.70158E0,9.635235E0,7.65565E0,1.0489548E1,7.7636833E0,1.4164944E0,0E0,4.5521317E1,1.7506697E1,5.3348007E0,0E0,1.0337436E1,1.2491312E0,8.717785E0,0E0,9.938126E0,1.3892356E1,0E0,3.9793015E-1,0E0,0E0,3.2516876E1,1.0524057E1,1.462588E1,8.655117E0,5.838928E-1,0E0,8.631601E0,9.341716E0,4.358532E0,1.076334E0,4.8899403E0,0E0,9.718002E0,4.6334476E0,0E0,3.6625056E0,0E0,0E0,2.2521698E1,0E0,1.8660902E1,9.353991E0,6.923088E0,9.7355995E0,5.7038E0,0E0,1.6132355E-2,1.0688126E0,7.1381855E0,1.2200125E1,0E0,0E0,3.867197E-1,0E0,1.709847E0,4.487166E0,7.5174723E0,0E0,4.674774E0,3.61143E0,5.5648255E0,1.1848562E0,0E0,2.0899963E-1,0E0,0E0,0E0,0E0,0E0,0E0,0E0,0E0,0E0,0E0,0E0,0E0,0E0,0E0,0E0,0E0,0E0,0E0,0E0,0E0,0E0,0E0,0E0,0E0,0E0,0E0,0E0,0E0,0E0,0E0,0E0,0E0,0E0,0E0,0E0,0E0,0E0,0E0],"parents":[2147483647,0,0,1,1,2,2,3,3,4,4,5,5,6,6,7,7,8,8,9,9,10,10,11,11,12,12,13,13,15,15,16,16,17,17,19,19,20,20,21,21,23,23,24,24,26,26,29,29,30,30,31,31,32,32,33,33,35,35,36,36,37,37,38,38,39,39,41,41,42,42,44,44,47,47,49,49,50,50,51,51,52,52,53,53,55,55,56,56,57,57,58,58,61,61,63,63,64,64,65,65,67,67,68,68,69,69,70,70,72,72],"right_children":[2,4,6,8,10,12,14,16,18,20,22,24,26,28,-1,30,32,34,-1,36,38,40,-1,42,44,-1,46,-1,-1,48,50,52,54,56,-1,58,60,62,64,66,-1,68,70,-1,72,-1,-1,74,-1,76,78,80,82,84,-1,86,88,90,92,-1,-1,94,-1,96,98,100,-1,102,104,106,108,-1,110,-1,-1,-1,-1,-1,-1,-1,-1,-1,-1,-1,-1,-1,-1,-1,-1,-1,-1,-1,-1,-1,-1,-1,-1,-1,-1,-1,-1,-1,-1,-1,-1,-1,-1,-1,-1,-1,-1],"split_conditions":[5E-1,5E-1,5E-1,5E-1,5E-1,5E-1,5E-1,5E-1,5E-1,5E-1,5E-1,5E-1,5E-1,5E-1,-1.02819605E-2,5E-1,5E-1,5E-1,9.185051E-2,5E-1,5E-1,5E-1,-5.9879392E-2,5E-1,5E-1,1.0521748E-1,5E-1,1.06141284E-1,1.1265017E-2,5E-1,5E-1,5E-1,5E-1,5E-1,8.222305E-2,5E-1,5E-1,5E-1,5E-1,5E-1,1.0556722E-1,5E-1,5E-1,1.0769155E-1,5E-1,-5.6996644E-2,-6.791267E-3,5E-1,-5.986167E-2,5E-1,5E-1,5E-1,5E-1,5E-1,1.1179566E-1,5E-1,5E-1,5E-1,5E-1,1.1956096E-1,-3.365987E-2,5E-1,8.5442364E-2,5E-1,5E-1,5E-1,-6.0709964E-2,5E-1,5E-1,5E-1,5E-1,7.9633966E-2,5E-1,4.1136842E-2,-7.5482354E-3,1.8272101E-3,1.0982704E-1,5.640583E-2,-3.0876895E-2,-2.0454904E-2,2.9376341E-2,7.69659E-3,1.2051513E-1,1.4249857E-2,1.1220714E-1,-6.1927166E-2,-4.0604103E-2,1.401681E-2,-5.6356348E-2,-9.330431E-3,1.1580751E-1,1.3775249E-1,-4.604077E-2,-6.292008E-2,-2.3544911E-2,-5.4103922E-2,-7.5754537E-3,-2.7542695E-2,9.82414E-2,8.736861E-2,-4.7109812E-2,-5.396954E-2,9.5224164E-2,1.0123199E-1,-4.5223117E-2,-3.334856E-2,3.8368296E-2,9.803566E-2,-4.6743504E-3,-6.1171766E-2,-1.6416028E-2],"split_indices":[0,79,81,20,135,75,141,41,95,100,14,77,93,94,0,45,69,75,0,13,86,93,0,79,104,0,71,0,0,8,73,93,90,100,0,108,91,141,108,41,0,73,91,0,84,0,0,51,0,91,124,87,124,135,0,97,104,33,95,0,0,59,0,69,70,94,0,74,101,93,71,0,98,0,0,0,0,0,0,0,0,0,0,0,0,0,0,0,0,0,0,0,0,0,0,0,0,0,0,0,0,0,0,0,0,0,0,0,0,0,0],"split_type":[0,0,0,0,0,0,0,0,0,0,0,0,0,0,0,0,0,0,0,0,0,0,0,0,0,0,0,0,0,0,0,0,0,0,0,0,0,0,0,0,0,0,0,0,0,0,0,0,0,0,0,0,0,0,0,0,0,0,0,0,0,0,0,0,0,0,0,0,0,0,0,0,0,0,0,0,0,0,0,0,0,0,0,0,0,0,0,0,0,0,0,0,0,0,0,0,0,0,0,0,0,0,0,0,0,0,0,0,0,0,0],"sum_hessian":[6.1612397E3,5.319043E3,8.421966E2,3.5946338E3,1.7244093E3,8.299667E2,1.222994E1,3.4819978E3,1.1263598E2,1.6774834E3,4.6925877E1,8.159875E2,1.3979179E1,1.0487737E1,1.7422036E0,2.423799E3,1.0581986E3,1.10813385E2,1.822595E0,1.577173E3,1.0031042E2,4.151582E1,5.4100566E0,7.90925E2,2.5062502E1,7.801368E0,6.1778116E0,8.284199E0,2.2035382E0,1.4982185E3,9.255806E2,8.306391E2,2.2755952E2,1.0889366E2,1.919725E0,1.5608662E3,1.6306734E1,4.1514675E1,5.8795742E1,2.1914137E1,1.9601683E1,7.116665E2,7.9258484E1,9.250533E0,1.5811969E1,3.1215994E0,3.056212E0,1.464137E3,3.4081493E1,8.430757E2,8.250499E1,6.029309E2,2.2770824E2,2.184175E2,9.142031E0,1.0177073E2,7.122935E0,1.5472946E3,1.3571735E1,1.0869931E1,5.4368024E0,4.0178783E1,1.3358907E0,3.6430164E1,2.2365578E1,1.6434153E1,5.4799857E0,7.0513873E2,6.5277433E0,7.452526E1,4.7332244E0,1.3908997E0,1.4421069E1,1.362305E3,1.0183195E2,8.277606E2,1.5315059E1,6.825504E1,1.4249951E1,5.744863E2,2.8444542E1,2.2077467E2,6.93356E0,2.1327179E2,5.1457086E0,9.35991E1,8.171633E0,3.3519692E0,3.7709653E0,1.5437175E3,3.5770261E0,8.322927E0,5.2488074E0,3.57802E1,4.3985844E0,2.4447393E1,1.1982769E1,2.0078726E1,2.286852E0,1.0803045E1,5.631107E0,7.039027E2,1.2360342E0,4.8329997E0,1.694744E0,6.2350697E1,1.2174568E1,3.3359225E0,1.3973019E0,1.2312923E1,2.1081452E0],"tree_param":{"num_deleted":"0","num_feature":"143","num_nodes":"111","size_leaf_vector":"0"}},{"base_weights":[-4.7342267E-4,-1.5587755E-1,8.075954E-1,-3.1063776E-2,-4.4153395E-1,8.3148736E-1,-2.6945907E-1,1.3079628E-1,-2.5676748E-1,-4.4876426E-1,9.630112E-2,8.4794116E-1,-2.3713379E-1,-4.406942E-1,6.336285E-1,7.366314E-2,8.481649E-1,-4.2377064E-1,-1.3502876E-1,-4.607127E-1,-1.22029826E-1,3.65527E-1,-6.182567E-1,8.6111295E-1,-6.977683E-2,-6.398232E-1,8.9601445E-1,-6.267687E-1,-2.5710186E-1,-5.2299485E-2,3.0775055E-1,9.448949E-1,-1.11303724E-1,-4.4007048E-1,3.2145515E-1,-2.4976324E-1,1.3076952E-1,-4.708961E-1,-2.7213755E-1,2.3008338E-1,-4.1914412E-1,5.481124E-1,-4.8518446E-1,8.848052E-1,6.350533E-1,-2.562227E-1,6.0923296E-1,-4.5842966E-1,-1.6497411E-1,-7.508874E-2,5.0096035E-1,6.831396E-2,5.672673E-1,9.695794E-1,-4.711741E-1,3.0234662E-1,-6.205227E-1,-4.9900046E-1,-2.457138E-1,6.1492022E-2,1.0022275E0,-2.6614752E-1,9.10009E-1,-1.3322672E-1,8.4587574E-1,-4.6269578E-1,-6.863799E-1,-5.776802E-1,1.4832817E-1,4.905857E-1,-5.9372056E-1,-6.624807E-1,7.591521E-1,6.841981E-1,-4.207264E-1,9.0087205E-1,5.196144E-1,6.8564016E-1,-1.5897235E-1,-6.0713625E-1,4.8460418E-1,-1.331355E-1,1.5533866E-1,-4.147294E-1,8.694758E-1,-1.7115918E-1,2.651673E-1,5.9120715E-1,-2.0506059E-1,9.924492E-1,-4.8377296E-1,-5.1074064E-1,6.4477986E-1,-5.1940477E-1,2.5963867E-1,-2.8003636E-1,3.675574E-1,4.456154E-1,-5.566083E-1,-2.7578488E-1,7.03308E-1,-2.384045E-1,2.9586288E-1,-4.5025212E-1,-6.0476744E-1,-6.4039207E-1,6.3754463E-1,6.136557E-1,-4.6231225E-1,5.970076E-1,-4.4046354E-1,4.704627E-2,8.2590866E-1,9.2469275E-1,6.699586E-1,8.732502E-1,-1.6173275E-1,7.1989185E-1,-5.449942E-1,-5.711828E-1,5.4536515E-1],"categories":[],"categories_nodes":[],"categories_segments":[],"categories_sizes":[],"default_left":[1,1,1,1,1,1,1,1,1,1,1,1,1,1,0,1,1,1,1,1,1,1,0,1,1,0,0,0,1,1,1,1,1,1,1,1,1,1,1,1,1,1,0,1,1,1,0,0,0,1,1,1,1,1,0,1,0,1,1,1,0,1,0,1,0,1,0,1,1,1,0,0,0,1,0,1,1,1,1,0,0,0,0,0,0,0,0,0,0,0,0,0,0,0,0,0,0,0,0,0,0,0,0,0,0,0,0,0,0,0,0,0,0,0,0,0,0,0,0,0,0],"id":9,"left_children":[1,3,5,7,9,11,13,15,17,19,21,23,25,27,-1,29,31,33,35,37,39,41,-1,43,45,-1,-1,-1,47,49,51,53,55,57,59,61,63,65,67,69,71,73,-1,75,77,79,-1,-1,-1,81,83,85,87,89,-1,91,-1,93,95,97,-1,99,-1,101,-1,103,-1,105,107,109,-1,-1,-1,111,-1,113,115,117,119,-1,-1,-1,-1,-1,-1,-1,-1,-1,-1,-1,-1,-1,-1,-1,-1,-1,-1,-1,-1,-1,-1,-1,-1,-1,-1,-1,-1,-1,-1,-1,-1,-1,-1,-1,-1,-1,-1,-1,-1,-1,-1],"loss_changes":[7.6326996E2,1.8173956E2,2.5451904E1,1.2967633E2,6.0707703E0,1.706897E1,3.6860523E0,8.46671E1,3.0081078E1,5.9154053E0,4.3398423E0,1.1483398E1,7.567844E0,4.9165344E-1,0E0,5.6508823E1,1.4249794E1,7.7277603E0,2.6224691E1,2.7049255E0,5.884359E0,2.7761247E0,0E0,4.4281616E0,1.9660361E0,0E0,0E0,0E0,1.3422394E-1,1.5753733E1,4.1619568E1,5.2999573E0,3.3160923E0,6.882225E0,2.4064047E0,1.1648159E1,4.9123585E1,2.1533813E0,1.0100746E1,5.8633103E0,9.207816E0,2.1039686E0,0E0,4.46521E0,3.8015022E0,3.3931909E0,0E0,0E0,0E0,1.6045126E1,1.7044865E1,1.6537052E1,6.0671005E0,5.017273E0,0E0,2.7983007E0,0E0,7.384369E0,3.1395493E0,2.8970609E0,0E0,5.7311897E0,0E0,8.6668625E0,0E0,2.1145935E0,0E0,3.8645458E0,9.83215E0,2.2717967E0,0E0,0E0,0E0,1.0860653E0,0E0,3.8028564E0,9.247911E0,4.043087E0,2.1457522E0,0E0,0E0,0E0,0E0,0E0,0E0,0E0,0E0,0E0,0E0,0E0,0E0,0E0,0E0,0E0,0E0,0E0,0E0,0E0,0E0,0E0,0E0,0E0,0E0,0E0,0E0,0E0,0E0,0E0,0E0,0E0,0E0,0E0,0E0,0E0,0E0,0E0,0E0,0E0,0E0,0E0,0E0],"parents":[2147483647,0,0,1,1,2,2,3,3,4,4,5,5,6,6,7,7,8,8,9,9,10,10,11,11,12,12,13,13,15,15,16,16,17,17,18,18,19,19,20,20,21,21,23,23,24,24,28,28,29,29,30,30,31,31,32,32,33,33,34,34,35,35,36,36,37,37,38,38,39,39,40,40,41,41,43,43,44,44,45,45,49,49,50,50,51,51,52,52,53,53,55,55,57,57,58,58,59,59,61,61,63,63,65,65,67,67,68,68,69,69,73,73,75,75,76,76,77,77,78,78],"right_children":[2,4,6,8,10,12,14,16,18,20,22,24,26,28,-1,30,32,34,36,38,40,42,-1,44,46,-1,-1,-1,48,50,52,54,56,58,60,62,64,66,68,70,72,74,-1,76,78,80,-1,-1,-1,82,84,86,88,90,-1,92,-1,94,96,98,-1,100,-1,102,-1,104,-1,106,108,110,-1,-1,-1,112,-1,114,116,118,120,-1,-1,-1,-1,-1,-1,-1,-1,-1,-1,-1,-1,-1,-1,-1,-1,-1,-1,-1,-1,-1,-1,-1,-1,-1,-1,-1,-1,-1,-1,-1,-1,-1,-1,-1,-1,-1,-1,-1,-1,-1,-1],"split_conditions":[5E-1,5E-1,5E-1,5E-1,5E-1,5E-1,5E-1,5E-1,5E-1,5E-1,5E-1,5E-1,5E-1,5E-1,6.336285E-2,5E-1,5E-1,5E-1,5E-1,5E-1,5E-1,5E-1,-6.182567E-2,5E-1,5E-1,-6.398232E-2,8.960145E-2,-6.267687E-2,5E-1,5E-1,5E-1,5E-1,5E-1,5E-1,5E-1,5E-1,5E-1,5E-1,5E-1,5E-1,5E-1,5E-1,-4.8518445E-2,5E-1,5E-1,5E-1,6.0923297E-2,-4.5842968E-2,-1.649741E-2,5E-1,5E-1,5E-1,5E-1,5E-1,-4.711741E-2,5E-1,-6.205227E-2,5E-1,5E-1,5E-1,1.0022276E-1,5E-1,9.100091E-2,5E-1,8.4587574E-2,5E-1,-6.863799E-2,5E-1,5E-1,5E-1,-5.9372056E-2,-6.6248074E-2,7.591521E-2,5E-1,-4.207264E-2,5E-1,5E-1,5E-1,5E-1,-6.0713626E-2,4.846042E-2,-1.331355E-2,1.5533866E-2,-4.1472938E-2,8.694758E-2,-1.7115919E-2,2.651673E-2,5.9120715E-2,-2.050606E-2,9.924492E-2,-4.8377298E-2,-5.1074065E-2,6.447799E-2,-5.194048E-2,2.5963867E-2,-2.8003637E-2,3.675574E-2,4.4561543E-2,-5.5660833E-2,-2.7578488E-2,7.03308E-2,-2.384045E-2,2.958629E-2,-4.502521E-2,-6.0476746E-2,-6.403921E-2,6.375446E-2,6.136557E-2,-4.6231225E-2,5.9700757E-2,-4.4046354E-2,4.704627E-3,8.259087E-2,9.2469275E-2,6.699586E-2,8.732502E-2,-1.6173275E-2,7.1989186E-2,-5.4499418E-2,-5.7118278E-2,5.4536518E-2],"split_indices":[0,41,77,70,102,75,98,20,45,76,86,81,101,97,0,79,79,138,79,81,141,97,0,79,94,0,0,0,104,134,59,75,93,141,39,108,84,100,82,124,89,99,0,87,91,141,0,0,0,71,78,45,101,95,0,82,0,85,87,99,0,120,0,88,0,75,0,132,99,88,0,0,0,78,0,99,71,95,71,0,0,0,0,0,0,0,0,0,0,0,0,0,0,0,0,0,0,0,0,0,0,0,0,0,0,0,0,0,0,0,0,0,0,0,0,0,0,0,0,0,0],"split_type":[0,0,0,0,0,0,0,0,0,0,0,0,0,0,0,0,0,0,0,0,0,0,0,0,0,0,0,0,0,0,0,0,0,0,0,0,0,0,0,0,0,0,0,0,0,0,0,0,0,0,0,0,0,0,0,0,0,0,0,0,0,0,0,0,0,0,0,0,0,0,0,0,0,0,0,0,0,0,0,0,0,0,0,0,0,0,0,0,0,0,0,0,0,0,0,0,0,0,0,0,0,0,0,0,0,0,0,0,0,0,0,0,0,0,0,0,0,0,0,0,0],"sum_hessian":[6.0760894E3,5.0967183E3,9.7937067E2,3.5477046E3,1.5490138E3,9.583401E2,2.1030577E1,2.0663052E3,1.4813997E3,1.5286295E3,2.0384274E1,9.440115E2,1.4328619E1,1.810894E1,2.9216368E0,1.9149E3,1.5140506E2,6.235383E2,8.5786127E2,1.474305E3,5.4324406E1,1.5160623E1,5.223652E0,9.307148E2,1.3296663E1,1.0892931E1,3.4356873E0,7.7948203E0,1.031412E1,1.2454818E3,6.694182E2,1.375527E2,1.3852357E1,6.105928E2,1.2945606E1,5.992496E2,2.5861172E2,1.3973488E3,7.695628E1,2.496442E1,2.9359983E1,1.2774562E1,2.3860607E0,8.397866E2,9.09282E1,1.0920666E1,2.3759975E0,1.98979E0,8.32433E0,1.197039E3,4.8442806E1,3.4883636E2,3.2058182E2,1.355059E2,2.046797E0,7.8675876E0,5.9847693E0,4.6732874E2,1.4326402E2,1.0157239E1,2.7883668E0,5.916616E2,7.58798E0,1.8947632E2,6.91354E1,1.3491536E3,4.8195194E1,4.435247E1,3.2603813E1,1.927408E1,5.6903405E0,2.4697357E1,4.6626263E0,1.145882E1,1.3157411E0,8.029915E2,3.6795086E1,8.5610504E1,5.317692E0,7.532938E0,3.3877273E0,9.565081E2,2.4053085E2,1.3865159E1,3.457765E1,1.5744012E2,1.9139624E2,3.1117096E2,9.410862E0,1.3371886E2,1.7870545E0,2.1858687E0,5.681719E0,4.5539575E2,1.1932964E1,1.3618558E2,7.078439E0,6.436365E0,3.720874E0,5.8654626E2,5.1153235E0,1.5253224E2,3.6944073E1,1.2443348E3,1.0481881E2,4.2625786E1,1.7266839E0,1.8500729E1,1.41030855E1,1.7618958E1,1.6551219E0,2.327231E0,9.13159E0,7.251788E2,7.781276E1,2.4037422E1,1.2757662E1,8.369605E1,1.9144533E0,3.4737465E0,1.8439455E0],"tree_param":{"num_deleted":"0","num_feature":"143","num_nodes":"121","size_leaf_vector":"0"}},{"base_weights":[1.9176431E-3,-1.8227626E-1,4.4302064E-1,-3.5599902E-1,1.166561E-1,4.1063455E-1,7.197595E-1,-4.5619187E-1,-9.9468336E-2,6.448196E-2,5.378842E-1,4.203261E-1,-4.1903445E-1,7.624958E-1,-6.008635E-1,-4.8526648E-1,7.959185E-1,-1.6332264E-1,6.698466E-1,8.864242E-2,-6.8614656E-1,5.589082E-1,-5.682667E-1,4.0390602E-1,8.418525E-1,-6.527983E-1,8.309677E-1,7.816787E-1,-3.3567327E-1,-4.8911163E-1,8.6313045E-1,8.7468743E-1,-5.06485E-1,-2.878138E-1,1.8570809E-1,7.93484E-1,-5.792492E-1,1.2767163E-1,-3.4241185E-1,5.768264E-1,-5.361929E-1,4.1728786E-1,2.2971895E-2,9.577146E-1,2.509585E-1,7.9596657E-1,-4.512712E-1,-4.7468224E-1,-5.6859273E-2,-4.949206E-1,3.5842687E-1,9.629504E-1,3.7875694E-1,-3.1903654E-1,4.5018095E-1,-1.7788307E-1,4.977914E-1,8.539324E-1,-4.8035187E-1,5.6268923E-2,3.461452E-1,-3.856559E-1,1.0232036E0,5.27557E-1,1.0247431E0,4.256925E-1,-1.9094302E-1,-6.8699247E-1,3.2327342E-1,1.0475631E0,4.8650104E-1,-6.2133664E-1,7.012722E-1,8.085085E-1,-4.577735E-1,-5.000396E-1,3.188546E-1,-6.239843E-1,9.8013204E-1,9.230906E-1,-5.387112E-1,-3.6396235E-1,1.9924495E-1,-1.7685235E-1,1.1401316E0,-4.0461537E-1,7.4757797E-1,6.865973E-1,-1.6054124E-1,9.055096E-1,-4.414511E-1,2.3759935E-2,6.6778374E-1,3.695552E-1,-6.630895E-1,-4.5812386E-1,2.5997528E-1,3.9825743E-1,7.833757E-1,4.40514E-1,7.798266E-2,-6.6325617E-1,9.8531777E-1,4.7140506E-1,-6.292991E-1,1.097207E0,6.6918606E-1,-6.245742E-1,1.052215E0,8.3514947E-1,3.5920373E-1],"categories":[],"categories_nodes":[],"categories_segments":[],"categories_sizes":[],"default_left":[1,1,1,1,1,1,1,1,1,1,1,1,1,1,0,1,1,1,1,1,0,1,0,1,1,0,0,1,1,1,0,1,0,1,1,1,0,1,1,1,0,1,1,1,1,1,0,0,0,1,1,0,1,1,1,1,1,1,0,1,1,1,0,1,0,1,1,0,1,1,1,0,0,1,0,0,0,0,0,0,0,0,0,0,0,0,0,0,0,0,0,0,0,0,0,0,0,0,0,0,0,0,0,0,0,0,0,0,0,0,0],"id":10,"left_children":[1,3,5,7,9,11,13,15,17,19,21,23,25,27,-1,29,31,33,35,37,-1,39,-1,41,43,-1,-1,45,47,49,-1,51,-1,53,55,57,-1,59,61,63,-1,65,67,69,71,73,-1,-1,-1,75,77,-1,79,81,83,85,87,89,-1,91,93,95,-1,97,-1,99,101,-1,103,105,107,-1,-1,109,-1,-1,-1,-1,-1,-1,-1,-1,-1,-1,-1,-1,-1,-1,-1,-1,-1,-1,-1,-1,-1,-1,-1,-1,-1,-1,-1,-1,-1,-1,-1,-1,-1,-1,-1,-1,-1],"loss_changes":[4.9520447E2,2.2332335E2,1.5795563E1,6.985309E1,3.471218E1,1.3118744E1,1.099913E1,7.157211E1,3.7694656E1,2.559436E1,4.3667107E0,1.0675781E1,6.1194954E0,4.082817E0,0E0,1.033371E1,5.0342636E0,3.0785416E1,9.545673E0,2.3006573E1,0E0,3.6719208E0,0E0,7.8089905E0,3.7817879E0,0E0,0E0,3.504425E0,1.2079728E-1,9.56546E0,0E0,1.4985886E0,0E0,1.216523E1,2.1256933E1,4.5649643E0,0E0,1.9516153E1,7.1029215E0,3.1909866E0,0E0,7.655548E0,1.1545317E1,1.5548935E0,4.7511806E0,3.1511002E0,0E0,0E0,0E0,8.050507E0,8.893928E0,0E0,4.5323887E0,1.1740917E1,9.542612E0,1.8537487E1,1.2620823E1,3.865471E0,0E0,1.8771223E1,7.5284767E0,5.3047733E0,0E0,4.7950172E0,0E0,7.4990845E0,1.2256609E1,0E0,5.6591196E0,1.8772125E-2,6.739093E0,0E0,0E0,1.8003464E0,0E0,0E0,0E0,0E0,0E0,0E0,0E0,0E0,0E0,0E0,0E0,0E0,0E0,0E0,0E0,0E0,0E0,0E0,0E0,0E0,0E0,0E0,0E0,0E0,0E0,0E0,0E0,0E0,0E0,0E0,0E0,0E0,0E0,0E0,0E0,0E0,0E0],"parents":[2147483647,0,0,1,1,2,2,3,3,4,4,5,5,6,6,7,7,8,8,9,9,10,10,11,11,12,12,13,13,15,15,16,16,17,17,18,18,19,19,21,21,23,23,24,24,27,27,28,28,29,29,31,31,33,33,34,34,35,35,37,37,38,38,39,39,41,41,42,42,43,43,44,44,45,45,49,49,50,50,52,52,53,53,54,54,55,55,56,56,57,57,59,59,60,60,61,61,63,63,65,65,66,66,68,68,69,69,70,70,73,73],"right_children":[2,4,6,8,10,12,14,16,18,20,22,24,26,28,-1,30,32,34,36,38,-1,40,-1,42,44,-1,-1,46,48,50,-1,52,-1,54,56,58,-1,60,62,64,-1,66,68,70,72,74,-1,-1,-1,76,78,-1,80,82,84,86,88,90,-1,92,94,96,-1,98,-1,100,102,-1,104,106,108,-1,-1,110,-1,-1,-1,-1,-1,-1,-1,-1,-1,-1,-1,-1,-1,-1,-1,-1,-1,-1,-1,-1,-1,-1,-1,-1,-1,-1,-1,-1,-1,-1,-1,-1,-1,-1,-1,-1,-1],"split_conditions":[5E-1,5E-1,5E-1,5E-1,5E-1,5E-1,5E-1,5E-1,5E-1,5E-1,5E-1,5E-1,5E-1,5E-1,-6.008635E-2,5E-1,5E-1,5E-1,5E-1,5E-1,-6.8614654E-2,5E-1,-5.682667E-2,5E-1,5E-1,-6.5279834E-2,8.309677E-2,5E-1,5E-1,5E-1,8.631305E-2,5E-1,-5.06485E-2,5E-1,5E-1,5E-1,-5.7924923E-2,5E-1,5E-1,5E-1,-5.361929E-2,5E-1,5E-1,5E-1,5E-1,5E-1,-4.512712E-2,-4.7468226E-2,-5.6859273E-3,5E-1,5E-1,9.6295044E-2,5E-1,5E-1,5E-1,5E-1,5E-1,5E-1,-4.8035186E-2,5E-1,5E-1,5E-1,1.02320366E-1,5E-1,1.0247431E-1,5E-1,5E-1,-6.869925E-2,5E-1,5E-1,5E-1,-6.2133666E-2,7.012722E-2,5E-1,-4.577735E-2,-5.0003957E-2,3.188546E-2,-6.239843E-2,9.801321E-2,9.230906E-2,-5.387112E-2,-3.6396235E-2,1.9924495E-2,-1.7685235E-2,1.1401316E-1,-4.0461536E-2,7.47578E-2,6.865973E-2,-1.6054124E-2,9.055096E-2,-4.414511E-2,2.3759936E-3,6.677838E-2,3.695552E-2,-6.630895E-2,-4.5812387E-2,2.5997529E-2,3.9825745E-2,7.833757E-2,4.40514E-2,7.7982657E-3,-6.632562E-2,9.8531775E-2,4.7140505E-2,-6.292991E-2,1.097207E-1,6.6918604E-2,-6.245742E-2,1.052215E-1,8.351495E-2,3.5920374E-2],"split_indices":[41,70,91,69,51,102,78,8,66,39,101,100,97,89,0,139,99,88,80,97,0,73,0,95,69,0,0,90,82,14,0,135,0,108,80,88,0,78,124,100,0,135,86,78,141,84,0,0,0,2,135,0,86,91,100,51,135,73,0,48,91,66,0,88,0,76,81,0,124,80,116,0,0,74,0,0,0,0,0,0,0,0,0,0,0,0,0,0,0,0,0,0,0,0,0,0,0,0,0,0,0,0,0,0,0,0,0,0,0,0,0],"split_type":[0,0,0,0,0,0,0,0,0,0,0,0,0,0,0,0,0,0,0,0,0,0,0,0,0,0,0,0,0,0,0,0,0,0,0,0,0,0,0,0,0,0,0,0,0,0,0,0,0,0,0,0,0,0,0,0,0,0,0,0,0,0,0,0,0,0,0,0,0,0,0,0,0,0,0,0,0,0,0,0,0,0,0,0,0,0,0,0,0,0,0,0,0,0,0,0,0,0,0,0,0,0,0,0,0,0,0,0,0,0,0],"sum_hessian":[6.092944E3,4.298557E3,1.7943865E3,2.7185166E3,1.5800405E3,1.6086177E3,1.8576888E2,1.954408E3,7.6410876E2,1.4069287E3,1.731119E2,1.5905316E3,1.8086035E1,1.8035507E2,5.4137955E0,1.910654E3,4.3753872E1,7.062746E2,5.7834156E1,1.3639104E3,4.3018246E1,1.7036852E2,2.7433796E0,1.532782E3,5.7749626E1,1.5639114E1,2.4469202E0,1.7754196E2,2.8131151E0,1.9058564E3,4.797557E0,4.1568245E1,2.1856275E0,5.207209E2,1.8555368E2,5.2957134E1,4.8770227E0,1.2513156E3,1.1259483E2,1.6809145E2,2.2770617E0,1.480672E3,5.2109993E1,4.7763412E1,9.986211E0,1.7585847E2,1.6834874E0,1.4084139E0,1.4047012E0,1.893296E3,1.2560489E1,3.4488472E1,7.079773E0,5.0012936E2,2.0591543E1,8.5902916E1,9.9650764E1,5.0872665E1,2.0844662E0,9.4403766E2,3.0727792E2,1.0983437E2,2.7604594E0,1.533962E2,1.469526E1,1.4607867E3,1.988527E1,1.5106935E1,3.700306E1,3.9087334E1,8.676079E0,3.2707362E0,6.7154746E0,1.7446828E2,1.3901954E0,1.881844E3,1.1452022E1,4.8666306E0,7.6938577E0,4.4396195E0,2.6401536E0,4.6050916E2,3.9620205E1,1.1177241E1,9.414303E0,6.9450714E1,1.6452204E1,7.7407745E1,2.224302E1,4.921412E1,1.6585468E0,8.9737103E2,4.6666653E1,3.0093143E2,6.346515E0,9.90114E1,1.082297E1,1.0359333E2,4.980286E1,1.4008088E3,5.997785E1,1.449936E1,5.385909E0,3.2460373E1,4.542689E0,3.287437E1,6.212963E0,2.8920262E0,5.7840524E0,1.6389177E2,1.0576511E1],"tree_param":{"num_deleted":"0","num_feature":"143","num_nodes":"111","size_leaf_vector":"0"}},{"base_weights":[8.869077E-3,7.351801E-2,-4.2071542E-1,1.4156857E-1,-7.22922E-2,-4.4244826E-1,6.0921794E-1,1.6036817E-1,-5.2856576E-1,-1.2525073E-1,3.747728E-2,-4.6170568E-1,5.586384E-1,8.015719E-1,-1.1527002E-1,2.3646186E-1,-1.6569672E-2,-5.639984E-1,8.516268E-1,-1.4400753E-1,1.9227812E-1,-3.0840283E-2,3.091031E-1,-4.996183E-1,-1.4414446E-1,9.7941893E-1,-2.8465703E-1,9.9578536E-1,2.8982924E-3,3.4805927E-1,5.4055635E-2,-9.0331696E-2,2.4730614E-1,-5.763426E-1,-3.388207E-1,-1.5761198E-1,2.751196E-1,-3.405282E-2,9.1674405E-1,-9.624419E-2,2.6670608E-1,2.307245E-1,8.765375E-1,-5.1803446E-1,5.9708964E-2,-2.1223842E-1,7.334207E-1,1.0760607E-1,-5.4822946E-1,5.6329684E-4,3.993219E-3,3.678693E-1,-5.725954E-1,2.522484E-2,4.6900257E-1,-1.6467248E-1,9.7747535E-2,3.5706112E-1,-1.4706495E-1,-6.341859E-1,-4.5830154E-1,-1.1248343E-2,-5.42029E-1,-1.6105114E-1,9.8988897E-1,7.0677865E-1,-7.343452E-2,-1.9405875E-1,5.0749326E-1,1.1630015E0,7.548863E-2,-1.1720411E-1,1.0149441E0,3.2872E-1,-3.7418583E-1,2.7056754E-1,-5.872208E-1,1.0446788E0,5.698325E-1,-5.249289E-1,3.9240202E-1,9.613003E-1,-4.3694758E-1,-3.018214E-1,2.0160514E-1,9.615179E-1,-3.975045E-2,4.5703277E-1,2.0204595E-1,-5.911947E-1,-2.603617E-1,-1.3410634E-2,3.9347288E-1,7.4526757E-1,-1.6668823E-1,-1.9001883E-1,3.4249237E-1,4.244549E-3,4.1064277E-1,3.9254442E-1,-4.1877094E-1,5.409897E-1,-2.7106252E-1,-6.496453E-1,-2.714442E-1,-2.0859523E-1,-6.002467E-1,-1.6446583E-1,9.6936655E-1,1.2764403E0,5.3709634E-2,-1.8378246E-1,8.2521284E-1,4.3483727E-4,-6.00207E-1,1.2365022E0,-3.1073815E-1,1.2844079E0,4.316058E-1,-1.2906002E-1,1.0451922E0,3.8218236E-1,-4.1876584E-1,2.4096632E-1,1.0455357E0,2.3344612E-1,8.3611685E-1,-5.355607E-1,-1.5225519E-1,8.48987E-1,-4.377725E-1,7.440319E-1,-6.1084807E-1,-3.3967596E-1,8.6496055E-1,7.1007276E-1,-2.0541154E-1],"categories":[],"categories_nodes":[],"categories_segments":[],"categories_sizes":[],"default_left":[1,1,1,1,1,1,1,1,1,1,1,1,1,1,0,1,1,1,0,1,1,1,1,1,1,0,1,0,1,1,1,1,1,1,1,1,1,1,1,1,1,1,1,1,1,1,1,0,0,0,0,1,1,1,1,1,1,1,1,1,1,0,0,1,0,1,1,1,1,1,0,1,0,1,0,1,0,0,1,1,1,0,1,1,1,0,0,0,0,0,0,0,0,0,0,0,0,0,0,0,0,0,0,0,0,0,0,0,0,0,0,0,0,0,0,0,0,0,0,0,0,0,0,0,0,0,0,0,0,0,0,0,0,0,0,0,0],"id":11,"left_children":[1,3,5,7,9,11,13,15,17,19,21,23,25,27,-1,29,31,33,-1,35,37,39,41,43,45,-1,47,-1,49,51,53,55,57,59,61,63,65,67,69,71,73,75,77,79,81,83,85,-1,-1,-1,-1,87,89,91,93,95,97,99,101,103,105,-1,-1,107,-1,109,111,113,115,117,-1,119,-1,121,-1,123,-1,-1,125,127,129,-1,131,133,135,-1,-1,-1,-1,-1,-1,-1,-1,-1,-1,-1,-1,-1,-1,-1,-1,-1,-1,-1,-1,-1,-1,-1,-1,-1,-1,-1,-1,-1,-1,-1,-1,-1,-1,-1,-1,-1,-1,-1,-1,-1,-1,-1,-1,-1,-1,-1,-1,-1,-1,-1,-1],"loss_changes":[1.7062784E2,5.2996902E1,1.8258102E1,4.5957527E1,9.886451E0,1.5442078E1,2.465445E0,4.770098E1,5.3508263E0,6.858391E0,1.0289637E1,9.238342E0,5.714194E0,2.1037912E0,0E0,5.040944E1,2.0776707E1,7.629776E-2,0E0,6.221445E0,1.0590471E1,8.657603E0,4.753252E0,7.1427917E0,5.1681886E0,0E0,6.662761E-1,0E0,7.1067807E-6,2.8238907E1,1.1251764E1,1.167815E1,1.0147053E1,3.320408E-1,4.9341977E-1,4.3034496E0,5.2317786E0,4.433833E0,3.0953655E0,8.605113E0,3.3102698E0,3.393618E0,8.364868E-2,4.4023285E0,1.0676364E1,2.9754617E0,1.1430194E0,0E0,0E0,0E0,0E0,2.216011E1,3.63369E-2,1.25454235E1,1.0856385E1,7.7543697E0,6.929539E0,5.1948624E0,4.538971E0,1.52277E-1,1.0656662E0,0E0,0E0,4.2039185E0,0E0,5.688374E0,2.130305E0,3.1082332E0,7.3559465E0,4.9490643E-1,0E0,5.0756645E0,0E0,3.1033406E0,0E0,1.9349647E0,0E0,0E0,4.1946077E-1,2.549057E0,2.4930825E0,0E0,3.6288397E0,3.165977E0,3.1651714E0,0E0,0E0,0E0,0E0,0E0,0E0,0E0,0E0,0E0,0E0,0E0,0E0,0E0,0E0,0E0,0E0,0E0,0E0,0E0,0E0,0E0,0E0,0E0,0E0,0E0,0E0,0E0,0E0,0E0,0E0,0E0,0E0,0E0,0E0,0E0,0E0,0E0,0E0,0E0,0E0,0E0,0E0,0E0,0E0,0E0,0E0,0E0,0E0,0E0,0E0,0E0,0E0],"parents":[2147483647,0,0,1,1,2,2,3,3,4,4,5,5,6,6,7,7,8,8,9,9,10,10,11,11,12,12,13,13,15,15,16,16,17,17,19,19,20,20,21,21,22,22,23,23,24,24,26,26,28,28,29,29,30,30,31,31,32,32,33,33,34,34,35,35,36,36,37,37,38,38,39,39,40,40,41,41,42,42,43,43,44,44,45,45,46,46,51,51,52,52,53,53,54,54,55,55,56,56,57,57,58,58,59,59,60,60,63,63,65,65,66,66,67,67,68,68,69,69,71,71,73,73,75,75,78,78,79,79,80,80,82,82,83,83,84,84],"right_children":[2,4,6,8,10,12,14,16,18,20,22,24,26,28,-1,30,32,34,-1,36,38,40,42,44,46,-1,48,-1,50,52,54,56,58,60,62,64,66,68,70,72,74,76,78,80,82,84,86,-1,-1,-1,-1,88,90,92,94,96,98,100,102,104,106,-1,-1,108,-1,110,112,114,116,118,-1,120,-1,122,-1,124,-1,-1,126,128,130,-1,132,134,136,-1,-1,-1,-1,-1,-1,-1,-1,-1,-1,-1,-1,-1,-1,-1,-1,-1,-1,-1,-1,-1,-1,-1,-1,-1,-1,-1,-1,-1,-1,-1,-1,-1,-1,-1,-1,-1,-1,-1,-1,-1,-1,-1,-1,-1,-1,-1,-1,-1,-1,-1,-1],"split_conditions":[5E-1,5E-1,5E-1,5E-1,5E-1,5E-1,5E-1,5E-1,5E-1,5E-1,5E-1,5E-1,5E-1,5E-1,-1.1527002E-2,5E-1,5E-1,5E-1,8.5162684E-2,5E-1,5E-1,5E-1,5E-1,5E-1,5E-1,9.79419E-2,5E-1,9.957854E-2,5E-1,5E-1,5E-1,5E-1,5E-1,5E-1,5E-1,5E-1,5E-1,5E-1,5E-1,5E-1,5E-1,5E-1,5E-1,5E-1,5E-1,5E-1,5E-1,1.0760607E-2,-5.4822948E-2,5.6329685E-5,3.9932193E-4,5E-1,5E-1,5E-1,5E-1,5E-1,5E-1,5E-1,5E-1,5E-1,5E-1,-1.1248343E-3,-5.4202903E-2,5E-1,9.89889E-2,5E-1,5E-1,5E-1,5E-1,5E-1,7.5488626E-3,5E-1,1.0149441E-1,5E-1,-3.7418585E-2,5E-1,-5.872208E-2,1.0446788E-1,5E-1,5E-1,5E-1,9.6130036E-2,5E-1,5E-1,5E-1,9.615179E-2,-3.975045E-3,4.5703277E-2,2.0204594E-2,-5.911947E-2,-2.6036171E-2,-1.3410634E-3,3.9347287E-2,7.452676E-2,-1.6668824E-2,-1.9001884E-2,3.424924E-2,4.2445492E-4,4.1064277E-2,3.925444E-2,-4.1877095E-2,5.409897E-2,-2.7106253E-2,-6.496453E-2,-2.714442E-2,-2.0859523E-2,-6.0024675E-2,-1.6446583E-2,9.693666E-2,1.2764403E-1,5.3709634E-3,-1.8378247E-2,8.252128E-2,4.3483727E-5,-6.0020696E-2,1.23650216E-1,-3.1073814E-2,1.2844078E-1,4.316058E-2,-1.2906002E-2,1.04519226E-1,3.8218237E-2,-4.1876584E-2,2.4096632E-2,1.0455357E-1,2.3344612E-2,8.361169E-2,-5.3556073E-2,-1.5225519E-2,8.48987E-2,-4.3777253E-2,7.440319E-2,-6.1084807E-2,-3.3967596E-2,8.6496055E-2,7.1007274E-2,-2.0541154E-2],"split_indices":[0,79,81,20,93,75,141,41,95,95,45,79,93,94,0,45,69,100,0,34,141,142,135,77,91,0,103,0,104,8,135,93,75,104,104,43,99,45,45,13,89,117,69,73,104,93,71,0,0,0,0,78,99,73,92,87,104,120,86,96,80,0,0,33,0,142,69,104,90,72,0,101,0,35,0,115,0,0,82,97,101,0,84,95,142,0,0,0,0,0,0,0,0,0,0,0,0,0,0,0,0,0,0,0,0,0,0,0,0,0,0,0,0,0,0,0,0,0,0,0,0,0,0,0,0,0,0,0,0,0,0,0,0,0,0,0,0],"split_type":[0,0,0,0,0,0,0,0,0,0,0,0,0,0,0,0,0,0,0,0,0,0,0,0,0,0,0,0,0,0,0,0,0,0,0,0,0,0,0,0,0,0,0,0,0,0,0,0,0,0,0,0,0,0,0,0,0,0,0,0,0,0,0,0,0,0,0,0,0,0,0,0,0,0,0,0,0,0,0,0,0,0,0,0,0,0,0,0,0,0,0,0,0,0,0,0,0,0,0,0,0,0,0,0,0,0,0,0,0,0,0,0,0,0,0,0,0,0,0,0,0,0,0,0,0,0,0,0,0,0,0,0,0,0,0,0,0],"sum_hessian":[6.1417266E3,5.3390693E3,8.026571E2,3.6401958E3,1.6988737E3,7.866287E2,1.6028404E1,3.541602E3,9.859364E1,1.1458937E3,5.5298E2,7.72311E2,1.4317774E1,1.2581559E1,3.4468443E0,2.4763079E3,1.0652943E3,9.670244E1,1.8912048E0,1.0824958E3,6.3397842E1,4.425573E2,1.1042268E2,6.894289E2,8.288203E1,9.444044E0,4.8737297E0,9.922023E0,2.6595368E0,1.5357915E3,9.4051624E2,8.3307886E2,2.3221545E2,9.0198296E1,6.5041456E0,1.0490681E3,3.3427727E1,4.9032547E1,1.4365298E1,3.6336276E2,7.919453E1,9.825722E1,1.2165467E1,6.675242E2,2.190477E1,7.761751E1,5.264516E0,2.1965065E0,2.677223E0,1.3324561E0,1.3270807E0,1.5040293E3,3.1762255E1,8.804058E2,6.0110405E1,5.971658E2,2.3591313E2,1.8173306E2,5.0482395E1,5.7600086E1,3.259821E1,2.8941398E0,3.610006E0,1.0467904E3,2.2776694E0,1.4474439E1,1.8953289E1,3.83448E1,1.0687747E1,1.0816551E1,3.5487468E0,3.5751364E2,5.8491173E0,7.26517E1,6.542825E0,9.4331436E1,3.9257798E0,6.3035874E0,5.86188E0,6.629274E2,4.5967464E0,7.4482527E0,1.4456517E1,6.402827E1,1.3589244E1,3.8771079E0,1.3874081E0,9.7696014E2,5.2706915E2,2.913339E1,2.6288629E0,7.976793E2,8.272653E1,4.1780594E1,1.8329813E1,5.693375E2,2.7828197E1,1.8241527E2,5.3497875E1,1.742573E2,7.4757624E0,7.1949844E0,4.3287415E1,5.4487007E1,3.1130803E0,1.270951E1,1.9888699E1,1.0444899E3,2.300612E0,7.2210803E0,7.253359E0,1.758897E1,1.3643188E0,2.6603851E1,1.1740948E1,5.3816977E0,5.3060493E0,8.628223E0,2.188328E0,3.54784E2,2.7296631E0,6.825837E1,4.393327E0,9.212356E1,2.2078772E0,3.419209E0,2.4426708E0,6.4411475E2,1.881266E1,2.9510484E0,1.6456981E0,1.4347126E0,1.3021805E1,6.270284E1,1.3254256E0,5.7106304E0,7.878613E0],"tree_param":{"num_deleted":"0","num_feature":"143","num_nodes":"137","size_leaf_vector":"0"}},{"base_weights":[1.2648592E-3,-1.4417835E-1,7.4183536E-1,-2.5730627E-2,-4.2753753E-1,7.614129E-1,-2.62253E-1,1.2168228E-1,-2.3464176E-1,-4.3764567E-1,-1.4548169E-1,7.764007E-1,-3.2021093E-1,-4.1662002E-1,7.407125E-1,7.482084E-2,7.557082E-1,-4.0967926E-1,-1.1026138E-1,-4.055976E-1,-5.291208E-1,-5.2802676E-1,3.8800132E-1,7.8694403E-1,4.224499E-2,-6.254835E-1,7.7697587E-1,-6.223116E-1,-1.9643208E-1,-3.7973486E-2,2.772041E-1,8.6233646E-1,-1.9630958E-1,-4.2679763E-1,2.70068E-1,-1.7391893E-1,4.1527086E-1,-3.9210284E-1,-6.1446965E-1,-5.4098034E-1,6.563209E-1,-6.639081E-1,3.375565E-1,5.8337265E-1,-5.2893525E-1,8.1399775E-1,5.4393196E-1,-1.972316E-1,5.614949E-1,-4.063141E-1,-1.1056711E-1,-1.1674118E-1,1.1368453E-1,6.256771E-2,5.037592E-1,8.841938E-1,-4.668143E-1,-4.2696133E-1,4.6666288E-1,-4.3749478E-1,5.505559E-1,8.368071E-4,9.628108E-1,-2.0854612E-1,9.544346E-2,-3.9270037E-1,8.4550524E-1,-3.9679986E-1,2.1550944E-2,-6.6017383E-1,-2.5506374E-1,-5.5561525E-1,4.5881534E-1,2.1438587E-1,1.1261564E0,8.2903564E-1,4.495357E-1,5.9388E-1,-2.9267585E-1,-5.8304924E-1,6.154675E-1,-1.7763104E-2,-2.5216207E-1,4.960609E-2,6.149785E-1,-1.9939625E-1,2.706802E-1,5.2837086E-1,-2.5135967E-1,9.0486664E-1,-4.3517452E-1,-6.512099E-1,6.821094E-1,-4.912395E-1,-2.5671822E-1,-5.1558805E-1,1.2893034E0,5.130309E-1,-5.795277E-1,-2.1465135E-1,9.0348625E-1,-7.0291534E-2,6.5205103E-1,-4.4245005E-1,4.7457492E-1,9.480364E-1,6.2060994E-1,-4.0686923E-1,-1.8912326E-1,-6.10368E-1,1.1968526E0,-5.827857E-1,7.6992625E-1,-5.648135E-1,8.8584416E-2,9.24962E-1,-4.4157663E-1,-2.5247324E-1,8.457134E-1,8.3384186E-1,-6.172516E-2,8.2035685E-1,-2.7632442E-1,7.9086685E-1,3.5300118E-1,2.0753184E-1,-5.492648E-1],"categories":[],"categories_nodes":[],"categories_segments":[],"categories_sizes":[],"default_left":[1,1,1,1,1,1,1,1,1,1,1,1,1,1,0,1,1,1,1,1,1,1,1,1,1,0,0,0,1,1,1,1,1,1,1,1,1,1,1,1,0,0,0,1,0,1,1,1,0,0,0,1,1,1,1,1,0,1,0,1,1,1,0,1,1,1,1,1,1,0,1,1,1,1,0,1,1,1,1,0,0,0,0,0,0,0,0,0,0,0,0,0,0,0,0,0,0,0,0,0,0,0,0,0,0,0,0,0,0,0,0,0,0,0,0,0,0,0,0,0,0,0,0,0,0,0,0],"id":12,"left_children":[1,3,5,7,9,11,13,15,17,19,21,23,25,27,-1,29,31,33,35,37,39,41,43,45,47,-1,-1,-1,49,51,53,55,57,59,61,63,65,67,69,71,-1,-1,-1,73,-1,75,77,79,-1,-1,-1,81,83,85,87,89,-1,91,-1,93,95,97,-1,99,101,103,105,107,109,-1,111,113,115,117,-1,119,121,123,125,-1,-1,-1,-1,-1,-1,-1,-1,-1,-1,-1,-1,-1,-1,-1,-1,-1,-1,-1,-1,-1,-1,-1,-1,-1,-1,-1,-1,-1,-1,-1,-1,-1,-1,-1,-1,-1,-1,-1,-1,-1,-1,-1,-1,-1,-1,-1,-1],"loss_changes":[6.4807635E2,1.6878296E2,1.9615295E1,1.0928328E2,4.1629333E0,1.5958008E1,3.3483176E0,6.1762135E1,3.1915611E1,3.9795532E0,1.0977804E1,7.3674316E0,5.1592026E0,6.7734885E-1,0E0,4.426318E1,1.469445E1,7.2070694E0,2.8828255E1,2.757492E0,5.527336E0,3.8897839E0,4.3609877E0,5.753601E0,1.9253666E0,0E0,0E0,0E0,1.3507512E-1,1.4893754E1,3.37098E1,4.15641E0,2.5276356E0,6.4602585E0,2.905693E0,7.177664E0,3.2717754E1,1.9553528E0,8.630867E-1,5.592781E0,0E0,0E0,0E0,3.5885987E0,0E0,4.2645264E0,4.2450886E0,3.7223737E0,0E0,0E0,0E0,1.0991245E1,1.3663846E1,1.954168E1,6.403778E0,3.8610535E0,0E0,3.3835979E0,0E0,5.5964355E0,6.0860696E0,3.9307618E0,0E0,4.8126507E0,8.173015E0,1.6361675E0,8.2077026E-1,1.9949493E0,9.790046E0,0E0,3.3758206E0,2.1831894E0,2.8472772E0,3.9329815E0,0E0,3.5251465E0,9.838778E0,4.0990486E0,9.0448207E-1,0E0,0E0,0E0,0E0,0E0,0E0,0E0,0E0,0E0,0E0,0E0,0E0,0E0,0E0,0E0,0E0,0E0,0E0,0E0,0E0,0E0,0E0,0E0,0E0,0E0,0E0,0E0,0E0,0E0,0E0,0E0,0E0,0E0,0E0,0E0,0E0,0E0,0E0,0E0,0E0,0E0,0E0,0E0,0E0,0E0,0E0,0E0,0E0],"parents":[2147483647,0,0,1,1,2,2,3,3,4,4,5,5,6,6,7,7,8,8,9,9,10,10,11,11,12,12,13,13,15,15,16,16,17,17,18,18,19,19,20,20,21,21,22,22,23,23,24,24,28,28,29,29,30,30,31,31,32,32,33,33,34,34,35,35,36,36,37,37,38,38,39,39,43,43,45,45,46,46,47,47,51,51,52,52,53,53,54,54,55,55,57,57,59,59,60,60,61,61,63,63,64,64,65,65,66,66,67,67,68,68,70,70,71,71,72,72,73,73,75,75,76,76,77,77,78,78],"right_children":[2,4,6,8,10,12,14,16,18,20,22,24,26,28,-1,30,32,34,36,38,40,42,44,46,48,-1,-1,-1,50,52,54,56,58,60,62,64,66,68,70,72,-1,-1,-1,74,-1,76,78,80,-1,-1,-1,82,84,86,88,90,-1,92,-1,94,96,98,-1,100,102,104,106,108,110,-1,112,114,116,118,-1,120,122,124,126,-1,-1,-1,-1,-1,-1,-1,-1,-1,-1,-1,-1,-1,-1,-1,-1,-1,-1,-1,-1,-1,-1,-1,-1,-1,-1,-1,-1,-1,-1,-1,-1,-1,-1,-1,-1,-1,-1,-1,-1,-1,-1,-1,-1,-1,-1,-1,-1],"split_conditions":[5E-1,5E-1,5E-1,5E-1,5E-1,5E-1,5E-1,5E-1,5E-1,5E-1,5E-1,5E-1,5E-1,5E-1,7.407125E-2,5E-1,5E-1,5E-1,5E-1,5E-1,5E-1,5E-1,5E-1,5E-1,5E-1,-6.2548354E-2,7.769759E-2,-6.223116E-2,5E-1,5E-1,5E-1,5E-1,5E-1,5E-1,5E-1,5E-1,5E-1,5E-1,5E-1,5E-1,6.56321E-2,-6.639081E-2,3.3755653E-2,5E-1,-5.2893527E-2,5E-1,5E-1,5E-1,5.614949E-2,-4.063141E-2,-1.1056711E-2,5E-1,5E-1,5E-1,5E-1,5E-1,-4.668143E-2,5E-1,4.666629E-2,5E-1,5E-1,5E-1,9.628108E-2,5E-1,5E-1,5E-1,5E-1,5E-1,5E-1,-6.601738E-2,5E-1,5E-1,5E-1,5E-1,1.12615645E-1,5E-1,5E-1,5E-1,5E-1,-5.8304925E-2,6.154675E-2,-1.7763105E-3,-2.5216207E-2,4.960609E-3,6.149785E-2,-1.9939626E-2,2.7068019E-2,5.2837085E-2,-2.5135968E-2,9.048667E-2,-4.351745E-2,-6.512099E-2,6.8210945E-2,-4.912395E-2,-2.5671823E-2,-5.1558804E-2,1.2893035E-1,5.130309E-2,-5.795277E-2,-2.1465136E-2,9.034862E-2,-7.0291534E-3,6.5205105E-2,-4.4245005E-2,4.7457494E-2,9.480364E-2,6.2060993E-2,-4.0686924E-2,-1.8912327E-2,-6.1036803E-2,1.19685255E-1,-5.827857E-2,7.699262E-2,-5.648135E-2,8.858441E-3,9.24962E-2,-4.4157665E-2,-2.5247324E-2,8.457134E-2,8.3384186E-2,-6.172516E-3,8.203568E-2,-2.7632443E-2,7.908668E-2,3.5300117E-2,2.0753184E-2,-5.492648E-2],"split_indices":[0,41,77,70,98,75,98,20,45,69,104,81,101,97,0,79,79,138,98,75,131,102,78,79,94,0,0,0,104,78,59,95,87,67,39,97,79,120,141,84,0,0,0,82,0,87,91,141,0,0,0,93,142,45,101,75,0,94,0,141,94,99,0,107,79,117,82,76,82,0,84,96,73,69,0,73,71,71,86,0,0,0,0,0,0,0,0,0,0,0,0,0,0,0,0,0,0,0,0,0,0,0,0,0,0,0,0,0,0,0,0,0,0,0,0,0,0,0,0,0,0,0,0,0,0,0,0],"split_type":[0,0,0,0,0,0,0,0,0,0,0,0,0,0,0,0,0,0,0,0,0,0,0,0,0,0,0,0,0,0,0,0,0,0,0,0,0,0,0,0,0,0,0,0,0,0,0,0,0,0,0,0,0,0,0,0,0,0,0,0,0,0,0,0,0,0,0,0,0,0,0,0,0,0,0,0,0,0,0,0,0,0,0,0,0,0,0,0,0,0,0,0,0,0,0,0,0,0,0,0,0,0,0,0,0,0,0,0,0,0,0,0,0,0,0,0,0,0,0,0,0,0,0,0,0,0,0],"sum_hessian":[6.0148174E3,5.028131E3,9.8668677E2,3.546669E3,1.4814618E3,9.6805347E2,1.86333E1,2.0796404E3,1.4670286E3,1.4296743E3,5.178744E1,9.5510114E2,1.2952356E1,1.6654594E1,1.9787067E0,1.9375521E3,1.4208827E2,6.084616E2,8.5856696E2,1.0627699E3,3.6690448E2,3.0166298E1,2.1621141E1,9.4150806E2,1.3593072E1,1.0469364E1,2.4829924E0,7.6665273E0,8.988067E0,1.2446714E3,6.9288074E2,1.27861664E2,1.4226607E1,5.938778E2,1.4583776E1,7.6640204E2,9.216496E1,1.00097614E3,6.1793724E1,3.6380847E2,3.0960062E0,2.6274633E1,3.8916638E0,1.812338E1,3.4977603E0,8.450787E2,9.64294E1,9.727115E0,3.8659573E0,1.5260038E0,7.4620633E0,8.1935004E2,4.2532138E2,3.5645474E2,3.36426E2,1.261224E2,1.739262E0,1.0818708E1,3.407899E0,5.8799457E2,5.8832445E0,1.1223158E1,3.3606188E0,6.793019E2,8.710013E1,3.2054504E1,6.0110455E1,9.8977795E2,1.1198172E1,5.4079773E1,7.713951E0,3.5899777E2,4.8106985E0,1.1619423E1,6.503958E0,8.1036774E2,3.4710884E1,9.127041E1,5.1589885E0,6.7874455E0,2.9396691E0,4.7402213E2,3.4532794E2,3.7809048E2,4.723087E1,1.5782837E2,1.9862639E2,3.2609775E2,1.0328247E1,1.2448602E2,1.6363783E0,9.342529E0,1.4761796E0,4.519214E2,1.3607321E2,2.5316713E0,3.3515735E0,6.0233436E0,5.1998143E0,6.763953E2,2.9065409E0,6.778904E1,1.931109E1,3.0778776E1,1.27573E0,3.907876E1,2.1031698E1,9.4309216E2,4.6685764E1,7.5951786E0,3.602993E0,6.1719913E0,1.5419595E0,3.540655E2,4.9323E0,3.1517181E0,1.6589806E0,7.0247765E0,4.594646E0,8.060823E2,4.2854643E0,2.2887917E1,1.1822967E1,4.8953644E1,4.2316765E1,1.8139567E0,3.3450317E0],"tree_param":{"num_deleted":"0","num_feature":"143","num_nodes":"127","size_leaf_vector":"0"}},{"base_weights":[-7.043429E-4,-1.7311276E-1,4.0148294E-1,-3.378404E-1,9.642697E-2,4.1682798E-1,-9.046933E-2,-4.3878126E-1,-8.4199145E-2,4.6384573E-2,4.8696232E-1,4.234543E-1,-4.006734E-1,-6.673818E-1,1.6539042E-1,-4.6886215E-1,8.224347E-1,-1.3644664E-1,5.6054056E-1,6.664738E-2,-6.7061275E-1,3.0331343E-1,6.3996255E-1,3.9718407E-1,6.307251E-1,-6.3354045E-1,7.2945696E-1,2.9606754E-1,-6.279602E-1,-4.735981E-1,8.752889E-1,8.853703E-1,-4.6304998E-1,-2.6029298E-1,2.0060895E-1,7.0469403E-1,-5.8404005E-1,-5.15998E-3,2.767021E-1,3.8406828E-1,-6.627864E-1,6.9712824E-1,-6.407535E-1,4.0552354E-1,-2.1720351E-1,6.746579E-1,-6.1073697E-1,-6.597341E-2,5.6425065E-1,-4.7768572E-1,7.249733E-1,9.5823073E-1,6.518607E-1,-2.9800162E-1,5.0021994E-1,3.2802802E-1,-3.667813E-1,9.991024E-1,3.494673E-1,-1.881166E-2,1.225955E0,2.101184E-1,7.8566694E-1,5.4569915E-2,6.822605E-1,7.19605E-1,-4.6938065E-1,3.84965E-1,6.50346E-1,-6.58374E-1,9.139808E-1,6.873844E-1,-4.5837122E-1,-7.183068E-1,9.994263E-1,7.40177E-1,-5.4828817E-1,-4.8090506E-1,7.273203E-1,-4.3538508E-1,1.190202E0,8.80738E-1,-5.1396525E-1,-3.5587227E-1,2.603025E-1,-6.0429025E-1,8.757088E-1,8.4326945E-2,5.588487E-1,-6.7588985E-1,7.621527E-1,1.14116356E-1,1.0056667E0,-4.6200316E-2,5.6743515E-1,1.7796372E-1,9.360197E-1,9.53195E-1,-6.575197E-1,-1.3474022E-1,1.0577348E0,7.345803E-1,-4.7233713E-1,8.2498384E-1,