{"learner":{"attributes":{"best_iteration":"99","best_ntree_limit":"100","scikit_learn":"{\"use_label_encoder\": null, \"n_estimators\": 100, \"objective\": \"multi:softmax\", \"max_depth\": 7, \"max_leaves\": null, \"max_bin\": null, \"grow_policy\": null, \"learning_rate\": 0.1, \"verbosity\": null, \"booster\": null, \"tree_method\": null, \"gamma\": null, \"min_child_weight\": null, \"max_delta_step\": null, \"subsample\": 0.8, \"sampling_method\": null, \"colsample_bytree\": null, \"colsample_bylevel\": null, \"colsample_bynode\": null, \"reg_alpha\": null, \"reg_lambda\": null, \"scale_pos_weight\": null, \"base_score\": null, \"missing\": NaN, \"num_parallel_tree\": null, \"random_state\": null, \"n_jobs\": null, \"monotone_constraints\": null, \"interaction_constraints\": null, \"importance_type\": null, \"gpu_id\": null, \"validate_parameters\": null, \"predictor\": null, \"enable_categorical\": false, \"feature_types\": null, \"max_cat_to_onehot\": null, \"max_cat_threshold\": null, \"eval_metric\": \"mlogloss\", \"early_stopping_rounds\": null, \"callbacks\": null, \"kwargs\": {\"num_class\": 3}, \"classes_\": [0, 1, 2], \"n_classes_\": 3, \"_estimator_type\": \"classifier\"}"},"feature_names":["Species_Acinetobacter baumannii","Species_Acinetobacter baylyi","Species_Acinetobacter bereziniae","Species_Acinetobacter calcoaceticus","Species_Acinetobacter colistiniresistens","Species_Acinetobacter courvalinii","Species_Acinetobacter dijkshoorniae","Species_Acinetobacter guillouiae","Species_Acinetobacter haemolyticus","Species_Acinetobacter johnsonii","Species_Acinetobacter junii","Species_Acinetobacter lactucae","Species_Acinetobacter lwoffii","Species_Acinetobacter nosocomialis","Species_Acinetobacter pitii","Species_Acinetobacter proteolyticus","Species_Acinetobacter radioresistens","Species_Acinetobacter schindleri","Species_Acinetobacter seifertii","Species_Acinetobacter soli","Species_Acinetobacter spp","Species_Acinetobacter ursingii","Species_Acinetobacter variabilis","Species_Aeromonas hydrophila","Species_Alcaligenes faecalis","Species_Bordetella trematum","Species_Burkholderia cenocepacia","Species_Citrobacter amalonaticus","Species_Citrobacter braakii","Species_Citrobacter freundii","Species_Citrobacter koseri","Species_Citrobacter sedlakii","Species_Citrobacter spp","Species_Enterobacter asburiae","Species_Enterobacter bugandensis","Species_Enterobacter cloacae","Species_Enterobacter hormaechi","Species_Enterobacter kobei","Species_Enterobacter ludwigii","Species_Enterobacter roggenkampii","Species_Enterobacter spp","Species_Enterobacter xiangfangensis","Species_Escherichia coli","Species_Escherichia spp","Species_Haemophilus influenzae","Species_Klebsiella aerogenes","Species_Klebsiella oxytoca","Species_Klebsiella pneumoniae","Species_Klebsiella spp","Species_Klebsiella variicola","Species_Morganella morganii","Species_Myroides odoratimimus","Species_Proteus hauseri","Species_Proteus mirabilis","Species_Proteus penneri","Species_Proteus spp","Species_Proteus vulgaris","Species_Providencia alcalifaciens","Species_Providencia rettgeri","Species_Providencia spp","Species_Providencia stuartii","Species_Pseudomonas aeruginosa","Species_Pseudomonas fulva","Species_Pseudomonas putida","Species_Pseudomonas putida/fluorescens Group","Species_Pseudomonas spp","Species_Raoultella ornithinolytica","Species_Serratia liquefaciens","Species_Serratia marcescens","Species_Serratia spp","Species_Serratia ureilytica","Family_Enterobacterales","Family_Enterobacteriaceae","Family_Haemophilus spp","Family_Non-Enterobacterales","Family_Non-Enterobacteriaceae","Country_Cameroon","Country_Ghana","Country_Ivory Coast","Country_Kenya","Country_Malawi","Country_Morocco","Country_Nigeria","Country_South Africa","Country_Uganda","Gender_Female","Gender_Male","Age Group_0 to 2 Years","Age Group_13 to 18 Years","Age Group_19 to 64 Years","Age Group_3 to 12 Years","Age Group_65 to 84 Years","Age Group_85 and Over","Age Group_Unknown","Speciality_Emergency Room","Speciality_General Unspecified ICU","Speciality_Medicine General","Speciality_Medicine ICU","Speciality_None Given","Speciality_Other","Speciality_Pediatric General","Speciality_Pediatric ICU","Speciality_Surgery General","Speciality_Surgery ICU","Source_Abscess","Source_Appendix","Source_Bladder","Source_Blood","Source_Bone","Source_Bronchoalveolar lavage","Source_Bronchus","Source_Burn","Source_CSF","Source_Carbuncle","Source_Catheters","Source_Cellulitis","Source_Cervix","Source_Colon","Source_Decubitus","Source_Diverticulum","Source_Endotracheal aspirate","Source_Eye","Source_Furuncle","Source_Gall Bladder","Source_Gastric Abscess","Source_Genitourinary: Other","Source_Impetiginous lesions","Source_Intestinal: Other","Source_Kidney","Source_Liver","Source_Lungs","Source_None Given","Source_Pancreas","Source_Peritoneal Fluid","Source_Prostate","Source_Respiratory: Other","Source_Skin","Source_Skin: Other","Source_Sputum","Source_Stomach","Source_Thoracentesis Fluid","Source_Ulcer","Source_Ureter","Source_Urethra","Source_Urine","Source_Wound"],"feature_types":["float","float","float","float","float","float","float","float","float","float","float","float","float","float","float","float","float","float","float","float","float","float","float","float","float","float","float","float","float","float","float","float","float","float","float","float","float","float","float","float","float","float","float","float","float","float","float","float","float","float","float","float","float","float","float","float","float","float","float","float","float","float","float","float","float","float","float","float","float","float","float","float","float","float","float","float","float","float","float","float","float","float","float","float","float","float","float","float","float","float","float","float","float","float","float","float","float","float","float","float","float","float","float","float","float","float","float","float","float","float","float","float","float","float","float","float","float","float","float","float","float","float","float","float","float","float","float","float","float","float","float","float","float","float","float","float","float","float","float","float","float","float","float","float","float","float"],"gradient_booster":{"model":{"gbtree_model_param":{"num_parallel_tree":"1","num_trees":"300","size_leaf_vector":"0"},"tree_info":[0,1,2,0,1,2,0,1,2,0,1,2,0,1,2,0,1,2,0,1,2,0,1,2,0,1,2,0,1,2,0,1,2,0,1,2,0,1,2,0,1,2,0,1,2,0,1,2,0,1,2,0,1,2,0,1,2,0,1,2,0,1,2,0,1,2,0,1,2,0,1,2,0,1,2,0,1,2,0,1,2,0,1,2,0,1,2,0,1,2,0,1,2,0,1,2,0,1,2,0,1,2,0,1,2,0,1,2,0,1,2,0,1,2,0,1,2,0,1,2,0,1,2,0,1,2,0,1,2,0,1,2,0,1,2,0,1,2,0,1,2,0,1,2,0,1,2,0,1,2,0,1,2,0,1,2,0,1,2,0,1,2,0,1,2,0,1,2,0,1,2,0,1,2,0,1,2,0,1,2,0,1,2,0,1,2,0,1,2,0,1,2,0,1,2,0,1,2,0,1,2,0,1,2,0,1,2,0,1,2,0,1,2,0,1,2,0,1,2,0,1,2,0,1,2,0,1,2,0,1,2,0,1,2,0,1,2,0,1,2,0,1,2,0,1,2,0,1,2,0,1,2,0,1,2,0,1,2,0,1,2,0,1,2,0,1,2,0,1,2,0,1,2,0,1,2,0,1,2,0,1,2,0,1,2,0,1,2,0,1,2,0,1,2,0,1,2,0,1,2],"trees":[{"base_weights":[-4.4693373E-8,-7.456468E-2,8.8457805E-1,-2.2022027E-1,3.2932466E-1,6.8741155E-1,1.3027523E0,-1.3726096E-1,-4.4042298E-1,2.8886423E-1,8.3730716E-1,8.063037E-1,1.324675E-1,1.3937008E0,3.861386E-1,-1.5660271E-1,2.5845143E-1,-4.7626305E-1,1.1925466E0,2.716202E-1,1.2E0,1.3176972E0,-8.3004E-2,8.479427E-1,-1.9480523E-1,4.4404328E-1,-6.153847E-1,1.1707317E0,-1.3043483E-1,-1.6749041E-1,5.324232E-1,1.1583008E-1,9.8657715E-1,-5.0970215E-1,-1.5239482E-1,3.02317E-1,-7.905691E-2,1.362353E0,7.35849E-1,-4.2038223E-1,4.285714E-1,8.839779E-1,-3.1578952E-1,7.241379E-1,-6.31579E-1,1.016529E0,-4.2265114E-8,-2.5544848E-8,-6.8571436E-1,-1.5326257E-1,-5.6756765E-1,7.7292573E-1,-2.8767127E-1,-5.093383E-2,6.0913706E-1,-5.4328203E-1,-2.9502767E-1,-2.0179377E-1,1.0344827E0,2.485458E-1,4.9030468E-1,-1.9597995E-1,4.511278E-1,9.512195E-1,-2.5544848E-8,-5.172414E-1,4.285714E-1,8.181818E-1,2.222222E-1,9.774436E-1,6.1224484E-1,4.285714E-1,-6E-1,7.8947365E-1,-3.8461542E-1,-2.1333095E-1,-5.598829E-2,-6.494118E-1,-3.8028175E-1,9.940828E-1,1.3043475E-1,8.571428E-1,-6.3934433E-1,-2.3841065E-1,5.37931E-1,7.6363635E-1,-1.463415E-1,-5.4734415E-1,4.137931E-1,-4.2061862E-1,-1.468532E-1,-4.0157485E-1,6.0606018E-2,2.0090494E-1,5.573964E-1,4.366529E-1,1.2307693E0,-8.879497E-2,-5.639098E-1,1.0909091E0,-3.692308E-1,-6.741574E-1,-2.3076928E-1,7.241379E-1,-4.9180366E-2,1.054755E0,4.363636E-1,7.4812967E-1,-6.1224496E-1,9.512195E-1,2.3999998E-1,-6.31579E-1,-1.3043483E-1],"categories":[],"categories_nodes":[],"categories_segments":[],"categories_sizes":[],"default_left":[1,1,1,1,1,1,1,1,1,1,1,1,1,0,1,1,1,1,0,1,0,1,1,1,1,1,1,0,0,1,1,1,0,1,1,1,1,0,1,1,1,1,1,0,0,0,1,0,0,1,1,1,1,1,1,1,1,1,0,1,1,1,1,0,0,1,0,0,1,1,1,0,0,1,1,0,0,0,0,0,0,0,0,0,0,0,0,0,0,0,0,0,0,0,0,0,0,0,0,0,0,0,0,0,0,0,0,0,0,0,0,0,0],"id":0,"left_children":[1,3,5,7,9,11,13,15,17,19,21,23,25,-1,27,29,31,33,-1,35,-1,37,39,41,43,45,47,-1,-1,49,51,53,-1,55,57,59,61,-1,63,65,67,69,71,-1,-1,-1,73,-1,-1,75,77,79,81,83,85,87,89,91,-1,93,95,97,99,-1,-1,101,-1,-1,103,105,107,-1,-1,109,111,-1,-1,-1,-1,-1,-1,-1,-1,-1,-1,-1,-1,-1,-1,-1,-1,-1,-1,-1,-1,-1,-1,-1,-1,-1,-1,-1,-1,-1,-1,-1,-1,-1,-1,-1,-1,-1,-1],"loss_changes":[2.9157938E2,2.3991731E2,2.7439758E1,5.4688324E1,2.1976128E1,1.5442131E1,8.548584E0,1.6712944E1,4.8539536E1,1.5429329E1,3.5134182E1,8.247482E0,1.024102E1,0E0,4.70107E0,1.5673969E1,1.0466506E1,8.6163025E0,0E0,1.0631882E1,0E0,3.515091E-1,5.0319843E0,8.093079E0,3.8912954E0,7.8239703E0,5.626373E-1,0E0,0E0,1.1558693E1,6.6434374E0,7.1333055E0,0E0,5.082077E0,4.6972427E0,9.03965E0,5.0545635E0,0E0,9.3327165E-1,1.6561131E0,7.561326E-1,3.9985657E0,1.5969925E0,0E0,0E0,0E0,5.8704453E0,0E0,0E0,1.1539886E1,8.24316E-1,3.485774E0,3.8135443E0,7.353216E0,2.6666431E0,2.6667023E0,1.8095055E0,3.9210775E0,0E0,1.0287472E1,7.4300995E0,2.5658858E0,8.158915E0,0E0,0E0,5.6865263E-1,0E0,0E0,1.2616042E0,5.103348E0,8.611128E0,0E0,0E0,3.3458257E-1,7.336738E-1,0E0,0E0,0E0,0E0,0E0,0E0,0E0,0E0,0E0,0E0,0E0,0E0,0E0,0E0,0E0,0E0,0E0,0E0,0E0,0E0,0E0,0E0,0E0,0E0,0E0,0E0,0E0,0E0,0E0,0E0,0E0,0E0,0E0,0E0,0E0,0E0,0E0,0E0],"parents":[2147483647,0,0,1,1,2,2,3,3,4,4,5,5,6,6,7,7,8,8,9,9,10,10,11,11,12,12,14,14,15,15,16,16,17,17,19,19,21,21,22,22,23,23,24,24,25,25,26,26,29,29,30,30,31,31,33,33,34,34,35,35,36,36,38,38,39,39,40,40,41,41,42,42,46,46,49,49,50,50,51,51,52,52,53,53,54,54,55,55,56,56,57,57,59,59,60,60,61,61,62,62,65,65,68,68,69,69,70,70,73,73,74,74],"right_children":[2,4,6,8,10,12,14,16,18,20,22,24,26,-1,28,30,32,34,-1,36,-1,38,40,42,44,46,48,-1,-1,50,52,54,-1,56,58,60,62,-1,64,66,68,70,72,-1,-1,-1,74,-1,-1,76,78,80,82,84,86,88,90,92,-1,94,96,98,100,-1,-1,102,-1,-1,104,106,108,-1,-1,110,112,-1,-1,-1,-1,-1,-1,-1,-1,-1,-1,-1,-1,-1,-1,-1,-1,-1,-1,-1,-1,-1,-1,-1,-1,-1,-1,-1,-1,-1,-1,-1,-1,-1,-1,-1,-1,-1,-1],"split_conditions":[5E-1,5E-1,5E-1,5E-1,5E-1,5E-1,5E-1,5E-1,5E-1,5E-1,5E-1,5E-1,5E-1,1.3937008E-1,5E-1,5E-1,5E-1,5E-1,1.1925466E-1,5E-1,1.20000005E-1,5E-1,5E-1,5E-1,5E-1,5E-1,5E-1,1.1707317E-1,-1.3043483E-2,5E-1,5E-1,5E-1,9.865772E-2,5E-1,5E-1,5E-1,5E-1,1.362353E-1,5E-1,5E-1,5E-1,5E-1,5E-1,7.2413795E-2,-6.31579E-2,1.016529E-1,5E-1,-2.5544848E-9,-6.857144E-2,5E-1,5E-1,5E-1,5E-1,5E-1,5E-1,5E-1,5E-1,5E-1,1.0344827E-1,5E-1,5E-1,5E-1,5E-1,9.512195E-2,-2.5544848E-9,5E-1,4.285714E-2,8.1818186E-2,5E-1,5E-1,5E-1,4.285714E-2,-6.0000002E-2,5E-1,5E-1,-2.1333097E-2,-5.598829E-3,-6.494118E-2,-3.8028177E-2,9.9408284E-2,1.3043475E-2,8.571428E-2,-6.393444E-2,-2.3841066E-2,5.3793103E-2,7.636364E-2,-1.463415E-2,-5.4734416E-2,4.137931E-2,-4.206186E-2,-1.468532E-2,-4.0157486E-2,6.0606017E-3,2.0090494E-2,5.573964E-2,4.366529E-2,1.2307693E-1,-8.879497E-3,-5.6390982E-2,1.0909092E-1,-3.692308E-2,-6.741574E-2,-2.3076927E-2,7.2413795E-2,-4.9180365E-3,1.054755E-1,4.3636363E-2,7.481297E-2,-6.1224498E-2,9.512195E-2,2.3999998E-2,-6.31579E-2,-1.3043483E-2],"split_indices":[0,47,81,83,101,144,111,35,20,84,81,104,87,0,85,36,71,144,0,94,0,83,87,141,99,82,100,0,0,53,137,81,0,95,2,83,144,0,85,85,85,138,82,0,0,0,96,0,0,82,145,81,96,85,144,110,91,42,0,145,87,138,81,0,0,71,0,0,71,100,102,0,0,74,85,0,0,0,0,0,0,0,0,0,0,0,0,0,0,0,0,0,0,0,0,0,0,0,0,0,0,0,0,0,0,0,0,0,0,0,0,0,0],"split_type":[0,0,0,0,0,0,0,0,0,0,0,0,0,0,0,0,0,0,0,0,0,0,0,0,0,0,0,0,0,0,0,0,0,0,0,0,0,0,0,0,0,0,0,0,0,0,0,0,0,0,0,0,0,0,0,0,0,0,0,0,0,0,0,0,0,0,0,0,0,0,0,0,0,0,0,0,0,0,0,0,0,0,0,0,0,0,0,0,0,0,0,0,0,0,0,0,0,0,0,0,0,0,0,0,0,0,0,0,0,0,0,0,0],"sum_hessian":[4.4186665E3,4.0759998E3,3.4266666E2,2.9959998E3,1.0799999E3,2.3466666E2,1.0799999E2,2.1773333E3,8.186666E2,1.0017777E3,7.822221E1,1.9288887E2,4.1777775E1,9.777777E1,1.0222221E1,2.0764443E3,1.00888885E2,8.017777E2,1.6888887E1,9.844444E2,1.7333332E1,5.1111107E1,2.7111109E1,1.8533333E2,7.5555553E0,2.9777777E1,1.1999999E1,3.5555553E0,6.666666E0,2.0448888E3,3.1555553E1,8.533333E1,1.5555554E1,7.2622217E2,7.555555E1,9.0533325E2,7.911111E1,4.622222E1,4.8888884E0,1.6444443E1,1.0666666E1,1.7999998E2,5.333333E0,2.222222E0,5.333333E0,1.2444444E1,1.7333332E1,1.3333333E0,1.0666666E1,1.9759999E3,6.8888885E1,2.4444443E1,7.1111107E0,6.444444E1,2.0888887E1,6.266666E2,9.955555E1,7.333333E1,2.222222E0,7.057777E2,1.9955554E2,6.533333E1,1.3777777E1,3.5555553E0,1.3333333E0,1.5111111E1,1.3333333E0,2.6666665E0,7.9999995E0,1.3199998E2,4.7999996E1,1.3333333E0,3.9999998E0,5.333333E0,1.1999999E1,1.2208888E3,7.551111E2,4.622222E1,2.2666666E1,1.7777777E1,6.666666E0,1.3333333E0,5.7777777E0,4.9333332E1,1.5111111E1,1.7333332E1,3.5555553E0,6.244444E2,2.222222E0,5.2888885E1,4.6666664E1,4.1333332E1,3.1999998E1,6.1288885E2,9.2888885E1,1.8755554E2,1.1999999E1,5.1555553E1,1.3777777E1,7.5555553E0,6.222222E0,8.888888E0,6.222222E0,2.222222E0,5.7777777E0,1.1466666E2,1.7333332E1,4.3555553E1,4.444444E0,3.5555553E0,1.7777777E0,5.333333E0,6.666666E0],"tree_param":{"num_deleted":"0","num_feature":"146","num_nodes":"113","size_leaf_vector":"0"}},{"base_weights":[-5.3700185E-3,8.764991E-2,-2.611285E-1,1.3125896E-1,-4.9093586E-1,-1.2010801E-1,-5.003826E-1,3.7006125E-2,3.180866E-1,-5.510853E-1,2.4223599E-1,-1.4005822E-1,7.862069E-1,-5.3704196E-1,5.4744524E-1,5.599495E-2,-7.344111E-1,4.060868E-1,-2.4654196E-1,-5.9376717E-1,6.521739E-1,-6.6666675E-1,1.0449438E0,-2.6327026E-1,2.5778688E-2,1.0909091E0,-5.4545456E-1,-4.0245637E-1,-7.032642E-1,-6.3934433E-1,1.3411765E0,9.292775E-2,-3.388705E-1,4.2463446E-1,-6.992482E-1,-3.410853E-1,1.2077922E0,-6.641736E-1,-3.9520964E-1,1.2244898E0,-5.172414E-1,-4.2857146E-1,1.3246753E0,-3.6121058E-1,1.79562E-1,9.665424E-2,-4.2519692E-1,5.660377E-1,1.3246753E0,-4.4769466E-1,4.6788988E-1,-7.4566483E-1,-1.7518252E-1,5.3493634E-2,4.45269E-1,-4.826193E-1,3.1407937E-1,3.952387E-1,1.0434783E0,-4.7680163E-1,5.541401E-1,-7.1416605E-1,-2.3529416E-1,-5.057737E-1,2.7272725E-1,-3.88247E-1,1.245283E0,-5.4249592E-2,1.0851064E0,6.2686525E-2,1.0235294E0,-7.157361E-1,-1.0880834E-1,-4.8000002E-1,1.1351352E0,-4.877157E-1,2.654867E-1,-6E-1,1.0684931E0,-6.623377E-1,3.913043E-1,3.5529353E-2,7.241379E-1,3.280182E-1,9.3203884E-1,-5.6202537E-1,1.1311475E0,6.5502144E-2,1.2631578E0,4.1030556E-1,-6.8571436E-1,1.108108E0,-4.2857146E-1,-7.408413E-1,2.2105259E-1,1.0619469E0,-6.2264156E-1,-7.4410486E-1,-3.764504E-8,-6.9026554E-1,8.5714287E-1,-7.210301E-1,-2.440192E-1,-5.4545456E-1,7.35849E-1,-4.2115977E-1,7.4157304E-1,-7.1502596E-1,2.926829E-1,3.1454742E-2,1.1538461E0,-6.705883E-1,3.0769226E-1,-5.6125534E-1,-1.1320799E-2,-6.3934433E-1,1.1311475E0,7.35849E-1,-4.8000002E-1],"categories":[],"categories_nodes":[],"categories_segments":[],"categories_sizes":[],"default_left":[1,1,1,1,1,1,1,1,1,1,1,1,1,1,1,1,0,1,1,1,1,0,1,1,1,1,0,1,1,0,0,1,1,1,0,1,0,1,1,0,0,0,0,1,1,1,1,1,0,1,1,0,1,1,1,1,1,1,1,1,1,1,1,1,1,1,0,1,0,1,0,0,1,0,0,1,1,0,0,0,1,0,0,0,0,0,0,0,0,0,0,0,0,0,0,0,0,0,0,0,0,0,0,0,0,0,0,0,0,0,0,0,0,0,0,0,0,0,0],"id":1,"left_children":[1,3,5,7,9,11,13,15,17,19,21,23,25,27,29,31,-1,33,35,37,39,-1,41,43,45,47,-1,49,51,-1,-1,53,55,57,-1,59,-1,61,63,-1,-1,-1,-1,65,67,69,71,73,-1,75,77,-1,79,81,83,85,87,89,91,93,95,97,99,101,103,105,-1,107,-1,109,-1,-1,111,-1,-1,113,115,-1,-1,-1,117,-1,-1,-1,-1,-1,-1,-1,-1,-1,-1,-1,-1,-1,-1,-1,-1,-1,-1,-1,-1,-1,-1,-1,-1,-1,-1,-1,-1,-1,-1,-1,-1,-1,-1,-1,-1,-1,-1],"loss_changes":[1.0487349E2,8.162692E1,3.960659E1,5.293469E1,1.0134365E1,1.3508259E1,1.7029129E1,2.9332855E1,5.0190567E1,1.1166573E1,1.3748063E1,1.4838947E1,7.132289E0,9.145142E0,1.5196686E1,2.8506554E1,0E0,1.8185501E1,1.9188026E1,2.5785065E0,5.7644644E0,0E0,4.6438046E0,1.8131351E1,9.960324E0,8.997774E-1,0E0,9.470871E0,4.0614853E0,0E0,0E0,2.4795963E1,1.5847183E1,1.520993E1,0E0,1.5937289E1,0E0,3.0170975E0,4.248913E0,0E0,0E0,0E0,0E0,1.5313709E1,1.6173626E1,8.404987E0,3.813541E0,4.0505047E0,0E0,6.526119E0,8.408897E0,0E0,4.4600067E0,1.9342865E1,9.948597E0,1.8248264E1,7.1783323E0,1.3659866E1,4.121876E0,2.0903385E1,1.1085623E1,2.8342133E0,9.041124E0,2.5348415E0,3.6432247E0,1.2827305E1,0E0,1.4295095E1,0E0,8.8431425E0,0E0,0E0,5.223942E0,0E0,0E0,7.4403E0,1.0557668E1,0E0,0E0,0E0,2.654766E0,0E0,0E0,0E0,0E0,0E0,0E0,0E0,0E0,0E0,0E0,0E0,0E0,0E0,0E0,0E0,0E0,0E0,0E0,0E0,0E0,0E0,0E0,0E0,0E0,0E0,0E0,0E0,0E0,0E0,0E0,0E0,0E0,0E0,0E0,0E0,0E0,0E0,0E0],"parents":[2147483647,0,0,1,1,2,2,3,3,4,4,5,5,6,6,7,7,8,8,9,9,10,10,11,11,12,12,13,13,14,14,15,15,17,17,18,18,19,19,20,20,22,22,23,23,24,24,25,25,27,27,28,28,31,31,32,32,33,33,35,35,37,37,38,38,43,43,44,44,45,45,46,46,47,47,49,49,50,50,52,52,53,53,54,54,55,55,56,56,57,57,58,58,59,59,60,60,61,61,62,62,63,63,64,64,65,65,67,67,69,69,72,72,75,75,76,76,80,80],"right_children":[2,4,6,8,10,12,14,16,18,20,22,24,26,28,30,32,-1,34,36,38,40,-1,42,44,46,48,-1,50,52,-1,-1,54,56,58,-1,60,-1,62,64,-1,-1,-1,-1,66,68,70,72,74,-1,76,78,-1,80,82,84,86,88,90,92,94,96,98,100,102,104,106,-1,108,-1,110,-1,-1,112,-1,-1,114,116,-1,-1,-1,118,-1,-1,-1,-1,-1,-1,-1,-1,-1,-1,-1,-1,-1,-1,-1,-1,-1,-1,-1,-1,-1,-1,-1,-1,-1,-1,-1,-1,-1,-1,-1,-1,-1,-1,-1,-1,-1,-1],"split_conditions":[5E-1,5E-1,5E-1,5E-1,5E-1,5E-1,5E-1,5E-1,5E-1,5E-1,5E-1,5E-1,5E-1,5E-1,5E-1,5E-1,-7.344111E-2,5E-1,5E-1,5E-1,5E-1,-6.666668E-2,5E-1,5E-1,5E-1,5E-1,-5.454546E-2,5E-1,5E-1,-6.393444E-2,1.3411765E-1,5E-1,5E-1,5E-1,-6.9924824E-2,5E-1,1.2077922E-1,5E-1,5E-1,1.2244898E-1,-5.1724143E-2,-4.2857148E-2,1.3246754E-1,5E-1,5E-1,5E-1,5E-1,5E-1,1.3246754E-1,5E-1,5E-1,-7.456648E-2,5E-1,5E-1,5E-1,5E-1,5E-1,5E-1,5E-1,5E-1,5E-1,5E-1,5E-1,5E-1,5E-1,5E-1,1.24528304E-1,5E-1,1.08510636E-1,5E-1,1.0235294E-1,-7.157361E-2,5E-1,-4.8000004E-2,1.1351352E-1,5E-1,5E-1,-6.0000002E-2,1.0684931E-1,-6.623378E-2,5E-1,3.5529353E-3,7.2413795E-2,3.2801818E-2,9.320389E-2,-5.620254E-2,1.1311475E-1,6.5502147E-3,1.2631579E-1,4.1030556E-2,-6.857144E-2,1.1081081E-1,-4.2857148E-2,-7.408413E-2,2.210526E-2,1.0619469E-1,-6.2264156E-2,-7.441049E-2,-3.7645043E-9,-6.902655E-2,8.571429E-2,-7.2103016E-2,-2.440192E-2,-5.454546E-2,7.358491E-2,-4.211598E-2,7.4157305E-2,-7.1502596E-2,2.9268289E-2,3.1454742E-3,1.15384616E-1,-6.705883E-2,3.0769227E-2,-5.6125533E-2,-1.1320799E-3,-6.393444E-2,1.1311475E-1,7.358491E-2,-4.8000004E-2],"split_indices":[83,74,72,42,94,137,60,88,81,125,145,61,96,96,104,0,0,125,111,102,76,0,61,42,95,2,0,127,87,0,0,78,144,127,0,103,0,109,137,0,0,0,0,15,127,131,138,14,0,101,42,0,42,124,91,141,77,97,71,133,85,120,90,82,78,49,0,85,0,105,0,0,91,0,0,138,68,0,0,0,85,0,0,0,0,0,0,0,0,0,0,0,0,0,0,0,0,0,0,0,0,0,0,0,0,0,0,0,0,0,0,0,0,0,0,0,0,0,0],"split_type":[0,0,0,0,0,0,0,0,0,0,0,0,0,0,0,0,0,0,0,0,0,0,0,0,0,0,0,0,0,0,0,0,0,0,0,0,0,0,0,0,0,0,0,0,0,0,0,0,0,0,0,0,0,0,0,0,0,0,0,0,0,0,0,0,0,0,0,0,0,0,0,0,0,0,0,0,0,0,0,0,0,0,0,0,0,0,0,0,0,0,0,0,0,0,0,0,0,0,0,0,0,0,0,0,0,0,0,0,0,0,0,0,0,0,0,0,0,0,0],"sum_hessian":[4.406222E3,3.2315554E3,1.1746666E3,3.0057776E3,2.2577777E2,7.3999994E2,4.3466663E2,1.9986665E3,1.007111E3,2.0888887E2,1.6888887E1,7.2488885E2,1.5111111E1,4.2044443E2,1.4222221E1,1.9515554E3,4.7111107E1,8.715555E2,1.3555554E2,2.0222221E2,6.666666E0,7.9999995E0,8.888888E0,4.1555554E2,3.093333E2,1.2444444E1,2.6666665E0,2.3422221E2,1.8622221E2,5.7777777E0,8.444444E0,1.7853333E3,1.6622221E2,8.577777E2,1.3777777E1,1.2799999E2,7.5555553E0,1.4755554E2,5.4666664E1,4.444444E0,2.222222E0,1.3333333E0,7.5555553E0,3.4044443E2,7.511111E1,2.6799997E2,4.1333332E1,4.8888884E0,7.5555553E0,2.231111E2,1.1111111E1,1.7199998E2,1.4222221E1,1.6066666E3,1.7866666E2,1.3644444E2,2.9777777E1,8.204444E2,3.7333332E1,1.1155555E2,1.6444443E1,1.3155554E2,1.5999999E1,4.7111107E1,7.5555553E0,3.3555554E2,4.8888884E0,6.0444443E1,1.4666666E1,2.5955554E2,8.444444E0,2.0888887E1,2.0444443E1,1.7777777E0,3.111111E0,2.1155554E2,1.1555555E1,3.9999998E0,7.1111107E0,7.5555553E0,6.666666E0,1.5657777E3,4.0888885E1,1.4533333E2,3.3333332E1,1.3066666E2,5.7777777E0,2.4444443E1,5.333333E0,8.097777E2,1.0666666E1,3.5999996E1,1.3333333E0,8.0888885E1,3.0666664E1,1.1555555E1,4.8888884E0,1.2622221E2,5.333333E0,1.1555555E1,4.444444E0,2.4888887E1,2.2222221E1,2.6666665E0,4.8888884E0,3.2666666E2,8.888888E0,2.0444443E1,3.9999996E1,2.5333331E2,6.222222E0,8.444444E0,1.1999999E1,1.831111E2,2.8444443E1,5.7777777E0,5.7777777E0,4.8888884E0,1.7777777E0],"tree_param":{"num_deleted":"0","num_feature":"146","num_nodes":"119","size_leaf_vector":"0"}},{"base_weights":[4.4506583E-3,-1.383339E-1,4.0253305E-1,-2.1749114E-1,2.573183E-1,5.1112056E-1,-5.1752025E-1,-2.4700548E-1,9.2382497E-1,2.250158E-1,1.1925466E0,6.432865E-1,-6.246791E-3,-5.515321E-1,3.9999998E-1,-3.2443422E-1,-2.1199716E-2,1.3367876E0,7.2055423E-1,1.8877435E-1,1.1270719E0,1.3255814E0,5.121951E-1,5.06422E-1,9.003476E-1,-3.1762883E-2,1.1707317E0,-5.820896E-1,-1.1111116E-1,1.0344825E-1,5.9999996E-1,-3.4712183E-1,5.7142854E-1,1.06194645E-1,-6.6303277E-1,8.337662E-1,-1.5789478E-1,1.4676555E-1,8.871595E-1,1.1925466E0,4.137931E-1,4.7031477E-1,1.4254143E0,9.459023E-1,-9.91736E-2,9.306119E-2,-2.5854388E-1,-5.9633034E-1,-3.2511625E-8,-4.0000004E-1,1.9999997E-1,-3.609734E-1,1.1847134E0,9.113924E-1,1.6901405E-1,3.8131392E-1,-2.9782087E-1,-6.854411E-1,-3.1168836E-1,1.1116751E0,5.177665E-1,1.7186363E-1,-4.2162168E-1,9.585062E-1,-1.2000003E-1,5.0229806E-1,-3.9884397E-1,1.1639916E0,6.410256E-1,6.315789E-1,-6.575343E-1,2.2758617E-1,-1.0019651E-1,-3.5467985E-1,5.753424E-1,-6.2033904E-1,-3.4285718E-1,4.285714E-1,-4.2857146E-1,-5.4545456E-1,-2.5544848E-8,-1.2000003E-1,4.137931E-1,-3.653273E-1,1.2244898E0,1.2700729E0,4.137931E-1,1E0,-4.2857146E-1,-1.7751522E-2,7.35849E-1,4.513181E-1,-6.6839385E-1,-3.1455174E-1,8.181818E-1,-4.2857146E-1,-8.1081115E-2,1.255814E0,7.402597E-1,1.9148932E-1,1.1538461E0,2.506646E-1,3.370782E-2,-7.0588243E-1,7.317073E-1,1.0390244E0,3.9999998E-1,5.316716E-1,-1.4634152E-1,-4.844721E-1,4.285714E-1,1.2222222E0,-2.3076928E-1,3.3165824E-1,1.0258064E0,1.0344827E0,1.6216213E-1,2.9074886E-1,-6.2264156E-1,-1.20724395E-1,4.285714E-1,-4.988124E-1,-3.0456897E-2,1.0909091E0,1.2244894E-1,-6.3657683E-1,-1.463415E-1,-9.230773E-2,-6.1224496E-1],"categories":[],"categories_nodes":[],"categories_segments":[],"categories_sizes":[],"default_left":[1,1,1,1,1,1,1,1,1,1,1,1,1,1,1,1,1,0,1,1,1,0,0,1,1,1,0,1,1,0,0,1,1,1,1,1,0,1,1,0,0,1,0,1,1,1,1,1,1,1,1,1,1,1,1,1,1,0,1,1,1,1,1,1,0,1,1,1,1,1,0,1,1,1,1,1,1,0,0,0,0,0,0,0,0,0,0,0,0,0,0,0,0,0,0,0,0,0,0,0,0,0,0,0,0,0,0,0,0,0,0,0,0,0,0,0,0,0,0,0,0,0,0,0,0,0,0,0,0],"id":2,"left_children":[1,3,5,7,9,11,13,15,17,19,21,23,25,27,29,31,33,-1,35,37,39,-1,-1,41,43,45,-1,47,49,-1,-1,51,53,55,57,59,-1,61,63,-1,-1,65,-1,67,69,71,73,75,77,79,81,83,85,87,89,91,93,-1,95,97,99,101,103,105,-1,107,109,111,113,115,-1,117,119,121,123,125,127,-1,-1,-1,-1,-1,-1,-1,-1,-1,-1,-1,-1,-1,-1,-1,-1,-1,-1,-1,-1,-1,-1,-1,-1,-1,-1,-1,-1,-1,-1,-1,-1,-1,-1,-1,-1,-1,-1,-1,-1,-1,-1,-1,-1,-1,-1,-1,-1,-1,-1,-1,-1],"loss_changes":[2.5121909E2,1.0193581E2,1.1683292E2,9.155621E1,1.6129078E1,7.139865E1,4.0798225E0,4.62146E1,4.791542E0,1.6979504E1,9.40176E-1,2.88042E1,6.4473257E0,1.5458145E0,2.3448288E-1,4.0209244E1,5.535325E1,0E0,4.916342E0,1.47378025E1,4.457569E-1,0E0,0E0,1.7413925E1,1.3192108E1,5.9655375E0,0E0,9.2564774E-1,8.8888884E-1,0E0,0E0,4.117856E1,6.5494757E0,6.29147E1,6.69014E-1,3.181116E0,0E0,6.9087725E0,2.1669521E0,0E0,0E0,1.481929E1,0E0,1.7553452E1,5.9009333E0,3.5614185E0,6.1987324E0,4.5063782E-1,8.5714287E-1,2.9090917E-1,3.9172417E-1,1.359137E1,6.2239075E-1,3.5551548E0,2.5185401E0,2.5033073E1,4.5414753E0,0E0,1.9585812E-1,2.4220276E-1,4.3218327E0,4.9958544E0,7.255558E0,7.8858376E-1,0E0,9.75029E0,1.5695257E0,1.321373E1,1.3587299E1,1.0300682E0,0E0,4.5070806E0,6.656205E-1,3.146944E0,1.7603376E0,6.6368103E-1,7.3092604E-1,0E0,0E0,0E0,0E0,0E0,0E0,0E0,0E0,0E0,0E0,0E0,0E0,0E0,0E0,0E0,0E0,0E0,0E0,0E0,0E0,0E0,0E0,0E0,0E0,0E0,0E0,0E0,0E0,0E0,0E0,0E0,0E0,0E0,0E0,0E0,0E0,0E0,0E0,0E0,0E0,0E0,0E0,0E0,0E0,0E0,0E0,0E0,0E0,0E0,0E0,0E0,0E0],"parents":[2147483647,0,0,1,1,2,2,3,3,4,4,5,5,6,6,7,7,8,8,9,9,10,10,11,11,12,12,13,13,14,14,15,15,16,16,18,18,19,19,20,20,23,23,24,24,25,25,27,27,28,28,31,31,32,32,33,33,34,34,35,35,37,37,38,38,41,41,43,43,44,44,45,45,46,46,47,47,48,48,49,49,50,50,51,51,52,52,53,53,54,54,55,55,56,56,58,58,59,59,60,60,61,61,62,62,63,63,65,65,66,66,67,67,68,68,69,69,71,71,72,72,73,73,74,74,75,75,76,76],"right_children":[2,4,6,8,10,12,14,16,18,20,22,24,26,28,30,32,34,-1,36,38,40,-1,-1,42,44,46,-1,48,50,-1,-1,52,54,56,58,60,-1,62,64,-1,-1,66,-1,68,70,72,74,76,78,80,82,84,86,88,90,92,94,-1,96,98,100,102,104,106,-1,108,110,112,114,116,-1,118,120,122,124,126,128,-1,-1,-1,-1,-1,-1,-1,-1,-1,-1,-1,-1,-1,-1,-1,-1,-1,-1,-1,-1,-1,-1,-1,-1,-1,-1,-1,-1,-1,-1,-1,-1,-1,-1,-1,-1,-1,-1,-1,-1,-1,-1,-1,-1,-1,-1,-1,-1,-1,-1,-1,-1],"split_conditions":[5E-1,5E-1,5E-1,5E-1,5E-1,5E-1,5E-1,5E-1,5E-1,5E-1,5E-1,5E-1,5E-1,5E-1,5E-1,5E-1,5E-1,1.3367876E-1,5E-1,5E-1,5E-1,1.3255815E-1,5.121951E-2,5E-1,5E-1,5E-1,1.1707317E-1,5E-1,5E-1,1.0344825E-2,6E-2,5E-1,5E-1,5E-1,5E-1,5E-1,-1.5789477E-2,5E-1,5E-1,1.1925466E-1,4.137931E-2,5E-1,1.4254144E-1,5E-1,5E-1,5E-1,5E-1,5E-1,5E-1,5E-1,5E-1,5E-1,5E-1,5E-1,5E-1,5E-1,5E-1,-6.854411E-2,5E-1,5E-1,5E-1,5E-1,5E-1,5E-1,-1.2000003E-2,5E-1,5E-1,5E-1,5E-1,5E-1,-6.575343E-2,5E-1,5E-1,5E-1,5E-1,5E-1,5E-1,4.285714E-2,-4.2857148E-2,-5.454546E-2,-2.5544848E-9,-1.2000003E-2,4.137931E-2,-3.653273E-2,1.2244898E-1,1.2700729E-1,4.137931E-2,1E-1,-4.2857148E-2,-1.7751523E-3,7.358491E-2,4.513181E-2,-6.683939E-2,-3.1455174E-2,8.1818186E-2,-4.2857148E-2,-8.108112E-3,1.255814E-1,7.402597E-2,1.9148933E-2,1.15384616E-1,2.506646E-2,3.3707821E-3,-7.0588246E-2,7.317073E-2,1.0390244E-1,4E-2,5.316716E-2,-1.4634152E-2,-4.844721E-2,4.285714E-2,1.2222222E-1,-2.3076927E-2,3.3165824E-2,1.02580644E-1,1.0344827E-1,1.6216213E-2,2.9074887E-2,-6.2264156E-2,-1.2072439E-2,4.285714E-2,-4.9881242E-2,-3.0456898E-3,1.0909092E-1,1.2244894E-2,-6.3657686E-2,-1.463415E-2,-9.230773E-3,-6.1224498E-2],"split_indices":[83,61,0,53,77,47,90,81,82,104,138,72,104,145,107,74,0,0,107,87,87,0,0,44,60,71,0,92,85,0,0,68,0,47,87,144,0,124,79,0,0,20,0,42,104,107,144,97,97,102,89,30,90,12,100,20,137,0,100,96,71,145,89,102,0,127,95,101,96,107,0,100,102,91,91,133,85,0,0,0,0,0,0,0,0,0,0,0,0,0,0,0,0,0,0,0,0,0,0,0,0,0,0,0,0,0,0,0,0,0,0,0,0,0,0,0,0,0,0,0,0,0,0,0,0,0,0,0,0],"split_type":[0,0,0,0,0,0,0,0,0,0,0,0,0,0,0,0,0,0,0,0,0,0,0,0,0,0,0,0,0,0,0,0,0,0,0,0,0,0,0,0,0,0,0,0,0,0,0,0,0,0,0,0,0,0,0,0,0,0,0,0,0,0,0,0,0,0,0,0,0,0,0,0,0,0,0,0,0,0,0,0,0,0,0,0,0,0,0,0,0,0,0,0,0,0,0,0,0,0,0,0,0,0,0,0,0,0,0,0,0,0,0,0,0,0,0,0,0,0,0,0,0,0,0,0,0,0,0,0,0],"sum_hessian":[4.4177773E3,3.2519998E3,1.1657777E3,2.7102222E3,5.417778E2,1.0431111E3,1.2266666E2,2.6426665E3,6.755555E1,5.2488885E2,1.6888887E1,8.306666E2,2.1244443E2,1.1866666E2,3.9999998E0,1.9675554E3,6.751111E2,2.0444443E1,4.7111107E1,5.0577774E2,1.911111E1,1.3333332E1,3.5555553E0,5.4399994E2,2.8666666E2,2.0888887E2,3.5555553E0,1.1066666E2,7.9999995E0,2.222222E0,1.7777777E0,1.9195554E3,4.7999996E1,5.6399994E2,1.1111111E2,4.1777775E1,5.333333E0,4.782222E2,2.7555553E1,1.6888887E1,2.222222E0,5.2488885E2,1.911111E1,2.742222E2,1.2444444E1,1.351111E2,7.377777E1,1.0799999E2,2.6666665E0,3.9999998E0,3.9999998E0,1.903111E3,1.6444443E1,2.5333332E1,2.2666666E1,3.3555554E2,2.2844443E2,1.0355555E2,7.5555553E0,2.0888887E1,2.0888887E1,4.5866663E2,1.9555553E1,2.5777777E1,1.7777777E0,5.0666663E2,1.8222221E1,1.5822221E2,1.1599999E2,5.333333E0,7.1111107E0,7.955555E1,5.5555553E1,6.6666664E1,7.1111107E0,9.733333E1,1.0666666E1,1.3333333E0,1.3333333E0,2.6666665E0,1.3333333E0,1.7777777E0,2.222222E0,1.8986665E3,4.444444E0,1.4222221E1,2.222222E0,2.3999998E1,1.3333333E0,1.7777777E1,4.8888884E0,3.1511108E2,2.0444443E1,2.2577777E2,2.6666665E0,4.444444E0,3.111111E0,1.3333332E1,7.5555553E0,1.4666666E1,6.222222E0,2.9155554E2,1.671111E2,1.5999999E1,3.5555553E0,2.1777777E1,3.9999998E0,4.8488885E2,2.1777777E1,1.6888887E1,1.3333333E0,1.5199998E2,6.222222E0,6.533333E1,5.0666664E1,2.222222E0,3.111111E0,7.4666664E1,4.8888884E0,5.4222218E1,1.3333333E0,4.5777775E1,2.0888887E1,2.6666665E0,4.444444E0,9.377777E1,3.5555553E0,6.222222E0,4.444444E0],"tree_param":{"num_deleted":"0","num_feature":"146","num_nodes":"129","size_leaf_vector":"0"}},{"base_weights":[-3.6231205E-3,-7.059294E-2,7.475634E-1,-2.1092048E-1,3.0594853E-1,5.774173E-1,1.1090039E0,-1.2874575E-1,-4.2724913E-1,2.6939544E-1,7.564457E-1,6.965538E-1,3.024958E-2,1.2100852E0,1.782577E-1,-1.462361E-1,2.1773928E-1,-4.6293744E-1,1.0723212E0,2.5296947E-1,1.0974438E0,1.1347396E0,2.8934112E-2,7.353273E-1,-4.8666835E-1,2.9514378E-1,-6.084279E-1,9.844086E-1,-1.6109191E-1,-1.2171295E-1,-3.6294284E-1,1.4101863E-2,6.2896514E-1,-5.028135E-1,-3.7568733E-2,1.106893E0,3.69457E-1,2.7947807E-1,-4.821614E-2,1.165482E0,5.7756203E-1,1.1897779E0,4.4289112E-1,2.512873E-1,-6.392672E-1,7.5571305E-1,-3.6830795E-1,9.833488E-1,-2.0802629E-1,-6.3784686E-3,-6.738E-1,-2.0522262E-1,-2.99384E-2,-3.7509534E-1,8.681391E-1,-1.60997E-1,5.61297E-1,8.8531864E-1,-5.117746E-1,-5.3484607E-1,-2.7960864E-1,-8.708825E-2,9.798955E-1,1.1462429E0,3.7520412E-1,3.3086228E-1,9.3404666E-2,-1.891599E-1,4.2391792E-1,1.2212324E0,5.694489E-1,7.488078E-1,-1.2857834E-1,6.1470944E-1,5.5433854E-2,7.8526497E-1,2.801941E-2,-5.144467E-1,-3.9297923E-2,5.432037E-1,-4.41942E-1,-2.5486952E-1,3.70974E-2,2.1148618E-2,-3.0552217E-1,-4.0326837E-1,1.9698952E-1,-2.3259123E-1,1.0388939E0,3.2097182E-1,1.0149933E0,1.0513242E0,4.205267E-1,-5.751655E-1,-4.0969902E-1,-3.4383798E-1,-3.372316E-3,-2.6836285E-1,1.4644079E-1,4.201549E-1,9.5928736E-2,1.8848817E-1,-3.8101804E-1,-2.2485438E-1,8.3676976E-1,9.194541E-1,-3.0360726E-1,1.5340852E-2,7.332982E-1,1.6514E-1,-9.624423E-2,8.8030595E-1,5.228866E-1,9.668721E-1,-4.6884885E-1,9.0425634E-1,6.686763E-2,-2.8140208E-1,-6.3199747E-1],"categories":[],"categories_nodes":[],"categories_segments":[],"categories_sizes":[],"default_left":[1,1,1,1,1,1,1,1,1,1,1,1,1,0,1,1,1,1,1,1,1,1,1,1,0,1,1,0,0,1,1,1,1,1,1,1,0,1,1,0,0,1,1,1,0,1,1,0,1,0,0,1,1,1,0,1,1,1,0,1,1,1,0,0,0,1,1,1,1,0,0,0,0,1,1,1,1,0,0,1,1,0,0,0,0,0,0,0,0,0,0,0,0,0,0,0,0,0,0,0,0,0,0,0,0,0,0,0,0,0,0,0,0,0,0,0,0,0,0],"id":3,"left_children":[1,3,5,7,9,11,13,15,17,19,21,23,25,-1,27,29,31,33,35,37,39,41,43,45,-1,47,49,-1,-1,51,53,55,57,59,61,63,-1,65,67,-1,-1,69,71,73,-1,75,77,-1,79,-1,-1,81,83,85,-1,87,89,91,-1,93,95,97,-1,-1,-1,99,101,103,105,-1,-1,-1,-1,107,109,111,113,-1,-1,115,117,-1,-1,-1,-1,-1,-1,-1,-1,-1,-1,-1,-1,-1,-1,-1,-1,-1,-1,-1,-1,-1,-1,-1,-1,-1,-1,-1,-1,-1,-1,-1,-1,-1,-1,-1,-1,-1,-1],"loss_changes":[2.2197514E2,2.141264E2,2.1571228E1,5.2420364E1,1.7914772E1,1.6123344E1,1.0558121E1,1.3004883E1,4.3962875E1,1.3585915E1,2.2541157E1,9.68631E0,7.848194E0,0E0,3.5484035E0,1.078878E1,8.639141E0,1.3449219E1,5.7151794E-2,8.003387E0,1.7543793E-2,1.5268784E0,4.482184E0,4.7168274E0,0E0,1.1532416E1,5.315528E-1,0E0,0E0,1.4039932E1,3.418333E0,6.8060546E0,1.0448284E1,5.0403595E0,3.5686967E0,8.188629E-2,0E0,8.764786E0,5.523983E0,0E0,0E0,2.678833E-1,1.0696244E0,1.5703974E0,0E0,4.150551E0,1.841414E-1,0E0,3.7057068E0,0E0,0E0,1.1551426E1,1.2315843E1,3.389927E0,0E0,4.8699493E0,1.5511923E0,1.7394733E0,0E0,2.9618683E0,1.6523361E0,2.869062E0,0E0,0E0,0E0,1.5073647E1,9.114549E0,2.5205338E0,7.170612E0,0E0,0E0,0E0,0E0,5.427959E-1,2.7792442E-1,4.1884155E0,4.469349E0,0E0,0E0,8.2205474E-1,2.9784608E-1,0E0,0E0,0E0,0E0,0E0,0E0,0E0,0E0,0E0,0E0,0E0,0E0,0E0,0E0,0E0,0E0,0E0,0E0,0E0,0E0,0E0,0E0,0E0,0E0,0E0,0E0,0E0,0E0,0E0,0E0,0E0,0E0,0E0,0E0,0E0,0E0,0E0,0E0],"parents":[2147483647,0,0,1,1,2,2,3,3,4,4,5,5,6,6,7,7,8,8,9,9,10,10,11,11,12,12,14,14,15,15,16,16,17,17,18,18,19,19,20,20,21,21,22,22,23,23,25,25,26,26,29,29,30,30,31,31,32,32,33,33,34,34,35,35,37,37,38,38,41,41,42,42,43,43,45,45,46,46,48,48,51,51,52,52,53,53,55,55,56,56,57,57,59,59,60,60,61,61,65,65,66,66,67,67,68,68,73,73,74,74,75,75,76,76,79,79,80,80],"right_children":[2,4,6,8,10,12,14,16,18,20,22,24,26,-1,28,30,32,34,36,38,40,42,44,46,-1,48,50,-1,-1,52,54,56,58,60,62,64,-1,66,68,-1,-1,70,72,74,-1,76,78,-1,80,-1,-1,82,84,86,-1,88,90,92,-1,94,96,98,-1,-1,-1,100,102,104,106,-1,-1,-1,-1,108,110,112,114,-1,-1,116,118,-1,-1,-1,-1,-1,-1,-1,-1,-1,-1,-1,-1,-1,-1,-1,-1,-1,-1,-1,-1,-1,-1,-1,-1,-1,-1,-1,-1,-1,-1,-1,-1,-1,-1,-1,-1,-1,-1],"split_conditions":[5E-1,5E-1,5E-1,5E-1,5E-1,5E-1,5E-1,5E-1,5E-1,5E-1,5E-1,5E-1,5E-1,1.21008515E-1,5E-1,5E-1,5E-1,5E-1,5E-1,5E-1,5E-1,5E-1,5E-1,5E-1,-4.8666835E-2,5E-1,5E-1,9.844086E-2,-1.610919E-2,5E-1,5E-1,5E-1,5E-1,5E-1,5E-1,5E-1,3.69457E-2,5E-1,5E-1,1.165482E-1,5.7756204E-2,5E-1,5E-1,5E-1,-6.392672E-2,5E-1,5E-1,9.833488E-2,5E-1,-6.378469E-4,-6.738E-2,5E-1,5E-1,5E-1,8.681391E-2,5E-1,5E-1,5E-1,-5.117746E-2,5E-1,5E-1,5E-1,9.798955E-2,1.14624284E-1,3.7520412E-2,5E-1,5E-1,5E-1,5E-1,1.2212324E-1,5.6944888E-2,7.488078E-2,-1.2857834E-2,5E-1,5E-1,5E-1,5E-1,-5.144467E-2,-3.9297924E-3,5E-1,5E-1,-2.5486952E-2,3.7097398E-3,2.114862E-3,-3.0552218E-2,-4.0326837E-2,1.9698953E-2,-2.3259124E-2,1.038894E-1,3.2097183E-2,1.01499334E-1,1.0513242E-1,4.205267E-2,-5.7516553E-2,-4.0969905E-2,-3.43838E-2,-3.372316E-4,-2.6836285E-2,1.4644079E-2,4.201549E-2,9.592874E-3,1.8848818E-2,-3.8101804E-2,-2.2485439E-2,8.367698E-2,9.194541E-2,-3.0360727E-2,1.5340851E-3,7.332982E-2,1.6514001E-2,-9.624423E-3,8.80306E-2,5.228866E-2,9.668721E-2,-4.6884887E-2,9.042563E-2,6.686763E-3,-2.8140208E-2,-6.319975E-2],"split_indices":[0,47,81,83,101,144,111,35,20,84,81,141,87,0,85,76,85,144,102,94,107,83,105,76,0,82,100,0,0,42,135,81,101,95,2,120,0,81,144,0,0,90,85,71,0,104,98,0,96,0,0,74,81,40,0,94,91,81,0,107,42,42,0,0,0,144,90,88,81,0,0,0,0,87,93,138,99,0,0,85,92,0,0,0,0,0,0,0,0,0,0,0,0,0,0,0,0,0,0,0,0,0,0,0,0,0,0,0,0,0,0,0,0,0,0,0,0,0,0],"split_type":[0,0,0,0,0,0,0,0,0,0,0,0,0,0,0,0,0,0,0,0,0,0,0,0,0,0,0,0,0,0,0,0,0,0,0,0,0,0,0,0,0,0,0,0,0,0,0,0,0,0,0,0,0,0,0,0,0,0,0,0,0,0,0,0,0,0,0,0,0,0,0,0,0,0,0,0,0,0,0,0,0,0,0,0,0,0,0,0,0,0,0,0,0,0,0,0,0,0,0,0,0,0,0,0,0,0,0,0,0,0,0,0,0,0,0,0,0,0,0],"sum_hessian":[4.410377E3,4.0501992E3,3.6017755E2,2.9509094E3,1.0992899E3,2.4666087E2,1.13516685E2,2.1397122E3,8.1119727E2,1.0182663E3,8.1023605E1,2.0233324E2,4.432765E1,1.0212549E2,1.13912E1,2.0374412E3,1.0227094E2,7.9301556E2,1.8181702E1,9.9974E2,1.8526295E1,5.293732E1,2.8086283E1,1.962798E2,6.053434E0,3.1712597E1,1.2615051E1,2.8114698E0,8.57973E0,1.8317201E3,2.057211E2,6.909143E1,3.317951E1,7.248798E2,6.813576E1,1.678144E1,1.4002602E0,9.18933E2,8.080702E1,1.5284193E1,3.2421014E0,4.8369694E1,4.567628E0,2.1541864E1,6.5444174E0,1.9302951E2,3.2502801E0,1.2990578E1,1.872202E1,1.3431137E0,1.1271938E1,9.5839685E2,8.7332324E2,2.043987E2,1.3223885E0,5.2876934E1,1.6214495E1,2.7274206E1,5.905304E0,6.3268567E2,9.2194176E1,6.584549E1,2.2902634E0,1.5387345E1,1.3940963E0,7.194724E2,1.9946057E2,6.2691425E1,1.8115597E1,4.511347E1,3.256222E0,2.77292E0,1.7947078E0,6.7948484E0,1.4747017E1,1.854204E2,7.609114E0,1.8603396E0,1.3899404E0,4.1314564E0,1.4590562E1,7.9538525E2,1.6301158E2,7.375258E2,1.357974E2,1.9508652E2,9.312192E0,5.0660328E1,2.216607E0,1.1715955E1,4.49854E0,1.9166685E1,8.107521E0,4.757986E2,1.5688702E2,7.460306E1,1.7591116E1,3.6986176E1,2.8859316E1,5.207568E2,1.987156E2,1.6666115E2,3.2799423E1,6.1338158E1,1.3532691E0,1.0618948E1,7.4966497E0,1.3088834E0,5.485965E0,8.506011E0,6.241005E0,1.343866E2,5.1033802E1,2.305966E0,5.3031483E0,1.8390999E0,2.2923565E0,9.254181E0,5.336381E0],"tree_param":{"num_deleted":"0","num_feature":"146","num_nodes":"119","size_leaf_vector":"0"}},{"base_weights":[1.7788875E-3,9.256144E-2,-2.5144455E-1,1.3276428E-1,-4.71814E-1,-1.2560353E-1,-4.723597E-1,2.066207E-1,-7.071183E-2,-5.13906E-1,5.941897E-1,-1.4655063E-1,7.3537034E-1,-5.083876E-1,5.278342E-1,1.6009606E-1,4.9676028E-1,-1.0525935E-1,9.954667E-1,-5.795309E-1,-1.5434715E-1,-5.2936935E-1,1.1636115E0,-2.5503498E-1,2.3132293E-3,1.0922004E0,-5.701674E-1,-5.3785986E-1,3.5238647E-1,-6.1604756E-1,1.1901394E0,6.262963E-2,3.1007597E-1,5.2486753E-1,-6.587858E-1,-4.7116447E-2,-5.7105345E-1,1.2013831E0,-5.486637E-1,-6.434384E-1,8.634854E-3,-3.4036538E-1,9.4667464E-1,-3.3782345E-1,1.399314E-1,8.052221E-2,-5.3788084E-1,-5.618099E-1,1.365677E-1,-6.2404203E-1,1.0796181E0,4.6550743E-2,1.1073755E0,2.71715E-1,1.026716E0,4.8161933E-1,1.1006533E0,-1.23368666E-1,3.874808E-1,-7.1792746E-1,4.0614253E-1,1.320975E0,-4.2235583E-1,-6.5957546E-1,-1.4766407E-1,-6.6117287E-1,8.162941E-1,-6.968678E-1,6.5779614E-1,-3.755077E-1,8.4830385E-1,-3.5379585E-2,8.5715663E-1,3.921196E-2,7.870701E-1,-6.963496E-1,-3.2755604E-1,-5.952964E-1,-6.4352185E-2,-6.427856E-1,9.5567536E-1,6.364546E-2,-7.0275277E-1,3.140731E-1,-2.9485446E-1,1.1132139E0,-4.761182E-1,4.332589E-1,1.0736256E0,-4.4135717E-1,1.2356162E0,3.4202296E-2,-3.420245E-1,1.2394529E-1,9.103452E-1,-5.476089E-1,7.884974E-1,-7.2057825E-1,-4.9450207E-1,-5.3823596E-1,2.825398E-1,9.172937E-1,-4.132383E-1,-3.974566E-1,1.1150842E0,-5.342045E-1,1.2702097E0,-6.9361204E-1,2.6773822E-1,-4.5881763E-1,1.0324978E0,-8.423738E-3,5.6990373E-1,1.1264535E0,-5.4714406E-1,-6.489855E-1,-3.5787318E-2,-6.1734766E-1,2.1444458E-1,-3.0408308E-1,8.0717915E-1],"categories":[],"categories_nodes":[],"categories_segments":[],"categories_sizes":[],"default_left":[1,1,1,1,1,1,1,1,1,1,1,1,1,1,1,1,1,1,1,1,1,0,0,1,1,0,0,1,1,0,0,1,1,1,0,1,1,1,0,1,1,1,0,1,1,1,1,1,1,0,0,1,0,1,1,1,1,1,1,0,1,0,0,1,1,0,0,0,1,1,1,1,1,1,1,0,1,1,1,0,0,0,0,0,0,0,0,0,0,0,0,0,0,0,0,0,0,0,0,0,0,0,0,0,0,0,0,0,0,0,0,0,0,0,0,0,0,0,0,0,0],"id":4,"left_children":[1,3,5,7,9,11,13,15,17,19,21,23,25,27,29,31,33,35,37,39,41,-1,-1,43,45,-1,-1,47,49,-1,-1,51,53,55,-1,57,59,61,-1,63,65,67,-1,69,71,73,75,77,79,-1,-1,81,-1,83,85,87,89,91,93,-1,95,-1,-1,97,99,-1,-1,-1,101,103,105,107,109,111,113,-1,115,117,119,-1,-1,-1,-1,-1,-1,-1,-1,-1,-1,-1,-1,-1,-1,-1,-1,-1,-1,-1,-1,-1,-1,-1,-1,-1,-1,-1,-1,-1,-1,-1,-1,-1,-1,-1,-1,-1,-1,-1,-1,-1,-1],"loss_changes":[1.0125868E2,7.3630264E1,3.2256157E1,4.5512493E1,9.98962E0,1.3488393E1,1.5456749E1,2.9908081E1,2.9829992E1,4.8224373E0,6.157872E0,1.1711183E1,8.909475E0,1.05234375E1,1.2207209E1,2.7988754E1,1.0301453E1,2.116752E1,8.743172E0,6.6088142E0,7.1817884E0,0E0,0E0,1.3763348E1,1.2999601E1,0E0,0E0,6.444977E0,1.0678618E1,0E0,0E0,1.9477612E1,2.0461365E1,6.935478E0,0E0,2.3139992E1,1.2743181E1,4.974964E0,0E0,1.1704102E0,1.0387616E1,1.0915739E1,0E0,1.5832161E1,9.258882E0,7.813536E0,1.0689335E0,6.3072815E0,9.759004E0,0E0,0E0,1.4723831E1,0E0,1.7310978E1,5.46616E0,7.5693207E0,4.742464E0,2.046259E1,1.425266E1,0E0,4.798523E0,0E0,0E0,1.1862411E0,1.2079332E0,0E0,0E0,0E0,2.6714766E0,1.1471363E1,7.0912905E0,1.2144963E1,3.8093433E0,6.450259E0,7.314845E0,0E0,1.7220467E0,6.5030746E0,5.4993615E0,0E0,0E0,0E0,0E0,0E0,0E0,0E0,0E0,0E0,0E0,0E0,0E0,0E0,0E0,0E0,0E0,0E0,0E0,0E0,0E0,0E0,0E0,0E0,0E0,0E0,0E0,0E0,0E0,0E0,0E0,0E0,0E0,0E0,0E0,0E0,0E0,0E0,0E0,0E0,0E0,0E0,0E0],"parents":[2147483647,0,0,1,1,2,2,3,3,4,4,5,5,6,6,7,7,8,8,9,9,10,10,11,11,12,12,13,13,14,14,15,15,16,16,17,17,18,18,19,19,20,20,23,23,24,24,27,27,28,28,31,31,32,32,33,33,35,35,36,36,37,37,39,39,40,40,41,41,43,43,44,44,45,45,46,46,47,47,48,48,51,51,53,53,54,54,55,55,56,56,57,57,58,58,60,60,63,63,64,64,68,68,69,69,70,70,71,71,72,72,73,73,74,74,76,76,77,77,78,78],"right_children":[2,4,6,8,10,12,14,16,18,20,22,24,26,28,30,32,34,36,38,40,42,-1,-1,44,46,-1,-1,48,50,-1,-1,52,54,56,-1,58,60,62,-1,64,66,68,-1,70,72,74,76,78,80,-1,-1,82,-1,84,86,88,90,92,94,-1,96,-1,-1,98,100,-1,-1,-1,102,104,106,108,110,112,114,-1,116,118,120,-1,-1,-1,-1,-1,-1,-1,-1,-1,-1,-1,-1,-1,-1,-1,-1,-1,-1,-1,-1,-1,-1,-1,-1,-1,-1,-1,-1,-1,-1,-1,-1,-1,-1,-1,-1,-1,-1,-1,-1,-1,-1],"split_conditions":[5E-1,5E-1,5E-1,5E-1,5E-1,5E-1,5E-1,5E-1,5E-1,5E-1,5E-1,5E-1,5E-1,5E-1,5E-1,5E-1,5E-1,5E-1,5E-1,5E-1,5E-1,-5.2936938E-2,1.16361156E-1,5E-1,5E-1,1.0922004E-1,-5.701674E-2,5E-1,5E-1,-6.1604757E-2,1.1901394E-1,5E-1,5E-1,5E-1,-6.5878585E-2,5E-1,5E-1,5E-1,-5.486637E-2,5E-1,5E-1,5E-1,9.4667464E-2,5E-1,5E-1,5E-1,5E-1,5E-1,5E-1,-6.2404204E-2,1.0796181E-1,5E-1,1.10737555E-1,5E-1,5E-1,5E-1,5E-1,5E-1,5E-1,-7.1792744E-2,5E-1,1.320975E-1,-4.2235583E-2,5E-1,5E-1,-6.611729E-2,8.162941E-2,-6.9686785E-2,5E-1,5E-1,5E-1,5E-1,5E-1,5E-1,5E-1,-6.963497E-2,5E-1,5E-1,5E-1,-6.4278565E-2,9.556754E-2,6.3645463E-3,-7.027528E-2,3.1407308E-2,-2.9485447E-2,1.1132139E-1,-4.761182E-2,4.332589E-2,1.0736256E-1,-4.4135716E-2,1.2356162E-1,3.4202298E-3,-3.4202453E-2,1.2394529E-2,9.1034524E-2,-5.4760892E-2,7.884974E-2,-7.205783E-2,-4.9450208E-2,-5.3823598E-2,2.8253982E-2,9.172937E-2,-4.132383E-2,-3.974566E-2,1.1150842E-1,-5.342045E-2,1.2702097E-1,-6.93612E-2,2.6773823E-2,-4.5881763E-2,1.0324978E-1,-8.423738E-4,5.6990374E-2,1.1264535E-1,-5.4714408E-2,-6.489855E-2,-3.5787318E-3,-6.1734766E-2,2.1444459E-2,-3.0408308E-2,8.0717914E-2],"split_indices":[83,74,72,81,125,137,60,78,98,90,82,61,96,101,104,42,90,0,89,137,109,0,0,42,95,0,0,127,68,0,0,20,127,40,0,103,111,107,0,120,78,94,0,49,127,99,138,124,97,0,0,88,0,94,71,94,71,85,107,0,85,0,0,102,91,0,0,0,144,15,95,85,96,100,85,0,91,100,46,0,0,0,0,0,0,0,0,0,0,0,0,0,0,0,0,0,0,0,0,0,0,0,0,0,0,0,0,0,0,0,0,0,0,0,0,0,0,0,0,0,0],"split_type":[0,0,0,0,0,0,0,0,0,0,0,0,0,0,0,0,0,0,0,0,0,0,0,0,0,0,0,0,0,0,0,0,0,0,0,0,0,0,0,0,0,0,0,0,0,0,0,0,0,0,0,0,0,0,0,0,0,0,0,0,0,0,0,0,0,0,0,0,0,0,0,0,0,0,0,0,0,0,0,0,0,0,0,0,0,0,0,0,0,0,0,0,0,0,0,0,0,0,0,0,0,0,0,0,0,0,0,0,0,0,0,0,0,0,0,0,0,0,0,0,0],"sum_hessian":[4.4027856E3,3.2413655E3,1.1614202E3,3.0265374E3,2.1482822E2,7.409293E2,4.2049078E2,2.2205288E3,8.060084E2,2.0716602E2,7.6621976E0,7.241411E2,1.6788233E1,4.0634552E2,1.4145253E1,1.9150048E3,3.0552414E2,7.815839E2,2.4424492E1,1.7467366E2,3.249235E1,2.6007826E0,5.061415E0,4.1846906E2,3.0567203E2,1.3312944E1,3.475289E0,3.9325592E2,1.3089614E1,5.2124906E0,8.932762E0,1.1615643E3,7.534404E2,2.988019E2,6.7222133E0,6.958281E2,8.575583E1,2.1746473E1,2.678018E0,1.5746973E2,1.7203947E1,2.8387186E1,4.1051664E0,3.4607364E2,7.239544E1,2.6775723E2,3.7914795E1,3.799309E2,1.3324996E1,5.648058E0,7.441556E0,1.1449873E3,1.6577068E1,7.164678E2,3.697263E1,2.7963455E2,1.9167356E1,5.925742E2,1.0325392E2,7.4781395E1,1.0974435E1,2.0428345E1,1.3181291E0,1.5218579E2,5.283926E0,9.503707E0,7.7002397E0,2.1139036E1,7.2481503E0,3.360795E2,9.994114E0,5.8939552E1,1.3455891E1,2.5396404E2,1.3793203E1,2.030512E1,1.7609674E1,3.5578452E2,2.4146399E1,6.938504E0,6.386492E0,1.1203427E3,2.4644596E1,6.6704364E2,4.942415E1,3.5205574E1,1.7670524E0,2.6011765E2,1.951692E1,1.3598832E0,1.7807472E1,3.448831E2,2.4769112E2,6.9474335E1,3.3779587E1,3.0168815E0,7.9575534E0,1.08663895E2,4.35219E1,2.637911E0,2.6460152E0,5.9500704E0,1.29808E0,3.319253E2,4.154224E0,2.2745755E0,7.719538E0,1.8177698E1,4.0761852E1,1.3919888E0,1.2063902E1,2.3394858E2,2.001545E1,1.1120265E1,2.6729383E0,7.796396E0,9.813279E0,3.4658377E2,9.200746E0,1.9447968E1,4.698432E0],"tree_param":{"num_deleted":"0","num_feature":"146","num_nodes":"121","size_leaf_vector":"0"}},{"base_weights":[-1.5196541E-3,-1.2859197E-1,3.36975E-1,-2.8438406E-2,-4.0433016E-1,4.2929325E-1,-4.3840742E-1,9.6955374E-2,-2.0353064E-1,-4.5755792E-1,-2.6103535E-1,5.423434E-1,-3.383669E-2,-4.6159106E-1,2.9298982E-1,1.9698043E-1,-4.3761164E-1,-3.1770468E-1,5.033831E-1,-4.6615177E-1,3.4780833E-1,-1.4405929E-1,-4.3328506E-1,4.207884E-1,7.653997E-1,-5.905984E-2,1.0932344E0,-4.804247E-1,3.0715245E-1,7.173779E-1,-4.2369062E-1,2.4579087E-1,-3.2846868E-1,-4.697075E-1,1.0298187E0,-4.026608E-1,-2.0385468E-1,2.9256597E-1,7.8830165E-1,-4.7027314E-1,6.219287E-1,-3.1109518E-1,9.2156464E-1,-2.9251593E-1,1.2601267E-1,-4.7091097E-1,-7.840149E-2,3.8530797E-1,1.2674532E0,7.988975E-1,-4.3308946E-1,3.5745047E-2,-2.4124326E-1,-5.107128E-1,-1.3005166E-1,4.6520734E-1,1.7137509E-2,2.0749149E-1,7.793231E-1,-4.78277E-1,1.6355303E-1,-5.07887E-1,4.1925094E-1,-4.1869146E-1,3.36746E-1,-3.6357224E-1,-1.1946899E-1,1.6010882E-1,1.1064816E0,1.0095329E0,4.7229013E-1,-5.359021E-1,-3.995908E-1,1.8744165E-2,-4.736308E-1,-3.173837E-1,6.19604E-1,1.1791927E-2,3.734677E-1,-4.7867817E-1,1.2388366E-2,-2.0581073E-1,4.4460076E-1,4.145124E-1,-4.311392E-1,8.4150183E-1,-7.781981E-2,4.0855774E-1,-6.387568E-1,7.102086E-2,-6.27584E-1,-3.1071094E-1,3.6805943E-1,-5.306321E-1,7.8235865E-2,-4.0910187E-1,1.10999815E-1,1.8134281E-1,8.577916E-1,1.1935343E0,5.908629E-1,-5.1409674E-1,-3.181032E-2,3.1168208E-2,7.0685023E-1,-5.389642E-1,2.2782746E-1,-6.4461336E-2,6.6749346E-1,-4.320679E-1,2.6181537E-1,-3.66363E-1,7.328207E-1,-3.914867E-1,3.317034E-1,-1.8998136E-1,1.2414806E-1,2.9648775E-1,-4.617524E-1,1.2698385E0,-2.637864E-2,1.0447334E0,3.738602E-1,2.3738283E-1,1.0696855E0,-5.5492187E-1,9.15145E-3,-4.10607E-1,1.8327408E-1,-4.133342E-1,-7.9364486E-2,7.598605E-2,-3.014288E-1,6.5062416E-1,5.316454E-2,-4.8645234E-1,-4.5678817E-4,-3.5313872E-1,-4.4207923E-2,4.4375542E-1,-2.1231453E-1,-5.136583E-1,2.3961535E-1,1.0464802E0,5.57714E-1,8.3337486E-1,-6.481441E-1,1.0226224E-1,-3.4656566E-1,-4.377535E-1,2.251008E-3,4.8242543E-2,9.054748E-1,-5.6130505E-1,-1.9339047E-1,4.217022E-1,-4.2794648E-1,-4.9764353E-1,-1.931287E-1,-6.901058E-2,2.8160515E-1],"categories":[],"categories_nodes":[],"categories_segments":[],"categories_sizes":[],"default_left":[1,1,1,1,1,1,1,1,1,1,1,1,1,1,1,1,1,1,1,1,1,1,1,1,1,1,0,1,1,0,0,1,1,1,0,1,1,1,1,1,0,1,0,1,1,1,1,1,0,1,1,1,1,1,1,0,0,1,1,1,1,1,1,1,1,1,1,1,1,1,1,1,1,0,0,1,0,1,1,1,0,1,0,1,1,1,1,0,0,1,0,1,1,1,1,1,1,0,0,0,0,0,0,0,0,0,0,0,0,0,0,0,0,0,0,0,0,0,0,0,0,0,0,0,0,0,0,0,0,0,0,0,0,0,0,0,0,0,0,0,0,0,0,0,0,0,0,0,0,0,0,0,0,0,0,0,0,0,0,0,0],"id":5,"left_children":[1,3,5,7,9,11,13,15,17,19,21,23,25,27,29,31,33,35,37,39,41,43,45,47,49,51,-1,53,55,-1,-1,57,59,61,-1,63,65,67,69,71,-1,73,-1,75,77,79,81,83,-1,85,87,89,91,93,95,-1,-1,97,99,101,103,105,107,109,111,113,115,117,119,121,123,125,127,-1,-1,129,-1,131,133,135,-1,137,-1,139,141,143,145,-1,-1,147,-1,149,151,153,155,157,159,-1,-1,-1,-1,-1,-1,-1,-1,-1,-1,-1,-1,-1,-1,-1,-1,-1,-1,-1,-1,-1,-1,-1,-1,-1,-1,-1,-1,-1,-1,-1,-1,-1,-1,-1,-1,-1,-1,-1,-1,-1,-1,-1,-1,-1,-1,-1,-1,-1,-1,-1,-1,-1,-1,-1,-1,-1,-1,-1,-1,-1,-1,-1,-1],"loss_changes":[1.8933826E2,8.837122E1,8.6190125E1,5.15877E1,6.3839264E0,5.6256256E1,2.311119E0,7.330213E1,7.929439E1,4.4559326E0,4.63768E0,2.308873E1,6.0825934E0,1.9539757E0,1.6891258E0,2.9681652E1,1.0663517E1,8.088463E0,7.9817085E0,3.0470276E0,2.979444E0,5.666884E0,1.2161789E0,1.6366974E1,1.2524078E1,3.6012852E0,0E0,1.2301025E0,1.5675253E-1,0E0,0E0,2.1429253E1,7.340575E0,7.414978E0,0E0,5.8629074E0,4.8491697E0,8.465883E0,3.5468063E0,2.6271667E0,0E0,2.2669697E-1,0E0,2.2587762E0,1.4231697E0,3.2369614E-1,7.709001E-1,1.3053566E1,0E0,1.110083E1,1.8009061E0,3.2662797E0,3.1332579E0,1.3567429E0,7.895448E-1,0E0,0E0,1.663153E1,4.790848E0,1.1956253E0,1.6856146E0,4.785057E0,1.1580911E0,4.4181213E0,3.2755418E0,2.5559292E0,4.1292715E0,6.083554E0,2.078722E0,3.4724045E-1,3.3356009E0,3.2672653E0,1.9940529E0,0E0,0E0,2.0034704E0,0E0,7.3849905E-1,1.3785346E0,3.0960083E-1,0E0,1.9585806E-1,0E0,9.659477E0,1.1823564E0,1.5810837E1,8.131118E0,0E0,0E0,1.7526708E0,0E0,2.5681062E0,1.2895904E0,1.0145378E0,9.6964645E-1,6.0175657E-3,2.258722E-1,0E0,0E0,0E0,0E0,0E0,0E0,0E0,0E0,0E0,0E0,0E0,0E0,0E0,0E0,0E0,0E0,0E0,0E0,0E0,0E0,0E0,0E0,0E0,0E0,0E0,0E0,0E0,0E0,0E0,0E0,0E0,0E0,0E0,0E0,0E0,0E0,0E0,0E0,0E0,0E0,0E0,0E0,0E0,0E0,0E0,0E0,0E0,0E0,0E0,0E0,0E0,0E0,0E0,0E0,0E0,0E0,0E0,0E0,0E0,0E0,0E0,0E0,0E0,0E0],"parents":[2147483647,0,0,1,1,2,2,3,3,4,4,5,5,6,6,7,7,8,8,9,9,10,10,11,11,12,12,13,13,14,14,15,15,16,16,17,17,18,18,19,19,20,20,21,21,22,22,23,23,24,24,25,25,27,27,28,28,31,31,32,32,33,33,35,35,36,36,37,37,38,38,39,39,41,41,43,43,44,44,45,45,46,46,47,47,49,49,50,50,51,51,52,52,53,53,54,54,57,57,58,58,59,59,60,60,61,61,62,62,63,63,64,64,65,65,66,66,67,67,68,68,69,69,70,70,71,71,72,72,75,75,77,77,78,78,79,79,81,81,83,83,84,84,85,85,86,86,89,89,91,91,92,92,93,93,94,94,95,95,96,96],"right_children":[2,4,6,8,10,12,14,16,18,20,22,24,26,28,30,32,34,36,38,40,42,44,46,48,50,52,-1,54,56,-1,-1,58,60,62,-1,64,66,68,70,72,-1,74,-1,76,78,80,82,84,-1,86,88,90,92,94,96,-1,-1,98,100,102,104,106,108,110,112,114,116,118,120,122,124,126,128,-1,-1,130,-1,132,134,136,-1,138,-1,140,142,144,146,-1,-1,148,-1,150,152,154,156,158,160,-1,-1,-1,-1,-1,-1,-1,-1,-1,-1,-1,-1,-1,-1,-1,-1,-1,-1,-1,-1,-1,-1,-1,-1,-1,-1,-1,-1,-1,-1,-1,-1,-1,-1,-1,-1,-1,-1,-1,-1,-1,-1,-1,-1,-1,-1,-1,-1,-1,-1,-1,-1,-1,-1,-1,-1,-1,-1,-1,-1,-1,-1,-1,-1],"split_conditions":[5E-1,5E-1,5E-1,5E-1,5E-1,5E-1,5E-1,5E-1,5E-1,5E-1,5E-1,5E-1,5E-1,5E-1,5E-1,5E-1,5E-1,5E-1,5E-1,5E-1,5E-1,5E-1,5E-1,5E-1,5E-1,5E-1,1.0932344E-1,5E-1,5E-1,7.173779E-2,-4.2369064E-2,5E-1,5E-1,5E-1,1.02981865E-1,5E-1,5E-1,5E-1,5E-1,5E-1,6.219287E-2,5E-1,9.215646E-2,5E-1,5E-1,5E-1,5E-1,5E-1,1.2674533E-1,5E-1,5E-1,5E-1,5E-1,5E-1,5E-1,4.6520736E-2,1.7137509E-3,5E-1,5E-1,5E-1,5E-1,5E-1,5E-1,5E-1,5E-1,5E-1,5E-1,5E-1,5E-1,5E-1,5E-1,5E-1,5E-1,1.8744165E-3,-4.736308E-2,5E-1,6.19604E-2,5E-1,5E-1,5E-1,1.2388367E-3,5E-1,4.4460077E-2,5E-1,5E-1,5E-1,5E-1,4.0855777E-2,-6.387568E-2,5E-1,-6.27584E-2,5E-1,5E-1,5E-1,5E-1,5E-1,5E-1,1.8134281E-2,8.577916E-2,1.1935343E-1,5.908629E-2,-5.1409673E-2,-3.1810321E-3,3.1168207E-3,7.068502E-2,-5.3896423E-2,2.2782747E-2,-6.446134E-3,6.674935E-2,-4.3206792E-2,2.6181538E-2,-3.66363E-2,7.328207E-2,-3.914867E-2,3.317034E-2,-1.8998137E-2,1.24148065E-2,2.9648775E-2,-4.617524E-2,1.2698385E-1,-2.637864E-3,1.04473345E-1,3.7386023E-2,2.3738284E-2,1.06968544E-1,-5.549219E-2,9.1514504E-4,-4.10607E-2,1.8327408E-2,-4.133342E-2,-7.936449E-3,7.598605E-3,-3.014288E-2,6.506242E-2,5.3164545E-3,-4.8645236E-2,-4.567882E-5,-3.531387E-2,-4.420792E-3,4.4375543E-2,-2.1231454E-2,-5.136583E-2,2.3961535E-2,1.0464802E-1,5.57714E-2,8.3337486E-2,-6.481441E-2,1.0226225E-2,-3.4656566E-2,-4.377535E-2,2.2510081E-4,4.824254E-3,9.054748E-2,-5.6130506E-2,-1.9339047E-2,4.2170223E-2,-4.279465E-2,-4.9764354E-2,-1.9312872E-2,-6.901058E-3,2.8160516E-2],"split_indices":[83,47,0,42,81,47,90,0,81,127,107,72,104,98,120,35,76,144,85,143,96,85,96,44,101,71,0,145,93,0,0,53,81,94,0,125,85,107,102,89,0,71,0,92,71,92,71,20,0,60,68,100,144,92,89,0,0,104,82,91,144,78,89,137,76,98,71,103,97,87,71,88,77,0,0,89,0,135,89,88,0,89,0,127,95,42,104,0,0,87,0,91,89,97,138,85,102,0,0,0,0,0,0,0,0,0,0,0,0,0,0,0,0,0,0,0,0,0,0,0,0,0,0,0,0,0,0,0,0,0,0,0,0,0,0,0,0,0,0,0,0,0,0,0,0,0,0,0,0,0,0,0,0,0,0,0,0,0,0,0,0],"split_type":[0,0,0,0,0,0,0,0,0,0,0,0,0,0,0,0,0,0,0,0,0,0,0,0,0,0,0,0,0,0,0,0,0,0,0,0,0,0,0,0,0,0,0,0,0,0,0,0,0,0,0,0,0,0,0,0,0,0,0,0,0,0,0,0,0,0,0,0,0,0,0,0,0,0,0,0,0,0,0,0,0,0,0,0,0,0,0,0,0,0,0,0,0,0,0,0,0,0,0,0,0,0,0,0,0,0,0,0,0,0,0,0,0,0,0,0,0,0,0,0,0,0,0,0,0,0,0,0,0,0,0,0,0,0,0,0,0,0,0,0,0,0,0,0,0,0,0,0,0,0,0,0,0,0,0,0,0,0,0,0,0],"sum_hessian":[4.399846E3,3.1993987E3,1.2004475E3,2.347752E3,8.516468E2,1.0731259E3,1.27321655E2,1.3682875E3,9.7946436E2,6.193808E2,2.3226599E2,8.624344E2,2.1069153E2,1.237674E2,3.554254E0,1.1531486E3,2.151389E2,8.437417E2,1.3572264E2,6.1325806E2,6.1227336E0,1.3942068E2,9.284531E1,5.6009564E2,3.0233875E2,2.0700644E2,3.685077E0,1.2117379E2,2.5936131E0,2.2317388E0,1.3225152E0,1.0556212E3,9.75274E1,2.1119942E2,3.9394748E0,4.8173163E2,3.620101E2,7.916998E1,5.655266E1,6.115096E2,1.748428E0,3.0629845E0,3.059749E0,8.9913025E1,4.950766E1,8.364957E1,9.195741E0,5.389648E2,2.1130836E1,2.9444247E2,7.8962617E0,1.3668295E2,7.032349E1,1.1111114E2,1.0062656E1,1.2877328E0,1.3058804E0,9.86215E2,6.940614E1,7.4785126E1,2.2742268E1,2.0291325E2,8.286162E0,4.7193362E2,9.797988E0,1.24002E2,2.3800812E2,6.911833E1,1.0051649E1,3.1973944E1,2.4578716E1,3.1367694E2,2.9783267E2,1.303144E0,1.7598406E0,8.816145E1,1.7515696E0,3.4589455E1,1.4918208E1,8.233589E1,1.3136772E0,7.8820634E0,1.3136772E0,5.20827E2,1.8137762E1,2.8083536E2,1.3607108E1,1.356911E0,6.5393505E0,1.3062904E2,6.0539145E0,6.3566242E1,6.757245E0,1.0757188E2,3.539261E0,4.3406277E0,5.7220287E0,9.4932153E2,3.6893513E1,2.0036161E1,4.9369984E1,6.909056E1,5.6945696E0,1.913663E1,3.6056392E0,1.94946E2,7.967268E0,3.0613353E0,5.2248273E0,4.631939E2,8.73972E0,3.557592E0,6.240396E0,1.19635704E2,4.366294E0,1.8475337E2,5.3254738E1,5.7115658E1,1.2002676E1,8.679205E0,1.3724437E0,2.9686539E1,2.287406E0,1.8644648E1,5.9340696E0,3.030827E2,1.0594247E1,2.9259805E2,5.2346034E0,6.2307465E1,2.585399E1,2.9334743E1,5.254709E0,7.4449024E0,7.4733057E0,8.100188E1,1.3340104E0,3.5031393E0,4.378924E0,4.9789124E2,2.2935795E1,1.6359371E1,1.7783916E0,1.6149843E2,1.1933693E2,5.0606265E0,8.546482E0,1.22238945E2,8.390093E0,4.492914E1,1.8637104E1,4.919443E0,1.8378019E0,9.799462E1,9.577253E0,2.2079616E0,1.3312995E0,2.1535525E0,2.1870751E0,3.0740304E0,2.647998E0],"tree_param":{"num_deleted":"0","num_feature":"146","num_nodes":"161","size_leaf_vector":"0"}},{"base_weights":[-4.0501296E-3,-6.9273405E-2,7.049871E-1,-1.969594E-1,2.6563084E-1,5.562354E-1,1.0054005E0,-1.23770885E-1,-3.9258987E-1,3.216681E-1,6.1178375E-2,6.5699154E-1,5.082898E-2,1.0902658E0,2.1054956E-1,-1.406351E-1,2.0303078E-1,-4.170811E-1,7.524695E-1,2.7392414E-1,1.0758802E0,1.6226122E-1,-3.9061776E-1,6.8564177E-1,-3.1725144E-1,3.2527885E-1,-5.944684E-1,9.3931144E-1,-1.4850482E-1,-1.2866597E-1,-5.198252E-1,9.5205225E-2,9.275629E-1,-4.618056E-1,-1.3438156E-1,8.3091414E-1,-6.0719647E-2,2.5572625E-1,1.0004038E0,1.120475E0,4.0664878E-1,2.1949461E-1,-6.9106346E-1,-5.544915E-1,9.956474E-1,7.0384663E-1,-3.4349468E-1,4.0689152E-1,-5.825063E-1,9.16731E-1,-8.299923E-2,-1.8541743E-1,-3.8391918E-2,-3.8622823E-1,-6.27128E-1,-9.6496776E-2,5.810706E-1,1.0048692E0,3.8201332E-1,-4.899013E-1,-1.3956346E-1,-1.6051216E-1,7.8182256E-1,2.9057512E-1,-6.96658E-2,1.1383655E0,3.243926E-1,5.1770794E-1,1.5607296E-1,2.6720676E-1,-5.2539563E-1,-5.9380734E-1,-5.1224083E-3,7.397662E-1,2.3846224E-2,-2.1366712E-2,-4.9239758E-1,6.009667E-1,-4.5072284E-1,-2.040959E-1,7.1972543E-1,-1.5838241E-2,-6.434252E-1,-4.0680966E-1,4.547335E-2,-6.564729E-1,6.509047E-2,-1.6086158E-1,1.0199276E0,8.1439793E-1,-4.397121E-1,1.2155908E0,4.5578438E-1,-4.9390024E-1,3.450157E-1,-2.0512886E-1,9.3085665E-1,-2.387685E-1,8.351214E-2,3.6761692E-1,8.40765E-2,-1.995509E-1,7.850584E-1,2.1533011E-1,6.9788784E-1,-6.8821466E-1,2.1998948E-1,-6.16006E-1,5.0670593E-3,8.3062106E-1,4.7528258E-1,6.583558E-1,-4.8040423E-1,7.809016E-1,2.341379E-1,-2.4999216E-1,-6.2224996E-1],"categories":[],"categories_nodes":[],"categories_segments":[],"categories_sizes":[],"default_left":[1,1,1,1,1,1,1,1,1,1,1,1,1,0,1,1,1,1,1,1,1,1,1,1,1,1,0,0,0,1,1,1,1,1,1,0,0,1,0,1,1,1,0,1,0,1,1,0,0,0,1,1,1,1,1,1,1,1,0,1,1,1,0,1,1,0,0,0,0,1,1,1,0,1,1,0,0,1,1,0,0,0,0,0,0,0,0,0,0,0,0,0,0,0,0,0,0,0,0,0,0,0,0,0,0,0,0,0,0,0,0,0,0,0,0,0,0],"id":6,"left_children":[1,3,5,7,9,11,13,15,17,19,21,23,25,-1,27,29,31,33,35,37,39,41,43,45,47,49,-1,-1,-1,51,53,55,57,59,61,-1,-1,63,-1,65,67,69,-1,71,-1,73,75,-1,-1,-1,77,79,81,83,85,87,89,91,-1,93,95,97,-1,99,101,-1,-1,-1,-1,103,105,107,-1,109,111,-1,-1,113,115,-1,-1,-1,-1,-1,-1,-1,-1,-1,-1,-1,-1,-1,-1,-1,-1,-1,-1,-1,-1,-1,-1,-1,-1,-1,-1,-1,-1,-1,-1,-1,-1,-1,-1,-1,-1,-1,-1],"loss_changes":[2.0215154E2,1.7122922E2,1.5895966E1,4.1453575E1,1.26441345E1,1.2622017E1,7.9129944E0,1.1662281E1,2.2432556E1,3.0936668E1,1.0979065E1,5.998947E0,7.7012467E0,0E0,3.510822E0,9.046162E0,8.036064E0,9.709473E0,1.1267843E0,1.0545578E1,1.0751877E0,9.725287E0,1.0546118E1,4.017456E0,1.5049196E0,7.4144287E0,0E0,0E0,0E0,9.971813E0,6.3383484E-1,8.591288E0,1.7946434E-1,5.9691925E0,2.686626E0,0E0,0E0,9.07378E0,0E0,3.0751038E-1,5.205846E-2,6.696253E0,0E0,8.605833E-1,0E0,4.827179E0,1.8973535E-1,0E0,0E0,0E0,5.0233364E0,2.0362083E1,1.0266488E1,2.8348446E-1,6.985893E-1,4.947552E0,6.567135E0,7.286625E-1,0E0,2.217041E0,4.0424504E0,2.0220182E0,0E0,1.1445263E1,8.8206005E0,0E0,0E0,0E0,0E0,3.7377653E0,1.5399373E0,4.9907112E-1,0E0,4.1316147E0,3.8310046E0,0E0,0E0,2.815392E-1,2.8723073E-1,0E0,0E0,0E0,0E0,0E0,0E0,0E0,0E0,0E0,0E0,0E0,0E0,0E0,0E0,0E0,0E0,0E0,0E0,0E0,0E0,0E0,0E0,0E0,0E0,0E0,0E0,0E0,0E0,0E0,0E0,0E0,0E0,0E0,0E0,0E0,0E0,0E0,0E0],"parents":[2147483647,0,0,1,1,2,2,3,3,4,4,5,5,6,6,7,7,8,8,9,9,10,10,11,11,12,12,14,14,15,15,16,16,17,17,18,18,19,19,20,20,21,21,22,22,23,23,24,24,25,25,29,29,30,30,31,31,32,32,33,33,34,34,37,37,39,39,40,40,41,41,43,43,45,45,46,46,50,50,51,51,52,52,53,53,54,54,55,55,56,56,57,57,59,59,60,60,61,61,63,63,64,64,69,69,70,70,71,71,73,73,74,74,77,77,78,78],"right_children":[2,4,6,8,10,12,14,16,18,20,22,24,26,-1,28,30,32,34,36,38,40,42,44,46,48,50,-1,-1,-1,52,54,56,58,60,62,-1,-1,64,-1,66,68,70,-1,72,-1,74,76,-1,-1,-1,78,80,82,84,86,88,90,92,-1,94,96,98,-1,100,102,-1,-1,-1,-1,104,106,108,-1,110,112,-1,-1,114,116,-1,-1,-1,-1,-1,-1,-1,-1,-1,-1,-1,-1,-1,-1,-1,-1,-1,-1,-1,-1,-1,-1,-1,-1,-1,-1,-1,-1,-1,-1,-1,-1,-1,-1,-1,-1,-1,-1],"split_conditions":[5E-1,5E-1,5E-1,5E-1,5E-1,5E-1,5E-1,5E-1,5E-1,5E-1,5E-1,5E-1,5E-1,1.0902657E-1,5E-1,5E-1,5E-1,5E-1,5E-1,5E-1,5E-1,5E-1,5E-1,5E-1,5E-1,5E-1,-5.944684E-2,9.3931146E-2,-1.4850482E-2,5E-1,5E-1,5E-1,5E-1,5E-1,5E-1,8.3091415E-2,-6.0719647E-3,5E-1,1.00040376E-1,5E-1,5E-1,5E-1,-6.910635E-2,5E-1,9.956474E-2,5E-1,5E-1,4.068915E-2,-5.8250632E-2,9.16731E-2,5E-1,5E-1,5E-1,5E-1,5E-1,5E-1,5E-1,5E-1,3.8201332E-2,5E-1,5E-1,5E-1,7.818226E-2,5E-1,5E-1,1.1383655E-1,3.2439258E-2,5.1770795E-2,1.56072965E-2,5E-1,5E-1,5E-1,-5.1224086E-4,5E-1,5E-1,-2.1366712E-3,-4.923976E-2,5E-1,5E-1,-2.040959E-2,7.197254E-2,-1.5838242E-3,-6.434252E-2,-4.0680967E-2,4.5473347E-3,-6.56473E-2,6.509047E-3,-1.608616E-2,1.0199276E-1,8.143979E-2,-4.397121E-2,1.2155908E-1,4.557844E-2,-4.9390025E-2,3.450157E-2,-2.0512886E-2,9.308567E-2,-2.3876851E-2,8.351214E-3,3.6761694E-2,8.4076505E-3,-1.995509E-2,7.850584E-2,2.153301E-2,6.9788784E-2,-6.882147E-2,2.1998947E-2,-6.1600603E-2,5.0670595E-4,8.3062105E-2,4.752826E-2,6.583558E-2,-4.8040424E-2,7.809016E-2,2.341379E-2,-2.4999216E-2,-6.2224995E-2],"split_indices":[0,47,81,83,81,144,111,35,20,101,90,141,87,0,85,53,91,95,95,84,90,98,85,76,82,82,0,0,0,82,85,85,107,144,29,0,0,94,0,137,82,110,0,144,0,104,89,0,0,0,96,20,13,97,76,94,101,96,0,115,2,42,0,144,144,0,0,0,0,97,95,135,0,138,99,0,0,94,92,0,0,0,0,0,0,0,0,0,0,0,0,0,0,0,0,0,0,0,0,0,0,0,0,0,0,0,0,0,0,0,0,0,0,0,0,0,0],"split_type":[0,0,0,0,0,0,0,0,0,0,0,0,0,0,0,0,0,0,0,0,0,0,0,0,0,0,0,0,0,0,0,0,0,0,0,0,0,0,0,0,0,0,0,0,0,0,0,0,0,0,0,0,0,0,0,0,0,0,0,0,0,0,0,0,0,0,0,0,0,0,0,0,0,0,0,0,0,0,0,0,0,0,0,0,0,0,0,0,0,0,0,0,0,0,0,0,0,0,0,0,0,0,0,0,0,0,0,0,0,0,0,0,0,0,0,0,0],"sum_hessian":[4.3691914E3,4.0019595E3,3.6723196E2,2.8976208E3,1.1043386E3,2.4752155E2,1.1971041E2,2.1099043E3,7.8771674E2,8.663204E2,2.3801822E2,2.0612852E2,4.139302E1,1.0782627E2,1.1884138E1,2.0069097E3,1.0299454E2,7.718438E2,1.5872918E1,8.160266E2,5.029379E1,1.9502504E2,4.2993176E1,2.0052771E2,5.6008263E0,2.9389406E1,1.2003613E1,3.3891704E0,8.494967E0,1.9467983E3,6.0111298E1,9.063722E1,1.2357315E1,6.658667E2,1.0597709E2,1.4456562E1,1.4163566E0,7.974041E2,1.8622492E1,4.6519638E1,3.7741506E0,1.8346278E2,1.1562267E1,3.8984707E1,4.0084667E0,1.9735272E2,3.174981E0,1.358412E0,4.2424145E0,1.1493698E1,1.789571E1,1.1946923E3,7.521061E2,2.8823774E1,3.1287523E1,6.556818E1,2.5069048E1,1.0086134E1,2.2711804E0,6.119883E2,5.387841E1,1.0384032E2,2.1367698E0,7.2036176E2,7.704232E1,4.5076668E1,1.4429698E0,1.8764191E0,1.8977317E0,1.7302158E2,1.0441197E1,3.6305595E1,2.6791124E0,1.8736754E2,9.985181E0,1.3651621E0,1.8098189E0,6.0354614E0,1.1860248E1,1.171296E3,2.3396273E1,7.2606683E2,2.6039236E1,2.7567167E1,1.2566077E0,3.0064646E1,1.2228781E0,6.2803314E1,2.7648628E0,2.0569513E1,4.499533E0,6.411681E0,3.6744533E0,6.094776E2,2.5107248E0,5.1530434E1,2.3479774E0,7.8642075E1,2.519825E1,5.240614E2,1.9630038E2,6.754466E1,9.497651E0,1.5575987E2,1.7261703E1,8.632292E0,1.8089056E0,3.498036E1,1.3252361E0,1.3786717E2,4.9500378E1,4.2861767E0,5.699004E0,3.2919302E0,2.7435312E0,6.597239E0,5.2630086E0],"tree_param":{"num_deleted":"0","num_feature":"146","num_nodes":"117","size_leaf_vector":"0"}},{"base_weights":[-3.8520803E-3,7.894395E-2,-2.3733713E-1,1.1681513E-1,-4.4421464E-1,-1.097041E-1,-4.61616E-1,7.737335E-2,4.729221E-1,-4.9100333E-1,5.2246654E-1,-2.3109645E-1,1.0877381E-3,-4.9293116E-1,5.094865E-1,9.25607E-2,-5.8742046E-1,4.9816462E-1,-6.3598806E-1,-5.4290533E-1,1.7136446E-1,-5.639261E-1,1.1217065E0,-2.5646377E-1,1.0480877E0,-2.3686998E-2,9.896096E-1,-5.195559E-1,3.5356313E-1,-5.748824E-1,1.0597638E0,7.715941E-2,7.03299E-1,-7.086015E-1,-2.2022305E-1,5.1816106E-1,-6.334257E-1,-6.2168854E-1,-3.3226502E-1,-6.1900496E-1,8.6518604E-1,-3.2528588E-1,2.2681987E-1,-4.656382E-2,8.6763054E-1,-5.4375625E-1,1.8475258E-1,-5.90115E-1,9.561149E-1,1.2917742E-1,-6.459239E-2,8.3228254E-1,-6.31747E-1,-6.338443E-1,5.7805542E-2,5.3430957E-1,-5.968649E-1,-6.537548E-1,7.031753E-2,-4.861048E-1,4.0511253E-1,-4.1073114E-1,1.1354119E0,-5.069078E-1,-1.1993437E-1,-6.565927E-1,5.451537E-1,-6.412144E-2,1.0687709E0,-4.1865122E-1,1.1259924E0,-5.748499E-1,-3.2629274E-2,-6.433904E-1,1.2368245E0,4.607713E-2,2.5736752E-1,-1.909357E-1,2.2272609E-1,1.0739311E0,3.6333883E-1,-4.313892E-1,1.7259425E-1,5.4878086E-1,-5.7986903E-1,-7.025971E-1,-2.5002784E-1,-5.4339474E-1,6.498684E-1,-6.849052E-1,-2.5492856E-1,7.9768884E-1,-5.262255E-1,-5.442316E-1,7.0934325E-1,-3.359795E-1,2.129232E-1,2.4216667E-1,1.291905E0,-1.9043769E-1,1.1325928E-1,-6.0206294E-1,2.8021332E-2,-2.9262748E-1,7.866368E-1],"categories":[],"categories_nodes":[],"categories_segments":[],"categories_sizes":[],"default_left":[1,1,1,1,1,1,1,1,1,1,1,1,1,1,1,1,1,1,0,1,1,0,0,1,0,1,0,1,1,0,0,1,1,0,1,1,0,1,1,0,1,1,1,1,1,1,1,0,0,1,1,1,0,0,1,1,0,1,1,1,1,0,0,1,1,0,1,1,0,0,0,1,1,0,0,0,0,0,0,0,0,0,0,0,0,0,0,0,0,0,0,0,0,0,0,0,0,0,0,0,0,0,0,0,0],"id":7,"left_children":[1,3,5,7,9,11,13,15,17,19,21,23,25,27,29,31,33,35,-1,37,39,-1,-1,41,-1,43,-1,45,47,-1,-1,49,51,-1,53,55,-1,57,59,-1,61,63,65,67,69,71,73,-1,-1,75,77,79,-1,-1,81,83,-1,85,87,89,91,-1,-1,93,95,-1,97,99,-1,-1,-1,101,103,-1,-1,-1,-1,-1,-1,-1,-1,-1,-1,-1,-1,-1,-1,-1,-1,-1,-1,-1,-1,-1,-1,-1,-1,-1,-1,-1,-1,-1,-1,-1,-1],"loss_changes":[8.465868E1,6.4104324E1,3.2765617E1,4.2317158E1,1.0136482E1,9.844218E0,1.2885719E1,2.7476154E1,8.728043E0,7.273613E0,7.513164E0,1.16021805E1,9.419661E0,9.266418E0,8.647384E0,2.4930202E1,2.5492744E0,6.988968E0,0E0,3.0117302E0,9.275287E0,0E0,0E0,1.1491299E1,0E0,7.6922674E0,0E0,6.766838E0,7.8903093E0,0E0,0E0,1.9120623E1,1.1755135E1,0E0,1.9383187E0,5.537079E0,0E0,3.1524582E0,6.4289713E0,0E0,3.5363865E0,1.116148E1,1.2557179E1,7.2519164E0,3.609089E0,5.994713E0,1.2765972E1,0E0,0E0,2.0190691E1,2.5325577E1,6.397381E0,0E0,0E0,6.8123496E-1,4.9326477E0,0E0,2.4645348E0,2.8794007E0,1.9352903E0,4.0864644E0,0E0,0E0,7.620346E0,1.0321317E1,0E0,7.025774E0,8.13442E0,0E0,0E0,0E0,5.867546E0,5.0778675E0,0E0,0E0,0E0,0E0,0E0,0E0,0E0,0E0,0E0,0E0,0E0,0E0,0E0,0E0,0E0,0E0,0E0,0E0,0E0,0E0,0E0,0E0,0E0,0E0,0E0,0E0,0E0,0E0,0E0,0E0,0E0,0E0],"parents":[2147483647,0,0,1,1,2,2,3,3,4,4,5,5,6,6,7,7,8,8,9,9,10,10,11,11,12,12,13,13,14,14,15,15,16,16,17,17,19,19,20,20,23,23,25,25,27,27,28,28,31,31,32,32,34,34,35,35,37,37,38,38,40,40,41,41,42,42,43,43,44,44,45,45,46,46,49,49,50,50,51,51,54,54,55,55,57,57,58,58,59,59,60,60,63,63,64,64,66,66,67,67,71,71,72,72],"right_children":[2,4,6,8,10,12,14,16,18,20,22,24,26,28,30,32,34,36,-1,38,40,-1,-1,42,-1,44,-1,46,48,-1,-1,50,52,-1,54,56,-1,58,60,-1,62,64,66,68,70,72,74,-1,-1,76,78,80,-1,-1,82,84,-1,86,88,90,92,-1,-1,94,96,-1,98,100,-1,-1,-1,102,104,-1,-1,-1,-1,-1,-1,-1,-1,-1,-1,-1,-1,-1,-1,-1,-1,-1,-1,-1,-1,-1,-1,-1,-1,-1,-1,-1,-1,-1,-1,-1,-1],"split_conditions":[5E-1,5E-1,5E-1,5E-1,5E-1,5E-1,5E-1,5E-1,5E-1,5E-1,5E-1,5E-1,5E-1,5E-1,5E-1,5E-1,5E-1,5E-1,-6.3598804E-2,5E-1,5E-1,-5.639261E-2,1.1217065E-1,5E-1,1.0480877E-1,5E-1,9.896096E-2,5E-1,5E-1,-5.748824E-2,1.0597638E-1,5E-1,5E-1,-7.086015E-2,5E-1,5E-1,-6.334257E-2,5E-1,5E-1,-6.1900496E-2,5E-1,5E-1,5E-1,5E-1,5E-1,5E-1,5E-1,-5.90115E-2,9.561149E-2,5E-1,5E-1,5E-1,-6.31747E-2,-6.3384436E-2,5E-1,5E-1,-5.968649E-2,5E-1,5E-1,5E-1,5E-1,-4.1073114E-2,1.13541186E-1,5E-1,5E-1,-6.565928E-2,5E-1,5E-1,1.0687709E-1,-4.186512E-2,1.12599246E-1,5E-1,5E-1,-6.433904E-2,1.23682454E-1,4.607713E-3,2.5736753E-2,-1.9093571E-2,2.227261E-2,1.0739311E-1,3.6333885E-2,-4.313892E-2,1.7259425E-2,5.4878086E-2,-5.7986904E-2,-7.025971E-2,-2.5002783E-2,-5.4339476E-2,6.498685E-2,-6.849052E-2,-2.5492856E-2,7.976889E-2,-5.2622553E-2,-5.442316E-2,7.0934325E-2,-3.359795E-2,2.129232E-2,2.4216667E-2,1.291905E-1,-1.904377E-2,1.1325928E-2,-6.0206294E-2,2.8021333E-3,-2.926275E-2,7.8663684E-2],"split_indices":[83,74,72,78,125,89,60,109,90,94,93,105,49,101,104,124,61,128,0,102,145,0,0,42,0,137,0,100,68,0,0,81,71,0,91,36,0,120,137,0,61,61,85,15,2,124,93,0,0,42,47,89,0,0,95,120,0,101,91,82,85,0,0,14,138,0,102,61,0,0,0,127,102,0,0,0,0,0,0,0,0,0,0,0,0,0,0,0,0,0,0,0,0,0,0,0,0,0,0,0,0,0,0,0,0],"split_type":[0,0,0,0,0,0,0,0,0,0,0,0,0,0,0,0,0,0,0,0,0,0,0,0,0,0,0,0,0,0,0,0,0,0,0,0,0,0,0,0,0,0,0,0,0,0,0,0,0,0,0,0,0,0,0,0,0,0,0,0,0,0,0,0,0,0,0,0,0,0,0,0,0,0,0,0,0,0,0,0,0,0,0,0,0,0,0,0,0,0,0,0,0,0,0,0,0,0,0,0,0,0,0,0,0],"sum_hessian":[4.3773125E3,3.2319087E3,1.1454038E3,3.0144697E3,2.1743918E2,7.3093256E2,4.144713E2,2.7149805E3,2.994892E2,2.0787006E2,9.569124E0,3.4826254E2,3.8267E2,4.020004E2,1.2470915E1,2.655183E3,5.9797436E1,2.9336203E2,6.1271486E0,1.9293254E2,1.4937501E1,3.4227598E0,6.1463647E0,3.4227448E2,5.9880857E0,3.7426605E2,8.403969E0,3.901163E2,1.1884099E1,4.18308E0,8.287834E0,2.5909717E3,6.421145E1,4.4260887E1,1.5536549E1,2.8880072E2,4.5613213E0,1.3899466E2,5.393789E1,7.0333114E0,7.90419E0,2.998948E2,4.237967E1,3.6582443E2,8.441602E0,3.773774E2,1.2738872E1,4.6391687E0,7.2449307E0,1.8954835E3,6.9548804E2,5.889772E1,5.3137302E0,5.7309184E0,9.80563E0,2.851912E2,3.609519E0,1.3289197E2,6.102685E0,4.4909206E1,9.028685E0,1.2905731E0,6.613617E0,1.5836305E2,1.4153174E2,1.09445915E1,3.143508E1,3.6108276E2,4.741663E0,1.3081973E0,7.1334047E0,3.556192E2,2.1758217E1,7.3453784E0,5.3934927E0,1.1508167E3,7.446669E2,4.8330054E2,2.1218755E2,3.8017204E1,2.0880518E1,1.3393993E0,8.46623E0,2.820355E2,3.1557043E0,1.1788959E2,1.5002384E1,2.994287E0,3.1083975E0,2.309012E1,2.1819086E1,6.452386E0,2.5762985E0,1.5418407E2,4.1789985E0,8.581992E1,5.571181E1,2.3304003E1,8.131076E0,2.1085513E2,1.5022765E2,3.4026144E2,1.5357754E1,1.7004555E1,4.753663E0],"tree_param":{"num_deleted":"0","num_feature":"146","num_nodes":"105","size_leaf_vector":"0"}},{"base_weights":[1.8680169E-3,-1.1818888E-1,3.210095E-1,-2.7989497E-2,-3.7317246E-1,4.034363E-1,-4.1488352E-1,8.9065075E-2,-1.9672202E-1,-4.338696E-1,-2.0708892E-1,5.115344E-1,-2.3424322E-2,-4.3852875E-1,2.7952895E-1,1.7390883E-1,-3.789925E-1,-3.1078622E-1,4.7252467E-1,-3.755832E-1,-5.781486E-1,-3.3538958E-1,1.3267546E-2,3.9921993E-1,7.1823084E-1,1.0776905E-1,-2.4058232E-1,-3.418283E-1,-5.901505E-1,-1.12155125E-1,5.631961E-1,2.1756104E-1,-3.063473E-1,-1.4957358E-1,-5.9752816E-1,-3.2239583E-1,4.0512794E-1,5.286107E-1,-4.4144076E-1,-3.8138065E-1,8.669138E-1,-6.075976E-1,-2.9744354E-1,-3.692638E-1,3.6064535E-1,-1.913862E-2,9.5934594E-1,3.704227E-1,1.1364448E0,7.742203E-1,5.5733513E-2,7.836639E-2,9.877564E-1,-1.4519374E-1,-5.3954935E-1,-3.7095526E-1,4.1158387E-1,-6.191589E-1,-3.8708046E-1,2.544235E-1,-3.04347E-1,-4.473776E-1,1.343207E-1,-1.9936526E-1,1.1111995E0,-6.27196E-1,-2.493925E-1,-4.0143913E-1,-2.2297801E-1,-1.3864411E-1,7.648346E-1,5.995764E-1,-2.1543805E-1,-3.9214095E-1,2.7121985E-1,-6.2321836E-1,-1.8426186E-1,1.1829049E-1,-4.470735E-1,-3.8690817E-1,6.2421453E-1,5.291108E-1,-9.972617E-2,-5.975109E-2,6.213439E-1,3.1353575E-1,7.063367E-1,8.152196E-1,-5.335846E-2,-2.699586E-1,7.380979E-1,1.193508E-1,-6.310588E-1,-8.705331E-2,-3.7482464E-1,-4.065963E-1,-6.616297E-2,-5.934434E-1,5.4464363E-2,4.0655905E-1,8.534731E-2,-4.4599018E-1,6.063609E-1,-4.8208812E-1,-1.875916E-2,2.4097772E-1,-5.420766E-1,-9.022217E-2,-6.863007E-1,-4.4600978E-1,6.903654E-2,-3.562791E-1,-5.610602E-1,-3.782745E-1,-1.3916609E-1,1.3445844E-2,-1.8185875E-1,7.627908E-1,1.5803264E-1,-4.7788128E-1,6.24771E-1,-4.185744E-1,-8.8910185E-2,-5.2751756E-1,7.882553E-1,-6.3333684E-1,-2.3688094E-1,2.8714833E-1,-3.9184237E-1,3.402387E-1,-1.6975002E-1,-2.4574104E-1,-6.1070985E-1,-4.6061057E-1,-1.9332519E-1,1.9362907E-1,8.863453E-1,-1.483831E-1,2.8080425E-1,1.6068809E-2,8.3433104E-1,3.3499476E-1,-4.689829E-1,1.1536894E0,2.3375714E-1,8.667176E-1,8.800211E-2,7.5428486E-1,-6.211985E-1,7.850801E-3,-5.032997E-1,9.2218095E-1,-7.6453246E-2,2.6729462E-1,-6.314101E-2,-2.0550637E-2,-3.3450285E-1,-1.1668805E-1,-5.243175E-1,-4.2549497E-1,2.9392788E-2,1.4165926E-1,-4.856012E-1],"categories":[],"categories_nodes":[],"categories_segments":[],"categories_sizes":[],"default_left":[1,1,1,1,1,1,1,1,1,1,1,1,1,1,1,1,1,1,1,1,1,1,1,1,1,1,1,1,1,0,0,1,1,1,1,1,1,1,0,1,0,1,1,1,1,1,0,1,0,1,1,1,0,1,0,1,0,0,1,1,1,1,1,1,0,0,1,1,1,1,0,1,1,1,1,1,1,1,1,1,0,1,0,1,1,1,1,1,1,1,1,1,0,1,1,1,1,0,0,0,0,0,0,0,0,0,0,0,0,0,0,0,0,0,0,0,0,0,0,0,0,0,0,0,0,0,0,0,0,0,0,0,0,0,0,0,0,0,0,0,0,0,0,0,0,0,0,0,0,0,0,0,0,0,0,0,0,0,0,0,0,0,0],"id":8,"left_children":[1,3,5,7,9,11,13,15,17,19,21,23,25,27,29,31,33,35,37,39,41,43,45,47,49,51,53,55,57,-1,-1,59,61,63,65,67,69,71,-1,73,-1,75,77,79,81,83,-1,85,-1,87,89,91,-1,93,-1,95,-1,-1,97,99,101,103,105,107,-1,-1,109,111,113,115,-1,117,119,121,123,125,127,129,131,133,-1,135,-1,137,139,141,143,145,147,149,151,153,-1,155,157,159,161,-1,-1,-1,-1,-1,-1,-1,-1,-1,-1,-1,-1,-1,-1,-1,-1,-1,-1,-1,-1,-1,-1,-1,-1,-1,-1,-1,-1,-1,-1,-1,-1,-1,-1,-1,-1,-1,-1,-1,-1,-1,-1,-1,-1,-1,-1,-1,-1,-1,-1,-1,-1,-1,-1,-1,-1,-1,-1,-1,-1,-1,-1,-1,-1,-1,-1],"loss_changes":[1.672561E2,7.2943954E1,7.2547745E1,4.631806E1,8.26506E0,4.9549927E1,2.104208E0,5.5056725E1,7.346663E1,4.8795013E0,6.329935E0,1.9601273E1,6.2336116E0,1.5152092E0,5.725813E-1,2.4656479E1,1.0579954E1,6.9561386E0,7.423134E0,3.4606209E0,1.2455254E0,3.4680758E0,2.5720553E0,1.1411041E1,1.109816E1,3.4549603E0,2.2706995E0,1.7738886E0,2.0853043E-2,0E0,0E0,2.0774498E1,6.1595707E0,6.82257E0,9.658165E-1,6.265251E0,2.7559814E0,7.1309547E0,0E0,3.1483765E0,0E0,9.1142654E-1,1.1938112E0,2.6145153E0,6.01102E-1,2.1574843E0,0E0,1.0056488E1,0E0,9.438065E0,5.6405816E0,3.9479866E0,0E0,8.193455E-1,0E0,7.514782E-1,0E0,0E0,7.7910376E-1,2.5825935E1,9.484117E0,1.1005421E0,1.9027342E0,5.3592067E0,0E0,0E0,6.6892743E-1,3.0384903E0,4.6384907E0,4.346054E-2,0E0,8.622734E0,3.0068235E0,3.3820267E0,3.5618894E0,4.3341446E-1,7.9187644E-1,4.1863632E-1,3.011458E-1,1.8175011E0,0E0,4.6771002E-1,0E0,2.382974E0,6.245172E-1,7.911007E0,1.6029186E1,9.805771E0,6.8928175E0,1.1257781E0,1.2967982E0,3.4392266E0,0E0,8.5252666E-1,4.2467487E-1,5.3949165E-1,8.2680625E-1,0E0,0E0,0E0,0E0,0E0,0E0,0E0,0E0,0E0,0E0,0E0,0E0,0E0,0E0,0E0,0E0,0E0,0E0,0E0,0E0,0E0,0E0,0E0,0E0,0E0,0E0,0E0,0E0,0E0,0E0,0E0,0E0,0E0,0E0,0E0,0E0,0E0,0E0,0E0,0E0,0E0,0E0,0E0,0E0,0E0,0E0,0E0,0E0,0E0,0E0,0E0,0E0,0E0,0E0,0E0,0E0,0E0,0E0,0E0,0E0,0E0,0E0,0E0,0E0,0E0,0E0],"parents":[2147483647,0,0,1,1,2,2,3,3,4,4,5,5,6,6,7,7,8,8,9,9,10,10,11,11,12,12,13,13,14,14,15,15,16,16,17,17,18,18,19,19,20,20,21,21,22,22,23,23,24,24,25,25,26,26,27,27,28,28,31,31,32,32,33,33,34,34,35,35,36,36,37,37,39,39,41,41,42,42,43,43,44,44,45,45,47,47,49,49,50,50,51,51,53,53,55,55,58,58,59,59,60,60,61,61,62,62,63,63,66,66,67,67,68,68,69,69,71,71,72,72,73,73,74,74,75,75,76,76,77,77,78,78,79,79,81,81,83,83,84,84,85,85,86,86,87,87,88,88,89,89,90,90,91,91,93,93,94,94,95,95,96,96],"right_children":[2,4,6,8,10,12,14,16,18,20,22,24,26,28,30,32,34,36,38,40,42,44,46,48,50,52,54,56,58,-1,-1,60,62,64,66,68,70,72,-1,74,-1,76,78,80,82,84,-1,86,-1,88,90,92,-1,94,-1,96,-1,-1,98,100,102,104,106,108,-1,-1,110,112,114,116,-1,118,120,122,124,126,128,130,132,134,-1,136,-1,138,140,142,144,146,148,150,152,154,-1,156,158,160,162,-1,-1,-1,-1,-1,-1,-1,-1,-1,-1,-1,-1,-1,-1,-1,-1,-1,-1,-1,-1,-1,-1,-1,-1,-1,-1,-1,-1,-1,-1,-1,-1,-1,-1,-1,-1,-1,-1,-1,-1,-1,-1,-1,-1,-1,-1,-1,-1,-1,-1,-1,-1,-1,-1,-1,-1,-1,-1,-1,-1,-1,-1,-1,-1,-1,-1],"split_conditions":[5E-1,5E-1,5E-1,5E-1,5E-1,5E-1,5E-1,5E-1,5E-1,5E-1,5E-1,5E-1,5E-1,5E-1,5E-1,5E-1,5E-1,5E-1,5E-1,5E-1,5E-1,5E-1,5E-1,5E-1,5E-1,5E-1,5E-1,5E-1,5E-1,-1.1215513E-2,5.6319613E-2,5E-1,5E-1,5E-1,5E-1,5E-1,5E-1,5E-1,-4.4144075E-2,5E-1,8.669138E-2,5E-1,5E-1,5E-1,5E-1,5E-1,9.593459E-2,5E-1,1.1364448E-1,5E-1,5E-1,5E-1,9.877564E-2,5E-1,-5.3954937E-2,5E-1,4.115839E-2,-6.1915893E-2,5E-1,5E-1,5E-1,5E-1,5E-1,5E-1,1.1111995E-1,-6.2719606E-2,5E-1,5E-1,5E-1,5E-1,7.648346E-2,5E-1,5E-1,5E-1,5E-1,5E-1,5E-1,5E-1,5E-1,5E-1,6.2421452E-2,5E-1,-9.972617E-3,5E-1,5E-1,5E-1,5E-1,5E-1,5E-1,5E-1,5E-1,5E-1,-6.310588E-2,5E-1,5E-1,5E-1,5E-1,-5.934434E-2,5.4464363E-3,4.0655907E-2,8.534731E-3,-4.459902E-2,6.0636092E-2,-4.8208814E-2,-1.8759159E-3,2.4097772E-2,-5.420766E-2,-9.022217E-3,-6.863007E-2,-4.460098E-2,6.9036544E-3,-3.5627913E-2,-5.610602E-2,-3.782745E-2,-1.3916609E-2,1.3445844E-3,-1.8185874E-2,7.627908E-2,1.5803264E-2,-4.778813E-2,6.24771E-2,-4.185744E-2,-8.891019E-3,-5.2751757E-2,7.8825526E-2,-6.333368E-2,-2.3688095E-2,2.8714834E-2,-3.918424E-2,3.402387E-2,-1.6975002E-2,-2.4574105E-2,-6.1070986E-2,-4.6061058E-2,-1.9332519E-2,1.9362908E-2,8.8634536E-2,-1.483831E-2,2.8080424E-2,1.6068809E-3,8.343311E-2,3.3499476E-2,-4.689829E-2,1.1536894E-1,2.3375714E-2,8.667176E-2,8.800211E-3,7.5428486E-2,-6.211985E-2,7.850801E-4,-5.0329972E-2,9.221809E-2,-7.645325E-3,2.6729463E-2,-6.314101E-3,-2.0550636E-3,-3.3450287E-2,-1.1668805E-2,-5.243175E-2,-4.25495E-2,2.939279E-3,1.4165926E-2,-4.856012E-2],"split_indices":[83,47,0,42,81,47,90,0,81,107,85,72,107,138,107,35,81,125,111,143,96,109,133,44,87,104,71,92,74,0,0,40,81,76,87,144,76,124,0,127,0,99,85,95,95,145,0,145,0,60,85,93,0,97,0,97,0,0,96,75,102,91,145,80,0,0,107,78,85,71,0,133,71,138,96,88,85,82,78,89,0,89,0,91,102,2,75,124,104,107,40,85,0,94,85,98,85,0,0,0,0,0,0,0,0,0,0,0,0,0,0,0,0,0,0,0,0,0,0,0,0,0,0,0,0,0,0,0,0,0,0,0,0,0,0,0,0,0,0,0,0,0,0,0,0,0,0,0,0,0,0,0,0,0,0,0,0,0,0,0,0,0,0],"split_type":[0,0,0,0,0,0,0,0,0,0,0,0,0,0,0,0,0,0,0,0,0,0,0,0,0,0,0,0,0,0,0,0,0,0,0,0,0,0,0,0,0,0,0,0,0,0,0,0,0,0,0,0,0,0,0,0,0,0,0,0,0,0,0,0,0,0,0,0,0,0,0,0,0,0,0,0,0,0,0,0,0,0,0,0,0,0,0,0,0,0,0,0,0,0,0,0,0,0,0,0,0,0,0,0,0,0,0,0,0,0,0,0,0,0,0,0,0,0,0,0,0,0,0,0,0,0,0,0,0,0,0,0,0,0,0,0,0,0,0,0,0,0,0,0,0,0,0,0,0,0,0,0,0,0,0,0,0,0,0,0,0,0,0],"sum_hessian":[4.3632847E3,3.171018E3,1.1922664E3,2.3432227E3,8.277955E2,1.0725793E3,1.1968705E2,1.3837487E3,9.594739E2,6.0505786E2,2.2273766E2,8.556871E2,2.168923E2,1.1610218E2,3.5848744E0,1.1719419E3,2.1180685E2,8.2021484E2,1.3925908E2,4.3352417E2,1.7153365E2,1.4044356E2,8.22941E1,5.563239E2,2.9936313E2,1.3552203E2,8.137027E1,7.287735E1,4.322483E1,1.7597114E0,1.8251629E0,1.0747968E3,9.7145134E1,1.0415221E2,1.0765465E2,8.0766693E2,1.2547869E1,1.316047E2,7.6543756E0,4.3220062E2,1.3235701E0,1.5419263E2,1.7341026E1,1.3437343E2,6.0701294E0,8.051594E1,1.778154E0,5.368559E2,1.946803E1,2.758792E2,2.348393E1,1.3219414E2,3.3278956E0,6.2814346E1,1.8555923E1,7.065351E1,2.2238364E0,3.6029102E1,7.195727E0,1.00437036E3,7.042638E1,7.358117E1,2.3563961E1,1.0100509E2,3.1471198E0,9.846219E1,9.192462E0,4.482459E2,3.5942105E2,5.240427E0,7.307442E0,1.2032276E2,1.1281945E1,4.2558255E2,6.618057E0,1.4825015E2,5.942472E0,4.64493E0,1.2696096E1,1.3262848E2,1.7449563E0,4.3346295E0,1.7354995E0,7.6567566E1,3.9483771E0,4.6075974E2,7.609613E1,2.6287115E2,1.30080385E1,1.6305637E1,7.1782928E0,1.2576056E2,6.4335856E0,5.1224E1,1.1590347E1,6.295753E1,7.6959805E0,4.6693954E0,2.5263314E0,5.27931E2,4.7643933E2,6.13888E1,9.037571E0,6.79534E1,5.6277742E0,2.0910452E1,2.6535094E0,8.3479126E1,1.7525959E1,5.435561E0,3.7569005E0,3.5191425E2,9.633164E1,1.24752235E2,2.3466882E2,1.3119609E0,3.928466E0,8.731841E1,3.3004353E1,8.925316E0,2.3566294E0,3.9110825E2,3.4474316E1,2.5926116E0,4.0254455E0,1.4384344E2,4.406705E0,1.6995423E0,4.2429295E0,2.5210948E0,2.1238353E0,6.814064E0,5.882033E0,9.50579E1,3.757057E1,3.030596E0,1.3040336E0,6.120326E1,1.5364303E1,1.3076607E0,2.6407163E0,4.4901822E2,1.174152E1,3.835105E1,3.774508E1,2.4530783E2,1.7563337E1,5.234553E0,7.773486E0,7.884696E0,8.420941E0,5.747307E0,1.4309862E0,6.919795E1,5.6562603E1,4.122715E1,9.996848E0,4.9036083E0,6.6867385E0,6.0364983E1,2.5925508E0,5.5890136E0,2.1069667E0],"tree_param":{"num_deleted":"0","num_feature":"146","num_nodes":"163","size_leaf_vector":"0"}},{"base_weights":[3.1552603E-3,-5.745417E-2,6.569206E-1,-1.7852089E-1,2.550659E-1,5.2213156E-1,9.284911E-1,-1.0672072E-1,-3.707142E-1,2.1947636E-1,6.9012564E-1,4.461976E-1,9.6123844E-1,9.946862E-1,2.1487594E-1,-1.1521365E-1,4.5802125E-1,-3.9923742E-1,7.6953536E-1,2.0680818E-1,8.6793894E-1,1.0057207E0,-2.1225153E-2,5.325827E-1,1.7695121E-2,1.0312454E0,1.2403946E-1,1.0220088E0,6.9418144E-1,8.3884555E-1,-9.558844E-2,-9.259942E-2,-3.3346844E-1,7.5504375E-1,-6.1916965E-1,-4.4003585E-1,-1.5106083E-1,8.2433426E-1,1.6763484E-1,2.2961336E-1,-4.7182087E-2,1.0390849E0,5.230748E-1,2.1087353E-1,-6.2247795E-1,6.004375E-1,1.1719218E-1,2.3174585E-1,-5.5787987E-1,-1.0337259E-1,3.008205E-1,8.156677E-1,4.251671E-1,-1.4231844E-1,3.0735165E-2,-4.0774998E-1,1.3559721E-1,9.933178E-1,1.1597446E-1,-4.682877E-1,-1.2792967E-1,-2.4604107E-1,1.3115798E-1,2.7107444E-1,7.6571286E-2,-2.048199E-1,4.6625915E-1,1.0543289E0,4.2390478E-1,6.7697877E-1,1.3896778E-1,7.1370566E-1,-2.8301354E-2,6.476073E-1,-2.3015624E-1,3.392145E-1,-6.691496E-1,6.797451E-1,-1.1160329E-1,2.4882717E-2,-6.435582E-1,5.806209E-1,7.487814E-2,-2.0526509E-1,-4.8578102E-2,-2.7907144E-3,6.287643E-1,-4.2845565E-1,1.0041531E0,8.094579E-1,-9.159269E-2,1.0955868E0,3.8575655E-1,-2.2017233E-1,5.8164793E-1,-5.128295E-1,-3.2849503E-1,-1.889039E-1,8.655814E-1,-3.973767E-1,-7.481595E-2,3.4622842E-1,-6.226149E-1,4.1898042E-1,1.4754322E-1,1.6684668E-1,-3.5436198E-1,-8.672454E-2,-6.1475766E-1,9.073014E-1,-3.8272315E-1,2.6461288E-1,8.21495E-1,7.604089E-2,-1.7353556E-1,7.9902244E-1,3.8598722E-1,7.687521E-1,-5.1621574E-1,5.3276896E-1,-5.43769E-1,6.117381E-1,-4.9416226E-1],"categories":[],"categories_nodes":[],"categories_segments":[],"categories_sizes":[],"default_left":[1,1,1,1,1,1,1,1,1,1,1,1,1,1,1,1,1,1,1,1,0,1,1,1,1,0,1,0,1,0,0,1,1,1,0,1,1,0,0,1,1,1,1,1,0,1,1,1,1,0,0,0,1,1,1,1,1,1,1,1,1,1,1,1,1,1,1,0,0,0,0,1,1,1,1,1,0,0,1,0,0,0,0,0,0,0,0,0,0,0,0,0,0,0,0,0,0,0,0,0,0,0,0,0,0,0,0,0,0,0,0,0,0,0,0,0,0,0,0,0,0,0,0],"id":9,"left_children":[1,3,5,7,9,11,13,15,17,19,21,23,25,27,29,31,33,35,37,39,-1,41,43,45,47,-1,49,-1,51,-1,-1,53,55,57,-1,59,61,-1,-1,63,65,67,69,71,-1,73,75,77,79,-1,-1,-1,81,83,85,87,89,91,93,95,97,99,101,103,105,107,109,-1,-1,-1,-1,111,113,115,117,119,-1,-1,121,-1,-1,-1,-1,-1,-1,-1,-1,-1,-1,-1,-1,-1,-1,-1,-1,-1,-1,-1,-1,-1,-1,-1,-1,-1,-1,-1,-1,-1,-1,-1,-1,-1,-1,-1,-1,-1,-1,-1,-1,-1,-1,-1,-1],"loss_changes":[1.734654E2,1.5162991E2,1.3110901E1,3.9817528E1,1.717585E1,7.923706E0,5.54525E0,1.0144932E1,2.5843056E1,8.3304405E0,1.8914276E1,7.9653015E0,1.9859238E0,2.042923E-1,2.332067E0,1.0204582E1,1.0506136E1,7.6959457E0,5.050783E-1,5.903816E0,0E0,3.955269E-1,3.8770196E0,4.9822693E0,4.7098837E0,0E0,1.886841E-1,0E0,5.82242E-2,0E0,0E0,1.1535507E1,6.825762E0,3.6984415E0,0E0,5.7410507E0,2.9744098E0,0E0,0E0,5.9040565E0,6.9470325E0,5.5049896E-2,2.4785733E-1,2.4390724E0,0E0,6.1765633E0,4.8383317E0,4.353206E0,5.338919E-1,0E0,0E0,0E0,2.8021145E-1,7.8991013E0,1.0850251E1,5.3415737E0,4.2559614E0,7.0267487E-1,1.3700035E0,3.585556E0,3.554969E0,2.1072617E0,4.801826E0,1.3354607E1,7.8564653E0,3.115804E0,7.9071703E0,0E0,0E0,0E0,0E0,9.8297834E-2,2.3431876E-1,5.4688034E0,2.9700668E0,3.9233344E0,0E0,0E0,4.896237E0,0E0,0E0,0E0,0E0,0E0,0E0,0E0,0E0,0E0,0E0,0E0,0E0,0E0,0E0,0E0,0E0,0E0,0E0,0E0,0E0,0E0,0E0,0E0,0E0,0E0,0E0,0E0,0E0,0E0,0E0,0E0,0E0,0E0,0E0,0E0,0E0,0E0,0E0,0E0,0E0,0E0,0E0,0E0,0E0],"parents":[2147483647,0,0,1,1,2,2,3,3,4,4,5,5,6,6,7,7,8,8,9,9,10,10,11,11,12,12,13,13,14,14,15,15,16,16,17,17,18,18,19,19,21,21,22,22,23,23,24,24,26,26,28,28,31,31,32,32,33,33,35,35,36,36,39,39,40,40,41,41,42,42,43,43,45,45,46,46,47,47,48,48,52,52,53,53,54,54,55,55,56,56,57,57,58,58,59,59,60,60,61,61,62,62,63,63,64,64,65,65,66,66,71,71,72,72,73,73,74,74,75,75,78,78],"right_children":[2,4,6,8,10,12,14,16,18,20,22,24,26,28,30,32,34,36,38,40,-1,42,44,46,48,-1,50,-1,52,-1,-1,54,56,58,-1,60,62,-1,-1,64,66,68,70,72,-1,74,76,78,80,-1,-1,-1,82,84,86,88,90,92,94,96,98,100,102,104,106,108,110,-1,-1,-1,-1,112,114,116,118,120,-1,-1,122,-1,-1,-1,-1,-1,-1,-1,-1,-1,-1,-1,-1,-1,-1,-1,-1,-1,-1,-1,-1,-1,-1,-1,-1,-1,-1,-1,-1,-1,-1,-1,-1,-1,-1,-1,-1,-1,-1,-1,-1,-1,-1,-1,-1],"split_conditions":[5E-1,5E-1,5E-1,5E-1,5E-1,5E-1,5E-1,5E-1,5E-1,5E-1,5E-1,5E-1,5E-1,5E-1,5E-1,5E-1,5E-1,5E-1,5E-1,5E-1,8.679389E-2,5E-1,5E-1,5E-1,5E-1,1.0312454E-1,5E-1,1.0220088E-1,5E-1,8.388456E-2,-9.558844E-3,5E-1,5E-1,5E-1,-6.1916966E-2,5E-1,5E-1,8.2433425E-2,1.6763484E-2,5E-1,5E-1,5E-1,5E-1,5E-1,-6.2247794E-2,5E-1,5E-1,5E-1,5E-1,-1.0337259E-2,3.008205E-2,8.156677E-2,5E-1,5E-1,5E-1,5E-1,5E-1,5E-1,5E-1,5E-1,5E-1,5E-1,5E-1,5E-1,5E-1,5E-1,5E-1,1.0543289E-1,4.2390477E-2,6.7697875E-2,1.3896778E-2,5E-1,5E-1,5E-1,5E-1,5E-1,-6.691496E-2,6.797451E-2,5E-1,2.4882718E-3,-6.435582E-2,5.8062088E-2,7.4878144E-3,-2.052651E-2,-4.85781E-3,-2.7907145E-4,6.2876426E-2,-4.2845566E-2,1.0041531E-1,8.094579E-2,-9.15927E-3,1.0955868E-1,3.8575657E-2,-2.2017233E-2,5.8164794E-2,-5.128295E-2,-3.28495E-2,-1.889039E-2,8.655814E-2,-3.9737668E-2,-7.481595E-3,3.4622844E-2,-6.2261492E-2,4.1898042E-2,1.4754322E-2,1.6684668E-2,-3.5436198E-2,-8.672454E-3,-6.1475765E-2,9.0730146E-2,-3.8272317E-2,2.6461288E-2,8.21495E-2,7.6040886E-3,-1.7353555E-2,7.990225E-2,3.8598724E-2,7.687521E-2,-5.1621575E-2,5.3276896E-2,-5.43769E-2,6.1173808E-2,-4.9416225E-2],"split_indices":[0,47,81,83,101,91,111,36,20,84,81,144,97,87,85,76,137,95,95,94,0,90,105,102,87,0,120,0,107,0,0,144,87,81,0,144,42,0,0,81,144,76,85,71,0,104,138,82,100,0,0,0,100,72,74,48,85,102,107,107,2,91,138,85,90,138,81,0,0,0,0,87,93,96,85,141,0,0,96,0,0,0,0,0,0,0,0,0,0,0,0,0,0,0,0,0,0,0,0,0,0,0,0,0,0,0,0,0,0,0,0,0,0,0,0,0,0,0,0,0,0,0,0],"split_type":[0,0,0,0,0,0,0,0,0,0,0,0,0,0,0,0,0,0,0,0,0,0,0,0,0,0,0,0,0,0,0,0,0,0,0,0,0,0,0,0,0,0,0,0,0,0,0,0,0,0,0,0,0,0,0,0,0,0,0,0,0,0,0,0,0,0,0,0,0,0,0,0,0,0,0,0,0,0,0,0,0,0,0,0,0,0,0,0,0,0,0,0,0,0,0,0,0,0,0,0,0,0,0,0,0,0,0,0,0,0,0,0,0,0,0,0,0,0,0,0,0,0,0],"sum_hessian":[4.3757954E3,4.0053762E3,3.7041922E2,2.8872983E3,1.1180779E3,2.4950475E2,1.2091448E2,2.1031516E3,7.841467E2,1.0349219E3,8.315603E1,2.1443845E2,3.506631E1,1.1029008E2,1.0624403E1,2.0727761E3,3.037564E1,7.6564404E2,1.8502663E1,1.01638495E3,1.8536884E1,5.7314354E1,2.5841677E1,1.7825894E2,3.6179493E1,3.214643E1,2.9198785E0,9.889716E1,1.1392918E1,2.9644868E0,7.659916E0,1.8794619E3,1.9331407E2,2.4044672E1,6.3309684E0,6.568841E2,1.08759964E2,1.6619976E1,1.8826864E0,9.327331E2,8.365188E1,5.2530163E1,4.7841887E0,1.9112896E1,6.7287817E0,1.5284581E2,2.5413128E1,2.6807436E1,9.372058E0,1.4586781E0,1.4612004E0,6.4486585E0,4.9442587E0,1.339375E3,5.400869E2,1.6699875E2,2.631532E1,1.7110706E1,6.933967E0,6.0189966E2,5.4984436E1,8.146968E1,2.7290287E1,7.33301E2,1.9943204E2,6.446177E1,1.9190107E1,5.0563366E1,1.9667988E0,2.8712592E0,1.9129297E0,5.5212336E0,1.3591662E1,1.4484056E2,8.00525E0,2.0261066E1,5.152062E0,1.1206081E1,1.5601355E1,1.2922275E0,8.07983E0,2.9690733E0,1.9751855E0,8.005894E2,5.387856E2,5.1235913E2,2.772783E1,1.6527158E2,1.7271785E0,5.9889054E0,2.0326414E1,1.3957952E1,3.1527543E0,4.3332224E0,2.6007447E0,4.5443555E2,1.4746411E2,5.2568066E1,2.41637E0,4.254549E1,3.892419E1,2.1652853E1,5.637433E0,3.3263724E2,4.006638E2,1.653963E2,3.4035736E1,5.0985394E1,1.3476378E1,1.2584056E1,6.6060505E0,1.7374098E0,3.783824E0,8.18654E0,5.405122E0,9.044218E1,5.439839E1,1.4064828E0,6.5987673E0,1.6943575E1,3.3174908E0,5.189671E0,1.0411684E1],"tree_param":{"num_deleted":"0","num_feature":"146","num_nodes":"123","size_leaf_vector":"0"}},{"base_weights":[4.4177235E-3,7.6561235E-2,-2.0543817E-1,1.1041754E-1,-4.1601118E-1,-8.722244E-2,-4.2174158E-1,1.7616618E-1,-7.553409E-2,-6.790612E-1,-2.8841782E-1,-1.0703685E-1,7.413029E-1,-4.528763E-1,4.7225073E-1,8.8567615E-2,3.0593207E-1,-1.4083736E-1,3.1243905E-1,-3.6047527E-1,5.339539E-1,-2.2008444E-1,4.4297233E-2,9.396806E-1,-4.742812E-1,-4.846052E-1,3.708141E-1,-5.6582236E-1,1.0219461E0,1.0604113E-1,-6.9149137E-1,2.764041E-1,9.612839E-1,-2.7270126E-1,1.3905066E-1,4.5035625E-1,-6.426379E-1,-4.222975E-1,5.9580374E-1,-5.503002E-1,1.0849289E0,-3.055911E-1,1.4478858E-1,1.0810076E-1,-4.283626E-1,-5.1265234E-1,1.5054622E-1,-5.8812314E-1,9.7015446E-1,8.191467E-2,6.306693E-1,2.1790741E-1,5.624505E-1,-3.0930787E-1,5.00914E-1,-4.7095686E-2,8.1165195E-1,5.447299E-1,-6.516276E-1,-4.4797015E-1,5.475105E-1,1.0378506E0,-4.8907906E-1,-3.4116197E-1,6.3853794E-1,-2.345998E-2,8.0418104E-1,1.4180957E-1,-6.802586E-1,-6.724964E-1,-1.4327843E-1,-5.350201E-1,2.5389865E-1,-6.3300776E-1,9.611238E-1,1.0547423E-1,-5.106166E-1,-1.5920623E-1,1.0076183E0,1.3892351E-1,4.2266133E-1,6.7234665E-1,8.891316E-2,-3.7278527E-1,1.7315258E-1,-6.3405544E-1,1.0360742E0,-1.2868947E-1,8.981256E-1,9.6914154E-1,-6.0234684E-1,3.4818402E-1,8.5895556E-1,-5.874576E-1,-2.0262314E-1,-3.6522773E-1,1.0042886E0,-5.516676E-1,1.0287305E0,-2.0309374E-1,8.6857325E-1,-4.5101506E-1,9.55189E-1,1.6923055E-1,-6.7104685E-1,-6.245609E-1,2.005578E-1,-5.656124E-1,-9.415204E-2,-5.9423333E-1,1.1101514E0],"categories":[],"categories_nodes":[],"categories_segments":[],"categories_sizes":[],"default_left":[1,1,1,1,1,1,1,1,1,0,1,1,1,1,1,1,1,1,1,1,1,1,1,0,0,1,1,0,0,1,0,1,0,1,1,1,0,1,1,0,0,1,1,1,1,1,1,0,0,1,1,1,1,1,1,1,1,1,0,1,0,0,0,1,1,1,1,1,0,0,1,1,1,0,0,0,0,0,0,0,0,0,0,0,0,0,0,0,0,0,0,0,0,0,0,0,0,0,0,0,0,0,0,0,0,0,0,0,0,0,0],"id":10,"left_children":[1,3,5,7,9,11,13,15,17,-1,19,21,23,25,27,29,31,33,35,37,39,41,43,-1,-1,45,47,-1,-1,49,-1,51,-1,53,55,57,-1,59,61,-1,-1,63,65,67,69,71,73,-1,-1,75,77,79,81,83,85,87,89,91,-1,93,-1,-1,-1,95,97,99,101,103,-1,-1,105,107,109,-1,-1,-1,-1,-1,-1,-1,-1,-1,-1,-1,-1,-1,-1,-1,-1,-1,-1,-1,-1,-1,-1,-1,-1,-1,-1,-1,-1,-1,-1,-1,-1,-1,-1,-1,-1,-1,-1],"loss_changes":[6.617152E1,5.428714E1,2.8555084E1,3.7231018E1,6.831974E0,1.1969564E1,1.12052E1,2.5540787E1,2.0208372E1,0E0,8.6507435E0,1.2126137E1,4.555459E0,1.0165985E1,8.441E0,1.8395294E1,1.7267395E1,2.5205189E1,1.5433809E1,8.045542E0,7.7073803E0,1.2697487E1,9.204094E0,0E0,0E0,6.6393356E0,9.041785E0,0E0,0E0,1.6600658E1,0E0,1.4407944E1,0E0,1.3291306E1,2.7463028E1,1.0864309E1,0E0,3.3428688E0,4.545638E0,0E0,0E0,1.1263041E1,8.636477E0,7.2277503E0,2.4313097E0,6.1886673E0,1.09937525E1,0E0,0E0,1.7628159E1,1.733808E1,1.1627102E1,7.5798187E0,1.364764E1,1.3618391E1,1.3420124E1,1.1169527E1,5.4832706E0,0E0,4.047781E0,0E0,0E0,0E0,1.065041E1,6.2748585E0,1.0248691E1,3.4292145E0,5.8680606E0,0E0,0E0,3.107992E0,4.577263E0,8.420784E0,0E0,0E0,0E0,0E0,0E0,0E0,0E0,0E0,0E0,0E0,0E0,0E0,0E0,0E0,0E0,0E0,0E0,0E0,0E0,0E0,0E0,0E0,0E0,0E0,0E0,0E0,0E0,0E0,0E0,0E0,0E0,0E0,0E0,0E0,0E0,0E0,0E0,0E0],"parents":[2147483647,0,0,1,1,2,2,3,3,4,4,5,5,6,6,7,7,8,8,10,10,11,11,12,12,13,13,14,14,15,15,16,16,17,17,18,18,19,19,20,20,21,21,22,22,25,25,26,26,29,29,31,31,33,33,34,34,35,35,37,37,38,38,41,41,42,42,43,43,44,44,45,45,46,46,49,49,50,50,51,51,52,52,53,53,54,54,55,55,56,56,57,57,59,59,63,63,64,64,65,65,66,66,67,67,70,70,71,71,72,72],"right_children":[2,4,6,8,10,12,14,16,18,-1,20,22,24,26,28,30,32,34,36,38,40,42,44,-1,-1,46,48,-1,-1,50,-1,52,-1,54,56,58,-1,60,62,-1,-1,64,66,68,70,72,74,-1,-1,76,78,80,82,84,86,88,90,92,-1,94,-1,-1,-1,96,98,100,102,104,-1,-1,106,108,110,-1,-1,-1,-1,-1,-1,-1,-1,-1,-1,-1,-1,-1,-1,-1,-1,-1,-1,-1,-1,-1,-1,-1,-1,-1,-1,-1,-1,-1,-1,-1,-1,-1,-1,-1,-1,-1,-1],"split_conditions":[5E-1,5E-1,5E-1,5E-1,5E-1,5E-1,5E-1,5E-1,5E-1,-6.790612E-2,5E-1,5E-1,5E-1,5E-1,5E-1,5E-1,5E-1,5E-1,5E-1,5E-1,5E-1,5E-1,5E-1,9.3968056E-2,-4.742812E-2,5E-1,5E-1,-5.658224E-2,1.0219461E-1,5E-1,-6.914914E-2,5E-1,9.61284E-2,5E-1,5E-1,5E-1,-6.426379E-2,5E-1,5E-1,-5.5030018E-2,1.0849289E-1,5E-1,5E-1,5E-1,5E-1,5E-1,5E-1,-5.8812317E-2,9.701545E-2,5E-1,5E-1,5E-1,5E-1,5E-1,5E-1,5E-1,5E-1,5E-1,-6.516276E-2,5E-1,5.475105E-2,1.0378506E-1,-4.8907906E-2,5E-1,5E-1,5E-1,5E-1,5E-1,-6.802586E-2,-6.724964E-2,5E-1,5E-1,5E-1,-6.330078E-2,9.6112385E-2,1.0547424E-2,-5.106166E-2,-1.5920622E-2,1.0076183E-1,1.3892352E-2,4.2266134E-2,6.7234665E-2,8.891316E-3,-3.727853E-2,1.731526E-2,-6.340554E-2,1.03607416E-1,-1.2868947E-2,8.981256E-2,9.691416E-2,-6.0234684E-2,3.4818403E-2,8.589556E-2,-5.874576E-2,-2.0262314E-2,-3.6522772E-2,1.0042886E-1,-5.516676E-2,1.0287305E-1,-2.0309374E-2,8.685733E-2,-4.5101505E-2,9.55189E-2,1.6923055E-2,-6.710469E-2,-6.245609E-2,2.005578E-2,-5.656124E-2,-9.415205E-3,-5.9423335E-2,1.1101514E-1],"split_indices":[83,74,72,81,61,137,101,42,103,0,94,61,96,60,68,88,127,47,0,125,145,42,95,0,0,127,104,0,0,40,0,107,0,124,90,144,0,120,76,0,0,49,127,102,138,100,97,0,0,98,107,102,87,133,61,98,85,107,0,102,0,0,0,15,95,102,96,90,0,0,91,124,93,0,0,0,0,0,0,0,0,0,0,0,0,0,0,0,0,0,0,0,0,0,0,0,0,0,0,0,0,0,0,0,0,0,0,0,0,0,0],"split_type":[0,0,0,0,0,0,0,0,0,0,0,0,0,0,0,0,0,0,0,0,0,0,0,0,0,0,0,0,0,0,0,0,0,0,0,0,0,0,0,0,0,0,0,0,0,0,0,0,0,0,0,0,0,0,0,0,0,0,0,0,0,0,0,0,0,0,0,0,0,0,0,0,0,0,0,0,0,0,0,0,0,0,0,0,0,0,0,0,0,0,0,0,0,0,0,0,0,0,0,0,0,0,0,0,0,0,0,0,0,0,0],"sum_hessian":[4.3686777E3,3.2515178E3,1.11716E3,3.0431284E3,2.0838953E2,7.232741E2,3.9388586E2,2.2482473E3,7.948809E2,6.665327E1,1.4173627E2,7.072313E2,1.6042816E1,3.8110666E2,1.2779232E1,1.343201E3,9.0504626E2,6.8090814E2,1.139728E2,1.3083405E2,1.0902211E1,4.0456454E2,3.0266675E2,1.398715E1,2.055666E0,3.6736716E2,1.3739474E1,4.414093E0,8.365139E0,1.3146173E3,2.8583702E1,8.673865E2,3.765978E1,4.628642E2,2.1804396E2,1.0005316E2,1.3919642E1,1.23413895E2,7.4201584E0,3.67381E0,7.228401E0,3.2788773E2,7.667683E1,2.6734906E2,3.5317688E1,3.5201566E2,1.5351505E1,5.291636E0,8.447838E0,1.2579244E3,5.6692944E1,7.2158386E2,1.4580266E2,4.425246E2,2.0339588E1,1.7150807E2,4.6535885E1,9.262634E1,7.4268165E0,1.20755356E2,2.6585374E0,5.3028207E0,2.117338E0,3.1659827E2,1.128946E1,6.1857803E1,1.4819025E1,2.5717294E2,1.0176126E1,1.8293222E1,1.7024466E1,3.423286E2,9.687043E0,7.917261E0,7.4342437E0,1.2106115E3,4.7312965E1,1.8501575E1,3.819137E1,5.2192834E2,1.9965553E2,1.1799836E2,2.7804296E1,3.9127216E2,5.125243E1,6.458207E0,1.3881381E1,1.5867474E2,1.2833334E1,4.215529E1,4.380599E0,5.828043E1,3.4345913E1,7.6097275E1,4.4658077E1,3.1175058E2,4.8476644E0,2.6851394E0,8.604321E0,5.213201E1,9.725792E0,1.3780245E0,1.3441001E1,2.4954652E2,7.62642E0,6.7540627E0,1.0270404E1,3.1985092E2,2.2477686E1,5.020332E0,4.666712E0],"tree_param":{"num_deleted":"0","num_feature":"146","num_nodes":"111","size_leaf_vector":"0"}},{"base_weights":[-8.881852E-3,-1.2231266E-1,2.873336E-1,-1.8474227E-1,1.8252458E-1,3.6332455E-1,-4.2505908E-1,-2.0874529E-1,7.115426E-1,1.4062615E-1,8.713032E-1,4.602267E-1,-3.175289E-2,-4.566249E-1,3.00715E-1,-2.732762E-1,-2.7323073E-2,1.1369005E0,5.366338E-1,1.100904E-1,1.0684848E0,9.4855493E-1,-4.4562995E-1,3.6327422E-1,6.325916E-1,7.701217E-2,-2.1336639E-1,-4.7602475E-1,1.731668E-1,6.102052E-1,-4.0197197E-1,-2.8691953E-1,1.0507169E0,7.056543E-2,-5.9589225E-1,6.6461843E-1,-2.820876E-1,8.371732E-2,8.232979E-1,1.150405E0,4.9548554E-1,3.3092085E-1,1.0486206E0,6.64596E-1,-8.104609E-2,4.767908E-2,9.411059E-1,-1.0598081E-1,-4.7273824E-1,-4.8983297E-1,1.4605469E-1,5.80837E-1,-4.0459123E-1,-3.0607513E-1,4.6681246E-1,1.1215116E0,3.669031E-1,2.6997223E-1,-2.3265207E-1,-6.3083065E-1,-2.201307E-1,9.372847E-1,2.8973523E-1,7.129659E-2,9.020098E-1,1.0205076E0,5.647799E-1,-2.9486258E-2,8.119881E-1,3.0005386E-1,9.593856E-1,4.9011654E-1,8.597214E-1,4.9534562E-1,-5.957599E-1,-5.2498788E-2,2.6630685E-1,-5.1476166E-2,-4.2053363E-1,-5.571391E-1,-2.1291682E-1,-5.3711736E-1,-2.4775307E-1,-3.1004512E-1,1.1742171E0,7.8856295E-1,1.3217771E-1,3.3339387E-1,-6.665771E-1,-2.5959295E-1,6.406966E-1,-4.1904417E-1,9.094578E-2,2.2574734E-2,1.0160848E0,8.996873E-2,-3.7440935E-1,1.8674938E-1,1.1241308E0,1.1068435E0,3.4421515E-1,3.2544154E-1,-2.719629E-1,1.1454297E0,5.4083973E-1,7.2216946E-1,1.3324131E-1,8.906195E-1,2.70662E-1,1.4887255E-1,8.4151506E-1,-3.974909E-1,6.428375E-2,4.6322766E-1,7.842566E-2,-1.448185E-1,1.0803225E-1,-6.046147E-1,-7.9529315E-2,-7.8448496E-4,-4.96043E-1,-5.4564315E-1,-5.043856E-2,-8.360814E-2,-4.0940723E-1],"categories":[],"categories_nodes":[],"categories_segments":[],"categories_sizes":[],"default_left":[1,1,1,1,1,1,1,1,1,1,1,1,1,1,1,1,1,0,1,1,1,0,0,1,1,1,1,1,1,0,0,1,1,1,1,1,0,1,1,0,1,1,0,1,1,1,0,1,1,1,0,0,0,1,1,0,0,1,1,0,1,0,1,1,1,1,0,0,0,1,1,1,1,1,0,1,1,1,0,1,1,1,1,0,0,0,0,0,0,0,0,0,0,0,0,0,0,0,0,0,0,0,0,0,0,0,0,0,0,0,0,0,0,0,0,0,0,0,0,0,0,0,0,0,0],"id":11,"left_children":[1,3,5,7,9,11,13,15,17,19,21,23,25,27,29,31,33,-1,35,37,39,-1,-1,41,43,45,47,49,51,-1,-1,53,55,57,59,61,-1,63,65,-1,67,69,-1,71,73,75,-1,77,79,81,-1,-1,-1,83,85,-1,-1,87,89,-1,91,-1,93,95,97,99,-1,-1,-1,101,103,105,107,109,-1,111,113,115,-1,117,119,121,123,-1,-1,-1,-1,-1,-1,-1,-1,-1,-1,-1,-1,-1,-1,-1,-1,-1,-1,-1,-1,-1,-1,-1,-1,-1,-1,-1,-1,-1,-1,-1,-1,-1,-1,-1,-1,-1,-1,-1,-1,-1,-1],"loss_changes":[1.4587227E2,5.9776264E1,6.523338E1,5.6215385E1,1.5291664E1,4.162216E1,2.8024883E0,2.9716537E1,4.46389E0,1.4181684E1,3.5190525E0,1.4356064E1,4.2633524E0,1.449398E0,1.430898E0,3.4128784E1,3.7178738E1,0E0,5.449868E0,9.142543E0,1.794033E-1,0E0,0E0,1.2091255E1,7.1994247E0,3.3820612E0,2.200291E0,1.0061626E0,1.195194E0,0E0,0E0,2.6916367E1,5.2355766E-1,3.4535465E1,1.1491814E0,4.1984234E0,0E0,4.746971E0,3.0818653E-1,0E0,6.476151E-1,1.0131851E1,0E0,9.776596E0,4.543481E0,2.9010043E0,0E0,9.8007774E-1,3.9381313E-1,1.0879688E0,0E0,0E0,0E0,1.0995163E1,4.886778E0,0E0,0E0,2.0679302E1,5.5009785E0,0E0,6.4960015E-1,0E0,3.8311248E0,3.9233773E0,9.009223E-1,1.21313095E-1,0E0,0E0,0E0,7.5447845E0,1.3031483E0,1.3192291E1,2.308464E0,7.5041723E-1,0E0,3.7012036E0,1.5022407E0,7.7406317E-1,0E0,3.378334E-1,4.409441E-1,3.3921623E-1,4.7755516E-1,0E0,0E0,0E0,0E0,0E0,0E0,0E0,0E0,0E0,0E0,0E0,0E0,0E0,0E0,0E0,0E0,0E0,0E0,0E0,0E0,0E0,0E0,0E0,0E0,0E0,0E0,0E0,0E0,0E0,0E0,0E0,0E0,0E0,0E0,0E0,0E0,0E0,0E0,0E0,0E0,0E0,0E0],"parents":[2147483647,0,0,1,1,2,2,3,3,4,4,5,5,6,6,7,7,8,8,9,9,10,10,11,11,12,12,13,13,14,14,15,15,16,16,18,18,19,19,20,20,23,23,24,24,25,25,26,26,27,27,28,28,31,31,32,32,33,33,34,34,35,35,37,37,38,38,40,40,41,41,43,43,44,44,45,45,47,47,48,48,49,49,53,53,54,54,57,57,58,58,60,60,62,62,63,63,64,64,65,65,69,69,70,70,71,71,72,72,73,73,75,75,76,76,77,77,79,79,80,80,81,81,82,82],"right_children":[2,4,6,8,10,12,14,16,18,20,22,24,26,28,30,32,34,-1,36,38,40,-1,-1,42,44,46,48,50,52,-1,-1,54,56,58,60,62,-1,64,66,-1,68,70,-1,72,74,76,-1,78,80,82,-1,-1,-1,84,86,-1,-1,88,90,-1,92,-1,94,96,98,100,-1,-1,-1,102,104,106,108,110,-1,112,114,116,-1,118,120,122,124,-1,-1,-1,-1,-1,-1,-1,-1,-1,-1,-1,-1,-1,-1,-1,-1,-1,-1,-1,-1,-1,-1,-1,-1,-1,-1,-1,-1,-1,-1,-1,-1,-1,-1,-1,-1,-1,-1,-1,-1,-1,-1],"split_conditions":[5E-1,5E-1,5E-1,5E-1,5E-1,5E-1,5E-1,5E-1,5E-1,5E-1,5E-1,5E-1,5E-1,5E-1,5E-1,5E-1,5E-1,1.13690056E-1,5E-1,5E-1,5E-1,9.4855495E-2,-4.4562995E-2,5E-1,5E-1,5E-1,5E-1,5E-1,5E-1,6.102052E-2,-4.0197197E-2,5E-1,5E-1,5E-1,5E-1,5E-1,-2.820876E-2,5E-1,5E-1,1.150405E-1,5E-1,5E-1,1.0486206E-1,5E-1,5E-1,5E-1,9.411059E-2,5E-1,5E-1,5E-1,1.4605469E-2,5.8083702E-2,-4.0459123E-2,5E-1,5E-1,1.1215116E-1,3.669031E-2,5E-1,5E-1,-6.308307E-2,5E-1,9.3728475E-2,5E-1,5E-1,5E-1,5E-1,5.647799E-2,-2.9486257E-3,8.119881E-2,5E-1,5E-1,5E-1,5E-1,5E-1,-5.9575994E-2,5E-1,5E-1,5E-1,-4.2053364E-2,5E-1,5E-1,5E-1,5E-1,-3.1004513E-2,1.1742171E-1,7.88563E-2,1.3217771E-2,3.333939E-2,-6.6657715E-2,-2.5959296E-2,6.406966E-2,-4.1904416E-2,9.094578E-3,2.2574735E-3,1.0160848E-1,8.996873E-3,-3.7440937E-2,1.8674938E-2,1.12413086E-1,1.1068435E-1,3.4421515E-2,3.2544155E-2,-2.7196292E-2,1.14542976E-1,5.4083973E-2,7.221695E-2,1.3324131E-2,8.906195E-2,2.7066201E-2,1.4887256E-2,8.415151E-2,-3.974909E-2,6.4283754E-3,4.6322767E-2,7.842566E-3,-1.448185E-2,1.0803225E-2,-6.046147E-2,-7.952931E-3,-7.8448495E-5,-4.96043E-2,-5.4564316E-2,-5.0438563E-3,-8.360814E-3,-4.0940724E-2],"split_indices":[83,61,0,53,87,47,90,81,82,77,79,72,107,92,120,68,0,0,107,104,138,0,0,44,60,104,71,98,138,0,0,74,90,47,87,144,0,138,74,0,96,92,0,96,104,91,0,97,85,120,0,0,0,69,0,0,0,20,145,0,107,0,71,124,89,80,0,0,0,127,138,42,40,85,0,89,71,89,0,95,95,104,85,0,0,0,0,0,0,0,0,0,0,0,0,0,0,0,0,0,0,0,0,0,0,0,0,0,0,0,0,0,0,0,0,0,0,0,0,0,0,0,0,0,0],"split_type":[0,0,0,0,0,0,0,0,0,0,0,0,0,0,0,0,0,0,0,0,0,0,0,0,0,0,0,0,0,0,0,0,0,0,0,0,0,0,0,0,0,0,0,0,0,0,0,0,0,0,0,0,0,0,0,0,0,0,0,0,0,0,0,0,0,0,0,0,0,0,0,0,0,0,0,0,0,0,0,0,0,0,0,0,0,0,0,0,0,0,0,0,0,0,0,0,0,0,0,0,0,0,0,0,0,0,0,0,0,0,0,0,0,0,0,0,0,0,0,0,0,0,0,0,0],"sum_hessian":[4.339396E3,3.1382444E3,1.2011516E3,2.6051191E3,5.3312537E2,1.0858175E3,1.15334175E2,2.5379192E3,6.719982E1,5.0369006E2,2.9435324E1,8.7181836E2,2.1399911E2,1.10882454E2,4.451726E0,1.8716698E3,6.662493E2,1.7978424E1,4.92214E1,4.8872482E2,1.4965241E1,2.8068539E1,1.3667852E0,5.599583E2,3.1186002E2,1.3420319E2,7.979592E1,1.078058E2,3.076649E0,3.1819048E0,1.2698209E0,1.8533549E3,1.8314945E1,5.691387E2,9.7110664E1,4.2729965E1,6.4914355E0,4.7237466E2,1.635015E1,1.221168E1,2.7535613E0,5.3613184E2,2.3826492E1,2.9854016E2,1.3319872E1,1.3081755E2,3.385639E0,5.7428062E1,2.2367859E1,1.0567278E2,2.1330163E0,1.8007193E0,1.2759297E0,1.8079998E3,4.5355156E1,1.601667E1,2.298276E0,3.434097E2,2.2572899E2,8.822837E1,8.882297E0,2.386898E1,1.8860985E1,4.6638266E2,5.9920206E0,7.6028266E0,8.747322E0,1.3767806E0,1.3767806E0,5.124408E2,2.369104E1,1.5946223E2,1.3907793E2,6.3012147E0,7.018657E0,9.0232025E1,4.0585526E1,4.993853E1,7.489531E0,1.601968E1,6.3481784E0,8.738541E1,1.8287376E1,1.8039523E3,4.047489E0,2.243116E1,2.2923996E1,3.2223264E2,2.1177063E1,2.1965585E2,6.073141E0,5.2061925E0,3.676104E0,1.4542975E1,4.318009E0,4.4839594E2,1.7986698E1,1.8560475E0,4.135973E0,6.1775603E0,1.4252666E0,4.9107654E2,2.1364258E1,1.5198568E1,8.492472E0,9.600972E1,6.3452507E1,1.3166E2,7.4179277E0,3.8639412E0,2.4372737E0,2.2211737E1,6.802029E1,1.9100498E1,2.1485027E1,3.1561327E1,1.8377201E1,1.4329386E1,1.6902941E0,4.202343E0,2.1458354E0,8.5761856E1,1.6235555E0,9.826586E0,8.460791E0],"tree_param":{"num_deleted":"0","num_feature":"146","num_nodes":"125","size_leaf_vector":"0"}},{"base_weights":[4.4627796E-4,-5.4934844E-2,5.789901E-1,-1.7075053E-1,2.3398525E-1,4.431953E-1,8.6545295E-1,-1.0561273E-1,-3.5419095E-1,2.866669E-1,2.7991204E-2,5.279028E-1,2.9290201E-2,9.2943484E-1,2.1772653E-1,-1.2144619E-1,3.1055963E-1,-3.8600308E-1,7.521106E-1,2.4405603E-1,9.0796965E-1,1.0083348E-1,-3.1636462E-1,5.5747133E-1,-4.640275E-1,2.5757363E-1,-5.7916856E-1,8.1129277E-1,-1.118905E-1,-1.3043791E-1,4.9845722E-1,1.8692027E-1,1.1109732E0,-4.1753623E-1,-7.937759E-2,8.12853E-1,-5.7339765E-2,2.76819E-1,-8.298666E-2,9.397098E-1,5.0421387E-1,1.4191633E-1,-5.744939E-1,-4.6202773E-1,1.0628453E0,4.9696967E-1,9.100841E-1,6.9020176E-1,-1.6313206E-1,2.0493727E-2,-6.493655E-1,-1.469403E-1,1.7963311E-1,7.310904E-1,-4.426828E-1,2.6051003E-1,-6.0360676E-1,-4.5475262E-1,-1.9424598E-1,-2.7016124E-1,1.7140175E-1,3.9480036E-1,1.7414705E-1,-2.3094364E-1,7.2938174E-1,9.537606E-1,2.713073E-1,8.098538E-1,-2.158559E-3,1.8134905E-1,-6.7353153E-1,-6.5071726E-1,-4.905859E-3,-5.319315E-1,6.2440574E-1,6.049971E-1,1.091178E-1,9.571202E-1,4.2829648E-1,7.166353E-1,2.5037837E-1,4.6786484E-1,-5.0140184E-1,-2.1103297E-1,-5.7149407E-2,6.6605546E-2,8.170348E-1,8.794E-1,2.9365602E-1,3.412806E-1,-6.036731E-1,-5.053326E-1,-3.0958116E-1,-3.362319E-1,-3.542807E-2,-3.650311E-1,8.271364E-1,3.3834428E-1,-1.8562099E-2,4.7539446E-1,1.5156876E-1,2.7338484E-1,-3.4406334E-2,-3.4387177E-1,2.3341348E-2,1.16779804E-1,7.001704E-1,-5.831887E-1,-3.5057914E-1,6.516491E-1,-4.3720298E-2,-8.758359E-2,7.406715E-1,7.3928326E-1,-1.1999144E-1,6.407128E-1,-9.692221E-2],"categories":[],"categories_nodes":[],"categories_segments":[],"categories_sizes":[],"default_left":[1,1,1,1,1,1,1,1,1,1,1,1,1,0,1,1,1,1,1,1,1,1,1,1,0,1,1,0,0,1,1,1,0,1,1,0,0,1,1,1,1,1,1,1,0,1,1,1,1,0,0,1,1,1,0,1,0,1,1,1,1,1,1,1,0,0,0,0,0,1,0,0,0,1,0,1,1,0,1,0,0,1,0,0,0,0,0,0,0,0,0,0,0,0,0,0,0,0,0,0,0,0,0,0,0,0,0,0,0,0,0,0,0,0,0,0,0],"id":12,"left_children":[1,3,5,7,9,11,13,15,17,19,21,23,25,-1,27,29,31,33,35,37,39,41,43,45,-1,47,49,-1,-1,51,53,55,-1,57,59,-1,-1,61,63,65,67,69,71,73,-1,75,77,79,81,-1,-1,83,85,87,-1,89,-1,91,93,95,97,99,101,103,-1,-1,-1,-1,-1,105,-1,-1,-1,107,-1,109,111,-1,113,-1,-1,115,-1,-1,-1,-1,-1,-1,-1,-1,-1,-1,-1,-1,-1,-1,-1,-1,-1,-1,-1,-1,-1,-1,-1,-1,-1,-1,-1,-1,-1,-1,-1,-1,-1,-1,-1],"loss_changes":[1.3998035E2,1.3345763E2,1.4463623E1,3.397918E1,1.2378189E1,9.134739E0,4.840973E0,1.3890532E1,2.6529572E1,2.3838394E1,5.890379E0,6.6110954E0,6.454696E0,0E0,2.4867163E0,1.1357609E1,7.445273E0,6.9804993E0,1.0879307E0,9.15041E0,2.689705E-1,5.451094E0,8.732094E0,4.0442047E0,0E0,6.246822E0,