{"learner":{"attributes":{"best_iteration":"99","best_ntree_limit":"100","scikit_learn":"{\"use_label_encoder\": null, \"n_estimators\": 100, \"objective\": \"multi:softmax\", \"max_depth\": 7, \"max_leaves\": null, \"max_bin\": null, \"grow_policy\": null, \"learning_rate\": 0.1, \"verbosity\": null, \"booster\": null, \"tree_method\": null, \"gamma\": null, \"min_child_weight\": null, \"max_delta_step\": null, \"subsample\": 0.8, \"sampling_method\": null, \"colsample_bytree\": null, \"colsample_bylevel\": null, \"colsample_bynode\": null, \"reg_alpha\": null, \"reg_lambda\": null, \"scale_pos_weight\": null, \"base_score\": null, \"missing\": NaN, \"num_parallel_tree\": null, \"random_state\": null, \"n_jobs\": null, \"monotone_constraints\": null, \"interaction_constraints\": null, \"importance_type\": null, \"gpu_id\": null, \"validate_parameters\": null, \"predictor\": null, \"enable_categorical\": false, \"feature_types\": null, \"max_cat_to_onehot\": null, \"max_cat_threshold\": null, \"eval_metric\": \"mlogloss\", \"early_stopping_rounds\": null, \"callbacks\": null, \"kwargs\": {\"num_class\": 3}, \"classes_\": [0, 1, 2], \"n_classes_\": 3, \"_estimator_type\": \"classifier\"}"},"feature_names":["Species_Acinetobacter baumannii","Species_Acinetobacter baylyi","Species_Acinetobacter bereziniae","Species_Acinetobacter calcoaceticus","Species_Acinetobacter colistiniresistens","Species_Acinetobacter courvalinii","Species_Acinetobacter dijkshoorniae","Species_Acinetobacter guillouiae","Species_Acinetobacter haemolyticus","Species_Acinetobacter johnsonii","Species_Acinetobacter junii","Species_Acinetobacter lactucae","Species_Acinetobacter lwoffii","Species_Acinetobacter nosocomialis","Species_Acinetobacter pitii","Species_Acinetobacter proteolyticus","Species_Acinetobacter radioresistens","Species_Acinetobacter schindleri","Species_Acinetobacter seifertii","Species_Acinetobacter soli","Species_Acinetobacter spp","Species_Acinetobacter ursingii","Species_Acinetobacter variabilis","Species_Aeromonas hydrophila","Species_Alcaligenes faecalis","Species_Bordetella trematum","Species_Citrobacter amalonaticus","Species_Citrobacter braakii","Species_Citrobacter freundii","Species_Citrobacter koseri","Species_Citrobacter sedlakii","Species_Citrobacter spp","Species_Enterobacter asburiae","Species_Enterobacter bugandensis","Species_Enterobacter cloacae","Species_Enterobacter hormaechi","Species_Enterobacter kobei","Species_Enterobacter ludwigii","Species_Enterobacter roggenkampii","Species_Enterobacter spp","Species_Enterobacter xiangfangensis","Species_Escherichia coli","Species_Escherichia spp","Species_Klebsiella aerogenes","Species_Klebsiella oxytoca","Species_Klebsiella pneumoniae","Species_Klebsiella spp","Species_Klebsiella variicola","Species_Morganella morganii","Species_Myroides odoratimimus","Species_Proteus hauseri","Species_Proteus mirabilis","Species_Proteus penneri","Species_Proteus spp","Species_Proteus vulgaris","Species_Providencia alcalifaciens","Species_Providencia rettgeri","Species_Providencia spp","Species_Providencia stuartii","Species_Pseudomonas aeruginosa","Species_Pseudomonas fulva","Species_Pseudomonas putida","Species_Pseudomonas putida/fluorescens Group","Species_Pseudomonas spp","Species_Raoultella ornithinolytica","Species_Salmonella spp","Species_Serratia liquefaciens","Species_Serratia marcescens","Species_Serratia spp","Species_Serratia ureilytica","Family_Enterobacterales","Family_Enterobacteriaceae","Family_Non-Enterobacterales","Family_Non-Enterobacteriaceae","Country_Cameroon","Country_Ghana","Country_Ivory Coast","Country_Kenya","Country_Malawi","Country_Morocco","Country_Nigeria","Country_South Africa","Country_Uganda","Gender_Female","Gender_Male","Age Group_0 to 2 Years","Age Group_13 to 18 Years","Age Group_19 to 64 Years","Age Group_3 to 12 Years","Age Group_65 to 84 Years","Age Group_85 and Over","Age Group_Unknown","Speciality_Emergency Room","Speciality_General Unspecified ICU","Speciality_Medicine General","Speciality_Medicine ICU","Speciality_None Given","Speciality_Other","Speciality_Pediatric General","Speciality_Pediatric ICU","Speciality_Surgery General","Speciality_Surgery ICU","Source_Abscess","Source_Appendix","Source_Bladder","Source_Blood","Source_Bone","Source_Bronchoalveolar lavage","Source_Bronchus","Source_Burn","Source_CSF","Source_Carbuncle","Source_Catheters","Source_Cellulitis","Source_Cervix","Source_Colon","Source_Decubitus","Source_Diverticulum","Source_Endotracheal aspirate","Source_Eye","Source_Furuncle","Source_Gall Bladder","Source_Gastric Abscess","Source_Genitourinary: Other","Source_Impetiginous lesions","Source_Intestinal: Other","Source_Kidney","Source_Liver","Source_Lungs","Source_None Given","Source_Pancreas","Source_Peritoneal Fluid","Source_Prostate","Source_Respiratory: Other","Source_Skin","Source_Skin: Other","Source_Sputum","Source_Stomach","Source_Thoracentesis Fluid","Source_Ulcer","Source_Ureter","Source_Urethra","Source_Urine","Source_Wound"],"feature_types":["float","float","float","float","float","float","float","float","float","float","float","float","float","float","float","float","float","float","float","float","float","float","float","float","float","float","float","float","float","float","float","float","float","float","float","float","float","float","float","float","float","float","float","float","float","float","float","float","float","float","float","float","float","float","float","float","float","float","float","float","float","float","float","float","float","float","float","float","float","float","float","float","float","float","float","float","float","float","float","float","float","float","float","float","float","float","float","float","float","float","float","float","float","float","float","float","float","float","float","float","float","float","float","float","float","float","float","float","float","float","float","float","float","float","float","float","float","float","float","float","float","float","float","float","float","float","float","float","float","float","float","float","float","float","float","float","float","float","float","float","float","float","float","float"],"gradient_booster":{"model":{"gbtree_model_param":{"num_parallel_tree":"1","num_trees":"300","size_leaf_vector":"0"},"tree_info":[0,1,2,0,1,2,0,1,2,0,1,2,0,1,2,0,1,2,0,1,2,0,1,2,0,1,2,0,1,2,0,1,2,0,1,2,0,1,2,0,1,2,0,1,2,0,1,2,0,1,2,0,1,2,0,1,2,0,1,2,0,1,2,0,1,2,0,1,2,0,1,2,0,1,2,0,1,2,0,1,2,0,1,2,0,1,2,0,1,2,0,1,2,0,1,2,0,1,2,0,1,2,0,1,2,0,1,2,0,1,2,0,1,2,0,1,2,0,1,2,0,1,2,0,1,2,0,1,2,0,1,2,0,1,2,0,1,2,0,1,2,0,1,2,0,1,2,0,1,2,0,1,2,0,1,2,0,1,2,0,1,2,0,1,2,0,1,2,0,1,2,0,1,2,0,1,2,0,1,2,0,1,2,0,1,2,0,1,2,0,1,2,0,1,2,0,1,2,0,1,2,0,1,2,0,1,2,0,1,2,0,1,2,0,1,2,0,1,2,0,1,2,0,1,2,0,1,2,0,1,2,0,1,2,0,1,2,0,1,2,0,1,2,0,1,2,0,1,2,0,1,2,0,1,2,0,1,2,0,1,2,0,1,2,0,1,2,0,1,2,0,1,2,0,1,2,0,1,2,0,1,2,0,1,2,0,1,2,0,1,2,0,1,2,0,1,2,0,1,2],"trees":[{"base_weights":[2.8399315E-3,-1.6090824E-1,1.2097008E0,-1.9059162E-1,1.1415929E0,1.2528481E0,3.6421722E-1,-1.2270007E-1,-6.225013E-1,1.2601881E0,-6.52174E-1,1.307603E0,8.4466016E-1,8.0124223E-1,-9.3167745E-2,-1.1957402E-3,-2.9453048E-1,-6.37287E-1,-2.6086962E-1,1.3548387E0,5.581395E-1,1.3380253E0,5.121951E-1,1E0,-6.575343E-1,1.1652893E0,-2.44898E-1,3.2445524E-2,-4.4222367E-1,-3.8479963E-1,-1.5789479E-1,-6.875176E-1,-5.552597E-1,3.451327E-1,-7.04698E-1,1.3854545E0,-4.2857146E-1,1.3483143E-1,1.2244898E0,1.3611513E0,5.2941173E-1,6.79558E-1,-5.4545456E-1,1.0522022E0,2.2641507E-1,-1.8713633E-2,2.4943817E-1,-4.7107443E-1,8.918919E-1,-4.3590358E-1,-2.2556435E-2,-1.1781566E-1,-6.9387764E-1,-7.044425E-1,-4.5283026E-1,-5.7519317E-1,2.459016E-1,5.2577317E-1,-4.8000002E-1,8.181818E-1,-2.3076928E-1,1.3760774E0,3.333333E-1,1.0645161E0,-2.6086962E-1,1.0099009E0,2.3595501E-1,1.0923077E0,1.6216213E-1,8.181818E-1,-5.172414E-1,-8.73585E-2,2.0293455E-1,2.9428643E-1,-7.127072E-1,-4.906633E-1,7.241379E-1,-4.4392696E-1,9.0566033E-1,1.9872607E-1,-4.346794E-1,-2.1512087E-1,6.1633974E-2,-7.3349637E-1,-1.463415E-1,-7.117229E-1,-3.5294122E-1,-5.820896E-1,-4.109593E-2,-5.937032E-1,-3.7320578E-1,-4.2857146E-1,4.897959E-1,7.058823E-1,-4.2857146E-1,-6.2264156E-1,8.571428E-1,1.3871382E0,7.425742E-1,-4.9180366E-2,1.0344827E0,-6.2264156E-1,5.9999996E-1,1.111111E0,4.137931E-1,1.0909091E0,-2.3076928E-1,1.2911392E0,9.327731E-1,-4.2857146E-1,5.9999996E-1],"categories":[],"categories_nodes":[],"categories_segments":[],"categories_sizes":[],"default_left":[1,1,1,1,1,1,1,1,1,1,0,1,1,1,0,1,1,1,1,1,1,1,1,1,0,0,0,1,1,1,1,1,1,1,0,0,0,1,0,1,1,1,0,1,1,1,1,1,0,1,1,1,1,1,1,1,1,1,0,0,1,1,1,0,1,1,1,1,1,0,0,0,0,0,0,0,0,0,0,0,0,0,0,0,0,0,0,0,0,0,0,0,0,0,0,0,0,0,0,0,0,0,0,0,0,0,0,0,0,0,0],"id":0,"left_children":[1,3,5,7,9,11,13,15,17,19,-1,21,23,25,-1,27,29,31,33,35,37,39,41,43,-1,-1,-1,45,47,49,51,53,55,57,-1,-1,-1,59,-1,61,63,65,-1,67,69,71,73,75,-1,77,79,81,83,85,87,89,91,93,-1,-1,95,97,99,-1,101,103,105,107,109,-1,-1,-1,-1,-1,-1,-1,-1,-1,-1,-1,-1,-1,-1,-1,-1,-1,-1,-1,-1,-1,-1,-1,-1,-1,-1,-1,-1,-1,-1,-1,-1,-1,-1,-1,-1,-1,-1,-1,-1,-1,-1],"loss_changes":[1.1367585E3,1.9604376E2,2.4613708E1,1.4516045E2,2.486058E1,1.3500122E1,7.026334E0,8.9388245E1,3.4299316E0,6.309601E0,0E0,1.3212402E1,1.9351513E1,7.098256E0,0E0,3.7239716E1,2.1812881E1,2.2776794E0,7.8040075E0,5.6716156E0,3.8779235E0,9.612183E0,4.4025917E0,2.7097168E0,0E0,0E0,0E0,2.5893806E1,7.2671394E0,1.9746658E1,1.5110605E1,1.2543793E0,4.1392365E0,2.1238065E0,0E0,0E0,0E0,2.6593854E0,0E0,7.772705E0,7.4667106E0,2.7088146E0,0E0,2.2541275E0,3.0147276E0,2.8745354E1,1.941173E1,4.4473534E0,0E0,1.0468658E1,1.2215396E1,1.1524189E1,9.5560074E-1,6.89682E-1,1.5431271E0,6.927719E-1,1.3248578E0,2.1550722E0,0E0,0E0,3.6126895E0,2.673706E0,2.4646692E0,0E0,2.76128E0,2.1728992E-1,4.19769E0,8.5749054E-1,1.3204634E0,0E0,0E0,0E0,0E0,0E0,0E0,0E0,0E0,0E0,0E0,0E0,0E0,0E0,0E0,0E0,0E0,0E0,0E0,0E0,0E0,0E0,0E0,0E0,0E0,0E0,0E0,0E0,0E0,0E0,0E0,0E0,0E0,0E0,0E0,0E0,0E0,0E0,0E0,0E0,0E0,0E0,0E0],"parents":[2147483647,0,0,1,1,2,2,3,3,4,4,5,5,6,6,7,7,8,8,9,9,11,11,12,12,13,13,15,15,16,16,17,17,18,18,19,19,20,20,21,21,22,22,23,23,27,27,28,28,29,29,30,30,31,31,32,32,33,33,37,37,39,39,40,40,41,41,43,43,44,44,45,45,46,46,47,47,49,49,50,50,51,51,52,52,53,53,54,54,55,55,56,56,57,57,60,60,61,61,62,62,64,64,65,65,66,66,67,67,68,68],"right_children":[2,4,6,8,10,12,14,16,18,20,-1,22,24,26,-1,28,30,32,34,36,38,40,42,44,-1,-1,-1,46,48,50,52,54,56,58,-1,-1,-1,60,-1,62,64,66,-1,68,70,72,74,76,-1,78,80,82,84,86,88,90,92,94,-1,-1,96,98,100,-1,102,104,106,108,110,-1,-1,-1,-1,-1,-1,-1,-1,-1,-1,-1,-1,-1,-1,-1,-1,-1,-1,-1,-1,-1,-1,-1,-1,-1,-1,-1,-1,-1,-1,-1,-1,-1,-1,-1,-1,-1,-1,-1,-1,-1,-1],"split_conditions":[5E-1,5E-1,5E-1,5E-1,5E-1,5E-1,5E-1,5E-1,5E-1,5E-1,-6.52174E-2,5E-1,5E-1,5E-1,-9.316775E-3,5E-1,5E-1,5E-1,5E-1,5E-1,5E-1,5E-1,5E-1,5E-1,-6.575343E-2,1.1652893E-1,-2.4489801E-2,5E-1,5E-1,5E-1,5E-1,5E-1,5E-1,5E-1,-7.0469804E-2,1.3854545E-1,-4.2857148E-2,5E-1,1.2244898E-1,5E-1,5E-1,5E-1,-5.454546E-2,5E-1,5E-1,5E-1,5E-1,5E-1,8.9189194E-2,5E-1,5E-1,5E-1,5E-1,5E-1,5E-1,5E-1,5E-1,5E-1,-4.8000004E-2,8.1818186E-2,5E-1,5E-1,5E-1,1.0645161E-1,5E-1,5E-1,5E-1,5E-1,5E-1,8.1818186E-2,-5.1724143E-2,-8.7358495E-3,2.0293456E-2,2.9428644E-2,-7.127073E-2,-4.906633E-2,7.2413795E-2,-4.4392698E-2,9.056603E-2,1.9872608E-2,-4.346794E-2,-2.1512087E-2,6.1633973E-3,-7.334964E-2,-1.463415E-2,-7.117229E-2,-3.5294123E-2,-5.820896E-2,-4.109593E-3,-5.937032E-2,-3.732058E-2,-4.2857148E-2,4.897959E-2,7.058823E-2,-4.2857148E-2,-6.2264156E-2,8.571428E-2,1.3871382E-1,7.4257426E-2,-4.9180365E-3,1.0344827E-1,-6.2264156E-2,6E-2,1.11111104E-1,4.137931E-2,1.0909092E-1,-2.3076927E-2,1.2911393E-1,9.327731E-2,-4.2857148E-2,6E-2],"split_indices":[0,20,82,41,123,80,93,71,102,142,0,78,90,97,0,51,45,142,87,76,79,76,100,98,0,0,0,45,99,48,74,98,95,81,0,0,0,87,0,74,105,85,0,96,105,72,76,86,0,46,142,105,96,77,76,79,87,77,0,0,92,108,102,0,95,102,98,87,83,0,0,0,0,0,0,0,0,0,0,0,0,0,0,0,0,0,0,0,0,0,0,0,0,0,0,0,0,0,0,0,0,0,0,0,0,0,0,0,0,0,0],"split_type":[0,0,0,0,0,0,0,0,0,0,0,0,0,0,0,0,0,0,0,0,0,0,0,0,0,0,0,0,0,0,0,0,0,0,0,0,0,0,0,0,0,0,0,0,0,0,0,0,0,0,0,0,0,0,0,0,0,0,0,0,0,0,0,0,0,0,0,0,0,0,0,0,0,0,0,0,0,0,0,0,0,0,0,0,0,0,0,0,0,0,0,0,0,0,0,0,0,0,0,0,0,0,0,0,0,0,0,0,0,0,0],"sum_hessian":[5.7502217E3,5.0639995E3,6.8622217E2,4.9519995E3,1.1199999E2,6.524444E2,3.3777775E1,4.2804443E3,6.7155554E2,1.0533333E2,6.666666E0,5.733333E2,7.911111E1,1.6888887E1,1.6888887E1,2.5079998E3,1.7724443E3,6.444444E2,2.7111109E1,9.199999E1,1.3333332E1,5.5155554E2,2.1777777E1,7.199999E1,7.1111107E0,1.2444444E1,4.444444E0,2.331111E3,1.7688889E2,1.0662222E3,7.0622217E2,3.9511108E2,2.4933331E2,1.1555555E1,1.5555554E1,9.0666664E1,1.3333333E0,8.888888E0,4.444444E0,5.3555554E2,1.5999999E1,1.911111E1,2.6666665E0,6.711111E1,4.8888884E0,1.887111E3,4.4399997E2,1.7377777E2,3.111111E0,9.3422217E2,1.3199998E2,6.5822217E2,4.7999996E1,3.6666666E2,2.8444443E1,2.4355554E2,5.7777777E0,9.777777E0,1.7777777E0,2.6666665E0,6.222222E0,5.2755554E2,7.9999995E0,9.333333E0,6.666666E0,1.0222221E1,8.888888E0,6.3999996E1,3.111111E0,2.6666665E0,2.222222E0,1.4413333E3,4.4577774E2,4.2488885E2,1.911111E1,1.7155554E2,2.222222E0,9.2933325E2,4.8888884E0,8.622221E1,4.5777775E1,4.2666663E2,2.3155554E2,4.4444443E1,3.5555553E0,3.582222E2,8.444444E0,2.1333332E1,7.1111107E0,2.2133331E2,2.2222221E1,1.3333333E0,4.444444E0,8.444444E0,1.3333333E0,4.8888884E0,1.3333333E0,5.173333E2,1.0222221E1,5.7777777E0,2.222222E0,4.8888884E0,1.7777777E0,7.9999995E0,2.222222E0,2.6666665E0,6.222222E0,2.5333332E1,3.8666664E1,1.3333333E0,1.7777777E0],"tree_param":{"num_deleted":"0","num_feature":"144","num_nodes":"111","size_leaf_vector":"0"}},{"base_weights":[-4.0920204E-4,-9.161869E-2,9.939717E-1,-4.980392E-3,-6.762235E-1,1.0350263E0,4.6153843E-1,1.11210205E-1,-6.5349406E-1,-7.336788E-1,-4.5011976E-1,1.044003E0,-5.172414E-1,-1.1009179E-1,7.1999997E-1,6.716754E-2,8.803828E-1,-6.970723E-1,1.5692304E-1,-7.485393E-1,-3.8028175E-1,-4.9385756E-1,9.512195E-1,1.0512496E0,-4.8000002E-1,-6.6666675E-1,1.1351352E0,8.3253586E-1,-4.8000002E-1,4.3743946E-2,1.229584E0,6.981285E-1,1.2072617E0,-7.1413565E-1,-2.0095699E-1,-4.363637E-1,7.278106E-1,-7.0909095E-1,6.315789E-1,-5.6000006E-1,2.571428E-1,1.1230448E0,8.536139E-1,6.114649E-1,1.2786885E0,2.0189792E-2,1.0445344E0,1.3056E0,-5.4545456E-1,8.285714E-1,2.5597265E-1,1.255814E0,-4.8000002E-1,-7.23181E-1,-1.23711385E-1,-7.0807457E-1,1.2631578E0,-6.9421494E-1,2.2641507E-1,8.407643E-1,-4.2857146E-1,-5.950414E-1,3.9999998E-1,7.826087E-1,-6E-1,1.1561462E0,5.59322E-1,6.6527194E-1,1.1844156E0,2.654867E-1,1.245283E0,2.8110316E-3,9.786096E-1,1.0943134E0,-5.172414E-1,1.3830156E0,3.1578943E-1,9.702458E-1,1.823204E-1,-2.1126765E-1,1.3483146E0,1.3935484E0,8.5714287E-1,-7.3368055E-1,-4.7430834E-1,-6.52174E-1,8.918919E-1,-6.8634695E-1,-3.1578952E-1,-4.2857146E-1,8.181818E-1,1.1668545E0,4.736842E-1,-6.2264156E-1,9.924812E-1,9.4520545E-1,3.6565092E-1,1.290411E0,-5.172414E-1,-6.31579E-1,1.0153846E0],"categories":[],"categories_nodes":[],"categories_segments":[],"categories_sizes":[],"default_left":[1,1,1,1,1,1,1,1,1,1,1,1,0,1,1,1,1,1,1,0,1,1,0,1,0,0,0,1,0,1,1,1,1,1,1,1,1,0,0,1,1,1,1,1,0,1,1,1,0,1,1,1,0,1,1,0,0,0,0,0,0,1,1,0,0,1,1,1,1,1,0,0,0,0,0,0,0,0,0,0,0,0,0,0,0,0,0,0,0,0,0,0,0,0,0,0,0,0,0,0,0],"id":1,"left_children":[1,3,5,7,9,11,13,15,17,19,21,23,-1,25,27,29,31,33,35,-1,37,39,-1,41,-1,-1,-1,43,-1,45,47,49,51,53,55,57,59,-1,-1,61,63,65,67,69,-1,71,73,75,-1,77,79,81,-1,83,85,-1,-1,-1,-1,-1,-1,87,89,-1,-1,91,93,95,97,99,-1,-1,-1,-1,-1,-1,-1,-1,-1,-1,-1,-1,-1,-1,-1,-1,-1,-1,-1,-1,-1,-1,-1,-1,-1,-1,-1,-1,-1,-1,-1],"loss_changes":[5.173157E2,2.6461597E2,9.997528E0,3.4301263E2,8.429962E0,6.728363E0,5.4144816E0,1.3072261E2,2.4536682E1,2.5308533E0,9.002905E0,5.3848267E0,0E0,9.150508E0,3.775693E0,9.9397896E1,1.1608368E1,5.4144897E0,1.2548424E1,0E0,8.321963E0,6.8829727E0,0E0,5.2862244E0,0E0,0E0,0E0,1.5085659E0,0E0,8.440349E1,1.0442192E1,7.6638947E0,6.619385E0,3.2982483E0,1.8136408E1,3.2903163E0,2.8130379E0,0E0,0E0,4.442978E0,5.724224E0,5.318329E0,6.778496E0,3.4947386E0,0E0,5.8295612E1,6.966919E0,4.8845673E0,0E0,9.436607E0,1.690076E1,2.7408066E0,0E0,1.2840271E0,6.366192E0,0E0,0E0,0E0,0E0,0E0,0E0,2.8684196E0,2.083117E0,0E0,0E0,1.6469727E0,1.0686867E1,6.336342E0,8.383183E0,9.087514E0,0E0,0E0,0E0,0E0,0E0,0E0,0E0,0E0,0E0,0E0,0E0,0E0,0E0,0E0,0E0,0E0,0E0,0E0,0E0,0E0,0E0,0E0,0E0,0E0,0E0,0E0,0E0,0E0,0E0,0E0,0E0],"parents":[2147483647,0,0,1,1,2,2,3,3,4,4,5,5,6,6,7,7,8,8,9,9,10,10,11,11,13,13,14,14,15,15,16,16,17,17,18,18,20,20,21,21,23,23,27,27,29,29,30,30,31,31,32,32,33,33,34,34,35,35,36,36,39,39,40,40,41,41,42,42,43,43,45,45,46,46,47,47,49,49,50,50,51,51,53,53,54,54,61,61,62,62,65,65,66,66,67,67,68,68,69,69],"right_children":[2,4,6,8,10,12,14,16,18,20,22,24,-1,26,28,30,32,34,36,-1,38,40,-1,42,-1,-1,-1,44,-1,46,48,50,52,54,56,58,60,-1,-1,62,64,66,68,70,-1,72,74,76,-1,78,80,82,-1,84,86,-1,-1,-1,-1,-1,-1,88,90,-1,-1,92,94,96,98,100,-1,-1,-1,-1,-1,-1,-1,-1,-1,-1,-1,-1,-1,-1,-1,-1,-1,-1,-1,-1,-1,-1,-1,-1,-1,-1,-1,-1,-1,-1,-1],"split_conditions":[5E-1,5E-1,5E-1,5E-1,5E-1,5E-1,5E-1,5E-1,5E-1,5E-1,5E-1,5E-1,-5.1724143E-2,5E-1,5E-1,5E-1,5E-1,5E-1,5E-1,-7.4853934E-2,5E-1,5E-1,9.512195E-2,5E-1,-4.8000004E-2,-6.666668E-2,1.1351352E-1,5E-1,-4.8000004E-2,5E-1,5E-1,5E-1,5E-1,5E-1,5E-1,5E-1,5E-1,-7.09091E-2,6.315789E-2,5E-1,5E-1,5E-1,5E-1,5E-1,1.2786886E-1,5E-1,5E-1,5E-1,-5.454546E-2,5E-1,5E-1,5E-1,-4.8000004E-2,5E-1,5E-1,-7.080746E-2,1.2631579E-1,-6.942149E-2,2.2641508E-2,8.407643E-2,-4.2857148E-2,5E-1,5E-1,7.826087E-2,-6.0000002E-2,5E-1,5E-1,5E-1,5E-1,5E-1,1.24528304E-1,2.8110316E-4,9.786096E-2,1.0943134E-1,-5.1724143E-2,1.3830157E-1,3.1578943E-2,9.702458E-2,1.823204E-2,-2.1126766E-2,1.3483147E-1,1.3935484E-1,8.571429E-2,-7.336806E-2,-4.7430836E-2,-6.52174E-2,8.9189194E-2,-6.86347E-2,-3.1578954E-2,-4.2857148E-2,8.1818186E-2,1.1668545E-1,4.736842E-2,-6.2264156E-2,9.924812E-2,9.452055E-2,3.656509E-2,1.290411E-1,-5.1724143E-2,-6.31579E-2,1.0153846E-1],"split_indices":[51,41,88,0,89,118,80,48,82,86,111,127,0,139,96,56,142,90,93,0,131,77,0,142,0,0,0,99,0,58,86,79,90,108,80,97,83,0,0,107,83,92,89,135,0,54,92,142,0,105,121,94,0,78,83,0,0,0,0,0,0,100,93,0,0,91,80,80,76,83,0,0,0,0,0,0,0,0,0,0,0,0,0,0,0,0,0,0,0,0,0,0,0,0,0,0,0,0,0,0,0],"split_type":[0,0,0,0,0,0,0,0,0,0,0,0,0,0,0,0,0,0,0,0,0,0,0,0,0,0,0,0,0,0,0,0,0,0,0,0,0,0,0,0,0,0,0,0,0,0,0,0,0,0,0,0,0,0,0,0,0,0,0,0,0,0,0,0,0,0,0,0,0,0,0,0,0,0,0,0,0,0,0,0,0,0,0,0,0,0,0,0,0,0,0,0,0,0,0,0,0,0,0,0,0],"sum_hessian":[5.7017773E3,5.223555E3,4.782222E2,4.550222E3,6.733333E2,4.4311108E2,3.511111E1,3.8595554E3,6.906666E2,5.351111E2,1.3822221E2,4.4088885E2,2.222222E0,1.1111111E1,2.3999998E1,3.6515554E3,2.0799998E2,6.5555554E2,3.511111E1,5.124444E2,2.2666666E1,1.3466666E2,3.5555553E0,4.3911108E2,1.7777777E0,7.9999995E0,3.111111E0,2.2222221E1,1.7777777E0,3.5804443E3,7.111111E1,1.3555554E2,7.244444E1,6.333333E2,2.2222221E1,1.7333332E1,1.7777777E1,1.7333332E1,5.333333E0,1.2399999E2,1.0666666E1,3.1866666E2,1.20444435E2,1.6444443E1,5.7777777E0,3.4991108E3,8.133333E1,6.844444E1,2.6666665E0,1.0399999E2,3.1555553E1,7.0666664E1,1.7777777E0,6.2355554E2,9.777777E0,1.6888887E1,5.333333E0,1.2444444E1,4.8888884E0,1.6444443E1,1.3333333E0,1.1999999E2,3.9999998E0,6.666666E0,3.9999998E0,2.9999997E2,1.8666666E1,7.8666664E1,4.1777775E1,1.1555555E1,4.8888884E0,3.4377776E3,6.133333E1,7.911111E1,2.222222E0,6.3111107E1,5.333333E0,8.4888885E1,1.911111E1,2.2666666E1,8.888888E0,5.0666664E1,1.9999998E1,5.964444E2,2.7111109E1,6.666666E0,3.111111E0,8.933333E1,3.0666664E1,1.3333333E0,2.6666665E0,2.9466666E2,5.333333E0,4.8888884E0,1.3777777E1,3.9555553E1,3.9111107E1,3.9555553E1,2.222222E0,5.333333E0,6.222222E0],"tree_param":{"num_deleted":"0","num_feature":"144","num_nodes":"101","size_leaf_vector":"0"}},{"base_weights":[7.5639965E-4,-1.7309856E-1,1.2867612E0,-2.7801895E-1,1.9035454E-1,1.3558719E0,1.0378733E0,-2.2860645E-1,-6.4158565E-1,4.217207E-1,-1.9768973E-1,1.374368E0,9.4936705E-1,1.1324346E0,-2.4793431E-2,-1.4579399E-1,-5.602323E-1,-6.454611E-1,2.3999998E-1,6.2664115E-1,2.9986326E-2,-2.1400058E-1,8.3606553E-1,1.2324324E0,-4.9180366E-2,1.3034714E0,7.002652E-1,1.0909091E0,-4.020619E-1,-9.937758E-2,-7.083994E-1,-5.9758997E-1,-2.742156E-1,-6.4936626E-1,2.3999998E-1,1.1242236E0,3.6231354E-1,-4.4516963E-8,1.245283E0,-2.3492502E-1,5.643564E-1,1.1999999E0,-1.2000003E-1,1.3953488E0,7.384615E-1,1.3491329E0,-8.1081115E-2,8.4923077E-1,-1.9672136E-1,-2.8767127E-1,-5.4545456E-1,-1.1144253E-1,1.4254143E0,-7.128397E-1,-1.2000003E-1,-6.091933E-1,3.913043E-1,-3.436124E-1,5.4098356E-1,-6.6750634E-1,-5.3484607E-1,1.2378292E0,3.8048777E-1,5.684647E-1,-4.0237698E-1,4.5248825E-2,-5.0847465E-1,-1.6028613E-1,-3.7008485E-1,9.4520545E-1,-3.2432437E-1,1.1707317E0,-3.2511625E-8,1.4456376E0,6.976744E-1,9.767442E-1,-5.4545456E-1,4.285714E-1,-4.2857146E-1,-1.3397112E-1,5.4980075E-1,-7.1707326E-1,-3.658537E-1,-6.240274E-1,-7.643317E-2,8.5714287E-1,-5.172414E-1,-3.8131705E-1,4.0540537E-1,8.5714287E-1,-4.2857146E-1,-6.7140025E-1,-3.4426233E-1,-6.3934433E-1,2.7272725E-1,1.3043479E0,2.3595501E-1,8.769231E-1,1.4093956E-1,4.3669596E-1,8.388017E-1,-4.8000005E-1,-2.9670334E-1,2.4477264E-2,1.1351352E0,-6.4429533E-1,1.6216213E-1,-1.7812905E-1,7.9999995E-1,-7.5471744E-2,-5.355851E-1,1.245283E0,2.823529E-1,1.1433963E0,-2.0000003E-1],"categories":[],"categories_nodes":[],"categories_segments":[],"categories_sizes":[],"default_left":[1,1,1,1,1,1,1,1,1,1,1,0,1,1,1,1,1,1,0,1,1,1,1,1,0,1,1,0,1,1,1,1,1,1,0,1,1,1,0,1,1,0,0,0,1,1,0,1,1,0,0,1,0,1,0,1,1,1,1,1,1,1,1,1,1,1,1,1,1,0,0,0,0,0,1,1,0,0,0,0,0,0,0,0,0,0,0,0,0,0,0,0,0,0,0,0,0,0,0,0,0,0,0,0,0,0,0,0,0,0,0,0,0,0,0],"id":2,"left_children":[1,3,5,7,9,11,13,15,17,19,21,-1,23,25,27,29,31,33,-1,35,37,39,41,43,-1,45,47,-1,49,51,53,55,57,59,-1,61,63,65,-1,67,69,-1,-1,-1,71,73,-1,75,77,-1,-1,79,-1,81,-1,83,85,87,89,91,93,95,97,99,101,103,105,107,109,-1,-1,-1,-1,-1,111,113,-1,-1,-1,-1,-1,-1,-1,-1,-1,-1,-1,-1,-1,-1,-1,-1,-1,-1,-1,-1,-1,-1,-1,-1,-1,-1,-1,-1,-1,-1,-1,-1,-1,-1,-1,-1,-1,-1,-1],"loss_changes":[1.2810033E3,1.9252184E2,1.0329468E1,7.022122E1,1.0164485E2,2.6860962E0,1.5357956E1,9.466177E1,1.754242E0,5.6895744E1,7.3150463E0,0E0,7.5038433E0,9.443802E0,6.09764E0,7.20539E1,7.1980133E0,1.7683563E0,0E0,6.0810165E1,8.912176E0,6.931366E0,2.502295E0,6.238136E-1,0E0,6.382263E0,5.7642555E0,0E0,1.9873857E-2,4.711704E1,4.639969E-1,7.2212677E0,4.79338E0,6.08078E-1,0E0,1.3132309E1,4.8379555E1,5.5372343E0,0E0,4.048813E0,4.1047506E0,0E0,0E0,0E0,2.3054407E0,5.0338287E0,0E0,6.954811E0,1.1662762E0,0E0,0E0,3.781408E1,0E0,4.4021606E-2,0E0,4.70903E0,3.6881557E0,2.2915258E0,2.444965E0,2.6853943E-1,5.9597683E0,8.970459E0,2.5851445E0,8.218597E0,3.944044E-1,4.975354E0,1.8958454E0,4.6678667E0,6.986225E0,0E0,0E0,0E0,0E0,0E0,2.9082727E0,6.787365E0,0E0,0E0,0E0,0E0,0E0,0E0,0E0,0E0,0E0,0E0,0E0,0E0,0E0,0E0,0E0,0E0,0E0,0E0,0E0,0E0,0E0,0E0,0E0,0E0,0E0,0E0,0E0,0E0,0E0,0E0,0E0,0E0,0E0,0E0,0E0,0E0,0E0,0E0,0E0],"parents":[2147483647,0,0,1,1,2,2,3,3,4,4,5,5,6,6,7,7,8,8,9,9,10,10,12,12,13,13,14,14,15,15,16,16,17,17,19,19,20,20,21,21,22,22,23,23,25,25,26,26,28,28,29,29,30,30,31,31,32,32,33,33,35,35,36,36,37,37,39,39,40,40,44,44,45,45,47,47,48,48,51,51,53,53,55,55,56,56,57,57,58,58,59,59,60,60,61,61,62,62,63,63,64,64,65,65,66,66,67,67,68,68,74,74,75,75],"right_children":[2,4,6,8,10,12,14,16,18,20,22,-1,24,26,28,30,32,34,-1,36,38,40,42,44,-1,46,48,-1,50,52,54,56,58,60,-1,62,64,66,-1,68,70,-1,-1,-1,72,74,-1,76,78,-1,-1,80,-1,82,-1,84,86,88,90,92,94,96,98,100,102,104,106,108,110,-1,-1,-1,-1,-1,112,114,-1,-1,-1,-1,-1,-1,-1,-1,-1,-1,-1,-1,-1,-1,-1,-1,-1,-1,-1,-1,-1,-1,-1,-1,-1,-1,-1,-1,-1,-1,-1,-1,-1,-1,-1,-1,-1,-1,-1],"split_conditions":[5E-1,5E-1,5E-1,5E-1,5E-1,5E-1,5E-1,5E-1,5E-1,5E-1,5E-1,1.3743679E-1,5E-1,5E-1,5E-1,5E-1,5E-1,5E-1,2.3999998E-2,5E-1,5E-1,5E-1,5E-1,5E-1,-4.9180365E-3,5E-1,5E-1,1.0909092E-1,5E-1,5E-1,5E-1,5E-1,5E-1,5E-1,2.3999998E-2,5E-1,5E-1,5E-1,1.24528304E-1,5E-1,5E-1,1.2E-1,-1.2000003E-2,1.3953488E-1,5E-1,5E-1,-8.108112E-3,5E-1,5E-1,-2.8767128E-2,-5.454546E-2,5E-1,1.4254144E-1,5E-1,-1.2000003E-2,5E-1,5E-1,5E-1,5E-1,5E-1,5E-1,5E-1,5E-1,5E-1,5E-1,5E-1,5E-1,5E-1,5E-1,9.452055E-2,-3.2432437E-2,1.1707317E-1,-3.2511627E-9,1.4456376E-1,5E-1,5E-1,-5.454546E-2,4.285714E-2,-4.2857148E-2,-1.33971125E-2,5.4980077E-2,-7.170733E-2,-3.6585372E-2,-6.2402736E-2,-7.643317E-3,8.571429E-2,-5.1724143E-2,-3.8131706E-2,4.054054E-2,8.571429E-2,-4.2857148E-2,-6.714003E-2,-3.4426235E-2,-6.393444E-2,2.7272725E-2,1.304348E-1,2.3595503E-2,8.769231E-2,1.4093957E-2,4.3669596E-2,8.388017E-2,-4.8000004E-2,-2.9670333E-2,2.4477264E-3,1.1351352E-1,-6.442954E-2,1.6216213E-2,-1.7812906E-2,8E-2,-7.5471746E-3,-5.355851E-2,1.24528304E-1,2.823529E-2,1.1433963E-1,-2.0000003E-2],"split_indices":[41,45,89,51,81,86,77,0,127,79,102,0,131,100,94,48,80,131,0,80,131,98,91,100,0,107,102,0,83,29,86,74,98,100,0,97,91,118,0,70,91,0,0,0,142,143,0,111,79,0,0,74,0,85,0,76,102,96,109,86,83,125,85,94,99,135,99,96,87,0,0,0,0,0,81,122,0,0,0,0,0,0,0,0,0,0,0,0,0,0,0,0,0,0,0,0,0,0,0,0,0,0,0,0,0,0,0,0,0,0,0,0,0,0,0],"split_type":[0,0,0,0,0,0,0,0,0,0,0,0,0,0,0,0,0,0,0,0,0,0,0,0,0,0,0,0,0,0,0,0,0,0,0,0,0,0,0,0,0,0,0,0,0,0,0,0,0,0,0,0,0,0,0,0,0,0,0,0,0,0,0,0,0,0,0,0,0,0,0,0,0,0,0,0,0,0,0,0,0,0,0,0,0,0,0,0,0,0,0,0,0,0,0,0,0,0,0,0,0,0,0,0,0,0,0,0,0,0,0,0,0,0,0],"sum_hessian":[5.727555E3,5.0462217E3,6.813333E2,3.9159998E3,1.1302222E3,5.297778E2,1.5155554E2,3.4488887E3,4.6711108E2,7.0799994E2,4.222222E2,5.0444443E2,2.5333332E1,1.391111E2,1.2444444E1,2.7608887E3,6.8799994E2,4.653333E2,1.7777777E0,4.6444443E2,2.4355554E2,4.1644443E2,5.7777777E0,1.9555553E1,5.7777777E0,9.822221E1,4.0888885E1,2.6666665E0,9.777777E0,2.5515554E3,2.0933333E2,6.0755554E2,8.044444E1,4.6355554E2,1.7777777E0,1.5999998E2,3.0444443E2,2.3866666E2,4.8888884E0,4.062222E2,1.0222221E1,3.9999998E0,1.7777777E0,1.3333332E1,6.222222E0,9.511111E1,3.111111E0,3.511111E1,5.7777777E0,7.1111107E0,2.6666665E0,2.5324443E3,1.911111E1,2.0755554E2,1.7777777E0,6.0088885E2,6.666666E0,7.4666664E1,5.7777777E0,3.9599997E2,6.755555E1,1.3822221E2,2.1777777E1,2.3999998E2,6.444444E1,2.1999998E2,1.8666666E1,2.6311108E2,1.431111E2,7.1111107E0,3.111111E0,3.5555553E0,2.6666665E0,8.177777E1,1.3333332E1,3.2444443E1,2.6666665E0,1.3333333E0,4.444444E0,2.4497776E3,8.2666664E1,2.0399998E2,3.5555553E0,5.844444E2,1.6444443E1,4.444444E0,2.222222E0,7.155555E1,3.111111E0,4.444444E0,1.3333333E0,3.902222E2,5.7777777E0,5.9999996E1,7.5555553E0,1.2933333E2,8.888888E0,6.222222E0,1.5555554E1,1.631111E2,7.6888885E1,3.511111E1,2.9333332E1,2.1688887E2,3.111111E0,1.5555554E1,3.111111E0,2.5911108E2,3.9999998E0,5.1999996E1,9.111111E1,4.8888884E0,8.444444E0,2.8444443E1,3.9999998E0],"tree_param":{"num_deleted":"0","num_feature":"144","num_nodes":"115","size_leaf_vector":"0"}},{"base_weights":[4.7330773E-3,-1.4765126E-1,1.0520432E0,-1.7693722E-1,1.0256529E0,1.0948061E0,3.0687565E-1,-1.1335744E-1,-5.9997654E-1,1.1240039E0,-6.3060755E-1,1.1265455E0,5.700523E-1,6.5718824E-1,-7.352916E-2,-2.4963568E-3,-2.725459E-1,-6.150289E-1,-2.5797153E-1,1.24037E0,5.452764E-1,1.1673286E0,8.338924E-1,9.159798E-1,8.8207416E-2,9.374219E-1,-1.558174E-1,-1.8197303E-1,8.37941E-1,3.1157827E-2,-4.2907602E-1,-3.5274482E-1,-1.5168656E-1,-6.743744E-1,-5.213901E-1,2.577161E-1,-6.791778E-1,1.277654E0,-4.7217187E-1,8.60054E-1,6.776404E-2,1.175968E0,4.7783583E-1,9.4620055E-1,-6.1278903E-1,6.351277E-1,1.0975244E0,-2.1564616E-1,8.9523697E-1,4.7410868E-2,-5.3630984E-1,-4.5594037E-1,8.02457E-1,-3.9559144E-1,-4.70955E-2,-1.16706036E-1,-6.609368E-1,-7.064654E-1,-6.000547E-1,-5.519711E-1,2.8681213E-1,4.459166E-1,-5.0060666E-1,1.2958953E0,3.802613E-1,1.4742362E-2,1.2114555E0,-3.3380502E-1,7.69869E-1,1.1887661E0,6.615024E-1,-4.2567304E-1,6.9918835E-1,9.7747314E-1,3.2522595E-1,9.439653E-1,2.4725698E-1,-5.107529E-1,7.0922494E-1,7.460844E-2,-2.8176403E-1,-6.96651E-1,1.2507035E-1,-4.6972725E-1,5.787873E-1,-4.0392217E-1,6.795298E-1,1.2792496E-1,-3.8104025E-1,-2.0113194E-1,3.2385644E-2,-7.0374644E-1,-1.19837485E-1,-7.1408004E-1,-3.7917635E-1,-7.1117693E-1,-4.9813932E-1,-5.6092495E-1,-1.601113E-1,-4.6179804E-1,5.146938E-1,-2.9628973E-3,8.4365046E-1,-5.514639E-1,7.9450333E-1,4.1289413E-1,-5.990427E-1,1.1991993E0,6.7025644E-1,8.931954E-1,-5.1731896E-1,2.9934883E-1,9.9267757E-1,1.0267822E0,6.3397396E-1,-5.159048E-1,9.519823E-1,-2.4842943E-1,5.759627E-1,-6.3369113E-1,-2.9374892E-1],"categories":[],"categories_nodes":[],"categories_segments":[],"categories_sizes":[],"default_left":[1,1,1,1,1,1,1,1,1,1,0,1,1,1,1,1,1,1,1,1,1,1,1,1,1,0,0,0,0,1,1,1,1,1,1,1,0,1,0,1,1,1,1,1,0,1,0,1,0,1,1,1,0,1,1,1,1,1,1,1,1,1,0,0,0,1,0,1,0,1,1,0,1,1,1,0,1,1,0,0,0,0,0,0,0,0,0,0,0,0,0,0,0,0,0,0,0,0,0,0,0,0,0,0,0,0,0,0,0,0,0,0,0,0,0,0,0,0,0,0,0],"id":3,"left_children":[1,3,5,7,9,11,13,15,17,19,-1,21,23,25,27,29,31,33,35,37,39,41,43,45,47,-1,-1,-1,-1,49,51,53,55,57,59,61,-1,63,-1,65,67,69,71,73,-1,75,-1,77,-1,79,81,83,-1,85,87,89,91,93,95,97,99,101,-1,-1,-1,103,-1,105,-1,107,109,-1,111,113,115,-1,117,119,-1,-1,-1,-1,-1,-1,-1,-1,-1,-1,-1,-1,-1,-1,-1,-1,-1,-1,-1,-1,-1,-1,-1,-1,-1,-1,-1,-1,-1,-1,-1,-1,-1,-1,-1,-1,-1,-1,-1,-1,-1,-1,-1],"loss_changes":[9.1164044E2,1.7153198E2,2.2784607E1,1.3081522E2,2.0514526E1,1.0780151E1,5.4810534E0,7.467738E1,3.1131592E0,7.076996E0,0E0,6.732727E0,6.776371E0,5.0043316E0,2.1732154E0,3.5838295E1,1.678424E1,3.027298E0,6.368913E0,6.6736145E0,3.1070223E0,2.7988281E0,1.3979446E1,5.184841E-1,4.680207E0,0E0,0E0,0E0,0E0,2.1366613E1,6.40522E0,1.3646698E1,1.2297657E1,4.5558167E-1,6.096962E0,2.156306E0,0E0,1.0347748E0,0E0,3.7267885E0,2.92194E0,2.8779297E0,2.0308385E0,1.1759262E0,0E0,1.1721606E0,0E0,4.2104526E0,0E0,2.0168135E1,6.9280643E0,2.8294907E0,0E0,8.470108E0,7.613384E0,8.203765E0,9.4498825E-1,3.5704803E-1,9.803848E-1,7.237091E-1,1.8444014E0,2.0343256E0,0E0,0E0,0E0,2.5194168E0,0E0,1.5763774E0,0E0,2.1270142E0,4.7673044E0,0E0,5.6410813E-1,5.810394E-1,3.225545E0,0E0,1.2113204E0,1.1451936E-1,0E0,0E0,0E0,0E0,0E0,0E0,0E0,0E0,0E0,0E0,0E0,0E0,0E0,0E0,0E0,0E0,0E0,0E0,0E0,0E0,0E0,0E0,0E0,0E0,0E0,0E0,0E0,0E0,0E0,0E0,0E0,0E0,0E0,0E0,0E0,0E0,0E0,0E0,0E0,0E0,0E0,0E0,0E0],"parents":[2147483647,0,0,1,1,2,2,3,3,4,4,5,5,6,6,7,7,8,8,9,9,11,11,12,12,13,13,14,14,15,15,16,16,17,17,18,18,19,19,20,20,21,21,22,22,23,23,24,24,29,29,30,30,31,31,32,32,33,33,34,34,35,35,37,37,39,39,40,40,41,41,42,42,43,43,45,45,47,47,49,49,50,50,51,51,53,53,54,54,55,55,56,56,57,57,58,58,59,59,60,60,61,61,65,65,67,67,69,69,70,70,72,72,73,73,74,74,76,76,77,77],"right_children":[2,4,6,8,10,12,14,16,18,20,-1,22,24,26,28,30,32,34,36,38,40,42,44,46,48,-1,-1,-1,-1,50,52,54,56,58,60,62,-1,64,-1,66,68,70,72,74,-1,76,-1,78,-1,80,82,84,-1,86,88,90,92,94,96,98,100,102,-1,-1,-1,104,-1,106,-1,108,110,-1,112,114,116,-1,118,120,-1,-1,-1,-1,-1,-1,-1,-1,-1,-1,-1,-1,-1,-1,-1,-1,-1,-1,-1,-1,-1,-1,-1,-1,-1,-1,-1,-1,-1,-1,-1,-1,-1,-1,-1,-1,-1,-1,-1,-1,-1,-1,-1],"split_conditions":[5E-1,5E-1,5E-1,5E-1,5E-1,5E-1,5E-1,5E-1,5E-1,5E-1,-6.306075E-2,5E-1,5E-1,5E-1,5E-1,5E-1,5E-1,5E-1,5E-1,5E-1,5E-1,5E-1,5E-1,5E-1,5E-1,9.374219E-2,-1.5581741E-2,-1.8197304E-2,8.37941E-2,5E-1,5E-1,5E-1,5E-1,5E-1,5E-1,5E-1,-6.791779E-2,5E-1,-4.7217187E-2,5E-1,5E-1,5E-1,5E-1,5E-1,-6.1278906E-2,5E-1,1.0975244E-1,5E-1,8.9523695E-2,5E-1,5E-1,5E-1,8.0245696E-2,5E-1,5E-1,5E-1,5E-1,5E-1,5E-1,5E-1,5E-1,5E-1,-5.0060667E-2,1.2958954E-1,3.802613E-2,5E-1,1.2114555E-1,5E-1,7.69869E-2,5E-1,5E-1,-4.2567305E-2,5E-1,5E-1,5E-1,9.439653E-2,5E-1,5E-1,7.0922494E-2,7.460844E-3,-2.8176403E-2,-6.96651E-2,1.2507035E-2,-4.6972726E-2,5.7878733E-2,-4.0392216E-2,6.795298E-2,1.2792497E-2,-3.8104024E-2,-2.0113194E-2,3.2385644E-3,-7.0374645E-2,-1.19837485E-2,-7.1408E-2,-3.7917636E-2,-7.111769E-2,-4.9813934E-2,-5.6092497E-2,-1.601113E-2,-4.6179805E-2,5.1469382E-2,-2.9628974E-4,8.436505E-2,-5.5146392E-2,7.945033E-2,4.1289415E-2,-5.9904274E-2,1.1991993E-1,6.702565E-2,8.931954E-2,-5.1731896E-2,2.9934883E-2,9.926776E-2,1.0267822E-1,6.33974E-2,-5.159048E-2,9.519824E-2,-2.4842944E-2,5.7596274E-2,-6.336912E-2,-2.9374892E-2],"split_indices":[0,20,82,41,123,98,93,71,102,80,0,80,105,97,90,51,45,142,87,76,142,74,90,143,88,0,0,0,0,77,99,48,74,105,95,81,0,96,0,83,72,78,83,95,0,83,0,79,0,85,85,86,0,46,142,105,96,97,83,82,87,89,0,0,0,89,0,94,0,108,100,0,102,92,83,0,72,78,0,0,0,0,0,0,0,0,0,0,0,0,0,0,0,0,0,0,0,0,0,0,0,0,0,0,0,0,0,0,0,0,0,0,0,0,0,0,0,0,0,0,0],"split_type":[0,0,0,0,0,0,0,0,0,0,0,0,0,0,0,0,0,0,0,0,0,0,0,0,0,0,0,0,0,0,0,0,0,0,0,0,0,0,0,0,0,0,0,0,0,0,0,0,0,0,0,0,0,0,0,0,0,0,0,0,0,0,0,0,0,0,0,0,0,0,0,0,0,0,0,0,0,0,0,0,0,0,0,0,0,0,0,0,0,0,0,0,0,0,0,0,0,0,0,0,0,0,0,0,0,0,0,0,0,0,0,0,0,0,0,0,0,0,0,0,0],"sum_hessian":[5.710287E3,4.9857207E3,7.245667E2,4.865135E3,1.2058584E2,6.84799E2,3.9767723E1,4.230577E3,6.3455756E2,1.1413E2,6.455836E0,6.446601E2,4.0138878E1,2.032393E1,1.9443794E1,2.494434E3,1.7361432E3,6.0704205E2,2.7515509E1,9.407153E1,2.005847E1,5.6318774E2,8.147234E1,2.2840311E1,1.7298567E1,1.5000425E1,5.323506E0,1.8091658E1,1.3521365E0,2.31289E3,1.8154405E2,1.0424703E3,6.9367285E2,3.6776288E2,2.3927919E2,1.2544853E1,1.4970656E1,9.231566E1,1.7558703E0,1.1606389E1,8.452081E0,5.555214E2,7.6663265E0,7.592418E1,5.548161E0,1.0733655E1,1.2106655E1,1.3099341E1,4.1992245E0,2.249381E3,6.350887E1,1.7828477E2,3.25928E0,9.1404333E2,1.2842697E2,6.5023706E2,4.3435776E1,2.509135E2,1.1684936E2,2.3086084E2,8.418336E0,1.0380572E1,2.16428E0,9.004132E1,2.2743368E0,3.7140446E0,7.8923445E0,5.7105155E0,2.7415648E0,5.4075854E2,1.47629E1,1.3269546E0,6.3393717E0,7.173735E1,4.1868286E0,5.177455E0,5.5562005E0,1.0270122E1,2.8292203E0,2.0784275E3,1.709535E2,5.1073566E1,1.2435303E1,1.7647937E2,1.8054069E0,9.076347E2,6.408637E0,8.466892E1,4.3758057E1,4.149276E2,2.3530946E2,3.9972702E1,3.4630728E0,2.4405363E2,6.8598733E0,5.3039856E1,6.38095E1,2.2528177E2,5.579077E0,1.7250204E0,6.6933155E0,5.343025E0,5.0375476E0,2.3212779E0,1.3927667E0,1.3508626E0,4.359653E0,5.2880536E2,1.1953178E1,1.2540423E1,2.2224765E0,3.5385456E0,2.800826E0,6.0992725E1,1.0744629E1,1.863204E0,2.3236246E0,2.3127723E0,3.2434282E0,5.33023E0,4.9398913E0],"tree_param":{"num_deleted":"0","num_feature":"144","num_nodes":"121","size_leaf_vector":"0"}},{"base_weights":[-1.2635966E-3,-8.477416E-2,8.583748E-1,-5.7931556E-3,-6.391839E-1,8.9145505E-1,3.987051E-1,1.00211434E-1,-6.219705E-1,-7.0372355E-1,-4.0201673E-1,8.9928615E-1,-5.18141E-1,5.953839E-1,-6.2077755E-1,5.782793E-2,7.9297364E-1,-6.674642E-1,8.9998946E-2,-7.2074616E-1,-3.3864024E-1,-4.4265458E-1,8.635336E-1,8.163768E-1,1.0807003E0,6.7786E-1,-4.7440758E-1,1.569005E-1,-1.7027123E-1,6.3732195E-1,1.0958291E0,-6.830723E-1,-1.7818503E-1,-3.568585E-1,5.0269026E-1,-6.862892E-1,7.2695804E-1,-5.1249444E-1,1.7890128E-1,6.928893E-1,9.700548E-1,1.1212009E0,-5.660273E-1,7.447105E-1,-4.1240767E-1,1.2880167E-1,1.1017046E0,-3.3805653E-1,1.0224374E-1,6.7593133E-1,-6.068537E-1,1.1412321E0,-4.8206985E-1,-6.953523E-1,6.712691E-3,-6.758474E-1,9.83768E-1,-6.7373335E-1,2.89096E-1,6.141488E-1,-4.7840387E-1,-5.4553485E-1,3.604829E-1,5.750871E-1,-6.033951E-1,5.664087E-1,1.0060135E0,9.9860245E-1,-5.3869534E-1,1.1447976E0,-4.7173113E-1,5.7585025E-1,1.1445312E0,1.0018314E-1,9.4422036E-1,1.1706585E0,-5.3953755E-1,-5.288579E-1,2.107434E-2,2.224606E-1,-1.0872174E-1,7.161717E-1,-6.001301E-1,1.2271571E0,8.5370684E-1,-7.092458E-1,-3.4442183E-1,-6.346199E-1,9.4761765E-1,-3.5949942E-1,-7.1446776E-1,-4.2781416E-1,7.526977E-1,-4.885225E-1,8.618149E-1,7.5934786E-1,3.025233E-1,6.840949E-1,1.2208877E0,8.723642E-1,1.1178247E0,1.1925317E0,8.663993E-1,-5.7381797E-1,8.0672216E-1],"categories":[],"categories_nodes":[],"categories_segments":[],"categories_sizes":[],"default_left":[1,1,1,1,1,1,1,1,1,1,1,1,0,1,0,1,1,1,1,0,1,1,0,1,1,1,0,1,1,1,1,1,1,1,1,0,0,1,1,1,1,1,0,1,0,1,1,1,1,1,0,1,0,1,1,0,0,0,0,0,0,1,1,1,0,1,1,1,0,1,0,1,0,0,0,0,0,0,0,0,0,0,0,0,0,0,0,0,0,0,0,0,0,0,0,0,0,0,0,0,0,0,0,0,0],"id":4,"left_children":[1,3,5,7,9,11,13,15,17,19,21,23,-1,25,-1,27,29,31,33,-1,35,37,-1,39,41,43,-1,45,47,49,51,53,55,57,59,-1,-1,61,63,65,67,69,-1,71,-1,73,75,77,79,81,-1,83,-1,85,87,-1,-1,-1,-1,-1,-1,89,91,93,-1,95,97,99,-1,101,-1,103,-1,-1,-1,-1,-1,-1,-1,-1,-1,-1,-1,-1,-1,-1,-1,-1,-1,-1,-1,-1,-1,-1,-1,-1,-1,-1,-1,-1,-1,-1,-1,-1,-1],"loss_changes":[4.0824826E2,2.2695926E2,7.3013306E0,2.9646875E2,9.610077E0,5.642212E0,7.510468E0,1.136629E2,2.1639435E1,2.9050903E0,7.6126766E0,6.1372375E0,0E0,3.0007048E0,0E0,8.2522E1,9.822983E0,4.661438E0,7.7211094E0,0E0,9.560469E0,6.0334244E0,0E0,5.4840546E0,1.0191666E1,2.3918324E0,0E0,6.7438156E1,5.0600994E1,7.6068573E0,5.878769E0,5.1430664E0,1.2643876E1,4.333505E0,2.6640792E0,0E0,0E0,3.7533302E0,4.8619995E0,6.6922455E0,6.6553802E0,5.809616E0,0E0,1.1844997E0,0E0,5.762031E1,8.936935E0,4.69293E1,1.0731739E1,7.9154434E0,0E0,7.4588776E-1,0E0,2.6617126E0,7.6017885E0,0E0,0E0,0E0,0E0,0E0,0E0,3.4896393E0,1.8985126E0,3.5262487E0,0E0,6.536598E0,2.7249832E0,1.128067E0,0E0,8.065033E-1,0E0,6.09287E0,0E0,0E0,0E0,0E0,0E0,0E0,0E0,0E0,0E0,0E0,0E0,0E0,0E0,0E0,0E0,0E0,0E0,0E0,0E0,0E0,0E0,0E0,0E0,0E0,0E0,0E0,0E0,0E0,0E0,0E0,0E0,0E0,0E0],"parents":[2147483647,0,0,1,1,2,2,3,3,4,4,5,5,6,6,7,7,8,8,9,9,10,10,11,11,13,13,15,15,16,16,17,17,18,18,20,20,21,21,23,23,24,24,25,25,27,27,28,28,29,29,30,30,31,31,32,32,33,33,34,34,37,37,38,38,39,39,40,40,41,41,43,43,45,45,46,46,47,47,48,48,49,49,51,51,53,53,54,54,61,61,62,62,63,63,65,65,66,66,67,67,69,69,71,71],"right_children":[2,4,6,8,10,12,14,16,18,20,22,24,-1,26,-1,28,30,32,34,-1,36,38,-1,40,42,44,-1,46,48,50,52,54,56,58,60,-1,-1,62,64,66,68,70,-1,72,-1,74,76,78,80,82,-1,84,-1,86,88,-1,-1,-1,-1,-1,-1,90,92,94,-1,96,98,100,-1,102,-1,104,-1,-1,-1,-1,-1,-1,-1,-1,-1,-1,-1,-1,-1,-1,-1,-1,-1,-1,-1,-1,-1,-1,-1,-1,-1,-1,-1,-1,-1,-1,-1,-1,-1],"split_conditions":[5E-1,5E-1,5E-1,5E-1,5E-1,5E-1,5E-1,5E-1,5E-1,5E-1,5E-1,5E-1,-5.1814098E-2,5E-1,-6.2077757E-2,5E-1,5E-1,5E-1,5E-1,-7.2074614E-2,5E-1,5E-1,8.635336E-2,5E-1,5E-1,5E-1,-4.744076E-2,5E-1,5E-1,5E-1,5E-1,5E-1,5E-1,5E-1,5E-1,-6.862892E-2,7.269581E-2,5E-1,5E-1,5E-1,5E-1,5E-1,-5.6602728E-2,5E-1,-4.1240767E-2,5E-1,5E-1,5E-1,5E-1,5E-1,-6.0685374E-2,5E-1,-4.8206985E-2,5E-1,5E-1,-6.7584746E-2,9.83768E-2,-6.7373335E-2,2.89096E-2,6.141488E-2,-4.7840387E-2,5E-1,5E-1,5E-1,-6.033951E-2,5E-1,5E-1,5E-1,-5.3869534E-2,5E-1,-4.7173113E-2,5E-1,1.1445313E-1,1.0018314E-2,9.4422035E-2,1.1706585E-1,-5.3953756E-2,-5.288579E-2,2.107434E-3,2.224606E-2,-1.0872174E-2,7.161717E-2,-6.0013007E-2,1.2271571E-1,8.537068E-2,-7.092458E-2,-3.4442183E-2,-6.346199E-2,9.476177E-2,-3.594994E-2,-7.144678E-2,-4.2781416E-2,7.526977E-2,-4.885225E-2,8.618149E-2,7.593479E-2,3.0252328E-2,6.8409495E-2,1.2208877E-1,8.723643E-2,1.1178247E-1,1.1925317E-1,8.663993E-2,-5.7381798E-2,8.067222E-2],"split_indices":[51,41,88,0,89,118,81,48,82,86,111,81,0,142,0,45,142,90,93,0,131,77,0,143,92,105,0,56,81,96,90,108,80,97,83,0,0,107,83,89,91,127,0,99,0,58,86,79,70,135,0,94,0,78,83,0,0,0,0,0,0,83,93,94,0,94,80,70,0,143,0,98,0,0,0,0,0,0,0,0,0,0,0,0,0,0,0,0,0,0,0,0,0,0,0,0,0,0,0,0,0,0,0,0,0],"split_type":[0,0,0,0,0,0,0,0,0,0,0,0,0,0,0,0,0,0,0,0,0,0,0,0,0,0,0,0,0,0,0,0,0,0,0,0,0,0,0,0,0,0,0,0,0,0,0,0,0,0,0,0,0,0,0,0,0,0,0,0,0,0,0,0,0,0,0,0,0,0,0,0,0,0,0,0,0,0,0,0,0,0,0,0,0,0,0,0,0,0,0,0,0,0,0,0,0,0,0,0,0,0,0,0,0],"sum_hessian":[5.684776E3,5.182242E3,5.0253357E2,4.5369243E3,6.453181E2,4.6792014E2,3.461342E1,3.8716917E3,6.652324E2,5.0572836E2,1.3958977E2,4.6569498E2,2.2251627E0,2.9364422E1,5.248996E0,3.6494973E3,2.221944E2,6.2533685E2,3.9895554E1,4.8226767E2,2.3460697E1,1.3587688E2,3.712891E0,3.233971E2,1.422979E2,2.7602737E1,1.7616857E0,2.5445918E3,1.1049055E3,1.4881548E2,7.3378914E1,6.056213E2,1.9715582E1,1.9219831E1,2.0675722E1,1.7957926E1,5.5027723E0,1.2230931E2,1.3567568E1,1.8236606E2,1.4103102E2,1.3919362E2,3.104283E0,2.6306673E1,1.2960644E0,2.4722039E3,7.238792E1,6.8371014E2,4.211954E2,1.4477939E2,4.0360856E0,7.1595535E1,1.7833735E0,5.950203E2,1.0600976E1,1.409645E1,5.619132E0,1.2865579E1,6.3542523E0,1.8902315E1,1.7734064E0,1.1821038E2,4.0989347E0,9.182208E0,4.3853593E0,1.3189749E2,5.0468563E1,1.3874393E2,2.287097E0,1.3743901E2,1.754602E0,2.0211021E1,6.0956507E0,2.3894644E3,8.273956E1,6.9744446E1,2.6434684E0,4.4618533E2,2.3752483E2,2.682697E2,1.5292567E2,1.4077872E2,4.0006685E0,5.260646E1,1.8989079E1,5.713782E2,2.364216E1,6.497631E0,4.103345E0,5.7746155E1,6.0464222E1,1.3316796E0,2.767255E0,1.8002913E0,7.381917E0,7.510622E1,5.679128E1,2.1876892E1,2.859167E1,7.1428825E1,6.7315094E1,1.1451991E2,2.2919102E1,3.131536E0,1.7079485E1],"tree_param":{"num_deleted":"0","num_feature":"144","num_nodes":"105","size_leaf_vector":"0"}},{"base_weights":[-7.630576E-3,-1.6386421E-1,1.1268234E0,-2.6072872E-1,1.6642538E-1,1.1882603E0,8.928178E-1,-2.1311921E-1,-6.1123276E-1,3.9636132E-1,-2.1786588E-1,1.202807E0,8.666413E-1,9.7396314E-1,-5.3729996E-2,-1.3725045E-1,-5.1826036E-1,-6.279125E-1,-4.3233675E-1,5.719143E-1,7.073681E-2,-2.4082127E-1,6.685375E-1,1.2158185E0,8.5015464E-1,1.0959512E0,-2.4381718E-1,1.1288189E0,5.4224473E-1,9.6794516E-1,-3.7795743E-1,-9.38339E-2,-6.7591184E-1,-5.465481E-1,-7.788176E-2,-6.387941E-1,-3.4465492E-1,-4.950543E-1,8.649396E-1,7.1017957E-1,-1.6405666E-1,4.10391E-2,1.125724E0,-2.5629926E-1,8.537896E-1,9.391083E-1,-4.752673E-1,1.2246888E0,9.279035E-1,1.2242376E0,-1.8568575E-2,1.2383269E0,5.579858E-1,1.2119493E0,4.0156636E-1,6.7164564E-1,-5.6909317E-1,-2.4630211E-1,-5.4664576E-1,-1.0596582E-1,1.2915198E0,-6.799718E-1,-2.681669E-1,-5.564382E-1,1.9199978E-1,-2.0199913E-1,1.096034E0,-6.408459E-1,-2.0026598E-2,9.041337E-1,-4.976669E-1,-6.053066E-1,-3.581152E-1,9.737364E-1,5.3198975E-1,1.2264324E0,-3.9650416E-1,2.0465137E-2,1.0816293E0,-2.6402342E-1,9.80156E-1,1.0905111E0,7.7083427E-3,1.2369324E0,-4.4513035E-1,1.0467542E0,1.8656339E-1,-3.174687E-1,2.2538303E-1,1.0273747E0,-2.2631721E-1,1.2474526E0,2.8889456E-1,2.6588337E-2,1.0473998E0,7.841239E-1,-3.336005E-1,-1.297242E-1,5.543645E-1,5.5057816E-3,-4.2621416E-1,-5.9092253E-1,-3.096895E-1,5.599796E-1,-5.2944493E-1,-3.135906E-1,3.6137596E-1,-6.4740974E-1,-4.6682447E-1,-4.271915E-2,-5.9610575E-1,-6.4055395E-1,-2.0830527E-1,1.0017972E0,-5.337814E-1,1.0328608E0,1.355961E-2,5.9025556E-1,5.731414E-2,-4.1220927E-1,-6.373296E-2,1.8096367E-3,1.0608287E0,-2.9967514E-1,3.431861E-2,1.1995735E0,5.594899E-1,7.6789075E-1,-4.7253188E-1,-4.2310625E-2,3.5040116E-1,1.2919676E0,8.6514235E-1,8.3551395E-1,-2.0203842E-1,8.639217E-1,-3.4865564E-1,9.240767E-1,-5.1359072E-2],"categories":[],"categories_nodes":[],"categories_segments":[],"categories_sizes":[],"default_left":[1,1,1,1,1,1,1,1,1,1,1,1,1,1,1,1,1,1,1,1,1,1,1,1,1,1,0,1,1,0,1,1,1,1,1,1,1,1,0,1,1,1,0,1,1,1,0,0,1,0,1,0,1,1,1,1,0,0,0,1,0,0,1,1,1,1,0,1,0,0,1,1,1,1,1,0,1,1,0,1,0,0,0,0,0,1,1,0,1,0,0,1,1,1,0,1,0,0,0,0,0,0,0,0,0,0,0,0,0,0,0,0,0,0,0,0,0,0,0,0,0,0,0,0,0,0,0,0,0,0,0,0,0,0,0,0,0,0,0],"id":5,"left_children":[1,3,5,7,9,11,13,15,17,19,21,23,25,27,29,31,33,35,37,39,41,43,45,47,49,51,-1,53,55,-1,57,59,61,63,65,67,69,71,-1,73,75,77,-1,79,81,83,-1,-1,85,-1,87,-1,89,91,93,95,-1,-1,-1,97,-1,-1,99,101,103,105,-1,107,-1,-1,109,111,113,115,117,-1,119,121,-1,123,-1,-1,-1,-1,-1,125,127,-1,129,-1,-1,131,133,135,-1,137,-1,-1,-1,-1,-1,-1,-1,-1,-1,-1,-1,-1,-1,-1,-1,-1,-1,-1,-1,-1,-1,-1,-1,-1,-1,-1,-1,-1,-1,-1,-1,-1,-1,-1,-1,-1,-1,-1,-1,-1,-1,-1,-1],"loss_changes":[1.0063368E3,1.5970613E2,8.819824E0,6.426959E1,1.00138336E2,1.4902954E0,1.1338623E1,7.862331E1,1.104065E0,4.047609E1,8.798985E0,1.3310547E0,7.1432266E0,8.439392E0,4.523111E0,6.363562E1,8.384979E0,1.0727234E0,3.8881402E0,4.6962585E1,7.768018E0,7.242073E0,3.8447762E0,1.2695312E-1,7.0624866E0,1.0372219E0,0E0,5.4818497E0,5.7991734E0,0E0,9.290886E-2,4.2519394E1,1.5370941E-1,4.74881E0,6.3408117E0,4.9848938E-1,3.8300183E0,4.052658E-1,0E0,1.7691513E1,2.4281796E1,5.193541E0,0E0,4.1700096E0,1.195467E0,4.350178E0,0E0,0E0,1.4709663E0,0E0,6.1882704E-1,0E0,2.6409006E0,2.526825E0,2.7868817E0,4.128296E0,0E0,0E0,0E0,3.9304638E1,0E0,0E0,1.6033158E-1,5.1552887E0,2.7232902E0,2.5543294E0,0E0,1.5628052E-1,0E0,0E0,7.091541E-1,1.6568041E-1,5.5096054E0,8.796738E0,6.4252625E0,0E0,3.0732918E-1,4.6544914E0,0E0,4.347515E0,0E0,0E0,0E0,0E0,0E0,5.2633286E-1,1.8302497E0,0E0,1.7270051E-1,0E0,0E0,3.2095337E-1,1.3937033E0,2.9340544E0,0E0,3.6786747E0,0E0,0E0,0E0,0E0,0E0,0E0,0E0,0E0,0E0,0E0,0E0,0E0,0E0,0E0,0E0,0E0,0E0,0E0,0E0,0E0,0E0,0E0,0E0,0E0,0E0,0E0,0E0,0E0,0E0,0E0,0E0,0E0,0E0,0E0,0E0,0E0,0E0,0E0,0E0,0E0,0E0,0E0,0E0],"parents":[2147483647,0,0,1,1,2,2,3,3,4,4,5,5,6,6,7,7,8,8,9,9,10,10,11,11,12,12,13,13,14,14,15,15,16,16,17,17,18,18,19,19,20,20,21,21,22,22,23,23,24,24,25,25,27,27,28,28,30,30,31,31,32,32,33,33,34,34,35,35,36,36,37,37,39,39,40,40,41,41,43,43,44,44,45,45,48,48,50,50,52,52,53,53,54,54,55,55,59,59,62,62,63,63,64,64,65,65,67,67,70,70,71,71,72,72,73,73,74,74,76,76,77,77,79,79,85,85,86,86,88,88,91,91,92,92,93,93,95,95],"right_children":[2,4,6,8,10,12,14,16,18,20,22,24,26,28,30,32,34,36,38,40,42,44,46,48,50,52,-1,54,56,-1,58,60,62,64,66,68,70,72,-1,74,76,78,-1,80,82,84,-1,-1,86,-1,88,-1,90,92,94,96,-1,-1,-1,98,-1,-1,100,102,104,106,-1,108,-1,-1,110,112,114,116,118,-1,120,122,-1,124,-1,-1,-1,-1,-1,126,128,-1,130,-1,-1,132,134,136,-1,138,-1,-1,-1,-1,-1,-1,-1,-1,-1,-1,-1,-1,-1,-1,-1,-1,-1,-1,-1,-1,-1,-1,-1,-1,-1,-1,-1,-1,-1,-1,-1,-1,-1,-1,-1,-1,-1,-1,-1,-1,-1,-1,-1],"split_conditions":[5E-1,5E-1,5E-1,5E-1,5E-1,5E-1,5E-1,5E-1,5E-1,5E-1,5E-1,5E-1,5E-1,5E-1,5E-1,5E-1,5E-1,5E-1,5E-1,5E-1,5E-1,5E-1,5E-1,5E-1,5E-1,5E-1,-2.4381718E-2,5E-1,5E-1,9.6794516E-2,5E-1,5E-1,5E-1,5E-1,5E-1,5E-1,5E-1,5E-1,8.649396E-2,5E-1,5E-1,5E-1,1.12572394E-1,5E-1,5E-1,5E-1,-4.752673E-2,1.2246888E-1,5E-1,1.2242376E-1,5E-1,1.23832695E-1,5E-1,5E-1,5E-1,5E-1,-5.690932E-2,-2.4630211E-2,-5.466458E-2,5E-1,1.2915199E-1,-6.799718E-2,5E-1,5E-1,5E-1,5E-1,1.09603405E-1,5E-1,-2.00266E-3,9.041337E-2,5E-1,5E-1,5E-1,5E-1,5E-1,1.2264325E-1,5E-1,5E-1,1.0816293E-1,5E-1,9.80156E-2,1.0905111E-1,7.708343E-4,1.2369324E-1,-4.4513036E-2,5E-1,5E-1,-3.174687E-2,5E-1,1.0273748E-1,-2.2631722E-2,5E-1,5E-1,5E-1,1.0473998E-1,5E-1,-3.336005E-2,-1.2972421E-2,5.543645E-2,5.505782E-4,-4.2621415E-2,-5.9092253E-2,-3.096895E-2,5.5997964E-2,-5.2944493E-2,-3.1359058E-2,3.6137596E-2,-6.474098E-2,-4.6682447E-2,-4.271915E-3,-5.9610575E-2,-6.40554E-2,-2.0830527E-2,1.00179724E-1,-5.3378142E-2,1.0328608E-1,1.355961E-3,5.9025556E-2,5.731414E-3,-4.122093E-2,-6.373296E-3,1.8096367E-4,1.0608287E-1,-2.9967515E-2,3.431861E-3,1.1995735E-1,5.594899E-2,7.678907E-2,-4.7253188E-2,-4.2310627E-3,3.5040118E-2,1.2919676E-1,8.6514235E-2,8.35514E-2,-2.0203842E-2,8.639217E-2,-3.4865566E-2,9.2407666E-2,-5.1359073E-3],"split_indices":[41,45,89,51,81,86,77,0,92,79,98,95,131,100,94,48,98,102,86,91,92,102,91,97,142,100,0,143,111,0,83,29,86,74,76,127,83,70,0,80,80,131,0,107,91,118,0,0,70,0,83,0,142,107,70,122,0,0,0,67,0,0,143,80,102,80,0,74,0,0,87,81,83,125,98,0,143,135,0,118,0,0,0,0,0,143,142,0,80,0,0,79,93,81,0,102,0,0,0,0,0,0,0,0,0,0,0,0,0,0,0,0,0,0,0,0,0,0,0,0,0,0,0,0,0,0,0,0,0,0,0,0,0,0,0,0,0,0,0],"split_type":[0,0,0,0,0,0,0,0,0,0,0,0,0,0,0,0,0,0,0,0,0,0,0,0,0,0,0,0,0,0,0,0,0,0,0,0,0,0,0,0,0,0,0,0,0,0,0,0,0,0,0,0,0,0,0,0,0,0,0,0,0,0,0,0,0,0,0,0,0,0,0,0,0,0,0,0,0,0,0,0,0,0,0,0,0,0,0,0,0,0,0,0,0,0,0,0,0,0,0,0,0,0,0,0,0,0,0,0,0,0,0,0,0,0,0,0,0,0,0,0,0,0,0,0,0,0,0,0,0,0,0,0,0,0,0,0,0,0,0],"sum_hessian":[5.675782E3,4.989499E3,6.862834E2,3.8582073E3,1.1312916E3,5.403417E2,1.4594171E2,3.3982285E3,4.599788E2,7.0777295E2,4.2351865E2,5.143387E2,2.600298E1,1.3439166E2,1.1550052E1,2.7227158E3,6.755125E2,4.1845343E2,4.1525356E1,4.593621E2,2.4841087E2,4.135375E2,9.981152E0,4.936762E2,2.0662476E1,2.156323E1,4.439749E0,9.772381E1,3.6667854E1,2.3041234E0,9.245928E0,2.5207183E3,2.0199774E2,6.3451337E2,4.0999126E1,4.0176416E2,1.6689281E1,4.020024E1,1.325114E0,3.8674097E2,7.262114E1,2.4262006E2,5.7908134E0,4.085267E2,5.0107837E0,8.216477E0,1.764674E0,4.757649E2,1.7911306E1,1.4157041E1,6.505434E0,1.6021244E1,5.5419874E0,8.710102E1,1.0622791E1,3.3198017E1,3.4698367E0,6.5747046E0,2.6712236E0,2.4997507E3,2.0967499E1,1.9934518E2,2.6525586E0,6.263721E2,8.141322E0,3.7827568E1,3.171558E0,4.0040076E2,1.3633937E0,1.2858738E0,1.5403408E1,2.0375378E1,1.9824863E1,1.5420093E2,2.3254004E2,9.78881E0,6.283233E1,2.3891602E2,3.7040458E0,4.0677206E2,1.7546488E0,3.6895921E0,1.3211915E0,6.849252E0,1.3672249E0,1.5081486E1,2.8298218E0,2.7880433E0,3.717391E0,3.273153E0,2.2688346E0,8.353653E1,3.5644917E0,7.3793993E0,3.2433915E0,3.0055084E1,3.1429327E0,2.41371E3,8.604063E1,1.3244027E0,1.3281558E0,5.483435E2,7.8028564E1,5.5396023E0,2.6017196E0,3.194365E1,5.883919E0,3.832257E2,1.7175064E1,2.9951072E0,1.2408301E1,1.815043E1,2.2249465E0,1.7299198E0,1.8094944E1,1.4518523E2,9.0156975E0,2.0689987E2,2.5640173E1,5.9772644E1,3.0596828E0,2.3569139E2,3.224611E0,3.6334772E2,4.3424328E1,1.0367961E1,4.7135243E0,1.4159099E0,1.4139119E0,1.3940216E0,2.3233695E0,7.2693016E1,1.0843513E1,1.3544815E0,2.21001E0,1.8806202E0,5.4987793E0,2.565204E1,4.4030447E0],"tree_param":{"num_deleted":"0","num_feature":"144","num_nodes":"139","size_leaf_vector":"0"}},{"base_weights":[2.260126E-3,-1.4302172E-1,9.453434E-1,-1.6908158E-1,9.147801E-1,9.7990656E-1,2.6639998E-1,-1.0895431E-1,-5.6442404E-1,1.0068738E0,-6.168589E-1,1.0012598E0,3.183669E-1,5.490623E-1,-5.71821E-2,-7.3332563E-3,-2.556061E-1,-5.78739E-1,-2.1857025E-1,1.0411574E0,-4.9909455E-1,1.0459195E0,6.985002E-1,4.5219594E-1,-5.443478E-1,7.873623E-1,-4.5533743E-2,-1.7112239E-1,7.799791E-1,-5.5986017E-2,2.1842529E-1,-3.3212617E-1,-1.4077453E-1,-6.388488E-1,-4.8197615E-1,-5.2736306E-1,6.3873446E-1,1.1408275E0,4.7321334E-1,1.0594878E0,5.621478E-1,7.703569E-1,-5.740699E-1,7.343013E-1,7.545409E-2,-1.229386E-1,1.883544E-1,3.6342317E-1,-4.5222113E-1,-3.7574556E-1,-2.4272311E-2,-1.0548273E-1,-6.635282E-1,-6.8022764E-1,-5.4156494E-1,-5.1102257E-1,2.6106185E-1,-6.68002E-1,4.2665675E-1,7.876858E-1,-2.1793526E-2,1.1593904E0,4.1743398E-1,-5.4214346E-1,6.5572745E-1,1.0674889E0,3.3506787E-1,8.704043E-1,-1.5130489E-2,8.1806755E-1,1.4008853E-1,4.9505362E-1,9.864719E-1,8.765448E-1,-2.8404567E-1,-1.5094554E-1,3.1485885E-1,2.3090056E-1,-6.7659605E-1,4.096462E-1,-5.882307E-1,-4.976161E-1,9.415095E-1,-4.225708E-1,-1.5968454E-1,1.6533294E-1,-3.5755163E-1,-1.4206475E-1,3.4215772E-1,-6.8406993E-1,-2.918483E-1,-6.91381E-1,-1.7800452E-1,-6.8709004E-1,-4.152167E-1,-5.2384347E-1,4.293413E-3,-4.4205216E-1,4.6547347E-1,1.1762226E0,3.63502E-1,1.0033196E0,2.0342176E-1,1.0762525E0,6.2912464E-1,-5.9102878E-2,8.6383754E-1,-5.940985E-1,6.7151606E-1,8.486065E-1,7.412723E-2,4.9985975E-1,-4.9954268E-1,-4.8404953E-1,3.663495E-1],"categories":[],"categories_nodes":[],"categories_segments":[],"categories_sizes":[],"default_left":[1,1,1,1,1,1,1,1,1,1,0,1,1,1,1,1,1,1,1,1,0,1,1,1,0,0,0,0,0,1,1,1,1,1,1,1,1,1,1,1,1,1,0,1,1,1,1,1,1,1,1,1,1,1,1,1,1,0,0,0,0,1,0,0,1,1,1,0,1,1,1,0,0,0,1,0,0,0,0,0,0,0,0,0,0,0,0,0,0,0,0,0,0,0,0,0,0,0,0,0,0,0,0,0,0,0,0,0,0,0,0,0,0,0,0],"id":6,"left_children":[1,3,5,7,9,11,13,15,17,19,-1,21,23,25,27,29,31,33,35,37,-1,39,41,43,-1,-1,-1,-1,-1,45,47,49,51,53,55,57,59,61,63,65,67,69,-1,71,73,75,77,79,81,83,85,87,89,91,93,95,97,-1,-1,-1,-1,99,-1,-1,101,103,105,-1,107,109,111,-1,-1,-1,113,-1,-1,-1,-1,-1,-1,-1,-1,-1,-1,-1,-1,-1,-1,-1,-1,-1,-1,-1,-1,-1,-1,-1,-1,-1,-1,-1,-1,-1,-1,-1,-1,-1,-1,-1,-1,-1,-1,-1,-1],"loss_changes":[7.740472E2,1.3510042E2,1.7435608E1,1.13527115E2,1.7245384E1,9.812622E0,3.4982727E0,6.1828903E1,2.995407E0,6.2790756E0,0E0,8.657532E0,3.0047212E0,2.9158263E0,1.9056087E0,2.6941576E1,1.4874908E1,3.2104645E0,7.396945E0,5.652603E0,0E0,3.362976E0,8.8791275E0,2.200976E0,0E0,0E0,0E0,0E0,0E0,3.3033524E1,4.2454445E1,1.3665657E1,1.24904E1,1.1212463E0,5.223835E0,2.9892044E0,7.564876E-1,7.561722E-1,3.6987133E0,3.0358276E0,3.3200097E0,2.5243874E0,0E0,2.3715162E-1,3.1879208E0,1.947509E1,1.6141945E1,1.599482E1,5.388077E0,8.955948E0,8.1129055E0,1.0511832E1,1.2764359E-1,1.3093185E0,1.8353195E0,1.5041313E0,1.5761821E0,0E0,0E0,0E0,0E0,7.711563E-1,0E0,0E0,2.2711997E0,1.5457153E0,1.6878886E0,0E0,3.3613403E0,1.7859192E0,1.9485595E0,0E0,0E0,0E0,1.191858E0,0E0,0E0,0E0,0E0,0E0,0E0,0E0,0E0,0E0,0E0,0E0,0E0,0E0,0E0,0E0,0E0,0E0,0E0,0E0,0E0,0E0,0E0,0E0,0E0,0E0,0E0,0E0,0E0,0E0,0E0,0E0,0E0,0E0,0E0,0E0,0E0,0E0,0E0,0E0,0E0],"parents":[2147483647,0,0,1,1,2,2,3,3,4,4,5,5,6,6,7,7,8,8,9,9,11,11,12,12,13,13,14,14,15,15,16,16,17,17,18,18,19,19,21,21,22,22,23,23,29,29,30,30,31,31,32,32,33,33,34,34,35,35,36,36,37,37,38,38,39,39,40,40,41,41,43,43,44,44,45,45,46,46,47,47,48,48,49,49,50,50,51,51,52,52,53,53,54,54,55,55,56,56,61,61,64,64,65,65,66,66,68,68,69,69,70,70,74,74],"right_children":[2,4,6,8,10,12,14,16,18,20,-1,22,24,26,28,30,32,34,36,38,-1,40,42,44,-1,-1,-1,-1,-1,46,48,50,52,54,56,58,60,62,64,66,68,70,-1,72,74,76,78,80,82,84,86,88,90,92,94,96,98,-1,-1,-1,-1,100,-1,-1,102,104,106,-1,108,110,112,-1,-1,-1,114,-1,-1,-1,-1,-1,-1,-1,-1,-1,-1,-1,-1,-1,-1,-1,-1,-1,-1,-1,-1,-1,-1,-1,-1,-1,-1,-1,-1,-1,-1,-1,-1,-1,-1,-1,-1,-1,-1,-1,-1],"split_conditions":[5E-1,5E-1,5E-1,5E-1,5E-1,5E-1,5E-1,5E-1,5E-1,5E-1,-6.168589E-2,5E-1,5E-1,5E-1,5E-1,5E-1,5E-1,5E-1,5E-1,5E-1,-4.9909454E-2,5E-1,5E-1,5E-1,-5.4434784E-2,7.873623E-2,-4.5533744E-3,-1.7112238E-2,7.7997915E-2,5E-1,5E-1,5E-1,5E-1,5E-1,5E-1,5E-1,5E-1,5E-1,5E-1,5E-1,5E-1,5E-1,-5.740699E-2,5E-1,5E-1,5E-1,5E-1,5E-1,5E-1,5E-1,5E-1,5E-1,5E-1,5E-1,5E-1,5E-1,5E-1,-6.68002E-2,4.2665675E-2,7.876858E-2,-2.1793526E-3,5E-1,4.1743398E-2,-5.4214347E-2,5E-1,5E-1,5E-1,8.704043E-2,5E-1,5E-1,5E-1,4.9505364E-2,9.864719E-2,8.765448E-2,5E-1,-1.5094555E-2,3.1485885E-2,2.3090055E-2,-6.765961E-2,4.0964622E-2,-5.8823075E-2,-4.9761612E-2,9.415095E-2,-4.225708E-2,-1.5968455E-2,1.6533295E-2,-3.5755165E-2,-1.4206476E-2,3.4215774E-2,-6.840699E-2,-2.9184831E-2,-6.91381E-2,-1.7800452E-2,-6.870901E-2,-4.1521672E-2,-5.2384347E-2,4.293413E-4,-4.4205215E-2,4.654735E-2,1.1762226E-1,3.63502E-2,1.0033196E-1,2.0342177E-2,1.07625246E-1,6.2912464E-2,-5.910288E-3,8.638375E-2,-5.9409853E-2,6.7151606E-2,8.486065E-2,7.412723E-3,4.9985975E-2,-4.995427E-2,-4.8404954E-2,3.6634948E-2],"split_indices":[0,20,82,41,123,78,93,71,102,76,0,80,100,97,83,72,45,142,89,80,0,76,90,85,0,0,0,0,0,45,105,48,74,105,95,85,70,88,83,74,105,98,0,88,98,118,76,85,18,142,142,101,96,97,83,86,87,0,0,0,0,96,0,0,142,108,102,0,95,95,105,0,0,0,143,0,0,0,0,0,0,0,0,0,0,0,0,0,0,0,0,0,0,0,0,0,0,0,0,0,0,0,0,0,0,0,0,0,0,0,0,0,0,0,0],"split_type":[0,0,0,0,0,0,0,0,0,0,0,0,0,0,0,0,0,0,0,0,0,0,0,0,0,0,0,0,0,0,0,0,0,0,0,0,0,0,0,0,0,0,0,0,0,0,0,0,0,0,0,0,0,0,0,0,0,0,0,0,0,0,0,0,0,0,0,0,0,0,0,0,0,0,0,0,0,0,0,0,0,0,0,0,0,0,0,0,0,0,0,0,0,0,0,0,0,0,0,0,0,0,0,0,0,0,0,0,0,0,0,0,0,0,0],"sum_hessian":[5.6474624E3,4.8943384E3,7.531238E2,4.777481E3,1.1685724E2,7.1621967E2,3.6904076E1,4.147906E3,6.295755E2,1.105526E2,6.304647E0,6.933269E2,2.289276E1,1.932557E1,1.7578508E1,2.4507385E3,1.6971672E3,6.039064E2,2.5669106E1,1.08393654E2,2.1589403E0,6.020627E2,9.126427E1,2.023036E1,2.662399E0,1.3564887E1,5.760681E0,1.6172916E1,1.4055928E0,2.0168445E3,4.33894E2,1.0173475E3,6.798197E2,3.690485E2,2.3485788E2,1.9154648E1,6.514458E0,9.135313E1,1.7040527E1,5.844797E2,1.7582994E1,8.675994E1,4.5043225E0,1.1025414E1,9.204946E0,1.5834536E3,4.333909E2,3.5713693E2,7.6757095E1,8.90897E2,1.2645051E2,6.3795245E2,4.186725E1,2.5471538E2,1.1433311E2,2.2632285E2,8.535027E0,1.6954992E1,2.1996553E0,5.1586547E0,1.3558035E0,8.847994E1,2.873186E0,2.2961628E0,1.4744365E1,5.7762634E2,6.8533254E0,1.1131301E1,6.451693E0,8.037748E1,6.38246E0,7.178222E0,3.8471923E0,2.4057846E0,6.799161E0,1.4888628E3,9.459085E1,4.137709E2,1.9619978E1,3.41137E2,1.5999915E1,7.495859E1,1.7985035E0,7.3142505E2,1.5947194E2,8.0918976E1,4.553153E1,5.903875E2,4.7564938E1,3.887809E1,2.989161E0,2.488131E2,5.902287E0,5.1071728E1,6.326138E1,2.2081255E2,5.51031E0,1.6605792E0,6.874448E0,8.617947E1,2.3004746E0,7.6484094E0,7.0959554E0,5.6487854E2,1.2747828E1,4.435278E0,2.4180474E0,3.5734267E0,2.8782663E0,7.707292E1,3.3045604E0,4.224717E0,2.1577435E0,5.395687E0,1.4034739E0],"tree_param":{"num_deleted":"0","num_feature":"144","num_nodes":"115","size_leaf_vector":"0"}},{"base_weights":[-3.922599E-3,-8.022774E-2,7.655224E-1,-6.151193E-3,-6.2115455E-1,7.7616096E-1,-5.9086263E-1,9.175652E-2,-5.98384E-1,-6.817339E-1,-4.0357837E-1,7.8286505E-1,-5.182633E-1,1.8713117E-1,-1.5002492E-1,-6.409415E-1,1.4812765E-1,-6.968721E-1,-3.7952593E-1,-4.645796E-1,2.748815E-1,8.0982083E-1,4.014579E-1,1.4212897E-1,6.968495E-1,-2.4422366E-2,-5.189989E-1,-6.621642E-1,-1.1013425E-1,-3.308397E-1,5.473973E-1,-6.647963E-1,6.0883224E-1,-5.0314575E-1,7.393065E-1,7.543143E-1,-5.813931E-1,8.416278E-1,4.7859514E-1,5.576888E-1,-5.9192306E-1,1.1630695E-1,9.978606E-1,5.496494E-1,9.668551E-1,7.7126003E-3,-6.936609E-1,-6.6773486E-1,6.123137E-2,-6.696851E-1,-9.530922E-2,-6.597672E-1,9.6968126E-1,-6.4524287E-1,3.2935673E-1,6.382709E-1,-4.1779998E-1,-5.3600466E-1,2.6547346E-1,8.480251E-1,-4.660528E-1,9.0576485E-2,6.881094E-1,6.583004E-1,-5.178459E-1,1.4758371E-1,-5.512705E-1,1.0390375E0,-4.6855354E-1,5.853336E-1,-5.9859186E-1,1.0067776E0,-4.8305982E-1,-1.22125454E-1,1.1568997E-1,-7.194613E-1,-5.6715673E-1,-3.3611223E-2,1.1968493E0,-6.874825E-1,-5.136142E-1,-5.975517E-1,7.298231E-1,-6.032644E-1,-1.1489118E-1,-4.8021528E-1,8.201094E-1,8.146724E-1,1.1799417E0,-7.097803E-1,1.0937415E0,8.7815654E-1,4.1446653E-1,7.24527E-1,-4.1869223E-1],"categories":[],"categories_nodes":[],"categories_segments":[],"categories_sizes":[],"default_left":[1,1,1,1,1,1,0,1,1,1,1,1,0,1,1,1,1,0,1,1,1,1,1,1,1,1,1,1,1,1,1,0,0,1,0,0,0,1,1,1,0,1,1,1,1,1,0,1,1,1,1,0,0,0,0,0,0,1,1,1,0,1,1,1,0,0,0,0,0,0,0,0,0,0,0,0,0,0,0,0,0,0,0,0,0,0,0,0,0,0,0,0,0,0,0],"id":7,"left_children":[1,3,5,7,9,11,-1,13,15,17,19,21,-1,23,25,27,29,-1,31,33,35,37,39,41,43,45,47,49,51,53,55,-1,-1,57,-1,-1,-1,59,61,63,-1,65,67,69,71,73,-1,75,77,79,81,-1,-1,-1,-1,-1,-1,83,85,87,-1,89,91,93,-1,-1,-1,-1,-1,-1,-1,-1,-1,-1,-1,-1,-1,-1,-1,-1,-1,-1,-1,-1,-1,-1,-1,-1,-1,-1,-1,-1,-1,-1,-1],"loss_changes":[3.3370618E2,2.0719328E2,7.8582153E0,2.638285E2,7.933975E0,4.8249207E0,0E0,9.0066765E1,2.0601974E1,1.9576263E0,5.842985E0,4.8875427E0,0E0,6.4139885E1,5.1201195E1,6.8085785E0,6.9941273E0,0E0,7.55672E0,6.2719173E0,5.373166E0,4.575775E0,5.8319297E0,5.6773163E1,8.488121E0,1.775815E1,2.4256653E1,2.4395142E0,1.5289889E1,3.703772E0,2.0038934E0,0E0,0E0,3.2670746E0,0E0,0E0,0E0,3.9910889E0,3.4920444E0,3.711442E0,0E0,5.2286243E1,5.032463E0,6.463089E0,5.044777E0,1.1070672E1,0E0,7.5434875E-1,6.3052063E0,1.2560425E0,4.1055565E0,0E0,0E0,0E0,0E0,0E0,0E0,3.3007698E0,2.768312E0,3.7779846E0,0E0,1.4009387E1,1.1046486E0,2.3663454E0,0E0,0E0,0E0,0E0,0E0,0E0,0E0,0E0,0E0,0E0,0E0,0E0,0E0,0E0,0E0,0E0,0E0,0E0,0E0,0E0,0E0,0E0,0E0,0E0,0E0,0E0,0E0,0E0,0E0,0E0,0E0],"parents":[2147483647,0,0,1,1,2,2,3,3,4,4,5,5,7,7,8,8,9,9,10,10,11,11,13,13,14,14,15,15,16,16,18,18,19,19,20,20,21,21,22,22,23,23,24,24,25,25,26,26,27,27,28,28,29,29,30,30,33,33,37,37,38,38,39,39,41,41,42,42,43,43,44,44,45,45,47,47,48,48,49,49,50,50,57,57,58,58,59,59,61,61,62,62,63,63],"right_children":[2,4,6,8,10,12,-1,14,16,18,20,22,-1,24,26,28,30,-1,32,34,36,38,40,42,44,46,48,50,52,54,56,-1,-1,58,-1,-1,-1,60,62,64,-1,66,68,70,72,74,-1,76,78,80,82,-1,-1,-1,-1,-1,-1,84,86,88,-1,90,92,94,-1,-1,-1,-1,-1,-1,-1,-1,-1,-1,-1,-1,-1,-1,-1,-1,-1,-1,-1,-1,-1,-1,-1,-1,-1,-1,-1,-1,-1,-1,-1],"split_conditions":[5E-1,5E-1,5E-1,5E-1,5E-1,5E-1,-5.9086263E-2,5E-1,5E-1,5E-1,5E-1,5E-1,-5.1826328E-2,5E-1,5E-1,5E-1,5E-1,-6.968721E-2,5E-1,5E-1,5E-1,5E-1,5E-1,5E-1,5E-1,5E-1,5E-1,5E-1,5E-1,5E-1,5E-1,-6.647963E-2,6.0883224E-2,5E-1,7.393065E-2,7.543143E-2,-5.8139313E-2,5E-1,5E-1,5E-1,-5.9192307E-2,5E-1,5E-1,5E-1,5E-1,5E-1,-6.936609E-2,5E-1,5E-1,5E-1,5E-1,-6.5976724E-2,9.696813E-2,-6.4524285E-2,3.2935675E-2,6.382709E-2,-4.178E-2,5E-1,5E-1,5E-1,-4.660528E-2,5E-1,5E-1,5E-1,-5.1784594E-2,1.4758371E-2,-5.512705E-2,1.0390375E-1,-4.6855357E-2,5.853336E-2,-5.9859186E-2,1.00677766E-1,-4.8305985E-2,-1.2212546E-2,1.1568997E-2,-7.194614E-2,-5.6715675E-2,-3.3611224E-3,1.19684935E-1,-6.874825E-2,-5.136142E-2,-5.9755173E-2,7.298231E-2,-6.032644E-2,-1.1489118E-2,-4.802153E-2,8.201095E-2,8.146724E-2,1.1799417E-1,-7.097803E-2,1.0937416E-1,8.781566E-2,4.1446652E-2,7.24527E-2,-4.1869223E-2],"split_indices":[51,41,131,0,89,118,0,45,82,131,77,88,0,48,80,90,93,0,86,111,83,92,81,56,142,76,91,108,80,97,83,0,0,122,0,0,0,127,80,96,0,20,86,96,90,81,0,142,129,118,83,0,0,0,0,0,0,143,79,93,0,70,70,142,0,0,0,0,0,0,0,0,0,0,0,0,0,0,0,0,0,0,0,0,0,0,0,0,0,0,0,0,0,0,0],"split_type":[0,0,0,0,0,0,0,0,0,0,0,0,0,0,0,0,0,0,0,0,0,0,0,0,0,0,0,0,0,0,0,0,0,0,0,0,0,0,0,0,0,0,0,0,0,0,0,0,0,0,0,0,0,0,0,0,0,0,0,0,0,0,0,0,0,0,0,0,0,0,0,0,0,0,0,0,0,0,0,0,0,0,0,0,0,0,0,0,0,0,0,0,0,0,0],"sum_hessian":[5.6816763E3,5.16988E3,5.1179642E2,4.5480625E3,6.218174E2,5.082379E2,3.5584779E0,3.9035706E3,6.444918E2,4.847234E2,1.3709401E2,5.0601236E2,2.225561E0,2.7994915E3,1.1040791E3,6.098657E2,3.4626064E1,4.6035724E2,2.4366154E1,1.2607379E2,1.1020215E1,4.7156177E2,3.445061E1,2.5735554E3,2.2593614E2,8.2448285E2,2.7959625E2,5.861816E2,2.3684196E1,1.5819838E1,1.8806227E1,1.9162611E1,5.203542E0,1.2272441E2,3.3493762E0,7.141003E0,3.8792121E0,4.288401E2,4.2721653E1,3.0147804E1,4.3028064E0,2.4992747E3,7.428061E1,1.4818512E2,7.7751015E1,7.876506E2,3.6832306E1,2.224283E2,5.7167973E1,5.78327E2,7.854496E0,1.59530115E1,7.7311845E0,1.0731745E1,5.0880933E0,1.7497541E1,1.3086843E0,1.179832E2,4.74121E0,4.2710217E2,1.7379246E0,1.5481801E1,2.7239851E1,2.7923605E1,2.2242002E0,2.3881653E3,1.1110933E2,7.253526E1,1.7453457E0,1.441942E2,3.9909208E0,7.5965E1,1.7860208E0,3.575642E2,4.3008633E2,1.4282259E2,7.9605705E1,5.365713E1,3.5108414E0,5.160724E2,6.2254646E1,5.0540204E0,2.8004756E0,1.0136135E2,1.6621851E1,2.0795317E0,2.6616783E0,3.9124255E2,3.5859623E1,8.774048E0,6.707753E0,1.4771671E1,1.246818E1,2.6614302E1,1.3093023E0],"tree_param":{"num_deleted":"0","num_feature":"144","num_nodes":"95","size_leaf_vector":"0"}},{"base_weights":[6.5111317E-4,-1.4852256E-1,1.002782E0,-2.4101715E-1,1.5637052E-1,1.0514066E0,8.030891E-1,-1.932736E-1,-5.9243387E-1,3.6390513E-1,-2.0741327E-1,1.063432E0,7.872478E-1,8.744053E-1,-7.319666E-3,-1.1764228E-1,-5.056882E-1,-5.959319E-1,6.716539E-2,5.326536E-1,3.816318E-2,-2.2680901E-1,4.966386E-1,1.0373609E0,1.1589906E0,1.027877E0,-1.8352903E-1,1.0257013E0,4.5357323E-1,9.307788E-1,-3.6576018E-1,-7.4966416E-2,-6.567257E-1,-5.3057605E-1,-9.366618E-2,-6.108262E-1,-4.305331E-1,8.935986E-1,3.237669E-1,8.1773974E-2,-4.5590672E-1,-2.7516007E-1,1.4218752E-1,7.307461E-1,-4.9207103E-1,1.043044E0,6.9107467E-1,1.0627617E0,-8.927434E-2,5.524656E-1,-5.351798E-1,-2.566755E-1,-5.1920915E-1,-8.598537E-2,1.1881357E0,-6.605626E-1,-3.113332E-1,-5.4217964E-1,3.3238643E-1,-2.0472431E-1,9.5418274E-1,-6.2152123E-1,-3.5594013E-1,-3.1400952E-1,-6.037039E-1,9.8841E-1,3.046912E-1,4.9818984E-1,-3.9236194E-1,1.524833E-1,-2.5972834E-1,-6.263992E-1,1.9972485E-1,-2.8625852E-1,1.0641254E0,3.4853593E-1,-1.866068E-1,1.1398046E0,-2.675667E-1,1.0829495E0,9.7241944E-1,8.601313E-1,2.6700118E-1,1.1167442E0,5.3833246E-1,6.8135107E-1,-1.4573641E-1,-1.0655269E-1,5.084178E-1,-6.6498953E-1,-3.6436412E-1,-9.020341E-2,-4.345238E-1,-5.5334413E-1,-5.995849E-2,6.6329986E-1,-4.8497137E-1,-3.5870266E-1,4.7575986E-1,-6.368611E-1,-5.438063E-1,8.7626E-1,-4.9770677E-1,-4.7842926E-1,-7.7071816E-2,-8.464036E-2,-6.623377E-1,1.0472863E0,2.127344E-2,1.573878E-1,1.0100574E0,3.852774E-1,7.283308E-1,-4.8087233E-1,-2.6423687E-1,2.256378E-1,-2.123866E-1,-7.173405E-2,-4.2808723E-1,9.5707387E-1,-5.1647615E-1,-2.950138E-1,9.2907083E-1,8.4769523E-1,-3.4213386E-2,-3.682929E-1,4.0271232E-1,1.1230106E0,9.718311E-1,1.0010388E0,2.7815676E-1,3.4991875E-1,1.08502574E-1,1.1568376E0,7.7664876E-1,8.001778E-2,1.004425E0,8.331808E-1,-2.1909773E-1,2.1666086E-1,-3.4180796E-1],"categories":[],"categories_nodes":[],"categories_segments":[],"categories_sizes":[],"default_left":[1,1,1,1,1,1,1,1,1,1,1,1,1,1,1,1,1,1,0,1,1,1,1,1,0,0,0,1,1,0,1,1,1,1,1,1,1,1,1,1,1,1,1,1,0,1,1,1,0,1,0,0,0,1,0,1,1,1,1,1,0,1,1,1,1,1,1,1,1,1,1,0,1,1,0,1,1,0,0,1,1,0,1,1,1,1,1,0,0,0,0,0,0,0,0,0,0,0,0,0,0,0,0,0,0,0,0,0,0,0,0,0,0,0,0,0,0,0,0,0,0,0,0,0,0,0,0,0,0,0,0,0,0,0,0,0,0,0,0,0,0],"id":8,"left_children":[1,3,5,7,9,11,13,15,17,19,21,23,25,27,29,31,33,35,-1,37,39,41,43,45,-1,-1,-1,47,49,-1,51,53,55,57,59,61,63,65,67,69,71,73,75,77,-1,79,81,83,-1,85,-1,-1,-1,87,-1,89,91,93,95,97,-1,99,101,103,105,107,109,111,113,115,117,-1,119,121,-1,123,125,-1,-1,127,129,-1,131,133,135,137,139,-1,-1,-1,-1,-1,-1,-1,-1,-1,-1,-1,-1,-1,-1,-1,-1,-1,-1,-1,-1,-1,-1,-1,-1,-1,-1,-1,-1,-1,-1,-1,-1,-1,-1,-1,-1,-1,-1,-1,-1,-1,-1,-1,-1,-1,-1,-1,-1,-1,-1,-1,-1,-1,-1],"loss_changes":[8.497594E2,1.3957098E2,6.307129E0,6.3584E1,8.70673E1,1.0340576E0,8.586433E0,7.895249E1,1.0866547E0,4.0329163E1,5.837015E0,1.9421387E-1,7.079479E0,8.222961E0,4.7114463E0,6.191722E1,6.630417E0,8.489075E-1,0E0,3.616281E1,5.457945E0,7.329895E0,3.0335054E0,1.6467285E-1,0E0,0E0,0E0,4.20961E0,3.9993734E0,0E0,3.6185503E-2,3.4856285E1,5.6030273E-2,6.3296814E0,4.655048E0,9.0097046E-1,6.311569E-1,9.562729E0,3.864388E1,5.6422653E0,2.4229999E0,5.68005E0,3.3217945E0,4.283691E0,0E0,1.8896484E-1,5.0363064E-1,2.1293793E0,0E0,3.2422132E0,0E0,0E0,0E0,3.032871E1,0E0,1.260376E-2,7.14277E-2,3.2312622E0,2.6931944E0,3.88758E0,0E0,1.23046875E-1,3.7407908E0,9.914892E-1,4.088602E-1,8.61673E0,2.5366054E0,6.1629143E0,5.6296635E-1,5.195439E0,1.2406821E0,0E0,3.2067914E0,4.0989113E0,0E0,5.7302856E0,2.199867E0,0E0,0E0,1.2298584E-1,3.0776672E0,0E0,1.9405127E-2,2.813034E-1,2.2549996E0,4.23746E0,5.193146E-1,0E0,0E0,0E0,0E0,0E0,0E0,0E0,0E0,0E0,0E0,0E0,0E0,0E0,0E0,0E0,0E0,0E0,0E0,0E0,0E0,0E0,0E0,0E0,0E0,0E0,0E0,0E0,0E0,0E0,0E0,0E0,0E0,0E0,0E0,0E0,0E0,0E0,0E0,0E0,0E0,0E0,0E0,0E0,0E0,0E0,0E0,0E0,0E0,0E0,0E0,0E0,0E0,0E0,0E0],"parents":[2147483647,0,0,1,1,2,2,3,3,4,4,5,5,6,6,7,7,8,8,9,9,10,10,11,11,12,12,13,13,14,14,15,15,16,16,17,17,19,19,20,20,21,21,22,22,23,23,27,27,28,28,30,30,31,31,32,32,33,33,34,34,35,35,36,36,37,37,38,38,39,39,40,40,41,41,42,42,43,43,45,45,46,46,47,47,49,49,53,53,55,55,56,56,57,57,58,58,59,59,61,61,62,62,63,63,64,64,65,65,66,66,67,67,68,68,69,69,70,70,72,72,73,73,75,75,76,76,79,79,80,80,82,82,83,83,84,84,85,85,86,86],"right_children":[2,4,6,8,10,12,14,16,18,20,22,24,26,28,30,32,34,36,-1,38,40,42,44,46,-1,-1,-1,48,50,-1,52,54,56,58,60,62,64,66,68,70,72,74,76,78,-1,80,82,84,-1,86,-1,-1,-1,88,-1,90,92,94,96,98,-1,100,102,104,106,108,110,112,114,116,118,-1,120,122,-1,124,126,-1,-1,128,130,-1,132,134,136,138,140,-1,-1,-1,-1,-1,-1,-1,-1,-1,-1,-1,-1,-1,-1,-1,-1,-1,-1,-1,-1,-1,-1,-1,-1,-1,-1,-1,-1,-1,-1,-1,-1,-1,-1,-1,-1,-1,-1,-1,-1,-1,-1,-1,-1,-1,-1,-1,-1,-1,-1,-1,-1,-1,-1],"split_conditions":[5E-1,5E-1,5E-1,5E-1,5E-1,5E-1,5E-1,5E-1,5E-1,5E-1,5E-1,5E-1,5E-1,5E-1,5E-1,5E-1,5E-1,5E-1,6.716539E-3,5E-1,5E-1,5E-1,5E-1,5E-1,1.1589906E-1,1.02787696E-1,-1.8352903E-2,5E-1,5E-1,9.307788E-2,5E-1,5E-1,5E-1,5E-1,5E-1,5E-1,5E-1,5E-1,5E-1,5E-1,5E-1,5E-1,5E-1,5E-1,-4.9207103E-2,5E-1,5E-1,5E-1,-8.927434E-3,5E-1,-5.351798E-2,-2.5667552E-2,-5.1920917E-2,5E-1,1.18813574E-1,5E-1,5E-1,5E-1,5E-1,5E-1,9.5418274E-2,5E-1,5E-1,5E-1,5E-1,5E-1,5E-1,5E-1,5E-1,5E-1,5E-1,-6.263992E-2,5E-1,5E-1,1.06412545E-1,5E-1,5E-1,1.13980465E-1,-2.6756672E-2,5E-1,5E-1,8.601313E-2,5E-1,5E-1,5E-1,5E-1,5E-1,-1.0655269E-2,5.084178E-2,-6.649896E-2,-3.6436412E-2,-9.020342E-3,-4.345238E-2,-5.5334415E-2,-5.995849E-3,6.6329986E-2,-4.8497137E-2,-3.5870265E-2,4.7575988E-2,-6.368611E-2,-5.4380633E-2,8.7626E-2,-4.977068E-2,-4.7842927E-2,-7.707182E-3,-8.4640365E-3,-6.623378E-2,1.0472863E-1,2.127344E-3,1.573878E-2,1.0100575E-1,3.852774E-2,7.283308E-2,-4.8087236E-2,-2.6423687E-2,2.256378E-2,-2.123866E-2,-7.173405E-3,-4.2808723E-2,9.570739E-2,-5.1647615E-2,-2.9501379E-2,9.2907086E-2,8.4769525E-2,-3.4213387E-3,-3.682929E-2,4.0271234E-2,1.1230107E-1,9.718311E-2,1.0010388E-1,2.7815675E-2,3.4991875E-2,1.0850257E-2,1.1568376E-1,7.7664874E-2,8.001778E-3,1.0044251E-1,8.331808E-2,-2.1909773E-2,2.1666085E-2,-3.4180798E-2],"split_indices":[41,45,89,51,81,86,77,0,127,79,98,100,131,100,94,48,98,92,0,80,118,118,118,82,0,0,0,107,111,0,83,29,86,74,76,102,143,97,91,99,99,99,83,142,0,80,142,143,0,102,0,0,0,74,0,76,70,78,102,80,0,100,83,70,83,125,142,94,99,101,83,0,91,107,0,95,95,0,0,105,95,0,94,79,70,122,79,0,0,0,0,0,0,0,0,0,0,0,0,0,0,0,0,0,0,0,0,0,0,0,0,0,0,0,0,0,0,0,0,0,0,0,0,0,0,0,0,0,0,0,0,0,0,0,0,0,0,0,0,0,0],"split_type":[0,0,0,0,0,0,0,0,0,0,0,0,0,0,0,0,0,0,0,0,0,0,0,0,0,0,0,0,0,0,0,0,0,0,0,0,0,0,0,0,0,0,0,0,0,0,0,0,0,0,0,0,0,0,0,0,0,0,0,0,0,0,0,0,0,0,0,0,0,0,0,0,0,0,0,0,0,0,0,0,0,0,0,0,0,0,0,0,0,0,0,0,0,0,0,0,0,0,0,0,0,0,0,0,0,0,0,0,0,0,0,0,0,0,0,0,0,0,0,0,0,0,0,0,0,0,0,0,0,0,0,0,0,0,0,0,0,0,0,0,0],"sum_hessian":[5.6823345E3,4.94682E3,7.355143E2,3.7955757E3,1.1512443E3,5.880588E2,1.474555E2,3.3429517E3,4.526241E2,7.330481E2,4.1819614E2,5.5956E2,2.8498781E1,1.3545633E2,1.1999173E1,2.6925085E3,6.5044305E2,4.5033243E2,2.2916822E0,4.8247165E2,2.5057648E2,4.0764392E2,1.0552219E1,4.489338E2,1.1062623E2,2.2790754E1,5.708027E0,9.8578476E1,3.6877857E1,2.87585E0,9.123323E0,2.4960508E3,1.9645769E2,6.131203E2,3.7322777E1,4.1065915E2,3.9673267E1,1.7566098E2,3.0681064E2,2.3101926E2,1.9557228E1,3.6064188E2,4.7002037E1,8.742963E0,1.8092566E0,4.3970557E2,9.228236E0,9.5452576E1,3.125896E0,3.3925926E1,2.9519305E0,6.8946934E0,2.2286298E0,2.4753882E3,2.0662682E1,1.9339679E2,3.0608928E0,6.053523E2,7.7679667E0,3.4473648E1,2.8491266E0,3.9274124E2,1.79179E1,2.539722E1,1.4276047E1,1.5071774E2,2.4943235E1,2.4696362E2,5.9847027E1,1.9184958E2,3.916967E1,1.5556462E1,4.000765E0,3.5845767E2,2.1842172E0,2.884139E1,1.8160645E1,6.101247E0,2.641716E0,2.7179626E2,1.679093E2,5.862782E0,3.3654542E0,8.5520065E1,9.932514E0,2.8659609E1,5.2663183E0,2.3933936E3,8.19946E1,1.8932213E2,4.0746603E0,1.7148774E0,1.3460155E0,5.915101E2,1.384223E1,5.6635275E0,2.1044388E0,2.8498049E1,5.9756002E0,3.2199E2,7.0751274E1,1.3141999E0,1.66037E1,1.4391331E1,1.1005891E1,1.6969657E0,1.2579082E1,1.419909E2,8.726847E0,2.164598E1,3.297255E0,1.6747208E2,7.9491554E1,3.3767124E1,2.60799E1,1.6012663E2,3.1722958E1,1.917944E1,1.999023E1,1.7810588E0,2.2197063E0,3.5664563E2,1.8120289E0,1.1989991E1,1.68514E1,1.4167792E1,3.9928527E0,1.9307954E2,7.871672E1,1.608373E2,7.0720086E0,1.4166396E0,1.9488146E0,7.435314E1,1.1166927E1,5.5988107E0,4.333703E0,2.4588335E1,4.071273E0,1.8120723E0,3.454246E0],"tree_param":{"num_deleted":"0","num_feature":"144","num_nodes":"141","size_leaf_vector":"0"}},{"base_weights":[1.4369328E-3,-1.3104719E-1,8.5198385E-1,-1.5816839E-1,8.632384E-1,8.811276E-1,2.4486011E-1,-1.0138505E-1,-5.5170256E-1,9.299264E-1,-5.915499E-1,9.101362E-1,3.7008333E-1,4.958353E-1,7.548595E-3,4.3855435E-3,-2.564214E-1,-5.699174E-1,-1.2736242E-1,9.588017E-1,-4.954744E-1,9.239338E-1,5.1905113E-1,1.2202134E-1,9.2930704E-1,7.8860223E-1,-1.552701E-1,-8.951497E-2,7.3040825E-1,3.3639655E-2,-4.0568283E-1,-3.32669E-1,-1.4016214E-1,-6.250297E-1,-4.801825E-1,4.0976822E-1,-6.312132E-1,1.0418879E0,5.0748193E-1,9.316971E-1,2.7038783E-1,8.7567806E-1,-5.846234E-1,-1.878256E-1,8.099256E-1,4.7349572E-2,-4.8710075E-1,-4.3351948E-1,7.175838E-1,-3.701132E-1,-7.149338E-2,-1.0759141E-1,-6.2059134E-1,-6.382066E-1,-4.5279837E-1,-5.0723344E-1,2.891976E-1,5.72728E-1,-4.4718623E-1,1.05786E0,2.694762E-1,2.5524125E-1,1.0655951E0,9.3941903E-1,5.235105E-1,-4.2181615E-2,7.999781E-1,9.140243E-1,2.4152364E-1,-2.9366094E-1,7.4548E-1,5.9976123E-2,-4.6052942E-1,-6.1232644E-1,1.0100611E0,-4.5391765E-1,7.0274156E-1,-3.7877432E-1,8.619106E-1,-2.425328E-1,2.1453725E-1,-1.9162509E-1,4.8137646E-2,-6.638862E-1,-1.3300315E-1,-6.4612293E-1,-3.3945444E-1,-6.355264E-1,-2.433762E-1,-5.2986884E-1,-2.5668275E-1,-3.7698662E-1,4.5615193E-1,7.3762167E-1,-4.1490248E-1,1.0665426E0,2.8244475E-1,6.585997E-1,-2.6190796E-1,9.472368E-1,5.5426526E-1,7.519952E-1,-5.123641E-1,-5.604105E-1,5.45651E-1,9.5568955E-1,3.7989837E-1,-3.9429483E-1,3.080932E-1],"categories":[],"categories_nodes":[],"categories_segments":[],"categories_sizes":[],"default_left":[1,1,1,1,1,1,1,1,1,1,0,1,1,1,1,1,1,1,1,1,0,1,1,1,0,0,0,0,0,1,1,1,1,1,1,1,0,1,1,1,1,1,0,1,0,1,1,1,0,1,1,1,1,1,1,1,1,1,0,1,0,1,0,1,1,1,0,1,0,1,0,0,0,0,0,0,0,0,0,0,0,0,0,0,0,0,0,0,0,0,0,0,0,0,0,0,0,0,0,0,0,0,0,0,0,0,0,0,0],"id":9,"left_children":[1,3,5,7,9,11,13,15,17,19,-1,21,23,25,27,29,31,33,35,37,-1,39,41,43,-1,-1,-1,-1,-1,45,47,49,51,53,55,57,-1,59,61,63,65,67,-1,69,-1,71,73,75,-1,77,79,81,83,85,87,89,91,93,-1,95,-1,97,-1,99,101,103,-1,105,-1,107,-1,-1,-1,-1,-1,-1,-1,-1,-1,-1,-1,-1,-1,-1,-1,-1,-1,-1,-1,-1,-1,-1,-1,-1,-1,-1,-1,-1,-1,-1,-1,-1,-1,-1,-1,-1,-1,-1,-1],"loss_changes":[6.395284E2,1.3255536E2,1.3317993E1,1.067812E2,1.32150345E1,1.0477234E1,2.1653867E0,6.8535446E1,4.585388E0,5.6285706E0,0E0,3.241455E0,5.5558863E0,3.4935632E0,1.4500456E0,2.9828943E1,1.49783325E1,2.5561218E0,7.3198714E0,4.086014E0,0E0,3.1211548E0,1.0659718E1,6.431631E0,0E0,0E0,0E0,0E0,0E0,1.659212E1,5.4883537E0,9.9769745E0,1.0465287E1,5.1553345E-1,4.8100243E0,2.104373E0,0E0,9.8542786E-1,2.6960588E0,1.5778809E0,1.5588516E0,2.6281738E-1,0E0,2.3054683E0,0E0,1.4534553E1,1.1796824E1,4.0783195E0,0E0,9.870293E0,6.3875704E0,8.273869E0,8.0937576E-1,5.5366516E-1,9.411273E-1,1.0936279E0,1.0892448E0,2.188439E0,0E0,3.7574768E-1,0E0,3.4757085E0,0E0,1.411499E0,3.8052227E0,2.360122E0,0E0,4.6258926E-2,0E0,1.3138359E0,0E0,0E0,0E0,0E0,0E0,0E0,0E0,0E0,0E0,0E0,0E0,0E0,0E0,0E0,0E0,0E0,0E0,0E0,0E0,0E0,0E0,0E0,0E0,0E0,0E0,0E0,0E0,0E0,0E0,0E0,0E0,0E0,0E0,0E0,0E0,0E0,0E0,0E0,0E0],"parents":[2147483647,0,0,1,1,2,2,3,3,4,4,5,5,6,6,7,7,8,8,9,9,11,11,12,12,13,13,14,14,15,15,16,16,17,17,18,18,19,19,21,21,22,22,23,23,29,29,30,30,31,31,32,32,33,33,34,34,35,35,37,37,38,38,39,39,40,40,41,41,43,43,45,45,46,46,47,47,49,49,50,50,51,51,52,52,53,53,54,54,55,55,56,56,57,57,59,59,61,61,63,63,64,64,65,65,67,67,69,69],"right_children":[2,4,6,8,10,12,14,16,18,20,-1,22,24,26,28,30,32,34,36,38,-1,40,42,44,-1,-1,-1,-1,-1,46,48,50,52,54,56,58,-1,60,62,64,66,68,-1,70,-1,72,74,76,-1,78,80,82,84,86,88,90,92,94,-1,96,-1,98,-1,100,102,104,-1,106,-1,108,-1,-1,-1,-1,-1,-1,-1,-1,-1,-1,-1,-1,-1,-1,-1,-1,-1,-1,-1,-1,-1,-1,-1,-1,-1,-1,-1,-1,-1,-1,-1,-1,-1,-1,-1,-1,-1,-1,-1],"split_conditions":[5E-1,5E-1,5E-1,5E-1,5E-1,5E-1,5E-1,5E-1,5E-1,5E-1,-5.9154987E-2,5E-1,5E-1,5E-1,5E-1,5E-1,5E-1,5E-1,5E-1,5E-1,-4.954744E-2,5E-1,5E-1,5E-1,9.2930704E-2,7.886022E-2,-1.552701E-2,-8.951497E-3,7.304083E-2,5E-1,5E-1,5E-1,5E-1,5E-1,5E-1,5E-1,-6.312132E-2,5E-1,5E-1,5E-1,5E-1,5E-1,-5.846234E-2,5E-1,8.0992565E-2,5E-1,5E-1,5E-1,7.175838E-2,5E-1,5E-1,5E-1,5E-1,5E-1,5E-1,5E-1,5E-1,5E-1,-4.4718623E-2,5E-1,2.6947621E-2,5E-1,1.06559515E-1,5E-1,5E-1,5E-1,7.999781E-2,5E-1,2.4152365E-2,5E-1,7.4548E-2,5.9976126E-3,-4.6052944E-2,-6.1232645E-2,1.0100611E-1,-4.5391764E-2,7.027416E-2,-3.7877433E-2,8.619106E-2,-2.425328E-2,2.1453725E-2,-1.916251E-2,4.8137647E-3,-6.638862E-2,-1.3300315E-2,-6.461229E-2,-3.3945445E-2,-6.355264E-2,-2.433762E-2,-5.2986886E-2,-2.5668276E-2,-3.7698664E-2,4.5615193E-2,7.376217E-2,-4.149025E-2,1.06654264E-1,2.8244475E-2,6.5859966E-2,-2.6190797E-2,9.472368E-2,5.5426527E-2,7.519952E-2,-5.123641E-2,-5.604105E-2,5.45651E-2,9.5568955E-2,3.7989836E-2,-3.9429482E-2,3.0809319E-2],"split_indices":[0,20,82,41,123,98,93,71,102,76,0,90,79,97,83,51,45,142,87,80,0,74,80,88,0,0,0,0,0,77,99,48,74,76,95,86,0,88,89,78,102,72,0,109,0,75,142,86,0,46,79,105,96,77,105,79,87,81,0,135,0,142,0,76,100,72,0,142,0,143,0,0,0,0,0,0,0,0,0,0,0,0,0,0,0,0,0,0,0,0,0,0,0,0,0,0,0,0,0,0,0,0,0,0,0,0,0,0,0],"split_type":[0,0,0,0,0,0,0,0,0,0,0,0,0,0,0,0,0,0,0,0,0,0,0,0,0,0,0,0,0,0,0,0,0,0,0,0,0,0,0,0,0,0,0,0,0,0,0,0,0,0,0,0,0,0,0,0,0,0,0,0,0,0,0,0,0,0,0,0,0,0,0,0,0,0,0,0,0,0,0,0,0,0,0,0,0,0,0,0,0,0,0,0,0,0,0,0,0,0,0,0,0,0,0,0,0,0,0,0,0],"sum_hessian":[5.673426E3,4.909544E3,7.6388165E2,4.7800005E3,1.295435E2,7.28462E2,3.5419666E1,4.1783594E3,6.01641E2,1.2421043E2,5.3330665E0,6.8859406E2,3.986789E1,1.6684809E1,1.8734856E1,2.484398E3,1.6939615E3,5.7654956E2,2.5091433E1,1.22065025E2,2.145408E0,6.6381213E2,2.4781944E1,2.8461191E1,1.1406696E1,1.1363901E1,5.3209076E0,1.7289444E1,1.4454124E0,2.319821E3,1.6457712E2,1.0218976E3,6.7206396E2,3.53485E2,2.230646E2,1.2235011E1,1.28564205E1,1.01982E2,2.0083015E1,6.555989E2,8.213273E0,1.8885962E1,5.8959837E0,2.0123909E1,8.337283E0,2.2611978E3,5.8623158E1,1.6119643E2,3.3806956E0,8.933961E2,1.2850148E2,6.3054034E2,4.1523582E1,3.2584958E2,2.7635408E1,2.1581732E2,7.2472796E0,1.0558804E1,1.6762073E0,9.955385E1,2.4281552E0,1.4835433E1,5.2475824E0,6.4214935E2,1.3449497E1,5.743659E0,2.4696145E0,1.7392916E1,1.4930463E0,1.8689863E1,1.434046E0,2.2072056E3,5.3992176E1,5.4643658E1,3.9794993E0,1.5894359E2,2.2528422E0,8.878471E2,5.548992E0,8.051032E1,4.7991158E1,4.0939456E2,2.211458E2,3.7805145E1,3.7184384E0,3.163054E2,9.5441885E0,1.3671708E1,1.39637E1,1.9691289E2,1.8904432E1,1.2001994E0,6.0470805E0,9.265059E0,1.2937441E0,9.808017E1,1.4736843E0,8.181009E0,6.654423E0,6.2794415E2,1.4205199E1,1.1243539E1,2.2059584E0,3.0773444E0,2.6663146E0,1.5402187E1,1.9907284E0,1.6307455E1,2.3824072E0],"tree_param":{"num_deleted":"0","num_feature":"144","num_nodes":"109","size_leaf_vector":"0"}},{"base_weights":[3.5474352E-3,-6.861332E-2,6.951391E-1,1.178182E-3,-6.0394776E-1,7.231627E-1,2.912371E-1,9.167341E-2,-5.7264024E-1,-6.1396885E-1,4.0577352E-1,7.2977316E-1,-5.1845264E-1,4.5867825E-1,-6.0788125E-1,1.7844032E-1,-1.2659924E-1,-6.2181556E-1,1.3882199E-1,-6.5834254E-1,-4.537822E-1,-4.5168996E-1,8.84986E-1,7.361862E-1,-5.017941E-1,5.29388E-1,-4.68058E-1,2.4889846E-1,-1.7151824E-1,-2.880458E-1,1.23048455E-1,-6.3716257E-1,-1.5750624E-1,-3.1689867E-1,5.0258064E-1,-6.755946E-1,-2.595804E-1,-4.9096903E-1,6.332124E-1,7.0725554E-1,1.072907E0,5.901701E-1,-4.2929682E-1,2.778617E-1,-6.003821E-1,-3.0314147E-1,4.134151E-1,-4.7292823E-1,2.9287739E-2,8.4793955E-2,7.9719937E-1,-6.4803445E-1,-8.503905E-3,-6.320123E-1,8.153342E-1,-6.307429E-1,2.2623122E-1,5.738683E-1,-4.021144E-1,-6.329983E-1,5.0659484E-1,-3.0605948E-1,-6.7657787E-1,7.349551E-1,4.4103408E-1,4.9808186E-1,9.226255E-1,2.995616E-1,-6.495053E-1,-6.867212E-1,5.5021763E-2,-4.3065676E-1,1.6794857E-1,-6.7723054E-1,6.053333E-1,-5.573261E-1,-5.1400032E-2,-4.9354948E-2,8.1425434E-1,2.909888E-2,5.905877E-1,1.004069E0,-5.630935E-1,-6.584265E-1,-3.8453725E-1,-5.9636736E-1,8.184038E-1,-3.757265E-1,6.8097603E-1,7.0875436E-1,1.0292139E0,5.252049E-1,-5.5416757E-1,5.943711E-1,-4.695602E-1],"categories":[],"categories_nodes":[],"categories_segments":[],"categories_sizes":[],"default_left":[1,1,1,1,1,1,1,1,1,1,1,1,0,1,0,1,1,1,1,1,1,0,0,1,0,1,0,1,1,1,1,1,1,1,1,0,1,1,0,1,0,1,0,1,1,1,1,1,1,1,1,1,1,0,0,0,0,0,0,0,0,1,0,1,1,1,0,0,0,0,0,0,0,0,0,0,0,0,0,0,0,0,0,0,0,0,0,0,0,0,0,0,0,0,0],"id":10,"left_children":[1,3,5,7,9,11,13,15,17,19,21,23,-1,25,-1,27,29,31,33,35,37,-1,-1,39,-1,41,-1,43,45,47,49,51,53,55,57,-1,59,61,-1,63,-1,65,-1,67,69,71,73,75,77,79,81,83,85,-1,-1,-1,-1,-1,-1,-1,-1,87,-1,89,91,93,-1,-1,-1,-1,-1,-1,-1,-1,-1,-1,-1,-1,-1,-1,-1,-1,-1,-1,-1,-1,-1,-1,-1,-1,-1,-1,-1,-1,-1],"loss_changes":[2.8212296E2,1.9125725E2,5.834961E0,2.3526688E2,6.2230988E0,4.472229E0,5.7479897E0,7.413897E1,2.1679276E1,3.8594666E0,3.0311894E0,4.2913513E0,0E0,2.291956E0,0E0,6.910101E1,4.4924774E1,4.014496E0,6.9092474E0,2.9608307E0,5.570471E0,0E0,0E0,4.057373E0,0E0,1.9695883E0,0E0,5.7522903E1,3.6308422E1,3.9712597E1,1.1230595E1,3.8128052E0,9.657584E0,3.3281775E0,1.7160869E0,0E0,6.19417E0,4.1302643E0,0E0,3.0548248E0,0E0,4.0128708E-1,0E0,4.558426E1,4.407095E0,2.315263E1,1.8568111E1,1.5184105E1,1.547561E1,1.16929035E1,7.151826E0,1.2505035E0,5.5972586E0,0E0,0E0,0E0,0E0,0E0,0E0,0E0,0E0,4.734682E0,0E0,2.4587402E0,4.1177864E0,2.5331354E0,0E0,0E0,0E0,0E0,0E0,0E0,0E0,0E0,0E0,0E0,0E0,0E0,0E0,0E0,0E0,0E0,0E0,0E0,0E0,0E0,0E0,0E0,0E0,0E0,0E0,0E0,0E0,0E0,0E0],"parents":[2147483647,0,0,1,1,2,2,3,3,4,4,5,5,6,6,7,7,8,8,9,9,10,10,11,11,13,13,15,15,16,16,17,17,18,18,19,19,20,20,23,23,25,25,27,27,28,28,29,29,30,30,31,31,32,32,33,33,34,34,36,36,37,37,39,39,41,41,43,43,44,44,45,45,46,46,47,47,48,48,49,49,50,50,51,51,52,52,61,61,63,63,64,64,65,65],"right_children":[2,4,6,8,10,12,14,16,18,20,22,24,-1,26,-1,28,30,32,34,36,38,-1,-1,40,-1,42,-1,44,46,48,50,52,54,56,58,-1,60,62,-1,64,-1,66,-1,68,70,72,74,76,78,80,82,84,86,-1,-1,-1,-1,-1,-1,-1,-1,88,-1,90,92,94,-1,-1,-1,-1,-1,-1,-1,-1,-1,-1,-1,-1,-1,-1,-1,-1,-1,-1,-1,-1,-1,-1,-1,-1,-1,-1,-1,-1,-1],"split_conditions":[5E-1,5E-1,5E-1,5E-1,5E-1,5E-1,5E-1,5E-1,5E-1,5E-1,5E-1,5E-1,-5.1845264E-2,5E-1,-6.0788125E-2,5E-1,5E-1,5E-1,5E-1,5E-1,5E-1,-4.5168996E-2,8.84986E-2,5E-1,-5.017941E-2,5E-1,-4.68058E-2,5E-1,5E-1,5E-1,5E-1,5E-1,5E-1,5E-1,5E-1,-6.7559466E-2,5E-1,5E-1,6.332124E-2,5E-1,1.072907E-1,5E-1,-4.2929683E-2,5E-1,5E-1,5E-1,5E-1,5E-1,5E-1,5E-1,5E-1,5E-1,5E-1,-6.3201234E-2,8.1533425E-2,-6.307429E-2,2.2623122E-2,5.7386827E-2,-4.021144E-2,-6.329983E-2,5.0659485E-2,5E-1,-6.765779E-2,5E-1,5E-1,5E-1,9.226255E-2,2.995616E-2,-6.495053E-2,-6.867212E-2,5.5021765E-3,-4.306568E-2,1.6794859E-2,-6.772306E-2,6.0533334E-2,-5.5732608E-2,-5.1400033E-3,-4.935495E-3,8.1425436E-2,2.909888E-3,5.9058767E-2,1.004069E-1,-5.630935E-2,-6.584265E-2,-3.8453724E-2,-5.963674E-2,8.184038E-2,-3.757265E-2,6.809761E-2,7.0875436E-2,1.0292139E-1,5.252049E-2,-5.541676E-2,5.9437107E-2,-4.695602E-2],"split_indices":[51,41,88,0,111,118,81,45,82,89,89,127,0,142,0,72,81,90,93,86,107,0,0,93,0,96,0,20,105,79,92,108,80,97,83,0,131,83,0,92,0,139,0,35,142,136,59,91,118,143,105,78,83,0,0,0,0,0,0,0,0,122,0,90,81,79,0,0,0,0,0,0,0,0,0,0,0,0,0,0,0,0,0,0,0,0,0,0,0,0,0,0,0,0,0],"split_type":[0,0,0,0,0,0,0,0,0,0,0,0,0,0,0,0,0,0,0,0,0,0,0,0,0,0,0,0,0,0,0,0,0,0,0,0,0,0,0,0,0,0,0,0,0,0,0,0,0,0,0,0,0,0,0,0,0,0,0,0,0,0,0,0,0,0,0,0,0,0,0,0,0,0,0,0,0,0,0,0,0,0,0,0,0,0,0,0,0,0,0,0,0,0,0],"sum_hessian":[5.6511567E3,5.1180405E3,5.331162E2,4.52864E3,5.8940063E2,4.9778815E2,3.532805E1,3.912458E3,6.1618207E2,5.8399664E2,5.4040008E0,4.9556195E2,2.2261767E0,3.0194786E1,5.1332626E0,2.7997102E3,1.1127477E3,5.764637E2,3.971838E1,4.548795E2,1.2911716E2,1.9579817E0,3.446019E0,4.9339496E2,2.1669912E0,2.845262E1,1.7421669E0,2.330744E3,4.689664E2,6.756517E2,4.3709604E2,5.576589E2,1.8804836E1,1.7687773E1,2.2030605E1,4.3535022E2,1.9529268E1,1.2537627E2,3.7408853E0,4.572122E2,3.6182774E1,2.711771E1,1.3349088E0,2.2545298E3,7.621405E1,3.832159E2,8.57505E1,4.2661194E2,2.490397E2,4.1469034E2,2.2405704E1,5.4814844E2,9.510382E0,1.2875239E1,5.929597E0,1.1107856E1,6.5799165E0,2.0760416E1,1.2701902E0,1.3246849E1,6.2824183E0,6.4133415E1,6.124285E1,4.1252905E2,4.468313E1,2.3191883E1,3.9258275E0,2.2036428E3,5.0887047E1,6.730049E1,8.913565E0,3.0165057E2,8.156534E1,1.2453003E1,7.32975E1,3.5517673E2,7.143521E1,2.2721324E2,2.1826468E1,3.745091E2,4.0181244E1,1.9675398E1,2.730307E0,5.259084E2,2.2240067E1,5.7215953E0,3.7887862E0,6.048369E1,3.649725E0,3.8193063E2,3.0598421E1,4.1634117E1,3.0490105E0,2.1443785E1,1.7480989E0],"tree_param":{"num_deleted":"0","num_feature":"144","num_nodes":"95","size_leaf_vector":"0"}},{"base_weights":[4.2042835E-3,-1.3676767E-1,9.27169E-1,-2.222287E-1,1.4044733E-1,9.635644E-1,7.7509874E-1,-1.7828068E-1,-5.5912E-1,3.380268E-1,-1.9970791E-1,9.729841E-1,7.293022E-1,8.221351E-1,1.8174851E-1,-1.0900306E-1,-4.7967917E-1,-5.6278676E-1,1.8634382E-1,4.875116E-1,4.347276E-2,-2.1640061E-1,9.7966033E-1,9.849572E-1,8.456033E-1,1.0234811E0,1.8605089E-1,9.248342E-1,5.242537E-1,9.335866E-1,-2.8313E-1,-7.238245E-2,-6.2646717E-1,-5.087282E-1,-4.829364E-2,-5.7193935E-1,-3.1633294E-1,8.50537E-1,2.7963233E-1,1.9313715E-2,1.046003E0,-2.3313944E-1,5.0531816E-1,9.187531E-1,-1.0063936E-1,5.0040066E-1,-2.2413056E-1,9.862962E-1,4.9114278E-1,6.1189926E-1,-3.3324036E-1,-8.548697E-2,9.713463E-1,-6.309601E-1,-1.7584203E-1,-5.178911E-1,3.1619132E-1,-1.810368E-1,9.39312E-1,-5.7522213E-1,-1.540816E-1,8.537381E-1,-4.651587E-1,9.027128E-1,1.0020315E-1,4.2854598E-1,-3.5477942E-1,-6.7767776E-3,8.925559E-1,-2.404136E-1,8.8747936E-1,7.813177E-1,-4.7741273E-1,9.852827E-1,3.453074E-1,6.656539E-1,-6.2278026E-1,8.7907165E-1,-4.8091945E-1,1.0515654E0,5.3015065E-1,7.292379E-1,-1.174119E-1,7.292063E-1,-9.537066E-2,-9.613488E-2,1.1032646E0,1.2507869E0,-3.1947467E-1,-6.357869E-1,-2.4546315E-1,-5.5004764E-1,-2.733102E-1,6.270442E-1,-4.342557E-1,-2.7666036E-2,-5.4036283E-1,-5.8263737E-1,-3.9266038E-1,4.3895614E-1,-5.2876544E-1,-1.7539054E-3,-5.641619E-1,9.903923E-1,3.594762E-1,2.7418283E-1,-5.613084E-1,3.9161482E-1,9.902829E-1,-4.5642E-1,-2.170207E-1,-3.4449875E-2,7.2761106E-1,1.1322082E0,-4.299031E-2,-2.4616656E-1,8.7298805E-1,1.0507122E0,-1.145107E-1,1.0432183E0,5.434336E-1,8.013861E-1,-1.9766581E-1,9.7764295E-1,8.3987355E-2,9.868209E-1,1.0450731E-1,1.0690349E0,2.3935647E-1,2.0597807E-1,-2.861837E-1],"categories":[],"categories_nodes":[],"categories_segments":[],"categories_sizes":[],"default_left":[1,1,1,1,1,1,1,1,1,1,1,1,1,1,1,1,1,1,0,1,1,1,0,0,1,0,1,1,1,0,0,1,1,1,1,1,1,1,1,1,0,1,1,1,1,1,0,1,1,1,0,1,1,1,0,1,1,1,0,1,1,0,1,1,1,1,1,1,1,1,0,1,0,1,1,0,0,0,0,0,1,1,0,1,1,0,0,0,0,0,0,0,0,0,0,0,0,0,0,0,0,0,0,0,0,0,0,0,0,0,0,0,0,0,0,0,0,0,0,0,0,0,0,0,0,0,0,0,0,0,0],"id":11,"left_children":[1,3,5,7,9,11,13,15,17,19,21,23,25,27,29,31,33,35,-1,37,39,41,-1,-1,43,-1,45,47,49,-1,-1,51,53,55,57,59,61,63,65,67,-1,69,71,73,75,77,-1,79,81,83,-1,85,87,89,-1,91,93,95,-1,97,99,-1,101,103,105,107,109,111,113,115,-1,117,-1,119,121,-1,-1,-1,-1,-1,123,125,-1,127,129,-1,-1,-1,-1,-1,-1,-1,-1,-1,-1,-1,-1,-1,-1,-1,-1,-1,-1,-1,-1,-1,-1,-1,-1,-1,-1,-1,-1,-1,-1,-1,-1,-1,-1,-1,-1,-1,-1,-1,-1,-1,-1,-1,-1,-1,-1],"loss_changes":[7.325539E2,1.1574315E2,3.381958E0,5.5180008E1,7.745891E1,6.096802E-1,4.0139313E0,6.894172E1,1.2813263E0,3.2068558E1,8.553963E0,3.9001465E-2,4.1408653E0,3.7348785E0,4.5426292E0,5.089228E1,7.7105103E0,7.8570557E-1,0E0,3.6238266E1,5.948731E0,5.1752663E0,0E0,0E0,3.9817657E0,0E0,1.4973414E0,2.214798E0,3.035161E0,0E0,0E0,3.443419E1,2.4847412E-1,4.534256E0,5.4202824E0,4.764557E-1,3.4588284E0,6.7805634E0,2.932896E1,5.5119658E0,0E0,3.554142E0,3.0324829E0,1.6534119E0,2.3884516E0,2.7977266E0,0E0,2.0535889E0,2.1954768E0,2.9345093E0,0E0,3.151332E1,1.1661949E1,1.7028809E-1,0E0,4.350281E0,1.8989298E0,1.9768144E0,0E0,3.240509E-1,1.2491319E0,0E0,7.443311E-1,7.454117E0,1.5966254E0,4.8106422E0,7.306833E-1,4.814049E0,1.6222515E0,2.8281326E0,0E0,2.0592804E0,0E0,6.1790085E-1,1.8849304E0,0E0,0E0,0E0,0E0,0E0,2.512403E0,1.6034441E0,0E0,4.693823E0,3.922733E-1,0E0,0E0,0E0,0E0,0E0,0E0,0E0,0E0,0E0,0E0,0E0,0E0,0E0,0E0,0E0,0E0,0E0,0E0,0E0,0E0,0E0,0E0,0E0,0E0,0E0,0E0,0E0,0E0,0E0,0E0,0E0,0E0,0E0,0E0,0E0,0E0,0E0,0E0,0E0,0E0,0E0,0E0,0E0,0E0,0E0,0E0],"parents":[2147483647,0,0,1,1,2,2,3,3,4,4,5,5,6,6,7,7,8,8,9,9,10,10,11,11,12,12,13,13,14,14,15,15,16,16,17,17,19,19,20,20,21,21,24,24,26,26,27,27,28,28,31,31,32,32,33,33,34,34,35,35,36,36,37,37,38,38,39,39,41,41,42,42,43,43,44,44,45,45,47,47,48,48,49,49,51,51,52,52,53,53,55,55,56,56,57,57,59,59,60,60,62,62,63,63,64,64,65,65,66,66,67,67,68,68,69,69,71,71,73,73,74,74,80,80,81,81,83,83,84,84],"right_children":[2,4,6,8,10,12,14,16,18,20,22,24,26,28,30,32,34,36,-1,38,40,42,-1,-1,44,-1,46,48,50,-1,-1,52,54,56,58,60,62,64,66,68,-1,70,72,74,76,78,-1,80,82,84,-1,86,88,90,-1,92,94,96,-1,98,100,-1,102,104,106,108,110,112,114,116,-1,118,-1,120,122,-1,-1,-1,-1,-1,124,126,-1,128,130,-1,-1,-1,-1,-1,-1,-1,-1,-1,-1,-1,-1,-1,-1,-1,-1,-1,-1,-1,-1,-1,-1,-1,-1,-1,-1,-1,-1,-1,-1,-1,-1,-1,-1,-1,-1,-1,-1,-1,-1,-1,-1,-1,-1,-1,-1],"split_conditions":[5E-1,5E-1,5E-1,5E-1,5E-1,5E-1,5E-1,5E-1,5E-1,5E-1,5E-1,5E-1,5E-1,5E-1,5E-1,5E-1,5E-1,5E-1,1.8634383E-2,5E-1,5E-1,5E-1,9.796604E-2,9.849572E-2,5E-1,1.0234811E-1,5E-1,5E-1,5E-1,9.335866E-2,-2.8313E-2,5E-1,5E-1,5E-1,5E-1,5E-1,5E-1,5E-1,5E-1,5E-1,1.046003E-1,5E-1,5E-1,5E-1,5E-1,5E-1,-2.2413056E-2,5E-1,5E-1,5E-1,-3.3324037E-2,5E-1,5E-1,5E-1,-1.7584203E-2,5E-1,5E-1,5E-1,9.39312E-2,5E-1,5E-1,8.537381E-2,5E-1,5E-1,5E-1,5E-1,5E-1,5E-1,5E-1,5E-1,8.874794E-2,5E-1,-4.7741275E-2,5E-1,5E-1,6.656539E-2,-6.227803E-2,8.7907165E-2,-4.8091944E-2,1.0515654E-1,5E-1,5E-1,-1.174119E-2,5E-1,5E-1,-9.613488E-3,1.1032646E-1,1.250787E-1,-3.1947467E-2,-6.357869E-2,-2.4546316E-2,-5.5004764E-2,-2.7331023E-2,6.270442E-2,-4.342557E-2,-2.7666036E-3,-5.4036286E-2,-5.8263738E-2,-3.926604E-2,4.3895613E-2,-5.2876543E-2,-1.7539055E-4,-5.641619E-2,9.9039234E-2,3.594762E-2,2.7418284E-2,-5.6130838E-2,3.9161485E-2,9.902829E-2,-4.5642E-2,-2.1702072E-2,-3.4449876E-3,7.276111E-2,1.13220826E-1,-4.299031E-3,-2.4616657E-2,8.72988E-2,1.05071224E-1,-1.145107E-2,1.0432183E-1,5.434336E-2,8.0138616E-2,-1.9766582E-2,9.77643E-2,8.398736E-3,9.868209E-2,1.0450731E-2,1.0690349E-1,2.3935648E-2,2.0597806E-2,-2.8618371E-2],"split_indices":[41,45,89,51,81,86,77,0,127,79,102,98,100,100,94,48,98,102,0,80,131,98,0,0,102,0,131,79,122,0,0,44,86,74,76,131,83,96,91,92,0,107,118,91,78,142,0,143,94,102,0,29,131,85,0,80,102,79,0,74,88,0,87,97,102,136,99,133,89,137,0,142,0,76,80,0,0,0,0,0,81,93,0,80,79,0,0,0,0,0,0,0,0,0,0,0,0,0,0,0,0,0,0,0,0,0,0,0,0,0,0,0,0,0,0,0,0,0,0,0,0,0,0,0,0,0,0,0,0,0,0],"split_type":[0,0,0,0,0,0,0,0,0,0,0,0,0,0,0,0,0,0,0,0,0,0,0,0,0,0,0,0,0,0,0,0,0,0,0,0,0,0,0,0,0,0,0,0,0,0,0,0,0,0,0,0,0,0,0,0,0,0,0,0,0,0,0,0,0,0,0,0,0,0,0,0,0,0,0,0,0,0,0,0,0,0,0,0,0,0,0,0,0,0,0,0,0,0,0,0,0,0,0,0,0,0,0,0,0,0,0,0,0,0,0,0,0,0,0,0,0,0,0,0,0,0,0,0,0,0,0,0,0,0,0],"sum_hessian":[5.628198E3,4.8831987E3,7.4499915E2,3.7326729E3,1.150526E3,5.9682355E2,1.4817563E2,3.3032832E3,4.2938965E2,7.277931E2,4.2273294E2,5.707213E2,2.6102201E1,1.3693488E2,1.1240743E1,2.6870225E3,6.1626086E2,4.2753177E2,1.857878E0,4.823484E2,2.4544469E2,4.176382E2,5.0947123E0,5.155317E2,5.518965E1,1.6359364E1,9.742838E0,1.00262985E2,3.6671894E1,3.9095972E0,7.331146E0,2.510496E3,1.7652634E2,5.772127E2,3.904818E1,4.109496E2,1.6582188E1,1.7450822E2,3.0784015E2,2.4066441E2,4.7802835E0,4.088331E2,8.805108E0,5.1256306E1,3.9333444E0,5.391227E0,4.351611E0,8.67016E1,1.3561386E1,3.353105E1,3.1408405E0,2.4802732E3,3.0222939E1,1.7438742E2,2.1389108E0,5.712398E2,5.9729176E0,3.514153E1,3.9066494E0,4.0737253E2,3.5770454E0,1.3366811E0,1.5245506E1,1.6297256E2,1.15356655E1,2.4958119E2,5.825897E1,2.3464597E2,6.018449E0,4.069768E2,1.8563044E0,7.034441E0,1.7706674E0,4.5284355E1,5.9719515E0,1.4826112E0,2.4507332E0,3.9652963E0,1.4259305E0,7.47066E1,1.1995003E1,9.605107E0,3.9562793E0,2.8734211E1,4.796842E0,2.459165E3,2.1108152E1,2.487002E1,5.3529186E0,1.715897E2,2.7977145E0,5.0375858E2,6.7481186E1,4.339736E0,1.6331818E0,2.538393E1,9.757601E0,3.8936597E2,1.8006588E1,1.3185495E0,2.2584958E0,2.8628883E0,1.2382618E1,1.3961523E2,2.3357327E1,9.597115E0,1.9385515E0,2.3577727E2,1.380392E1,3.219316E1,2.6065807E1,2.2704362E2,7.6023345E0,4.6237926E0,1.394656E0,4.0565967E2,1.3171401E0,5.275186E0,1.7592548E0,3.883169E1,6.452661E0,2.9870286E0,2.984923E0,5.3938565E0,6.601146E0,6.390601E0,3.2145057E0,1.6266861E1,1.246735E1,1.8289415E0,2.9679008E0],"tree_param":{"num_deleted":"0","num_feature":"144","num_nodes":"131","size_leaf_vector":"0"}},{"base_weights":[4.5699076E-4,-1.2209391E-1,7.8113943E-1,-1.4694577E-1,8.260586E-1,8.0550665E-1,2.564716E-1,-9.40607E-2,-5.342908E-1,8.995645E-1,-5.911582E-1,8.3050716E-1,3.6726242E-1,7.139558E-1,1.0645294E-1,3.9574895E-3,-2.3916699E-1,-5.459143E-1,-2.7813905E-1,9.680872E-1,4.0574014E-1,8.566372E-1,6.293708E-1,6.7339885E-1,-5.6266874E-2,7.875233E-1,2.2337794E-1,-3.2591812E-2,6.6878647E-1,3.0434225E-2,-3.7431407E-1,-3.1708908E-1,-1.2518373E-1,-5.99027E-1,-4.6153492E-1,1.1219508E-1,-6.161072E-1,9.8954105E-1,-4.0583596E-1,-2.9901057E-3,9.375076E-1,8.6341536E-1,2.662638E-1,7.1797454E-1,-5.5978495E-1,7.331404E-1,-1.3285747E-1,-2.4649793E-1,5.024726E-1,8.661811E-1,2.9320806E-1,-1.3468182E-1,6.9310945E-1,4.3951605E-2,-4.8665828E-1,-4.106795E-1,7.4176806E-1,-3.591887E-1,-3.0932335E-2,-9.410576E-2,-6.518671E-1,-6.4242053E-1,-5.082522E-1,-4.857555E-1,2.4645752E-1,-9.5626935E-2,8.942875E-1,1.0059029E0,2.376829E-1,6.4576995E-1,-3.5800922E-1,8.738652E-1,4.589575E-1,-1.1161695E-1,7.491767E-1,7.424803E-1,8.079421E-2,7.9347664E-1,7.627222E-2,-5.007702E-1,5.200716E-1,1.3329734E-1,6.917187E-1,-3.2383108E-1,-5.5555187E-2,5.5714168E-2,-4.5075065E-1,-5.9517384E-1,9.053271E-1,-4.9796832E-1,-1.5222415E-1,-4.325547E-1,-1.974026E-1,1.3475087E-1,-3.6102936E-1,-1.6257886E-2,-2.649723E-1,-6.510074E-1,-1.4366512E-1,-6.4909834E-1,-3.8867447E-1,-4.961183E-1,-3.6175728E-2,-2.888699E-1,6.380872E-1,-5.93868E-1,3.411892E-1,3.8020656E-1,-6.02611E-1,8.82751E-1,5.052444E-1,6.80071E-1,-5.3944683E-1,-5.4466444E-1,6.2684435E-1,7.6311284E-1,3.003055E-1,-5.3085154E-1,6.5709084E-1,8.37271E-1,3.9231056E-1,-6.454454E-1,-2.2036201E-1],"categories":[],"categories_nodes":[],"categories_segments":[],"categories_sizes":[],"default_left":[1,1,1,1,1,1,1,1,1,1,0,1,1,1,1,1,1,1,1,1,1,1,1,1,1,1,0,1,0,1,1,1,1,1,1,1,0,1,0,1,0,1,1,1,0,1,0,1,1,0,0,1,0,1,1,1,0,1,1,1,0,1,1,1,1,1,0,0,0,0,1,1,1,1,0,1,1,1,0,1,0,0,0,0,0,0,0,0,0,0,0,0,0,0,0,0,0,0,0,0,0,0,0,0,0,0,0,0,0,0,0,0,0,0,0,0,0,0,0,0,0,0,0],"id":12,"left_children":[1,3,5,7,9,11,13,15,17,19,-1,21,23,25,27,29,31,33,35,37,39,41,43,45,47,49,-1,51,-1,53,55,57,59,61,63,65,-1,67,-1,69,-1,71,73,75,-1,77,-1,79,81,-1,-1,83,-1,85,87,89,-1,91,93,95,-1,97,99,101,103,105,-1,-1,-1,-1,107,109,111,113,-1,115,117,119,-1,121,-1,-1,-1,-1,-1,-1,-1,-1,-1,-1,-1,-1,-1,-1,-1,-1,-1,-1,-1,-1,-1,-1,-1,-1,-1,-1,-1,-1,-1,-1,-1,-1,-1,-1,-1,-1,-1,-1,-1,-1,-1,-1,-1],"loss_changes":[5.3156586E2,1.1327754E2,9.431122E0,9.582668E1,1.3324959E1,7.582672E0,2.3208892E0,5.859078E1,1.5216064E0,3.571251E0,0E0,3.0361938E0,5.307919E0,1.2901688E-1,2.1700678E0,2.4645039E1,1.4711029E1,2.1284027E0,3.556548E0,3.4125824E0,3.4795341E0,2.168274E0,9.040077E0,1.2374983E0,2.0345287E0,1.630783E-2,0E0,1.7960052E0,0E0,1.6095049E1,6.8378525E0,1.1864616E1,1.1003626E1,9.574661E-1,3.7490425E0,2.2169282E0,0E0,1.0018082E0,0E0,2.5438921E0,0E0,2.1012268E0,1.5888057E0,1.1382294E0,0E0,8.189411E-1,0E0,3.0051098E0,2.4977493E-1,0E0,0E0,2.960848E-1,0E0,1.3070906E1,9.4004135E0,3.455635E0,0E0,1.0113617E1,7.0230336E0,8.502123E0,0E0,8.347626E-1,1.6039295E0,9.3704605E-1,1.791166E0,2.6540782E0,0E0,0E0,0E0,0E0,1.5171345E0,1.4407654E0,4.12362E0,2.09953E0,0E0,4.4387817E-1,1.7461182E0,2.6720047E-2,0E0,3.0739737E-1,0E0,0E0,0E0,0E0,0E0,0E0,0E0,0E0,0E0,0E0,0E0,0E0,0E0,0E0,0E0,0E0,0E0,0E0,0E0,0E0,0E0,0E0,0E0,0E0,0E0,0E0,0E0,0E0,0E0,0E0,0E0,0E0,0E0,0E0,0E0,0E0,0E0,0E0,0E0,0E0,0E0,0E0,0E0],"parents":[2147483647,0,0,1,1,2,2,3,3,4,4,5,5,6,6,7,7,8,8,9,9,11,11,12,12,13,13,14,14,15,15,16,16,17,17,18,18,19,19,20,20,21,21,22,22,23,23,24,24,25,25,27,27,29,29,30,30,31,31,32,32,33,33,34,34,35,35,37,37,39,39,41,41,42,42,43,43,45,45,47,47,48,48,51,51,53,53,54,54,55,55,57,57,58,58,59,59,61,61,62,62,63,63,64,64,65,65,70,70,71,71,72,72,73,73,75,75,76,76,77,77,79,79],"right_children":[2,4,6,8,10,12,14,16,18,20,-1,22,24,26,28,30,32,34,36,38,40,42,44,46,48,50,-1,52,-1,54,56,58,60,62,64,66,-1,68,-1,70,-1,72,74,76,-1,78,-1,80,82,-1,-1,84,-1,86,88,90,-1,92,94,96,-1,98,100,102,104,106,-1,-1,-1,-1,108,110,112,114,-1,116,118,120,-1,122,-1,-1,-1,-1,-1,-1,-1,-1,-1,-1,-1,-1,-1,-1,-1,-1,-1,-1,-1,-1,-1,-1,-1,-1,-1,-1,-1,-1,-1,-1,-1,-1,-1,-1,-1,-1,-1,-1,-1,-1,-1,-1,-1],"split_conditions":[5E-1,5E-1,5E-1,5E-1,5E-1,5E-1,5E-1,5E-1,5E-1,5E-1,-5.9115823E-2,5E-1,5E-1,5E-1,5E-1,5E-1,5E-1,5E-1,5E-1,5E-1,5E-1,5E-1,5E-1,5E-1,5E-1,5E-1,2.2337794E-2,5E-1,6.687865E-2,5E-1,5E-1,5E-1,5E-1,5E-1,5E-1,5E-1,-6.1610725E-2,5E-1,-4.0583596E-2,5E-1,9.375077E-2,5E-1,5E-1,5E-1,-5.5978496E-2,5E-1,-1.3285748E-2,5E-1,5E-1,8.661811E-2,2.9320806E-2,5E-1,6.931095E-2,5E-1,5E-1,5E-1,7.417681E-2,5E-1,5E-1,5E-1,-6.518671E-2,5E-1,5E-1,5E-1,5E-1,5E-1,8.942875E-2,1.0059029E-1,2.3768289E-2,6.4577E-2,5E-1,5E-1,5E-1,5E-1,7.491767E-2,5E-1,5E-1,5E-1,7.627222E-3,5E-1,5.2007165E-2,1.3329734E-2,6.917187E-2,-3.238311E-2,-5.555519E-3,5.571417E-3,-4.5075066E-2,-5.9517384E-2,9.053271E-2,-4.979683E-2,-1.5222415E-2,-4.325547E-2,-1.974026E-2,1.34750875E-2,-3.6102936E-2,-1.6257886E-3,-2.649723E-2,-6.5100744E-2,-1.4366512E-2,-6.490984E-2,-3.8867448E-2,-4.9611833E-2,-3.6175728E-3,-2.8886989E-2,6.3808724E-2,-5.93868E-2,3.411892E-2,3.8020656E-2,-6.02611E-2,8.82751E-2,5.052444E-2,6.8007104E-2,-5.3944685E-2,-5.4466445E-2,6.268444E-2,7.631128E-2,3.0030549E-2,-5.3085156E-2,6.5709084E-2,8.37271E-2,3.923106E-2,-6.454454E-2,-2.20362E-2],"split_indices":[0,20,82,41,123,98,87,71,102,142,0,80,105,94,95,51,45,142,87,76,79,74,90,142,88,93,0,142,0,77,99,48,74,105,95,78,0,88,0,87,0,78,72,96,0,136,0,79,81,0,0,93,0,75,142,142,0,51,142,94,0,97,83,82,80,100,0,0,0,0,94,76,100,102,0,95,105,78,0,83,0,0,0,0,0,0,0,0,0,0,0,0,0,0,0,0,0,0,0,0,0,0,0,0,0,0,0,0,0,0,0,0,0,0,0,0,0,0,0,0,0,0,0],"split_type":[0,0,0,0,0,0,0,0,0,0,0,0,0,0,0,0,0,0,0,0,0,0,0,0,0,0,0,0,0,0,0,0,0,0,0,0,0,0,0,0,0,0,0,0,0,0,0,0,0,0,0,0,0,0,0,0,0,0,0,0,0,0,0,0,0,0,0,0,0,0,0,0,0,0,0,0,0,0,0,0,0,0,0,0,0,0,0,0,0,0,0,0,0,0,0,0,0,0,0,0,0,0,0,0,0,0,0,0,0,0,0,0,0,0,0,0,0,0,0,0,0,0,0],"sum_hessian":[5.5540537E3,4.8012075E3,7.5284607E2,4.6794014E3,1.21806E2,7.189218E2,3.3924248E1,4.118356E3,5.6104553E2,1.16147125E2,5.65887E0,6.792761E2,3.96457E1,7.4490724E0,2.6475174E1,2.4585781E3,1.6597778E3,5.356097E2,2.5435799E1,1.01151085E2,1.4996042E1,5.982918E2,8.0984276E1,2.2669622E1,1.6976078E1,5.951311E0,1.4977616E0,2.198189E1,4.4932847E0,2.298609E3,1.5996925E2,9.8477594E2,6.750019E2,3.2496262E2,2.106471E2,1.2113463E1,1.3322336E1,9.987136E1,1.2797229E0,9.041154E0,5.9548883E0,5.9104346E2,7.248335E0,7.5737335E1,5.2469444E0,2.119017E1,1.4794519E0,1.3081217E1,3.8948605E0,4.485304E0,1.4660072E0,1.9984875E1,1.9970155E0,2.240943E3,5.7665775E1,1.5553352E2,4.435727E0,8.582537E2,1.2652221E2,6.385044E2,3.6497513E1,2.1574954E2,1.0921307E2,2.039827E2,6.6643977E0,1.026383E1,1.8496333E0,9.7413574E1,2.4577913E0,2.9080417E0,6.133112E0,5.750261E2,1.601733E1,4.4977217E0,2.7506132E0,7.277325E1,2.9640918E0,1.9217031E1,1.9731392E0,1.0083308E1,2.997909E0,1.8975466E0,1.9973139E0,4.9823017E0,1.5002572E1,2.1897642E3,5.117877E1,5.4026443E1,3.6393323E0,1.1557376E2,3.995976E1,5.8933246E2,2.689213E2,8.463418E1,4.1888035E1,4.3940424E2,1.9910016E2,2.1179782E2,3.9517095E0,4.8113598E1,6.1099472E1,1.9928564E2,4.697053E0,2.9264956E0,3.7379022E0,4.626834E0,5.6369963E0,1.3884219E0,4.7446904E0,5.601292E2,1.4896924E1,1.3374225E1,2.6431057E0,3.0005665E0,1.497155E0,6.8835464E1,3.9377813E0,1.4762006E0,1.4878912E0,1.6345535E1,2.871496E0,5.792757E0,4.2905507E0],"tree_param":{"num_deleted":"0","num_feature":"144","num_nodes":"123","size_leaf_vector":"0"}},{"base_weights":[4.08577E-3,-6.228429E-2,6.3801205E-1,1.9758125E-3,-5.7195026E-1,6.6593504E-1,2.704249E-1,8.321861E-2,-5.4972064E-1,-6.396322E-1,-3.3691236E-1,6.754444E-1,-6.49272E-2,3.8790438E-1,-5.7918257E-1,1.6468349E-1,-1.2706436E-1,-5.930602E-1,9.239114E-2,-6.57168E-1,-2.890204E-1,-3.7423906E-1,6.82874E-1,6.806319E-1,-4.802563E-1,-6.586531E-1,7.730586E-1,4.6475556E-1,-5.19119E-1,2.2794263E-1,-1.5599072E-1,-2.898139E-1,1.1287572E-1,-6.095157E-1,-1.6509134E-1,-3.6045504E-1,4.0672082E-1,-6.2209827E-1,6.692643E-1,-4.4065803E-1,1.9824915E-1,6.855658E-1,-4.5743585E-1,5.491998E-1,-5.0388336E-1,2.4894318E-1,-6.761577E-1,-2.8416193E-1,4.34335E-1,-4.711903E-1,1.7396165E-2,7.414364E-2,8.527152E-1,-6.206352E-1,-1.6159933E-2,-6.19883E-1,7.7535975E-1,-6.105039E-1,1.894323E-1,4.9468687E-1,-4.4263363E-1,-4.7236627E-1,3.0996627E-1,5.427155E-1,-5.683164E-1,6.599329E-1,9.885286E-1,6.056359E-1,-4.1472298E-1,2.742681E-1,-5.590218E-1,-7.3019296E-1,-1.4507E-1,-4.04327E-1,1.2805082E-1,-6.5364283E-1,6.153236E-1,-5.5472386E-1,-7.887654E-2,-8.811953E-2,6.076778E-1,4.6847783E-2,8.926813E-1,1.0017934E0,-5.097967E-1,-6.368489E-1,-2.5063753E-1,-5.8292085E-1,7.9417384E-1,-3.1334728E-1,-6.5275705E-1,-4.1797858E-1,6.6251796E-1,-4.65329E-1,8.095426E-1,5.949851E-1,7.643481E-1,5.098627E-1,8.9881927E-1],"categories":[],"categories_nodes":[],"categories_segments":[],"categories_sizes":[],"default_left":[1,1,1,1,1,1,1,1,1,1,1,1,1,1,0,1,1,1,1,0,1,1,0,1,0,0,0,1,0,1,1,1,1,1,1,1,1,0,0,1,1,1,0,1,0,1,1,1,1,1,1,1,1,1,1,0,0,0,0,0,0,1,1,1,0,1,0,1,0,0,0,0,0,0,0,0,0,0,0,0,0,0,0,0,0,0,0,0,0,0,0,0,0,0,0,0,0,0,0],"id":13,"left_children":[1,3,5,7,9,11,13,15,17,19,21,23,25,27,-1,29,31,33,35,-1,37,39,-1,41,-1,-1,-1,43,-1,45,47,49,51,53,55,57,59,-1,-1,61,63,65,-1,67,-1,69,71,73,75,77,79,81,83,85,87,-1,-1,-1,-1,-1,-1,89,91,93,-1,95,-1,97,-1,-1,-1,-1,-1,-1,-1,-1,-1,-1,-1,-1,-1,-1,-1,-1,-1,-1,-1,-1,-1,-1,-1,-1,-1,-1,-1,-1,-1,-1,-1],"loss_changes":[2.3766415E2,1.6747284E2,5.314865E0,2.0362074E2,8.892273E0,3.4971771E0,4.1652045E0,6.785491E1,1.628244E1,2.5363007E0,5.2086134E0,3.26799E0,4.138302E0,2.7006793E0,0E0,5.794146E1,4.323232E1,3.747284E0,5.517885E0,0E0,7.727577E0,4.88492E0,0E0,3.058319E0,0E0,0E0,0E0,2.9804544E0,0E0,4.5444E1,3.575482E1,3.6752537E1,1.2769338E1,3.459015E0,9.720168E0,2.3143864E0,1.9182544E0,0E0,0E0,2.8446236E0,3.9540298E0,3.1303253E0,0E0,1.9311724E0,0E0,4.785373E1,1.4552631E0,1.9247091E1,1.7022062E1,1.3545639E1,1.5360807E1,9.490437E0,5.016506E0,2.9364014E0,5.376497E0,0E0,0E0,0E0,0E0,0E0,0E0,2.9269753E0,1.6110612E0,3.0764408E0,0E0,2.6111755E0,0E0,3.7232494E-1,0E0,0E0,0E0,0E0,0E0,0E0,0E0,0E0,0E0,0E0,0E0,0E0,0E0,0E0,0E0,0E0,0E0,0E0,0E0,0E0,0E0,0E0,0E0,0E0,0E0,0E0,0E0,0E0,0E0,0E0,0E0],"parents":[2147483647,0,0,1,1,2,2,3,3,4,4,5,5,6,6,7,7,8,8,9,9,10,10,11,11,12,12,13,13,15,15,16,16,17,17,18,18,20,20,21,21,23,23,27,27,29,