{"learner":{"attributes":{"best_iteration":"99","best_ntree_limit":"100","scikit_learn":"{\"use_label_encoder\": null, \"n_estimators\": 100, \"objective\": \"multi:softmax\", \"max_depth\": 7, \"max_leaves\": null, \"max_bin\": null, \"grow_policy\": null, \"learning_rate\": 0.1, \"verbosity\": null, \"booster\": null, \"tree_method\": null, \"gamma\": null, \"min_child_weight\": null, \"max_delta_step\": null, \"subsample\": 0.8, \"sampling_method\": null, \"colsample_bytree\": null, \"colsample_bylevel\": null, \"colsample_bynode\": null, \"reg_alpha\": null, \"reg_lambda\": null, \"scale_pos_weight\": null, \"base_score\": null, \"missing\": NaN, \"num_parallel_tree\": null, \"random_state\": null, \"n_jobs\": null, \"monotone_constraints\": null, \"interaction_constraints\": null, \"importance_type\": null, \"gpu_id\": null, \"validate_parameters\": null, \"predictor\": null, \"enable_categorical\": false, \"feature_types\": null, \"max_cat_to_onehot\": null, \"max_cat_threshold\": null, \"eval_metric\": \"mlogloss\", \"early_stopping_rounds\": null, \"callbacks\": null, \"kwargs\": {\"num_class\": 3}, \"classes_\": [0, 1, 2], \"n_classes_\": 3, \"_estimator_type\": \"classifier\"}"},"feature_names":["Species_Acinetobacter baumannii","Species_Acinetobacter baylyi","Species_Acinetobacter bereziniae","Species_Acinetobacter calcoaceticus","Species_Acinetobacter colistiniresistens","Species_Acinetobacter courvalinii","Species_Acinetobacter dijkshoorniae","Species_Acinetobacter guillouiae","Species_Acinetobacter haemolyticus","Species_Acinetobacter johnsonii","Species_Acinetobacter junii","Species_Acinetobacter lactucae","Species_Acinetobacter lwoffii","Species_Acinetobacter nosocomialis","Species_Acinetobacter pitii","Species_Acinetobacter proteolyticus","Species_Acinetobacter radioresistens","Species_Acinetobacter schindleri","Species_Acinetobacter seifertii","Species_Acinetobacter soli","Species_Acinetobacter spp","Species_Acinetobacter ursingii","Species_Acinetobacter variabilis","Species_Citrobacter amalonaticus","Species_Citrobacter braakii","Species_Citrobacter freundii","Species_Citrobacter koseri","Species_Citrobacter sedlakii","Species_Citrobacter spp","Species_Enterobacter asburiae","Species_Enterobacter bugandensis","Species_Enterobacter cloacae","Species_Enterobacter hormaechi","Species_Enterobacter kobei","Species_Enterobacter ludwigii","Species_Enterobacter roggenkampii","Species_Enterobacter spp","Species_Enterobacter xiangfangensis","Species_Escherichia coli","Species_Escherichia spp","Species_Haemophilus influenzae","Species_Klebsiella aerogenes","Species_Klebsiella oxytoca","Species_Klebsiella pneumoniae","Species_Klebsiella spp","Species_Klebsiella variicola","Species_Morganella morganii","Species_Proteus hauseri","Species_Proteus mirabilis","Species_Proteus penneri","Species_Proteus spp","Species_Proteus vulgaris","Species_Providencia alcalifaciens","Species_Providencia rettgeri","Species_Providencia spp","Species_Providencia stuartii","Species_Pseudomonas aeruginosa","Species_Raoultella ornithinolytica","Species_Serratia liquefaciens","Species_Serratia marcescens","Species_Serratia spp","Species_Serratia ureilytica","Family_Enterobacterales","Family_Enterobacteriaceae","Family_Haemophilus spp","Family_Non-Enterobacterales","Family_Non-Enterobacteriaceae","Country_Cameroon","Country_Ghana","Country_Ivory Coast","Country_Kenya","Country_Malawi","Country_Morocco","Country_Nigeria","Country_South Africa","Country_Uganda","Gender_Female","Gender_Male","Age Group_0 to 2 Years","Age Group_13 to 18 Years","Age Group_19 to 64 Years","Age Group_3 to 12 Years","Age Group_65 to 84 Years","Age Group_85 and Over","Age Group_Unknown","Speciality_Emergency Room","Speciality_General Unspecified ICU","Speciality_Medicine General","Speciality_Medicine ICU","Speciality_None Given","Speciality_Other","Speciality_Pediatric General","Speciality_Pediatric ICU","Speciality_Surgery General","Speciality_Surgery ICU","Source_Abscess","Source_Appendix","Source_Bladder","Source_Blood","Source_Bone","Source_Bronchoalveolar lavage","Source_Bronchus","Source_Burn","Source_CSF","Source_Carbuncle","Source_Catheters","Source_Cellulitis","Source_Cervix","Source_Colon","Source_Decubitus","Source_Diverticulum","Source_Endotracheal aspirate","Source_Eye","Source_Furuncle","Source_Gall Bladder","Source_Gastric Abscess","Source_Genitourinary: Other","Source_Impetiginous lesions","Source_Intestinal: Other","Source_Kidney","Source_Liver","Source_Lungs","Source_None Given","Source_Pancreas","Source_Peritoneal Fluid","Source_Prostate","Source_Respiratory: Other","Source_Skin","Source_Skin: Other","Source_Sputum","Source_Stomach","Source_Thoracentesis Fluid","Source_Ulcer","Source_Ureter","Source_Urethra","Source_Urine","Source_Wound"],"feature_types":["float","float","float","float","float","float","float","float","float","float","float","float","float","float","float","float","float","float","float","float","float","float","float","float","float","float","float","float","float","float","float","float","float","float","float","float","float","float","float","float","float","float","float","float","float","float","float","float","float","float","float","float","float","float","float","float","float","float","float","float","float","float","float","float","float","float","float","float","float","float","float","float","float","float","float","float","float","float","float","float","float","float","float","float","float","float","float","float","float","float","float","float","float","float","float","float","float","float","float","float","float","float","float","float","float","float","float","float","float","float","float","float","float","float","float","float","float","float","float","float","float","float","float","float","float","float","float","float","float","float","float","float","float","float","float","float","float"],"gradient_booster":{"model":{"gbtree_model_param":{"num_parallel_tree":"1","num_trees":"300","size_leaf_vector":"0"},"tree_info":[0,1,2,0,1,2,0,1,2,0,1,2,0,1,2,0,1,2,0,1,2,0,1,2,0,1,2,0,1,2,0,1,2,0,1,2,0,1,2,0,1,2,0,1,2,0,1,2,0,1,2,0,1,2,0,1,2,0,1,2,0,1,2,0,1,2,0,1,2,0,1,2,0,1,2,0,1,2,0,1,2,0,1,2,0,1,2,0,1,2,0,1,2,0,1,2,0,1,2,0,1,2,0,1,2,0,1,2,0,1,2,0,1,2,0,1,2,0,1,2,0,1,2,0,1,2,0,1,2,0,1,2,0,1,2,0,1,2,0,1,2,0,1,2,0,1,2,0,1,2,0,1,2,0,1,2,0,1,2,0,1,2,0,1,2,0,1,2,0,1,2,0,1,2,0,1,2,0,1,2,0,1,2,0,1,2,0,1,2,0,1,2,0,1,2,0,1,2,0,1,2,0,1,2,0,1,2,0,1,2,0,1,2,0,1,2,0,1,2,0,1,2,0,1,2,0,1,2,0,1,2,0,1,2,0,1,2,0,1,2,0,1,2,0,1,2,0,1,2,0,1,2,0,1,2,0,1,2,0,1,2,0,1,2,0,1,2,0,1,2,0,1,2,0,1,2,0,1,2,0,1,2,0,1,2,0,1,2,0,1,2,0,1,2,0,1,2,0,1,2],"trees":[{"base_weights":[-4.579016E-3,-1.2039873E-1,9.597114E-1,-1.3868117E-1,8.504551E-1,1.0811712E0,3.0865744E-1,-2.3578805E-1,5.23674E-2,1.0815661E0,-5.45455E-2,1.1141608E0,-4.83871E-1,1.0398609E-1,8.122271E-1,-3.1902477E-1,-5.5445127E-2,-4.9124513E-2,3.880363E-1,1.1958406E0,-6E-1,6.7346936E-1,-3.3600006E-1,1.166011E0,4.504792E-1,-6.623377E-1,2.3999998E-1,1.885714E-1,-6.3934433E-1,1.0103626E0,-2.0000003E-1,-2.63272E-1,-4.8401636E-1,9.157834E-2,-3.2920715E-1,-8.485658E-2,3.994878E-1,2.184403E-1,8.3087397E-1,1.2657092E0,-5.172414E-1,-2.5544848E-8,8.918919E-1,2.926829E-1,-5.806452E-1,1.1846522E0,-3.8872596E-8,5.871886E-1,-5.853659E-1,3.9252332E-1,-1.2676062E-1,5.9999996E-1,1.3608247E0,-2.7946132E-1,1.8404904E-1,-5.0926965E-1,1.2435229E-1,-1.9544421E-3,5.3340185E-1,-3.6500585E-1,-9.535457E-2,-1.5713334E-1,1.4634143E-1,-3.276451E-1,8.2092553E-1,1.658291E-1,1.0212766E0,9.1116446E-1,-4.7368425E-1,1.3926247E0,5.9999996E-1,-4.2857146E-1,7.241379E-1,1.0538017E0,1.3721083E0,-6.1224496E-1,1.0344827E0,1.104E0,1.6363633E-1,6.6101694E-1,5.882349E-2,2.571428E-1,-4.6153852E-1,1.0344827E0,3.8823527E-1,-3.0480105E-1,-1.7661946E-2,-3.324104E-2,7.4452555E-1,-5.1786923E-1,6.486486E-1,-3.7267122E-2,7.317073E-1,-4.503221E-2,4.3165463E-1,6.1598223E-1,-4.444445E-1,-4.2599103E-1,-1.5867774E-1,-1.9723189E-1,1.3953485E-1,-1.3094723E-1,-4.5424297E-1,9.884635E-3,6.1714286E-1,-6.6839385E-1,3.0275226E-1,9.89011E-1,5.9227467E-1,2.2519277E-1,-2.9644275E-1,5.121951E-1,1.1284404E0,9.96139E-1,-2.3076928E-1,1.4265734E0,7.317073E-1,1.2786885E0,-2.8301892E-1,1.1411884E0,4.256055E-1,1.436303E0,1.0934579E0,1.2580645E0,5.121951E-1,3.191489E-1,-5.4545456E-1,1.032E0,-1.9672136E-1,6.986301E-1,-4.7191018E-1,5.660377E-1,-4.9180366E-2,-2.8767127E-1,-6.2264156E-1,-2.5544848E-8,4.5205477E-1],"categories":[],"categories_nodes":[],"categories_segments":[],"categories_sizes":[],"default_left":[1,1,1,1,1,1,1,1,1,1,1,1,1,1,1,1,1,1,1,1,0,1,1,1,1,0,0,1,0,1,0,1,1,1,1,1,1,1,1,1,0,0,0,1,0,1,1,1,0,1,1,1,0,1,1,1,1,1,1,1,1,1,1,1,1,1,1,1,0,1,1,0,0,1,1,0,0,1,1,1,1,1,1,0,1,0,0,0,0,0,0,0,0,0,0,0,0,0,0,0,0,0,0,0,0,0,0,0,0,0,0,0,0,0,0,0,0,0,0,0,0,0,0,0,0,0,0,0,0,0,0,0,0,0,0,0,0],"id":0,"left_children":[1,3,5,7,9,11,13,15,17,19,21,23,25,27,29,31,33,35,37,39,-1,41,43,45,47,-1,-1,49,-1,51,-1,53,55,57,59,61,63,65,67,69,-1,-1,-1,71,-1,73,75,77,-1,79,81,83,-1,85,87,89,91,93,95,97,99,101,103,105,107,109,111,113,-1,115,117,-1,-1,119,121,-1,-1,123,125,127,129,131,133,-1,135,-1,-1,-1,-1,-1,-1,-1,-1,-1,-1,-1,-1,-1,-1,-1,-1,-1,-1,-1,-1,-1,-1,-1,-1,-1,-1,-1,-1,-1,-1,-1,-1,-1,-1,-1,-1,-1,-1,-1,-1,-1,-1,-1,-1,-1,-1,-1,-1,-1,-1,-1,-1],"loss_changes":[5.773596E2,8.203618E1,4.350122E1,8.406793E1,1.7930176E1,2.4638977E1,9.042632E0,4.5077454E1,5.2063114E1,1.380574E1,3.9828422E0,1.5216309E1,1.493892E0,4.151537E0,5.3051643E0,1.8778015E1,3.8262646E1,1.8851154E1,2.6463554E1,8.328178E0,0E0,8.008828E-1,2.3061147E0,9.208801E0,5.268593E0,0E0,0E0,3.8013227E0,0E0,2.2675724E0,0E0,1.1191795E1,8.019814E0,2.557202E1,2.7454987E0,1.8205595E1,2.6861261E1,1.0723396E1,1.0684837E1,4.3933487E0,0E0,0E0,0E0,1.7279828E0,0E0,8.782532E0,5.489092E0,6.6537857E0,0E0,3.1567168E0,3.1603777E0,6.718054E-1,0E0,9.845985E0,6.641787E0,5.2892914E0,2.1322632E0,9.576816E0,9.003843E0,3.552105E0,1.1150017E0,6.393715E0,1.6675938E1,7.1955223E0,1.5365791E0,6.741297E0,2.7671432E-1,9.211029E0,0E0,1.0545349E-1,7.353664E0,0E0,0E0,1.3232208E1,1.4365845E0,0E0,0E0,6.219597E-1,2.1957448E0,6.461074E0,6.102328E0,1.1317573E0,1.8502092E-1,0E0,2.3400474E-1,0E0,0E0,0E0,0E0,0E0,0E0,0E0,0E0,0E0,0E0,0E0,0E0,0E0,0E0,0E0,0E0,0E0,0E0,0E0,0E0,0E0,0E0,0E0,0E0,0E0,0E0,0E0,0E0,0E0,0E0,0E0,0E0,0E0,0E0,0E0,0E0,0E0,0E0,0E0,0E0,0E0,0E0,0E0,0E0,0E0,0E0,0E0,0E0,0E0,0E0,0E0,0E0],"parents":[2147483647,0,0,1,1,2,2,3,3,4,4,5,5,6,6,7,7,8,8,9,9,10,10,11,11,12,12,13,13,14,14,15,15,16,16,17,17,18,18,19,19,21,21,22,22,23,23,24,24,27,27,29,29,31,31,32,32,33,33,34,34,35,35,36,36,37,37,38,38,39,39,43,43,45,45,46,46,47,47,49,49,50,50,51,51,53,53,54,54,55,55,56,56,57,57,58,58,59,59,60,60,61,61,62,62,63,63,64,64,65,65,66,66,67,67,69,69,70,70,73,73,74,74,77,77,78,78,79,79,80,80,81,81,82,82,84,84],"right_children":[2,4,6,8,10,12,14,16,18,20,22,24,26,28,30,32,34,36,38,40,-1,42,44,46,48,-1,-1,50,-1,52,-1,54,56,58,60,62,64,66,68,70,-1,-1,-1,72,-1,74,76,78,-1,80,82,84,-1,86,88,90,92,94,96,98,100,102,104,106,108,110,112,114,-1,116,118,-1,-1,120,122,-1,-1,124,126,128,130,132,134,-1,136,-1,-1,-1,-1,-1,-1,-1,-1,-1,-1,-1,-1,-1,-1,-1,-1,-1,-1,-1,-1,-1,-1,-1,-1,-1,-1,-1,-1,-1,-1,-1,-1,-1,-1,-1,-1,-1,-1,-1,-1,-1,-1,-1,-1,-1,-1,-1,-1,-1,-1,-1,-1],"split_conditions":[5E-1,5E-1,5E-1,5E-1,5E-1,5E-1,5E-1,5E-1,5E-1,5E-1,5E-1,5E-1,5E-1,5E-1,5E-1,5E-1,5E-1,5E-1,5E-1,5E-1,-6.0000002E-2,5E-1,5E-1,5E-1,5E-1,-6.623378E-2,2.3999998E-2,5E-1,-6.393444E-2,5E-1,-2.0000003E-2,5E-1,5E-1,5E-1,5E-1,5E-1,5E-1,5E-1,5E-1,5E-1,-5.1724143E-2,-2.5544848E-9,8.9189194E-2,5E-1,-5.806452E-2,5E-1,5E-1,5E-1,-5.853659E-2,5E-1,5E-1,5E-1,1.3608247E-1,5E-1,5E-1,5E-1,5E-1,5E-1,5E-1,5E-1,5E-1,5E-1,5E-1,5E-1,5E-1,5E-1,5E-1,5E-1,-4.7368426E-2,5E-1,5E-1,-4.2857148E-2,7.2413795E-2,5E-1,5E-1,-6.1224498E-2,1.0344827E-1,5E-1,5E-1,5E-1,5E-1,5E-1,5E-1,1.0344827E-1,5E-1,-3.0480105E-2,-1.7661946E-3,-3.3241042E-3,7.445256E-2,-5.1786926E-2,6.486487E-2,-3.7267122E-3,7.317073E-2,-4.5032213E-3,4.3165464E-2,6.1598223E-2,-4.4444453E-2,-4.2599104E-2,-1.5867775E-2,-1.972319E-2,1.3953485E-2,-1.3094723E-2,-4.5424297E-2,9.884635E-4,6.1714288E-2,-6.683939E-2,3.0275226E-2,9.89011E-2,5.9227467E-2,2.2519277E-2,-2.9644275E-2,5.121951E-2,1.1284404E-1,9.96139E-2,-2.3076927E-2,1.4265734E-1,7.317073E-2,1.2786886E-1,-2.8301893E-2,1.1411884E-1,4.256055E-2,1.4363031E-1,1.0934579E-1,1.2580645E-1,5.121951E-2,3.191489E-2,-5.454546E-2,1.03199996E-1,-1.9672137E-2,6.9863014E-2,-4.719102E-2,5.660377E-2,-4.9180365E-3,-2.8767128E-2,-6.2264156E-2,-2.5544848E-9,4.5205478E-2],"split_indices":[0,20,73,43,73,67,136,56,74,67,80,91,89,89,91,74,74,84,62,69,0,76,135,115,75,0,0,98,0,65,0,75,36,135,111,72,73,124,92,129,0,0,0,76,0,72,80,98,0,65,76,76,0,85,135,44,111,94,67,86,82,69,82,72,92,78,87,93,0,91,76,0,0,93,98,0,0,74,69,94,93,80,93,0,87,0,0,0,0,0,0,0,0,0,0,0,0,0,0,0,0,0,0,0,0,0,0,0,0,0,0,0,0,0,0,0,0,0,0,0,0,0,0,0,0,0,0,0,0,0,0,0,0,0,0,0,0],"split_type":[0,0,0,0,0,0,0,0,0,0,0,0,0,0,0,0,0,0,0,0,0,0,0,0,0,0,0,0,0,0,0,0,0,0,0,0,0,0,0,0,0,0,0,0,0,0,0,0,0,0,0,0,0,0,0,0,0,0,0,0,0,0,0,0,0,0,0,0,0,0,0,0,0,0,0,0,0,0,0,0,0,0,0,0,0,0,0,0,0,0,0,0,0,0,0,0,0,0,0,0,0,0,0,0,0,0,0,0,0,0,0,0,0,0,0,0,0,0,0,0,0,0,0,0,0,0,0,0,0,0,0,0,0,0,0,0,0],"sum_hessian":[5.167555E3,4.614222E3,5.533333E2,4.5297773E3,8.444444E1,4.6577774E2,8.755555E1,3.0031108E3,1.5266666E3,6.711111E1,1.7333332E1,4.5644443E2,9.333333E0,6.3111107E1,2.4444443E1,2.0542222E3,9.4888885E2,1.1728888E3,3.5377777E2,6.3111107E1,3.9999998E0,4.444444E0,1.2888888E1,4.2266666E2,3.3777775E1,7.5555553E0,1.7777777E0,5.733333E1,5.7777777E0,2.0444443E1,3.9999998E0,1.5373333E3,5.1688885E2,6.177778E2,3.3111108E2,1.0871111E3,8.577777E1,2.568889E2,9.6888885E1,6.0888885E1,2.222222E0,1.3333333E0,3.111111E0,3.5555553E0,9.333333E0,4.1599997E2,6.666666E0,3.0222221E1,3.5555553E0,3.4666664E1,2.2666666E1,1.0666666E1,9.777777E0,1.4839999E3,5.333333E1,4.9644443E2,2.0444443E1,5.1066663E2,1.0711111E2,2.8666666E2,4.4444443E1,8.284444E2,2.5866666E2,3.1555553E1,5.4222218E1,2.4222221E2,1.4666666E1,9.155555E1,5.333333E0,5.0222218E1,1.0666666E1,1.3333333E0,2.222222E0,2.4888887E2,1.671111E2,4.444444E0,2.222222E0,1.2888888E1,1.7333332E1,1.8666666E1,1.5999999E1,1.0666666E1,1.1999999E1,2.222222E0,8.444444E0,1.3528888E3,1.311111E2,3.9111107E1,1.4222221E1,4.933333E2,3.111111E0,1.6888887E1,3.5555553E0,4.653333E2,4.5333332E1,9.911111E1,7.9999995E0,2.2044443E2,6.622222E1,3.1111109E1,1.3333332E1,7.626666E2,6.577777E1,2.0133333E2,5.733333E1,2.0444443E1,1.1111111E1,2.9333332E1,2.4888887E1,2.151111E2,2.7111109E1,3.5555553E0,1.1111111E1,8.533333E1,6.222222E0,4.6666664E1,3.5555553E0,5.7777777E0,4.8888884E0,2.1777777E2,3.1111109E1,1.3244444E2,3.4666664E1,9.333333E0,3.5555553E0,1.4666666E1,2.6666665E0,1.2888888E1,5.7777777E0,7.1111107E0,8.888888E0,4.8888884E0,5.7777777E0,7.1111107E0,4.8888884E0,1.3333333E0,7.1111107E0],"tree_param":{"num_deleted":"0","num_feature":"137","num_nodes":"137","size_leaf_vector":"0"}},{"base_weights":[-6.5052384E-3,-1.6543454E-1,1.7756043E-1,-2.3009664E-1,-9.497636E-3,4.1038774E-2,4.5896E-1,-1.5516083E-1,-4.6962792E-1,-3.8955584E-2,1.0952381E0,1.3162762E-1,-1.1827756E-1,2.5181594E-1,6.929422E-1,-5.846533E-2,-2.7478617E-1,-5.211964E-1,1.4589661E-1,-1.445471E-2,-7.2244906E-1,1.5368228E-1,-5.934067E-1,-2.4077904E-1,1.0731703E-1,-1.07423626E-1,4.1030604E-1,8.387452E-1,5.078498E-1,-6.3820537E-3,-4.7735623E-1,-3.2423404E-1,1.8461534E-1,-5.461031E-1,9.1304344E-1,8.0952376E-1,-7.04698E-1,-2.6939541E-2,1.2923077E0,1.2918486E-1,5.849056E-1,-7.0807457E-1,-3.9669427E-1,-3.4964034E-1,-6.626052E-2,-5.9405986E-2,2.6666662E-1,-1.7775758E-1,1.2631578E0,2.8348753E-1,8.882681E-1,8.745076E-1,-6.1224496E-1,5.6907654E-1,-6.623377E-1,-3.6989637E-2,5.4782605E-1,-6.502464E-1,2.7649727E-2,-3.9995554E-1,5.660373E-2,5.3658533E-1,-4.0000007E-1,-5.7085025E-1,5.3932583E-1,1.2631578E0,-4.2857146E-1,9.537572E-1,-4.8000002E-1,4.38181E-2,-2.040186E-1,3.9925026E-3,2.2890538E-1,7.2055423E-1,-6.2264156E-1,-3.8149437E-1,5.753424E-1,-2.8374076E-1,4.7244093E-1,-1.16305634E-1,1.1707317E0,8.36653E-2,9.402985E-1,-2.2170258E-1,1.1351352E0,-2.5210088E-1,3.9413488E-1,9.5164406E-1,-5.172414E-1,9.5824635E-1,5.071633E-1,4.263959E-1,8.9073634E-1,-5.1448032E-2,1.1917808E0,-4.2253565E-2,1.4042553E0,-7.348315E-1,-3.9884397E-1,-2.3076928E-1,7.8947365E-1,-4.1267705E-1,7.35849E-1,-1.0067119E-1,7.6363635E-1,5.9490085E-1,-4.8000002E-1,-7.1351355E-1,8.5714287E-1,-6.154291E-1,5.9288494E-2,-5.853659E-1,1.2631578E0,-1.2545745E-1,1.5319577E-1,-3.5498846E-1,9.589037E-2,-1.4098366E-1,3.937316E-1,2.9795358E-1,-1.4299378E-2,7.9176754E-1,-5.172414E-1,-4.4738328E-1,9.486162E-2,-5.4545456E-1,1.2244898E0,-5.3937596E-1,3.4657037E-1,6.83274E-1,-1.1009179E-1,-1.8817858E-1,9.473684E-1,-3.7441544E-2,7.1900827E-1,1.0864865E0,-4.8000002E-1,-2.9907507E-1,5.142857E-1,-3.293769E-1,7.241379E-1,5.8386683E-1,2.3151122E-1,1.0434783E0,7.292817E-1,9.823571E-1,-5.172414E-1,-4.8000002E-1,5.675675E-1,2.521957E-1,1.1116751E0,9.8992443E-1,-5.4545456E-1],"categories":[],"categories_nodes":[],"categories_segments":[],"categories_sizes":[],"default_left":[1,1,1,1,1,1,1,1,1,1,0,1,1,1,1,1,1,1,1,1,0,1,1,1,1,1,1,1,1,1,1,1,1,1,1,1,0,1,0,1,1,0,0,1,1,1,1,1,0,1,1,1,0,1,0,1,1,1,1,1,1,1,1,1,1,0,0,0,0,1,1,1,1,1,0,1,1,1,1,1,0,1,1,1,0,1,1,1,0,1,1,1,1,0,0,0,0,0,0,0,0,0,0,0,0,0,0,0,0,0,0,0,0,0,0,0,0,0,0,0,0,0,0,0,0,0,0,0,0,0,0,0,0,0,0,0,0,0,0,0,0,0,0,0,0,0,0,0,0,0,0,0,0],"id":1,"left_children":[1,3,5,7,9,11,13,15,17,19,-1,21,23,25,27,29,31,33,35,37,-1,39,41,43,45,47,49,51,53,55,57,59,61,63,65,67,-1,69,-1,71,73,-1,-1,75,77,79,81,83,-1,85,87,89,-1,91,-1,93,95,97,99,101,103,105,107,109,111,-1,-1,-1,-1,113,115,117,119,121,-1,123,125,127,129,131,-1,133,135,137,-1,139,141,143,-1,145,147,149,151,-1,-1,-1,-1,-1,-1,-1,-1,-1,-1,-1,-1,-1,-1,-1,-1,-1,-1,-1,-1,-1,-1,-1,-1,-1,-1,-1,-1,-1,-1,-1,-1,-1,-1,-1,-1,-1,-1,-1,-1,-1,-1,-1,-1,-1,-1,-1,-1,-1,-1,-1,-1,-1,-1,-1,-1,-1,-1,-1,-1],"loss_changes":[1.4992717E2,2.7730003E1,9.121332E1,3.482289E1,2.63123E1,2.3108822E1,3.7420532E1,1.7130424E1,1.4765373E1,1.3172527E1,0E0,1.6410276E1,1.6069881E1,2.3558607E1,9.388351E0,1.7908884E1,1.5105705E1,1.5759918E1,2.1205265E1,1.2450307E1,0E0,1.0395569E1,4.0332794E-1,7.1307526E0,5.4621267E0,1.2488554E1,1.7131065E1,1.1011612E1,1.2039421E1,1.24239645E1,7.9438343E0,1.7277142E1,1.3589494E1,1.160453E1,4.1425304E0,4.3636427E0,0E0,9.466076E0,0E0,1.1724566E1,9.130161E0,0E0,0E0,7.045412E0,1.7225943E1,7.2055964E0,1.286526E1,7.284051E0,0E0,1.361755E1,5.807068E0,5.5875854E0,0E0,6.7440605E0,0E0,1.2388978E1,1.9431522E1,1.1458435E0,4.928935E0,7.5170135E0,1.1209082E1,2.7161417E0,1.0464866E1,1.1600571E1,8.789835E0,0E0,0E0,0E0,0E0,1.0019357E1,9.798826E0,2.3642323E1,8.783194E0,4.650406E0,0E0,7.090473E0,6.5692425E0,1.703394E1,5.2744827E0,7.6278424E0,0E0,6.4646E0,5.158596E0,6.9176407E0,0E0,3.2309608E0,5.7101192E0,4.1205215E-1,0E0,6.188278E0,2.5847082E0,1.2784657E1,7.203594E0,0E0,0E0,0E0,0E0,0E0,0E0,0E0,0E0,0E0,0E0,0E0,0E0,0E0,0E0,0E0,0E0,0E0,0E0,0E0,0E0,0E0,0E0,0E0,0E0,0E0,0E0,0E0,0E0,0E0,0E0,0E0,0E0,0E0,0E0,0E0,0E0,0E0,0E0,0E0,0E0,0E0,0E0,0E0,0E0,0E0,0E0,0E0,0E0,0E0,0E0,0E0,0E0,0E0,0E0,0E0,0E0,0E0,0E0,0E0,0E0],"parents":[2147483647,0,0,1,1,2,2,3,3,4,4,5,5,6,6,7,7,8,8,9,9,11,11,12,12,13,13,14,14,15,15,16,16,17,17,18,18,19,19,21,21,22,22,23,23,24,24,25,25,26,26,27,27,28,28,29,29,30,30,31,31,32,32,33,33,34,34,35,35,37,37,39,39,40,40,43,43,44,44,45,45,46,46,47,47,49,49,50,50,51,51,53,53,55,55,56,56,57,57,58,58,59,59,60,60,61,61,62,62,63,63,64,64,69,69,70,70,71,71,72,72,73,73,75,75,76,76,77,77,78,78,79,79,81,81,82,82,83,83,85,85,86,86,87,87,89,89,90,90,91,91,92,92],"right_children":[2,4,6,8,10,12,14,16,18,20,-1,22,24,26,28,30,32,34,36,38,-1,40,42,44,46,48,50,52,54,56,58,60,62,64,66,68,-1,70,-1,72,74,-1,-1,76,78,80,82,84,-1,86,88,90,-1,92,-1,94,96,98,100,102,104,106,108,110,112,-1,-1,-1,-1,114,116,118,120,122,-1,124,126,128,130,132,-1,134,136,138,-1,140,142,144,-1,146,148,150,152,-1,-1,-1,-1,-1,-1,-1,-1,-1,-1,-1,-1,-1,-1,-1,-1,-1,-1,-1,-1,-1,-1,-1,-1,-1,-1,-1,-1,-1,-1,-1,-1,-1,-1,-1,-1,-1,-1,-1,-1,-1,-1,-1,-1,-1,-1,-1,-1,-1,-1,-1,-1,-1,-1,-1,-1,-1,-1,-1,-1],"split_conditions":[5E-1,5E-1,5E-1,5E-1,5E-1,5E-1,5E-1,5E-1,5E-1,5E-1,1.0952381E-1,5E-1,5E-1,5E-1,5E-1,5E-1,5E-1,5E-1,5E-1,5E-1,-7.2244905E-2,5E-1,5E-1,5E-1,5E-1,5E-1,5E-1,5E-1,5E-1,5E-1,5E-1,5E-1,5E-1,5E-1,5E-1,5E-1,-7.0469804E-2,5E-1,1.2923078E-1,5E-1,5E-1,-7.080746E-2,-3.9669428E-2,5E-1,5E-1,5E-1,5E-1,5E-1,1.2631579E-1,5E-1,5E-1,5E-1,-6.1224498E-2,5E-1,-6.623378E-2,5E-1,5E-1,5E-1,5E-1,5E-1,5E-1,5E-1,5E-1,5E-1,5E-1,1.2631579E-1,-4.2857148E-2,9.5375724E-2,-4.8000004E-2,5E-1,5E-1,5E-1,5E-1,5E-1,-6.2264156E-2,5E-1,5E-1,5E-1,5E-1,5E-1,1.1707317E-1,5E-1,5E-1,5E-1,1.1351352E-1,5E-1,5E-1,5E-1,-5.1724143E-2,5E-1,5E-1,5E-1,5E-1,-5.1448033E-3,1.1917808E-1,-4.2253565E-3,1.4042553E-1,-7.3483154E-2,-3.98844E-2,-2.3076927E-2,7.8947365E-2,-4.1267704E-2,7.358491E-2,-1.0067119E-2,7.636364E-2,5.9490085E-2,-4.8000004E-2,-7.135136E-2,8.571429E-2,-6.154291E-2,5.9288493E-3,-5.853659E-2,1.2631579E-1,-1.2545745E-2,1.5319577E-2,-3.5498846E-2,9.589038E-3,-1.4098366E-2,3.937316E-2,2.9795358E-2,-1.4299378E-3,7.9176754E-2,-5.1724143E-2,-4.473833E-2,9.486162E-3,-5.454546E-2,1.2244898E-1,-5.3937595E-2,3.465704E-2,6.83274E-2,-1.1009179E-2,-1.8817859E-2,9.473684E-2,-3.7441545E-3,7.190083E-2,1.0864865E-1,-4.8000004E-2,-2.9907508E-2,5.1428568E-2,-3.293769E-2,7.2413795E-2,5.8386683E-2,2.3151122E-2,1.04347825E-1,7.2928175E-2,9.823571E-2,-5.1724143E-2,-4.8000004E-2,5.6756753E-2,2.5219569E-2,1.1116751E-1,9.8992445E-2,-5.454546E-2],"split_indices":[63,73,73,0,116,74,43,76,71,78,0,86,98,38,76,88,86,115,76,22,0,31,75,43,43,113,82,94,129,102,65,136,82,67,80,81,0,56,0,76,135,0,0,37,82,58,78,106,0,80,136,92,0,136,0,8,43,98,129,6,69,81,100,75,136,0,0,0,0,80,87,78,98,88,0,31,86,129,129,41,0,85,92,25,0,104,135,76,0,89,98,85,78,0,0,0,0,0,0,0,0,0,0,0,0,0,0,0,0,0,0,0,0,0,0,0,0,0,0,0,0,0,0,0,0,0,0,0,0,0,0,0,0,0,0,0,0,0,0,0,0,0,0,0,0,0,0,0,0,0,0,0,0],"split_type":[0,0,0,0,0,0,0,0,0,0,0,0,0,0,0,0,0,0,0,0,0,0,0,0,0,0,0,0,0,0,0,0,0,0,0,0,0,0,0,0,0,0,0,0,0,0,0,0,0,0,0,0,0,0,0,0,0,0,0,0,0,0,0,0,0,0,0,0,0,0,0,0,0,0,0,0,0,0,0,0,0,0,0,0,0,0,0,0,0,0,0,0,0,0,0,0,0,0,0,0,0,0,0,0,0,0,0,0,0,0,0,0,0,0,0,0,0,0,0,0,0,0,0,0,0,0,0,0,0,0,0,0,0,0,0,0,0,0,0,0,0,0,0,0,0,0,0,0,0,0,0,0,0],"sum_hessian":[5.123111E3,2.7493333E3,2.3737776E3,1.943111E3,8.0622217E2,1.599111E3,7.746666E2,1.4813333E3,4.6177774E2,7.8622217E2,1.9999998E1,1.0195555E3,5.7955554E2,4.1199997E2,3.6266666E2,8.1999994E2,6.613333E2,4.262222E2,3.5555553E1,7.5999994E2,2.6222221E1,9.9022217E2,2.9333332E1,3.7555554E2,2.0399998E2,1.2622221E2,2.8577777E2,2.0088887E2,1.6177777E2,7.3022217E2,8.977777E1,5.973333E2,6.3999996E1,4.1955554E2,6.666666E0,1.9999998E1,1.5555554E1,7.537777E2,6.222222E0,9.3822217E2,5.1999996E1,1.6888887E1,1.2444444E1,2.3066666E2,1.4488889E2,9.999999E1,1.0399999E2,1.20888885E2,5.333333E0,2.271111E2,5.8666664E1,1.9644443E2,4.444444E0,1.5422221E2,7.5555553E0,6.9288885E2,3.7333332E1,6.6666664E1,2.311111E1,4.982222E2,9.911111E1,3.9999996E1,2.3999998E1,4.1066666E2,8.888888E0,5.333333E0,1.3333333E0,1.8222221E1,1.7777777E0,5.391111E2,2.1466666E2,4.1644443E2,5.217778E2,4.7111107E1,4.8888884E0,2.2355554E2,7.1111107E0,1.0355555E2,4.1333332E1,9.6444435E1,3.5555553E0,8.2666664E1,2.1333332E1,1.1777777E2,3.111111E0,3.8666664E1,1.8844443E2,5.6444443E1,2.222222E0,1.5866666E2,3.7777775E1,1.08444435E2,4.5777775E1,6.857777E2,7.1111107E0,2.2666666E1,1.4666666E1,4.8444443E1,1.8222221E1,1.7777777E1,5.333333E0,4.933333E2,4.8888884E0,8.177777E1,1.7333332E1,3.822222E1,1.7777777E0,1.9555553E1,4.444444E0,3.8355554E2,2.7111109E1,3.5555553E0,5.333333E0,2.1155554E2,3.2755554E2,1.4266666E2,7.199999E1,3.0399997E2,1.12444435E2,4.062222E2,1.1555555E2,4.4888885E1,2.222222E0,1.9644443E2,2.7111109E1,2.6666665E0,4.444444E0,7.377777E1,2.9777777E1,3.0222221E1,1.1111111E1,9.111111E1,5.333333E0,7.022222E1,1.2444444E1,1.9555553E1,1.7777777E0,1.0711111E2,1.0666666E1,3.6444443E1,2.222222E0,8.577777E1,1.02666664E2,3.7333332E1,1.911111E1,1.5644443E2,2.222222E0,1.7777777E0,3.5999996E1,8.755555E1,2.0888887E1,4.3111107E1,2.6666665E0],"tree_param":{"num_deleted":"0","num_feature":"137","num_nodes":"153","size_leaf_vector":"0"}},{"base_weights":[-2.6558866E-3,7.279252E-2,-6.112743E-1,2.596394E-1,-3.045485E-1,-6.265939E-1,-1.5254241E-1,1.3656339E-1,5.722543E-1,-3.3016026E-1,1.4574894E-1,-6.486088E-1,-5.196851E-1,-4.630873E-1,1.1351352E0,1.12852134E-1,9.9810964E-1,6.787517E-1,1.4319765E-2,-2.656311E-1,-4.253603E-1,3.2377738E-1,-5.350319E-1,-6.5374035E-1,-2.8767127E-1,-5.406361E-1,-6.1224528E-2,-2.9032263E-1,-6.461539E-1,8.347735E-2,5.025945E-1,1.0778443E0,-3.2432437E-1,8.658851E-1,3.261727E-1,-2.9484075E-2,1.1999999E0,-2.7791634E-1,5.8407074E-1,-4.4611943E-1,-7.868857E-2,4.1899437E-1,-5.0769234E-1,-2.6086962E-1,-6.804124E-1,-6.575964E-1,-8.1081115E-2,2.7272725E-1,-6.1224496E-1,-5.872341E-1,-2.941177E-1,1.6216213E-1,-4.2857146E-1,-4.9180366E-2,-5.853659E-1,7.4254885E-2,1.392E0,3.8419616E-1,9.922179E-1,1.4163569E0,6.59751E-1,8.128778E-1,1.2793177E0,4.346135E-1,-6.437769E-1,-1.7142862E-1,2.3999996E-1,-2.9020262E-1,-3.2171626E-2,1.0909091E0,-4.0000004E-1,-4.5535168E-1,2.6086953E-1,-4.0000007E-1,7.4157304E-1,5.364238E-1,-1.9354843E-1,-6.62907E-1,-3.1168836E-1,2.3999998E-1,-4.2857146E-1,8.571428E-1,-4.2857146E-1,-6.231885E-1,-2.9032263E-1,1.5584412E-1,-6.705883E-1,2.3999998E-1,-2.5544848E-8,-3.2432437E-1,2.7272725E-1,6.592282E-2,9.408284E-1,4.2695567E-1,-6.1224496E-1,1.1770334E0,1.578947E-1,8.657718E-1,2.9702967E-1,7.7233505E-1,1.4389141E0,1.3265306E0,4.0540537E-1,5.8985597E-1,-1.0234546E-1,-2.6896557E-1,6.404494E-1,4.217252E-1,-2.4793394E-1,-3.067298E-1,-1.346424E-1,2.7649766E-1,-4.363637E-1,-5.4545456E-1,-2.5544848E-8,-5.084124E-1,-3.436124E-1,8.181818E-1,-2.0000003E-1,-5.5491334E-1,9.836062E-2,5.217391E-1,1.0344827E0,6.3779527E-1,-3.973643E-8,3.0612242E-1,-6.2264156E-1,-6.649525E-1,-2.5544848E-8,5.9999996E-1,-6.3934433E-1,-6.5434384E-1,-3.7078658E-1,1.6216213E-1,-5.0769234E-1,-4.2857146E-1,3.230769E-1,-2.5544848E-8,-4.8000002E-1,4.285714E-1,-2.5544848E-8],"categories":[],"categories_nodes":[],"categories_segments":[],"categories_sizes":[],"default_left":[1,1,1,1,1,1,1,1,1,1,1,1,1,1,0,1,1,1,1,1,1,1,1,1,1,1,1,1,0,1,1,1,0,1,1,1,0,1,1,1,1,1,0,0,0,1,1,1,0,1,1,1,0,1,0,1,0,1,1,0,1,1,1,1,0,1,1,1,1,0,1,1,1,1,1,1,1,1,1,0,0,0,0,1,1,1,0,0,0,1,1,0,0,0,0,0,0,0,0,0,0,0,0,0,0,0,0,0,0,0,0,0,0,0,0,0,0,0,0,0,0,0,0,0,0,0,0,0,0,0,0,0,0,0,0,0,0,0,0,0,0],"id":2,"left_children":[1,3,5,7,9,11,13,15,17,19,21,23,25,27,-1,29,31,33,35,37,39,41,43,45,47,49,51,53,-1,55,57,59,-1,61,63,65,-1,67,69,71,73,75,-1,-1,-1,77,79,81,-1,83,85,87,-1,89,-1,91,-1,93,95,-1,97,99,101,103,-1,105,107,109,111,-1,113,115,117,119,121,123,125,127,129,-1,-1,-1,-1,131,133,135,-1,-1,-1,137,139,-1,-1,-1,-1,-1,-1,-1,-1,-1,-1,-1,-1,-1,-1,-1,-1,-1,-1,-1,-1,-1,-1,-1,-1,-1,-1,-1,-1,-1,-1,-1,-1,-1,-1,-1,-1,-1,-1,-1,-1,-1,-1,-1,-1,-1,-1,-1,-1,-1,-1],"loss_changes":[2.3634004E2,3.2293713E2,3.893753E0,1.1778055E2,1.7543533E1,9.5503235E-1,8.390006E0,4.4813824E1,5.13873E1,8.7065735E0,1.0151894E1,6.476898E-1,9.1568184E-1,3.3601665E-1,0E0,2.4474583E1,6.547329E0,4.7640564E1,7.2892966E0,9.1222725E0,4.1269455E0,5.429147E0,5.177994E-1,9.2736816E-1,1.6423107E0,9.109173E-1,5.1627135E-1,7.064013E-1,0E0,2.3942404E1,8.307938E0,6.944046E0,0E0,9.345306E0,2.693761E1,5.230635E0,0E0,2.5473175E0,6.6986322E0,3.6789474E0,9.228366E0,4.3956804E0,0E0,0E0,0E0,6.034851E-1,5.6154436E-1,1.8701298E0,0E0,6.5530205E-1,2.984263E0,5.1891886E-2,0E0,6.8876624E-1,0E0,1.4231851E1,0E0,5.4737015E0,4.2173004E0,0E0,1.7438936E0,9.619293E0,1.61232E0,1.9112492E1,0E0,7.2551956E0,4.29175E0,2.0317612E0,5.2913313E0,0E0,2.9090917E-1,3.019699E0,2.1328063E0,1.9846487E0,9.703016E-2,2.73703E0,2.4061265E0,5.8773804E-1,2.939323E0,0E0,0E0,0E0,0E0,2.9997063E-1,1.0986788E0,9.746253E-1,0E0,0E0,0E0,2.0756751E-1,1.5584418E-1,0E0,0E0,0E0,0E0,0E0,0E0,0E0,0E0,0E0,0E0,0E0,0E0,0E0,0E0,0E0,0E0,0E0,0E0,0E0,0E0,0E0,0E0,0E0,0E0,0E0,0E0,0E0,0E0,0E0,0E0,0E0,0E0,0E0,0E0,0E0,0E0,0E0,0E0,0E0,0E0,0E0,0E0,0E0,0E0,0E0,0E0,0E0,0E0,0E0,0E0],"parents":[2147483647,0,0,1,1,2,2,3,3,4,4,5,5,6,6,7,7,8,8,9,9,10,10,11,11,12,12,13,13,15,15,16,16,17,17,18,18,19,19,20,20,21,21,22,22,23,23,24,24,25,25,26,26,27,27,29,29,30,30,31,31,33,33,34,34,35,35,37,37,38,38,39,39,40,40,41,41,45,45,46,46,47,47,49,49,50,50,51,51,53,53,55,55,57,57,58,58,60,60,61,61,62,62,63,63,65,65,66,66,67,67,68,68,70,70,71,71,72,72,73,73,74,74,75,75,76,76,77,77,78,78,83,83,84,84,85,85,89,89,90,90],"right_children":[2,4,6,8,10,12,14,16,18,20,22,24,26,28,-1,30,32,34,36,38,40,42,44,46,48,50,52,54,-1,56,58,60,-1,62,64,66,-1,68,70,72,74,76,-1,-1,-1,78,80,82,-1,84,86,88,-1,90,-1,92,-1,94,96,-1,98,100,102,104,-1,106,108,110,112,-1,114,116,118,120,122,124,126,128,130,-1,-1,-1,-1,132,134,136,-1,-1,-1,138,140,-1,-1,-1,-1,-1,-1,-1,-1,-1,-1,-1,-1,-1,-1,-1,-1,-1,-1,-1,-1,-1,-1,-1,-1,-1,-1,-1,-1,-1,-1,-1,-1,-1,-1,-1,-1,-1,-1,-1,-1,-1,-1,-1,-1,-1,-1,-1,-1,-1,-1],"split_conditions":[5E-1,5E-1,5E-1,5E-1,5E-1,5E-1,5E-1,5E-1,5E-1,5E-1,5E-1,5E-1,5E-1,5E-1,1.1351352E-1,5E-1,5E-1,5E-1,5E-1,5E-1,5E-1,5E-1,5E-1,5E-1,5E-1,5E-1,5E-1,5E-1,-6.461539E-2,5E-1,5E-1,5E-1,-3.2432437E-2,5E-1,5E-1,5E-1,1.2E-1,5E-1,5E-1,5E-1,5E-1,5E-1,-5.0769236E-2,-2.6086962E-2,-6.804124E-2,5E-1,5E-1,5E-1,-6.1224498E-2,5E-1,5E-1,5E-1,-4.2857148E-2,5E-1,-5.853659E-2,5E-1,1.392E-1,5E-1,5E-1,1.416357E-1,5E-1,5E-1,5E-1,5E-1,-6.437769E-2,5E-1,5E-1,5E-1,5E-1,1.0909092E-1,5E-1,5E-1,5E-1,5E-1,5E-1,5E-1,5E-1,5E-1,5E-1,2.3999998E-2,-4.2857148E-2,8.571428E-2,-4.2857148E-2,5E-1,5E-1,5E-1,-6.705883E-2,2.3999998E-2,-2.5544848E-9,5E-1,5E-1,6.592282E-3,9.408284E-2,4.2695567E-2,-6.1224498E-2,1.1770334E-1,1.578947E-2,8.657718E-2,2.9702967E-2,7.723351E-2,1.4389141E-1,1.3265306E-1,4.054054E-2,5.89856E-2,-1.0234546E-2,-2.6896557E-2,6.4044945E-2,4.217252E-2,-2.4793394E-2,-3.067298E-2,-1.3464241E-2,2.7649766E-2,-4.363637E-2,-5.454546E-2,-2.5544848E-9,-5.0841242E-2,-3.436124E-2,8.1818186E-2,-2.0000003E-2,-5.5491336E-2,9.836062E-3,5.2173913E-2,1.0344827E-1,6.3779525E-2,-3.973643E-9,3.0612243E-2,-6.2264156E-2,-6.6495255E-2,-2.5544848E-9,6E-2,-6.393444E-2,-6.543439E-2,-3.707866E-2,1.6216213E-2,-5.0769236E-2,-4.2857148E-2,3.2307692E-2,-2.5544848E-9,-4.8000004E-2,4.285714E-2,-2.5544848E-9],"split_indices":[0,43,69,74,69,73,91,48,65,73,136,128,78,84,0,67,116,66,83,95,129,86,76,70,72,135,102,135,0,40,56,87,0,135,20,76,0,92,72,102,76,135,0,0,0,67,81,70,0,84,93,136,0,76,0,115,0,102,98,0,62,40,93,86,0,136,86,136,84,0,93,135,93,82,62,82,81,85,87,0,0,0,0,85,76,80,0,0,0,98,88,0,0,0,0,0,0,0,0,0,0,0,0,0,0,0,0,0,0,0,0,0,0,0,0,0,0,0,0,0,0,0,0,0,0,0,0,0,0,0,0,0,0,0,0,0,0,0,0,0,0],"split_type":[0,0,0,0,0,0,0,0,0,0,0,0,0,0,0,0,0,0,0,0,0,0,0,0,0,0,0,0,0,0,0,0,0,0,0,0,0,0,0,0,0,0,0,0,0,0,0,0,0,0,0,0,0,0,0,0,0,0,0,0,0,0,0,0,0,0,0,0,0,0,0,0,0,0,0,0,0,0,0,0,0,0,0,0,0,0,0,0,0,0,0,0,0,0,0,0,0,0,0,0,0,0,0,0,0,0,0,0,0,0,0,0,0,0,0,0,0,0,0,0,0,0,0,0,0,0,0,0,0,0,0,0,0,0,0,0,0,0,0,0,0],"sum_hessian":[5.1448887E3,4.578222E3,5.666666E2,3.062222E3,1.5159999E3,5.4799994E2,1.8666666E1,2.1982222E3,8.6399994E2,1.4346666E3,8.133333E1,4.502222E2,9.777777E1,1.5555554E1,3.111111E0,2.1404443E3,5.7777775E1,7.253333E2,1.3866666E2,8.5733325E2,5.773333E2,6.4888885E1,1.6444443E1,4.4311108E2,7.1111107E0,9.333333E1,4.444444E0,9.333333E0,6.222222E0,1.9915554E3,1.4888889E2,5.4666664E1,3.111111E0,4.7288885E2,2.5244443E2,1.3466666E2,3.9999998E0,8.457777E2,1.1555555E1,5.444444E2,3.2888885E1,5.8666664E1,6.222222E0,6.666666E0,9.777777E0,4.3999997E2,3.111111E0,2.6666665E0,4.444444E0,7.733333E1,1.5999999E1,3.111111E0,1.3333333E0,5.7777777E0,3.5555553E0,1.9786665E3,1.2888888E1,1.2133333E2,2.7555553E1,2.8888887E1,2.5777777E1,4.2177774E2,5.1111107E1,2.2755554E2,2.4888887E1,8.844444E1,4.622222E1,8.053333E2,4.0444443E1,7.5555553E0,3.9999998E0,5.377778E2,6.666666E0,2.3999998E1,8.888888E0,4.9333332E1,9.333333E0,4.3244443E2,7.5555553E0,1.7777777E0,1.3333333E0,1.3333333E0,1.3333333E0,6.799999E1,9.333333E0,7.5555553E0,8.444444E0,1.7777777E0,1.3333333E0,3.111111E0,2.6666665E0,1.9608888E3,1.7777777E1,1.16888885E2,4.444444E0,2.2222221E1,5.333333E0,1.5555554E1,1.0222221E1,3.982222E2,2.3555553E1,4.7999996E1,3.111111E0,1.7644443E2,5.1111107E1,7.955555E1,8.888888E0,3.3777775E1,1.2444444E1,7.271111E2,7.822221E1,2.311111E1,1.7333332E1,2.6666665E0,1.3333333E0,3.622222E2,1.7555554E2,2.6666665E0,3.9999998E0,1.8222221E1,5.7777777E0,6.666666E0,2.222222E0,4.1333332E1,7.9999995E0,4.444444E0,4.8888884E0,4.3111108E2,1.3333333E0,1.7777777E0,5.7777777E0,5.9111107E1,8.888888E0,3.111111E0,6.222222E0,1.3333333E0,6.222222E0,1.3333333E0,1.7777777E0,1.3333333E0,1.3333333E0],"tree_param":{"num_deleted":"0","num_feature":"137","num_nodes":"141","size_leaf_vector":"0"}},{"base_weights":[-6.653308E-3,-1.1490482E-1,8.48415E-1,-1.3173865E-1,7.6441646E-1,9.591525E-1,2.26163E-1,-2.2428589E-1,4.603492E-2,9.5048875E-1,-5.2937813E-2,9.8955834E-1,-4.0671092E-1,2.8701517E-1,-6.220436E-1,-2.9716465E-1,-6.878678E-2,-4.3026164E-2,3.4941155E-1,1.06096E0,-5.940688E-1,7.548568E-1,-3.700002E-1,1.0083705E0,-1.8210891E-1,-6.536557E-1,5.904112E-1,3.608745E-1,-1.1871132E-1,-2.4658802E-1,-4.530433E-1,-1.7157893E-1,2.53247E-1,-1.294104E-2,-4.545879E-1,1.8502179E-1,7.386644E-1,1.122755E0,-5.067408E-1,3.917565E-1,-6.5754896E-1,1.0505323E0,4.762343E-1,-6.167388E-1,8.810079E-1,1.9897798E-1,7.9576415E-1,-2.8854552E-1,8.0191076E-1,-2.6315993E-1,1.9303302E-1,-4.615971E-1,8.014803E-1,-6.469629E-2,-3.0255583E-1,1.3171162E-1,5.9999835E-1,-5.0332684E-2,5.0383556E-1,-5.2274776E-1,2.6995355E-1,1.3988988E-1,8.7888515E-1,8.560801E-1,-3.9453357E-1,1.2466145E0,5.8484036E-1,5.855219E-1,-6.715413E-3,9.3907833E-1,1.2059462E0,1.4331812E-1,9.0429574E-1,4.3577424E-1,-2.7321073E-1,1.1130382E0,4.701637E-1,3.9940152E-1,-4.1182745E-1,-2.698881E-1,5.780098E-1,-4.5537657E-1,3.7946552E-1,-4.8444194E-1,1.8687146E-2,-1.16981894E-1,3.3047387E-1,-3.4278694E-1,-1.7400922E-2,1.8130226E-1,-4.655011E-1,7.786741E-1,-5.042443E-2,-1.1956133E-1,1.450168E-1,6.2355125E-1,-6.42933E-1,-6.387848E-1,-1.8755864E-2,1.146997E0,-5.811723E-1,1.656245E-1,-5.506808E-1,4.4913238E-1,9.805104E-1,9.2360026E-1,-8.6730525E-2,-6.666606E-1,7.9186124E-1,1.1955711E0,-3.194897E-1,1.0219078E0,3.5333234E-1,1.2534788E0,1.013482E0,-2.2114927E-1,1.0322902E0,1.0654669E0,-4.5277327E-1,2.551063E-1,7.9995906E-1,-4.0851715E-1,8.0185366E-1,1.1946921E0,3.886581E-1,8.8210076E-1,2.909388E-1,-6.065936E-1,-2.0804681E-1],"categories":[],"categories_nodes":[],"categories_segments":[],"categories_sizes":[],"default_left":[1,1,1,1,1,1,1,1,1,1,1,1,1,1,0,1,1,1,1,1,0,0,1,1,1,0,0,1,1,1,1,1,1,1,1,1,1,1,0,1,0,1,1,0,0,1,1,1,0,1,1,1,0,1,1,1,1,1,1,1,1,1,1,1,1,0,1,0,0,1,1,1,1,1,1,1,1,0,1,0,0,0,0,0,0,0,0,0,0,0,0,0,0,0,0,0,0,0,0,0,0,0,0,0,0,0,0,0,0,0,0,0,0,0,0,0,0,0,0,0,0,0,0,0,0,0,0,0,0],"id":3,"left_children":[1,3,5,7,9,11,13,15,17,19,21,23,25,27,-1,29,31,33,35,37,-1,-1,39,41,43,-1,-1,45,47,49,51,53,55,57,59,61,63,65,-1,67,-1,69,71,-1,-1,73,75,77,-1,79,81,83,-1,85,87,89,91,93,95,97,99,101,103,105,107,-1,109,-1,-1,111,113,115,117,119,121,123,125,-1,127,-1,-1,-1,-1,-1,-1,-1,-1,-1,-1,-1,-1,-1,-1,-1,-1,-1,-1,-1,-1,-1,-1,-1,-1,-1,-1,-1,-1,-1,-1,-1,-1,-1,-1,-1,-1,-1,-1,-1,-1,-1,-1,-1,-1,-1,-1,-1,-1,-1,-1],"loss_changes":[4.7713892E2,6.782832E1,3.9697998E1,7.388792E1,1.3144218E1,2.0812073E1,4.763064E0,3.3447113E1,4.1574562E1,1.2605465E1,4.6109233E0,1.0786285E1,3.195589E0,2.5468516E0,0E0,1.5738678E1,3.1282843E1,1.4728221E1,2.2207317E1,6.948883E0,0E0,0E0,3.0649283E0,1.0124878E1,4.4470243E0,0E0,0E0,4.8362446E0,2.3611097E0,1.1125771E1,5.6423874E0,1.0003365E1,9.561007E0,2.147288E1,4.142851E0,7.606843E0,1.4088589E1,3.5130157E0,0E0,3.2349056E-1,0E0,6.4540405E0,5.085766E0,0E0,0E0,6.0482254E0,1.4302683E0,1.2021664E0,0E0,8.449318E0,6.9180756E0,5.370384E0,0E0,8.21074E0,3.681734E0,5.138747E0,6.9059525E0,1.402741E1,1.0694942E1,4.339361E0,6.359908E0,4.2311187E0,2.0972824E-1,6.0614395E0,3.8814762E0,0E0,8.003994E0,0E0,0E0,1.22332E1,3.708191E-1,7.283298E0,3.9430618E0,2.1450052E0,2.9932642E0,5.8933258E-2,5.6023383E-1,0E0,3.0515194E-1,0E0,0E0,0E0,0E0,0E0,0E0,0E0,0E0,0E0,0E0,0E0,0E0,0E0,0E0,0E0,0E0,0E0,0E0,0E0,0E0,0E0,0E0,0E0,0E0,0E0,0E0,0E0,0E0,0E0,0E0,0E0,0E0,0E0,0E0,0E0,0E0,0E0,0E0,0E0,0E0,0E0,0E0,0E0,0E0,0E0,0E0,0E0,0E0,0E0,0E0],"parents":[2147483647,0,0,1,1,2,2,3,3,4,4,5,5,6,6,7,7,8,8,9,9,10,10,11,11,12,12,13,13,15,15,16,16,17,17,18,18,19,19,22,22,23,23,24,24,27,27,28,28,29,29,30,30,31,31,32,32,33,33,34,34,35,35,36,36,37,37,39,39,41,41,42,42,45,45,46,46,47,47,49,49,50,50,51,51,53,53,54,54,55,55,56,56,57,57,58,58,59,59,60,60,61,61,62,62,63,63,64,64,66,66,69,69,70,70,71,71,72,72,73,73,74,74,75,75,76,76,78,78],"right_children":[2,4,6,8,10,12,14,16,18,20,22,24,26,28,-1,30,32,34,36,38,-1,-1,40,42,44,-1,-1,46,48,50,52,54,56,58,60,62,64,66,-1,68,-1,70,72,-1,-1,74,76,78,-1,80,82,84,-1,86,88,90,92,94,96,98,100,102,104,106,108,-1,110,-1,-1,112,114,116,118,120,122,124,126,-1,128,-1,-1,-1,-1,-1,-1,-1,-1,-1,-1,-1,-1,-1,-1,-1,-1,-1,-1,-1,-1,-1,-1,-1,-1,-1,-1,-1,-1,-1,-1,-1,-1,-1,-1,-1,-1,-1,-1,-1,-1,-1,-1,-1,-1,-1,-1,-1,-1,-1,-1],"split_conditions":[5E-1,5E-1,5E-1,5E-1,5E-1,5E-1,5E-1,5E-1,5E-1,5E-1,5E-1,5E-1,5E-1,5E-1,-6.220436E-2,5E-1,5E-1,5E-1,5E-1,5E-1,-5.9406884E-2,7.5485684E-2,5E-1,5E-1,5E-1,-6.5365575E-2,5.904112E-2,5E-1,5E-1,5E-1,5E-1,5E-1,5E-1,5E-1,5E-1,5E-1,5E-1,5E-1,-5.067408E-2,5E-1,-6.57549E-2,5E-1,5E-1,-6.167388E-2,8.810079E-2,5E-1,5E-1,5E-1,8.0191076E-2,5E-1,5E-1,5E-1,8.0148034E-2,5E-1,5E-1,5E-1,5E-1,5E-1,5E-1,5E-1,5E-1,5E-1,5E-1,5E-1,5E-1,1.24661446E-1,5E-1,5.8552187E-2,-6.715413E-4,5E-1,5E-1,5E-1,5E-1,5E-1,5E-1,5E-1,5E-1,3.9940152E-2,5E-1,-2.698881E-2,5.780098E-2,-4.5537658E-2,3.7946552E-2,-4.8444193E-2,1.8687146E-3,-1.1698189E-2,3.304739E-2,-3.4278695E-2,-1.7400923E-3,1.8130226E-2,-4.655011E-2,7.786741E-2,-5.042443E-3,-1.1956133E-2,1.4501681E-2,6.2355127E-2,-6.42933E-2,-6.3878484E-2,-1.8755865E-3,1.146997E-1,-5.811723E-2,1.656245E-2,-5.5068083E-2,4.491324E-2,9.805104E-2,9.236003E-2,-8.673052E-3,-6.666606E-2,7.918613E-2,1.19557105E-1,-3.194897E-2,1.02190785E-1,3.5333235E-2,1.2534788E-1,1.013482E-1,-2.2114927E-2,1.0322902E-1,1.0654669E-1,-4.5277327E-2,2.551063E-2,7.999591E-2,-4.0851716E-2,8.018537E-2,1.1946922E-1,3.8865812E-2,8.8210076E-2,2.909388E-2,-6.065936E-2,-2.080468E-2],"split_indices":[0,20,73,43,73,67,106,56,74,67,80,115,65,91,0,74,73,69,62,69,0,0,135,91,65,0,0,136,102,75,44,74,135,84,86,124,84,129,0,65,0,72,76,0,0,93,87,65,0,104,38,36,0,135,111,84,82,72,67,87,79,93,80,93,88,0,76,0,0,93,98,74,74,65,132,85,76,0,84,0,0,0,0,0,0,0,0,0,0,0,0,0,0,0,0,0,0,0,0,0,0,0,0,0,0,0,0,0,0,0,0,0,0,0,0,0,0,0,0,0,0,0,0,0,0,0,0,0,0],"split_type":[0,0,0,0,0,0,0,0,0,0,0,0,0,0,0,0,0,0,0,0,0,0,0,0,0,0,0,0,0,0,0,0,0,0,0,0,0,0,0,0,0,0,0,0,0,0,0,0,0,0,0,0,0,0,0,0,0,0,0,0,0,0,0,0,0,0,0,0,0,0,0,0,0,0,0,0,0,0,0,0,0,0,0,0,0,0,0,0,0,0,0,0,0,0,0,0,0,0,0,0,0,0,0,0,0,0,0,0,0,0,0,0,0,0,0,0,0,0,0,0,0,0,0,0,0,0,0,0,0],"sum_hessian":[5.152726E3,4.5744653E3,5.782609E2,4.48937E3,8.509484E1,4.9043967E2,8.782124E1,2.952214E3,1.5371562E3,6.918244E1,1.5912401E1,4.800291E2,1.0410537E1,8.2559845E1,5.2614E0,2.0094984E3,9.427156E2,1.1889725E3,3.481838E2,6.485679E1,4.3256497E0,4.0960135E0,1.1816388E1,4.7258075E2,7.4483676E0,8.62015E0,1.7903874E0,6.9938614E1,1.262123E1,1.5191687E3,4.9032974E2,7.1496747E2,2.2774814E2,1.1089406E3,8.0032E1,2.4583694E2,1.02346855E2,6.26703E1,2.1864913E0,3.1388187E0,8.677569E0,4.369839E2,3.559687E1,5.584965E0,1.8634025E0,5.2027752E1,1.7910856E1,1.1235168E1,1.3860621E0,1.4643694E3,5.479929E1,4.876369E2,2.6928267E0,3.945181E2,3.2044937E2,1.6966194E2,5.808619E1,1.0349581E3,7.3982346E1,7.3405075E1,6.6269264E0,2.3195143E2,1.3885521E1,9.295946E1,9.387401E0,4.9869843E1,1.2800456E1,1.7960387E0,1.34278E0,2.585844E2,1.7839949E2,2.0774628E1,1.4822241E1,3.470219E1,1.7325562E1,7.8465466E0,1.006431E1,1.367029E0,9.868139E0,1.4534232E3,1.0946219E1,1.1915337E1,4.2883953E1,4.6548724E2,2.2149656E1,3.4904E2,4.5478077E1,2.8065152E2,3.979785E1,1.5729694E2,1.2365016E1,4.5413578E1,1.2672612E1,7.6444086E2,2.705173E2,6.7402214E1,6.5801287E0,5.945007E1,1.3955003E1,3.0925658E0,3.534361E0,2.2435098E2,7.6004367E0,3.692055E0,1.0193465E1,8.6766014E1,6.1934443E0,7.992268E0,1.3951324E0,7.4482794E0,5.3521767E0,2.2589612E2,3.268828E1,1.3864565E2,3.9753853E1,1.5266703E1,5.507926E0,1.3440828E1,1.3814123E0,2.43319E1,1.0370293E1,1.5939447E1,1.3861142E0,6.4681764E0,1.3783703E0,1.8622632E0,8.202047E0,4.034966E0,5.8331738E0],"tree_param":{"num_deleted":"0","num_feature":"137","num_nodes":"129","size_leaf_vector":"0"}},{"base_weights":[-4.1771927E-3,-1.5115882E-1,1.6251034E-1,-2.1263033E-1,-7.4930666E-3,3.4097914E-2,4.2624488E-1,-1.4357314E-1,-4.3523416E-1,-3.5349056E-2,9.714162E-1,1.2558E-1,-1.2849778E-1,2.4875526E-1,6.1805564E-1,-1.8477166E-1,1.6419995E-1,-4.8256284E-1,1.2112048E-1,-1.0161411E-2,-7.077439E-1,6.5911E-1,1.137155E0,1.4731893E-1,-5.600138E-1,-2.8396177E-1,6.0861498E-2,-3.5352796E-2,3.6912927E-1,6.3602656E-1,-6.2402725E-1,-2.1222734E-1,2.9543203E-1,3.522445E-1,-1.4542942E-1,-5.094553E-1,5.116544E-1,7.28619E-1,-6.84218E-1,6.275562E-2,-1.9565327E-1,-5.049291E-1,9.740465E-1,1.72475E-1,-2.776576E-1,-6.978801E-1,-3.146326E-1,-2.3404212E-1,-7.0724237E-1,1.0723786E-1,-6.8200445E-1,6.626407E-2,-6.991544E-1,2.523663E-1,8.2222027E-1,6.599169E-1,-1.2388328E-1,-2.220614E-1,7.5599056E-1,4.1973564E-1,-6.5588844E-1,2.5336936E-1,8.6005116E-1,-2.0039119E-1,9.51403E-1,-5.5901366E-1,9.4239965E-2,-5.824191E-1,1.150832E0,8.317027E-1,-4.4257626E-1,2.4283735E-2,7.054176E-1,-3.1835914E-1,4.7282677E-2,5.8473613E-2,2.6113176E-1,-6.964997E-1,-1.4333712E-1,-4.723704E-1,-2.500229E-1,-2.4908333E-1,8.4554267E-1,4.1426845E-2,5.8964896E-1,-9.835827E-2,4.1222796E-1,-2.6651305E-1,3.560791E-1,8.9543974E-1,-5.357899E-1,7.564169E-1,4.4857383E-1,-6.655065E-1,1.0523362E0,-2.7124387E-1,-3.582007E-2,-5.527149E-1,1.2360021E0,5.0721E-1,-6.0317343E-1,1.302214E-1,7.303414E-1,1.1021407E0,-5.2182406E-1,-3.8156286E-1,1.143574E-1,-5.846196E-1,7.0574564E-1,8.2546425E-1,-4.0082264E-1,9.441986E-1,-4.221071E-1,-1.6197439E-1,1.4014007E-1,8.6894554E-1,-5.7374567E-1,-3.7794942E-1,8.071117E-1,-1.1224025E-1,5.2321523E-1,-5.856037E-2,3.5669753E-1,3.1600192E-1,5.7102397E-2,-2.361572E-1,2.6873085E-1,-3.131894E-1,3.2257974E-2,1.8539866E-3,9.529446E-1,-6.203426E-1,8.505269E-1,-2.706018E-1,6.7735755E-1,6.8332076E-1,-6.4774853E-1,-3.8885933E-1,8.4250027E-1,4.2654192E-1,-6.5945044E-2,1.0110917E0,6.213433E-1,8.5630906E-1,4.9302158E-1,1.8686855E-1,1.0316706E0],"categories":[],"categories_nodes":[],"categories_segments":[],"categories_sizes":[],"default_left":[1,1,1,1,1,1,1,1,1,1,1,1,1,1,1,1,1,1,1,1,0,1,0,1,1,1,1,1,1,1,0,1,1,1,1,1,1,1,0,1,1,0,0,1,1,0,1,1,0,1,0,1,0,1,1,1,1,1,1,1,0,1,1,1,0,1,1,0,0,1,0,1,1,1,1,1,1,0,1,0,0,1,0,1,1,1,1,1,1,1,0,1,1,0,0,0,0,0,0,0,0,0,0,0,0,0,0,0,0,0,0,0,0,0,0,0,0,0,0,0,0,0,0,0,0,0,0,0,0,0,0,0,0,0,0,0,0,0,0,0,0,0,0,0,0,0,0],"id":4,"left_children":[1,3,5,7,9,11,13,15,17,19,21,23,25,27,29,31,33,35,37,39,-1,41,-1,43,45,47,49,51,53,55,-1,57,59,61,63,65,67,69,-1,71,73,-1,-1,75,77,-1,79,81,-1,83,-1,85,-1,87,89,91,93,95,97,99,-1,101,103,105,-1,107,109,-1,-1,111,-1,113,115,117,119,121,123,-1,125,-1,-1,127,-1,129,131,133,135,137,139,141,-1,143,145,-1,-1,-1,-1,-1,-1,-1,-1,-1,-1,-1,-1,-1,-1,-1,-1,-1,-1,-1,-1,-1,-1,-1,-1,-1,-1,-1,-1,-1,-1,-1,-1,-1,-1,-1,-1,-1,-1,-1,-1,-1,-1,-1,-1,-1,-1,-1,-1,-1,-1,-1,-1,-1,-1],"loss_changes":[1.2577272E2,2.4090603E1,8.14536E1,2.9306648E1,2.2354116E1,2.4096811E1,2.6660782E1,1.8538383E1,1.1956711E1,1.3488067E1,4.2456627E-1,1.5530882E1,1.7191517E1,1.4060795E1,8.831482E0,1.704142E1,1.0115328E1,1.1400322E1,1.8221521E1,1.041448E1,0E0,4.2468324E0,0E0,1.0796959E1,8.651552E-1,6.6076145E0,9.163035E0,8.353593E0,1.5061008E1,6.852951E0,0E0,1.1772045E1,8.5607605E0,5.1962786E0,4.1705337E0,1.2204422E1,8.692531E0,2.9195423E0,0E0,1.3651032E1,6.4914827E0,0E0,0E0,9.585178E0,3.0829663E0,0E0,1.8007994E-2,4.8908796E0,0E0,7.8873916E0,0E0,6.1754975E0,0E0,1.25214E1,6.315735E0,7.038788E0,8.479144E0,1.1048458E1,8.523686E0,5.9053583E0,0E0,5.2897453E0,6.314618E0,3.6757329E0,0E0,1.25731735E1,1.1795137E1,0E0,0E0,3.1872282E0,0E0,1.1300661E1,7.0225945E0,9.99481E0,5.660327E0,1.4569333E1,5.9607086E0,0E0,1.7500411E0,0E0,0E0,5.150936E0,0E0,7.9471626E0,9.947032E0,1.0043285E1,1.0477861E1,5.624445E0,5.7636795E0,1.1489906E0,0E0,6.0742035E0,1.748751E1,0E0,0E0,0E0,0E0,0E0,0E0,0E0,0E0,0E0,0E0,0E0,0E0,0E0,0E0,0E0,0E0,0E0,0E0,0E0,0E0,0E0,0E0,0E0,0E0,0E0,0E0,0E0,0E0,0E0,0E0,0E0,0E0,0E0,0E0,0E0,0E0,0E0,0E0,0E0,0E0,0E0,0E0,0E0,0E0,0E0,0E0,0E0,0E0,0E0,0E0,0E0,0E0,0E0,0E0],"parents":[2147483647,0,0,1,1,2,2,3,3,4,4,5,5,6,6,7,7,8,8,9,9,10,10,11,11,12,12,13,13,14,14,15,15,16,16,17,17,18,18,19,19,21,21,23,23,24,24,25,25,26,26,27,27,28,28,29,29,31,31,32,32,33,33,34,34,35,35,36,36,37,37,39,39,40,40,43,43,44,44,46,46,47,47,49,49,51,51,53,53,54,54,55,55,56,56,57,57,58,58,59,59,61,61,62,62,63,63,65,65,66,66,69,69,71,71,72,72,73,73,74,74,75,75,76,76,78,78,81,81,83,83,84,84,85,85,86,86,87,87,88,88,89,89,91,91,92,92],"right_children":[2,4,6,8,10,12,14,16,18,20,22,24,26,28,30,32,34,36,38,40,-1,42,-1,44,46,48,50,52,54,56,-1,58,60,62,64,66,68,70,-1,72,74,-1,-1,76,78,-1,80,82,-1,84,-1,86,-1,88,90,92,94,96,98,100,-1,102,104,106,-1,108,110,-1,-1,112,-1,114,116,118,120,122,124,-1,126,-1,-1,128,-1,130,132,134,136,138,140,142,-1,144,146,-1,-1,-1,-1,-1,-1,-1,-1,-1,-1,-1,-1,-1,-1,-1,-1,-1,-1,-1,-1,-1,-1,-1,-1,-1,-1,-1,-1,-1,-1,-1,-1,-1,-1,-1,-1,-1,-1,-1,-1,-1,-1,-1,-1,-1,-1,-1,-1,-1,-1,-1,-1,-1,-1],"split_conditions":[5E-1,5E-1,5E-1,5E-1,5E-1,5E-1,5E-1,5E-1,5E-1,5E-1,5E-1,5E-1,5E-1,5E-1,5E-1,5E-1,5E-1,5E-1,5E-1,5E-1,-7.077439E-2,5E-1,1.1371551E-1,5E-1,5E-1,5E-1,5E-1,5E-1,5E-1,5E-1,-6.2402725E-2,5E-1,5E-1,5E-1,5E-1,5E-1,5E-1,5E-1,-6.84218E-2,5E-1,5E-1,-5.0492913E-2,9.740465E-2,5E-1,5E-1,-6.978801E-2,5E-1,5E-1,-7.072424E-2,5E-1,-6.820045E-2,5E-1,-6.9915436E-2,5E-1,5E-1,5E-1,5E-1,5E-1,5E-1,5E-1,-6.558885E-2,5E-1,5E-1,5E-1,9.51403E-2,5E-1,5E-1,-5.824191E-2,1.1508321E-1,5E-1,-4.4257626E-2,5E-1,5E-1,5E-1,5E-1,5E-1,5E-1,-6.964997E-2,5E-1,-4.723704E-2,-2.500229E-2,5E-1,8.455427E-2,5E-1,5E-1,5E-1,5E-1,5E-1,5E-1,5E-1,-5.357899E-2,5E-1,5E-1,-6.655065E-2,1.05233625E-1,-2.7124388E-2,-3.582007E-3,-5.5271488E-2,1.2360021E-1,5.0721E-2,-6.0317345E-2,1.302214E-2,7.303414E-2,1.1021407E-1,-5.2182406E-2,-3.8156286E-2,1.143574E-2,-5.846196E-2,7.057457E-2,8.254643E-2,-4.0082265E-2,9.441986E-2,-4.221071E-2,-1.619744E-2,1.40140075E-2,8.689456E-2,-5.7374567E-2,-3.7794944E-2,8.071117E-2,-1.1224025E-2,5.2321523E-2,-5.856037E-3,3.5669755E-2,3.1600192E-2,5.71024E-3,-2.361572E-2,2.6873086E-2,-3.131894E-2,3.2257976E-3,1.8539866E-4,9.529446E-2,-6.203426E-2,8.505269E-2,-2.706018E-2,6.7735754E-2,6.8332076E-2,-6.4774856E-2,-3.8885932E-2,8.4250025E-2,4.2654194E-2,-6.5945047E-3,1.0110917E-1,6.2134333E-2,8.563091E-2,4.9302157E-2,1.8686855E-2,1.0316706E-1],"split_indices":[63,73,73,0,116,74,43,86,71,78,87,86,43,38,89,128,82,67,76,56,0,62,0,88,75,135,124,98,82,94,0,101,91,100,8,75,136,87,0,94,87,0,0,76,72,0,80,58,0,78,0,31,0,80,136,135,82,93,65,82,0,111,66,72,0,115,80,0,0,81,0,80,135,95,82,78,98,0,38,0,0,86,0,118,98,25,87,104,85,76,0,78,85,0,0,0,0,0,0,0,0,0,0,0,0,0,0,0,0,0,0,0,0,0,0,0,0,0,0,0,0,0,0,0,0,0,0,0,0,0,0,0,0,0,0,0,0,0,0,0,0,0,0,0,0,0,0],"split_type":[0,0,0,0,0,0,0,0,0,0,0,0,0,0,0,0,0,0,0,0,0,0,0,0,0,0,0,0,0,0,0,0,0,0,0,0,0,0,0,0,0,0,0,0,0,0,0,0,0,0,0,0,0,0,0,0,0,0,0,0,0,0,0,0,0,0,0,0,0,0,0,0,0,0,0,0,0,0,0,0,0,0,0,0,0,0,0,0,0,0,0,0,0,0,0,0,0,0,0,0,0,0,0,0,0,0,0,0,0,0,0,0,0,0,0,0,0,0,0,0,0,0,0,0,0,0,0,0,0,0,0,0,0,0,0,0,0,0,0,0,0,0,0,0,0,0,0],"sum_hessian":[5.131577E3,2.7270308E3,2.4045464E3,1.9095115E3,8.1751917E2,1.6179132E3,7.866331E2,1.458648E3,4.508636E2,7.958366E2,2.1682558E1,1.0355205E3,5.823927E2,4.0976202E2,3.768711E2,1.2867969E3,1.7185107E2,4.1563818E2,3.5225407E1,7.680798E2,2.7756855E1,9.242838E0,1.2439721E1,1.0044561E3,3.1064358E1,3.1954593E2,2.628468E2,1.22155525E2,2.8760648E2,3.7197714E2,4.893959E0,1.2177311E3,6.906582E1,1.06832054E2,6.501903E1,4.0516644E2,1.0471729E1,2.0133318E1,1.5092091E1,5.518203E2,2.1625943E2,1.8397288E0,7.4031086E0,9.488821E2,5.557399E1,1.8708824E1,1.2355534E1,2.8722495E2,3.232098E1,2.4820712E2,1.4639675E1,1.0671884E2,1.54366865E1,2.2991393E2,5.769256E1,3.607668E2,1.121033E1,1.20625E3,1.1481069E1,6.1578495E1,7.487323E0,9.0675545E1,1.6156506E1,6.2694725E1,2.3243036E0,3.7449734E2,3.0669106E1,3.8944464E0,6.5772824E0,1.8771038E1,1.3622799E0,5.2163153E2,3.0188816E1,1.4347858E2,7.278085E1,4.1583298E2,5.3304913E2,1.2478332E1,4.3095657E1,1.7563807E0,1.0599153E1,2.840369E2,3.1880343E0,2.1936676E2,2.8840364E1,7.279568E1,3.3923164E1,3.803809E1,1.9187584E2,5.5064297E1,2.6282625E0,2.4590602E2,1.1486078E2,7.9730945E0,3.2372358E0,9.5389075E2,2.5235919E2,3.0403595E0,8.440709E0,5.7191864E1,4.3866315E0,7.30802E1,1.759534E1,1.3920259E1,2.2362466E0,3.9656094E1,2.3038628E1,3.6759296E2,6.904396E0,1.211195E1,1.8557156E1,1.7452114E1,1.3189243E0,1.9988516E2,3.2174634E2,2.705128E1,3.1375365E0,1.368946E2,6.58397E0,5.508249E1,1.7698364E1,2.9921408E2,1.1661892E2,4.1964423E2,1.1340488E2,3.5521244E1,7.5744147E0,2.3123483E2,5.2802063E1,2.1119972E2,8.167044E0,4.870827E0,2.3969538E1,6.0101597E1,1.2694078E1,2.729716E1,6.626004E0,3.4843517E1,3.19457E0,1.6441393E2,2.7461912E1,3.6833843E1,1.8230452E1,1.7665787E2,6.924816E1,8.0190285E1,3.4670494E1],"tree_param":{"num_deleted":"0","num_feature":"137","num_nodes":"147","size_leaf_vector":"0"}},{"base_weights":[1.00652175E-2,7.992437E-2,-5.838802E-1,2.4810979E-1,-2.6583734E-1,-5.9605294E-1,-1.9969349E-1,1.381462E-1,5.216561E-1,-1.9664654E-1,-3.7968147E-1,-6.050422E-1,-8.9321144E-2,-3.7808216E-1,8.746216E-1,1.1639853E-1,9.2045414E-1,6.090448E-1,4.6510417E-2,-2.0805405E-1,4.7294378E-1,-3.921472E-1,4.2804596E-1,-5.698233E-1,-6.692877E-1,5.530823E-1,-6.08389E-1,-1.9356221E-1,-6.16971E-1,8.6974174E-2,5.037849E-1,1.0044476E0,-3.406734E-1,6.488693E-1,-6.111202E-1,-5.4752134E-2,5.8493954E-1,-1.962534E-1,-6.574644E-1,7.9164916E-1,-3.9207494E-1,-4.5839593E-1,-3.1447867E-1,9.372624E-1,-1.8607679E-1,-5.918548E-1,-3.5213572E-1,-6.918819E-1,-5.5096555E-1,1.0359614E0,-4.4446376E-1,6.5083526E-2,-5.648671E-1,7.745821E-2,1.2592424E0,5.694289E-1,-1.9643636E-1,1.3091758E0,6.2962806E-1,7.224005E-1,3.0352053E-1,-2.1442455E-1,2.8396925E-1,9.595945E-1,1.2280263E-1,-2.1678197E-1,1.7395658E-2,-2.597744E-1,-6.9582224E-1,1.0413139E0,-3.4854125E-2,8.381858E-3,-5.395099E-1,-4.77976E-1,2.020598E-1,-3.4392008E-1,5.654788E-1,-4.6628103E-1,1.1128558E-1,-5.945748E-1,2.7684564E-2,-1.4764875E-1,-6.750743E-1,-2.258505E-1,6.039153E-1,6.9331795E-2,8.750535E-1,6.0480505E-1,-4.1650236E-1,-4.4795474E-1,9.3973935E-1,8.4443986E-1,3.2219562E-1,6.9406956E-1,1.3284565E0,5.067532E-1,-4.7678994E-3,-2.4341889E-1,8.5858077E-1,8.4541935E-1,-2.9640964E-3,1.2721229E0,-5.0058275E-1,1.1114908E0,-5.2234364E-1,-1.6838339E-1,-3.0498317E-1,1.4381623E-1,-4.2112303E-1,-4.192533E-1,1.1853218E-2,-5.0498587E-1,-3.2083616E-1,-1.8978905E-2,8.7781507E-1,-3.5720357E-1,3.335412E-1,2.7009773E-1,9.754077E-1,-5.972738E-1,1.713524E-2,-2.0726937E-1,4.4309354E-1,4.952527E-3,-3.0293265E-1],"categories":[],"categories_nodes":[],"categories_segments":[],"categories_sizes":[],"default_left":[1,1,1,1,1,1,1,1,1,1,1,1,1,1,0,1,1,1,1,1,1,1,1,1,1,1,0,1,0,1,1,1,0,1,0,1,1,1,1,1,1,1,1,0,1,1,1,0,0,0,0,1,0,1,0,1,1,0,1,1,1,1,1,1,1,1,1,1,0,0,0,0,0,1,1,1,1,0,0,1,0,1,0,1,0,0,0,0,0,0,0,0,0,0,0,0,0,0,0,0,0,0,0,0,0,0,0,0,0,0,0,0,0,0,0,0,0,0,0,0,0,0,0,0,0],"id":5,"left_children":[1,3,5,7,9,11,13,15,17,19,21,23,25,27,-1,29,31,33,35,37,39,41,43,45,47,49,-1,51,-1,53,55,57,-1,59,-1,61,63,65,67,69,71,73,75,-1,77,79,81,-1,-1,-1,-1,83,-1,85,-1,87,89,-1,91,93,95,97,99,101,103,105,107,109,-1,-1,-1,-1,-1,111,113,115,117,-1,-1,119,-1,121,-1,123,-1,-1,-1,-1,-1,-1,-1,-1,-1,-1,-1,-1,-1,-1,-1,-1,-1,-1,-1,-1,-1,-1,-1,-1,-1,-1,-1,-1,-1,-1,-1,-1,-1,-1,-1,-1,-1,-1,-1,-1,-1],"loss_changes":[2.1220872E2,2.6617087E2,2.398117E0,9.254668E1,1.172464E1,2.3201294E0,3.7868168E0,3.7280907E1,3.6615112E1,7.230877E0,5.858612E0,7.769928E-1,3.757054E0,5.9308743E-1,0E0,2.4340897E1,6.622978E0,3.6613495E1,7.565827E0,4.7437935E0,4.706827E0,2.722435E0,3.0101728E0,1.4097824E0,8.809662E-2,2.9210362E0,0E0,1.0525405E0,0E0,2.2095432E1,7.0439568E0,5.55418E0,0E0,1.8121521E1,0E0,6.4005833E0,3.6841688E0,3.9367905E0,1.7137432E-1,2.5093536E0,2.9750955E-1,3.956379E0,6.920967E0,0E0,4.6391445E-1,5.303116E-1,2.1111217E0,0E0,0E0,0E0,0E0,1.2542771E0,0E0,1.2737285E1,0E0,5.0700645E0,4.3273916E0,0E0,1.5089512E0,9.289703E0,8.054123E0,2.7051742E0,6.1216745E0,6.104084E0,7.583119E0,3.4413986E0,4.4698653E0,1.6205895E-1,0E0,0E0,0E0,0E0,0E0,1.0695953E0,1.4052974E0,2.3855915E0,8.0014014E-1,0E0,0E0,5.115433E-1,0E0,8.588853E-1,0E0,9.6832395E-2,0E0,0E0,0E0,0E0,0E0,0E0,0E0,0E0,0E0,0E0,0E0,0E0,0E0,0E0,0E0,0E0,0E0,0E0,0E0,0E0,0E0,0E0,0E0,0E0,0E0,0E0,0E0,0E0,0E0,0E0,0E0,0E0,0E0,0E0,0E0,0E0,0E0,0E0,0E0,0E0,0E0],"parents":[2147483647,0,0,1,1,2,2,3,3,4,4,5,5,6,6,7,7,8,8,9,9,10,10,11,11,12,12,13,13,15,15,16,16,17,17,18,18,19,19,20,20,21,21,22,22,23,23,24,24,25,25,27,27,29,29,30,30,31,31,33,33,35,35,36,36,37,37,38,38,39,39,40,40,41,41,42,42,44,44,45,45,46,46,51,51,53,53,55,55,56,56,58,58,59,59,60,60,61,61,62,62,63,63,64,64,65,65,66,66,67,67,73,73,74,74,75,75,76,76,79,79,81,81,83,83],"right_children":[2,4,6,8,10,12,14,16,18,20,22,24,26,28,-1,30,32,34,36,38,40,42,44,46,48,50,-1,52,-1,54,56,58,-1,60,-1,62,64,66,68,70,72,74,76,-1,78,80,82,-1,-1,-1,-1,84,-1,86,-1,88,90,-1,92,94,96,98,100,102,104,106,108,110,-1,-1,-1,-1,-1,112,114,116,118,-1,-1,120,-1,122,-1,124,-1,-1,-1,-1,-1,-1,-1,-1,-1,-1,-1,-1,-1,-1,-1,-1,-1,-1,-1,-1,-1,-1,-1,-1,-1,-1,-1,-1,-1,-1,-1,-1,-1,-1,-1,-1,-1,-1,-1,-1,-1],"split_conditions":[5E-1,5E-1,5E-1,5E-1,5E-1,5E-1,5E-1,5E-1,5E-1,5E-1,5E-1,5E-1,5E-1,5E-1,8.7462164E-2,5E-1,5E-1,5E-1,5E-1,5E-1,5E-1,5E-1,5E-1,5E-1,5E-1,5E-1,-6.0838904E-2,5E-1,-6.1697103E-2,5E-1,5E-1,5E-1,-3.406734E-2,5E-1,-6.1112024E-2,5E-1,5E-1,5E-1,5E-1,5E-1,5E-1,5E-1,5E-1,9.372624E-2,5E-1,5E-1,5E-1,-6.918819E-2,-5.5096556E-2,1.0359614E-1,-4.4446375E-2,5E-1,-5.6486707E-2,5E-1,1.2592424E-1,5E-1,5E-1,1.309176E-1,5E-1,5E-1,5E-1,5E-1,5E-1,5E-1,5E-1,5E-1,5E-1,5E-1,-6.9582224E-2,1.0413139E-1,-3.4854126E-3,8.381858E-4,-5.395099E-2,5E-1,5E-1,5E-1,5E-1,-4.6628103E-2,1.1128559E-2,5E-1,2.7684565E-3,5E-1,-6.750743E-2,5E-1,6.0391527E-2,6.9331797E-3,8.7505355E-2,6.0480505E-2,-4.1650236E-2,-4.4795476E-2,9.3973935E-2,8.444399E-2,3.2219563E-2,6.940696E-2,1.3284566E-1,5.067532E-2,-4.7678995E-4,-2.4341889E-2,8.585808E-2,8.454194E-2,-2.9640965E-4,1.2721229E-1,-5.0058275E-2,1.1114909E-1,-5.2234363E-2,-1.683834E-2,-3.0498317E-2,1.4381624E-2,-4.2112302E-2,-4.192533E-2,1.1853218E-3,-5.0498586E-2,-3.2083616E-2,-1.8978905E-3,8.778151E-2,-3.572036E-2,3.3354122E-2,2.7009774E-2,9.754077E-2,-5.9727382E-2,1.713524E-3,-2.0726938E-2,4.4309355E-2,4.952527E-4,-3.0293265E-2],"split_indices":[0,43,69,74,73,67,91,48,65,95,102,72,136,84,0,67,116,20,136,102,72,76,93,135,88,65,0,135,0,40,36,87,0,86,0,76,76,69,80,69,62,81,129,0,62,126,82,0,0,0,0,76,0,115,0,102,135,0,62,85,66,78,80,13,82,98,136,62,0,0,0,0,0,82,92,89,62,0,0,108,0,65,0,98,0,0,0,0,0,0,0,0,0,0,0,0,0,0,0,0,0,0,0,0,0,0,0,0,0,0,0,0,0,0,0,0,0,0,0,0,0,0,0,0,0],"split_type":[0,0,0,0,0,0,0,0,0,0,0,0,0,0,0,0,0,0,0,0,0,0,0,0,0,0,0,0,0,0,0,0,0,0,0,0,0,0,0,0,0,0,0,0,0,0,0,0,0,0,0,0,0,0,0,0,0,0,0,0,0,0,0,0,0,0,0,0,0,0,0,0,0,0,0,0,0,0,0,0,0,0,0,0,0,0,0,0,0,0,0,0,0,0,0,0,0,0,0,0,0,0,0,0,0,0,0,0,0,0,0,0,0,0,0,0,0,0,0,0,0,0,0,0,0],"sum_hessian":[5.1122603E3,4.5750176E3,5.372426E2,3.0780667E3,1.4969509E3,5.202086E2,1.7034002E1,2.1965679E3,8.8149896E2,9.3277045E2,5.6418054E2,5.1095056E2,9.258073E0,1.5164095E1,1.8699076E0,2.138274E3,5.829389E1,7.4432166E2,1.371773E2,9.178232E2,1.494727E1,5.561125E2,8.068039E0,3.3640536E2,1.7454521E2,4.108198E0,5.149875E0,9.576997E0,5.587099E0,1.9884625E3,1.4981134E2,5.484467E1,3.449222E0,7.212493E2,2.3072338E1,1.1621838E2,2.0958921E1,8.957395E2,2.208369E1,1.0984856E1,3.9624143E0,2.974745E2,2.58638E2,4.1230884E0,3.9449506E0,3.0392706E2,3.2478275E1,1.4248877E2,3.2056446E1,2.7422538E0,1.3659443E0,6.1309676E0,3.4460287E0,1.9735085E3,1.4954003E1,1.3714145E2,1.2669888E1,2.8875813E1,2.5968857E1,5.937392E2,1.2751008E2,7.9234436E1,3.6983955E1,1.0980548E1,9.978373E0,8.172034E2,7.8536026E1,2.6263509E0,1.945734E1,8.236826E0,2.7480297E0,1.3200624E0,2.6423519E0,2.8917773E2,8.296748E0,2.5085416E2,7.783856E0,1.7386068E0,2.2063437E0,3.0263864E2,1.2884216E0,2.0778429E1,1.1699844E1,4.3585086E0,1.772459E0,1.9546799E3,1.8828611E1,1.3276431E2,4.3771477E0,1.0869427E1,1.8004607E0,1.4258963E1,1.1709893E1,5.69273E2,2.4466242E1,7.6461006E1,5.1049072E1,7.790253E1,1.3319088E0,1.1850118E1,2.5133835E1,9.150759E0,1.8297894E0,3.654694E0,6.323679E0,5.2953894E2,2.8766452E2,6.14831E1,1.7052925E1,1.3123524E0,1.3139985E0,2.4487413E2,4.4303596E1,6.9841547E0,1.3125937E0,2.464937E2,4.3604593E0,5.4881606E0,2.2956955E0,3.013327E2,1.3059492E0,1.9463242E1,1.3151889E0,1.3254712E0,3.0330377E0],"tree_param":{"num_deleted":"0","num_feature":"137","num_nodes":"125","size_leaf_vector":"0"}},{"base_weights":[-1.1950891E-3,-1.0481413E-1,7.68192E-1,-1.2016596E-1,6.970443E-1,8.5936993E-1,2.9032043E-1,-2.044122E-1,3.927379E-2,9.1867214E-1,-1.19715184E-1,8.8613E-1,-4.6474713E-1,3.5732046E-1,-6.2684375E-1,-2.765452E-1,-4.819041E-2,-4.4407293E-2,3.2420582E-1,1.0056257E0,-5.502652E-1,4.1807923E-1,-4.2712164E-1,9.1502804E-1,1.3438441E-1,-6.320841E-1,3.8134798E-1,5.012821E-1,-5.113259E-2,-2.2386906E-1,-4.357078E-1,-1.5285616E-1,2.686057E-1,-1.1324187E-2,-5.008926E-1,1.8368137E-1,6.468878E-1,1.0416013E0,-4.0772027E-1,-2.0634194E-1,7.2701734E-1,3.7754387E-1,-5.6180066E-1,9.5008874E-1,3.6916524E-1,6.0026425E-1,-7.316963E-1,5.8392704E-1,-6.417169E-2,5.3759027E-1,-5.549174E-1,-2.4270034E-1,2.442772E-1,-3.990188E-1,-6.725179E-1,-4.8496313E-2,-2.7495623E-1,3.0705354E-1,-4.8851985E-1,-5.2593663E-2,5.466698E-1,-5.6181717E-1,1.9060443E-1,1.3705984E-1,8.2160985E-1,7.2926456E-1,-5.070245E-1,1.1528928E0,4.9398792E-1,9.9123055E-1,5.097714E-1,7.270415E-4,9.735746E-1,8.636273E-1,-5.059505E-1,6.731688E-1,-4.292332E-1,9.628444E-1,-6.3744545E-1,9.3213785E-1,1.5909441E-1,-2.5437143E-1,2.2787282E-1,-1.216302E-2,7.957372E-1,-4.0604308E-1,4.9957278E-1,-7.0302117E-1,-1.9190097E-1,1.8451242E-2,-3.162208E-1,-3.1512284E-1,-2.0192923E-2,2.692912E-1,7.881529E-1,1.1667562E-1,-6.4677364E-1,-1.04100466E-1,2.7522567E-1,6.493347E-1,-6.21405E-1,-6.4094007E-1,-1.685081E-1,-5.666462E-1,1.040129E0,6.1154168E-2,4.5894158E-1,3.0916774E-1,9.281631E-1,7.7806944E-1,-4.4106256E-2,5.755886E-3,-6.170257E-1,1.0652546E0,-2.90169E-1,1.0034739E0,1.0629224E-1,-3.1098865E-3,1.1527697E0,-4.0323162E-1,4.0293142E-1,1.0272174E0,3.4749255E-1,7.779244E-1,1.9579004E-2],"categories":[],"categories_nodes":[],"categories_segments":[],"categories_sizes":[],"default_left":[1,1,1,1,1,1,1,1,1,1,1,1,1,1,0,1,1,1,1,1,0,1,1,1,1,0,0,1,1,1,1,1,1,1,1,1,1,1,0,0,0,0,0,1,1,1,0,1,1,1,0,1,1,1,1,1,1,1,1,1,1,1,1,1,1,1,1,0,1,1,1,1,1,0,0,1,0,0,0,0,0,0,0,0,0,0,0,0,0,0,0,0,0,0,0,0,0,0,0,0,0,0,0,0,0,0,0,0,0,0,0,0,0,0,0,0,0,0,0,0,0,0,0,0,0],"id":6,"left_children":[1,3,5,7,9,11,13,15,17,19,21,23,25,27,-1,29,31,33,35,37,-1,39,41,43,45,-1,-1,47,49,51,53,55,57,59,61,63,65,67,-1,-1,-1,-1,-1,69,71,73,-1,75,77,79,-1,81,83,85,87,89,91,93,95,97,99,101,103,105,107,109,111,-1,113,115,117,119,121,-1,-1,123,-1,-1,-1,-1,-1,-1,-1,-1,-1,-1,-1,-1,-1,-1,-1,-1,-1,-1,-1,-1,-1,-1,-1,-1,-1,-1,-1,-1,-1,-1,-1,-1,-1,-1,-1,-1,-1,-1,-1,-1,-1,-1,-1,-1,-1,-1,-1,-1,-1],"loss_changes":[4.0525897E2,5.523213E1,2.6039337E1,5.9064873E1,1.53708E1,1.8347076E1,6.257411E0,3.240486E1,3.6276344E1,9.038124E0,3.2996027E0,1.0662659E1,1.753552E0,5.443434E0,0E0,1.640129E1,3.0212769E1,1.7761196E1,1.5542091E1,3.631466E0,0E0,1.5720582E0,1.5674999E0,8.796112E0,8.327893E0,0E0,0E0,3.225441E0,7.688958E0,1.3111938E1,3.9739838E0,8.710167E0,6.738674E0,2.5313263E1,3.455408E0,7.0845776E0,1.0291748E1,3.1959305E0,0E0,0E0,0E0,0E0,0E0,7.6186523E0,6.786893E0,4.3006763E0,0E0,5.679394E0,6.265937E0,1.6435132E0,0E0,7.8778763E0,8.176868E0,2.886917E0,8.0397034E-1,6.6434965E0,3.2198353E0,3.712183E0,1.1600363E0,1.7306686E1,9.481789E0,2.1729298E0,5.209639E0,5.5111322E0,6.0201645E-1,3.7270584E0,4.291395E-1,0E0,5.7676992E0,4.32547E0,1.3320215E1,3.4018085E0,3.0713081E-2,0E0,0E0,3.7628765E0,0E0,0E0,0E0,0E0,0E0,0E0,0E0,0E0,0E0,0E0,0E0,0E0,0E0,0E0,0E0,0E0,0E0,0E0,0E0,0E0,0E0,0E0,0E0,0E0,0E0,0E0,0E0,0E0,0E0,0E0,0E0,0E0,0E0,0E0,0E0,0E0,0E0,0E0,0E0,0E0,0E0,0E0,0E0,0E0,0E0,0E0,0E0,0E0,0E0],"parents":[2147483647,0,0,1,1,2,2,3,3,4,4,5,5,6,6,7,7,8,8,9,9,10,10,11,11,12,12,13,13,15,15,16,16,17,17,18,18,19,19,21,21,22,22,23,23,24,24,27,27,28,28,29,29,30,30,31,31,32,32,33,33,34,34,35,35,36,36,37,37,43,43,44,44,45,45,47,47,48,48,49,49,51,51,52,52,53,53,54,54,55,55,56,56,57,57,58,58,59,59,60,60,61,61,62,62,63,63,64,64,65,65,66,66,68,68,69,69,70,70,71,71,72,72,75,75],"right_children":[2,4,6,8,10,12,14,16,18,20,22,24,26,28,-1,30,32,34,36,38,-1,40,42,44,46,-1,-1,48,50,52,54,56,58,60,62,64,66,68,-1,-1,-1,-1,-1,70,72,74,-1,76,78,80,-1,82,84,86,88,90,92,94,96,98,100,102,104,106,108,110,112,-1,114,116,118,120,122,-1,-1,124,-1,-1,-1,-1,-1,-1,-1,-1,-1,-1,-1,-1,-1,-1,-1,-1,-1,-1,-1,-1,-1,-1,-1,-1,-1,-1,-1,-1,-1,-1,-1,-1,-1,-1,-1,-1,-1,-1,-1,-1,-1,-1,-1,-1,-1,-1,-1,-1,-1],"split_conditions":[5E-1,5E-1,5E-1,5E-1,5E-1,5E-1,5E-1,5E-1,5E-1,5E-1,5E-1,5E-1,5E-1,5E-1,-6.268438E-2,5E-1,5E-1,5E-1,5E-1,5E-1,-5.502652E-2,5E-1,5E-1,5E-1,5E-1,-6.320841E-2,3.81348E-2,5E-1,5E-1,5E-1,5E-1,5E-1,5E-1,5E-1,5E-1,5E-1,5E-1,5E-1,-4.077203E-2,-2.0634195E-2,7.270174E-2,3.7754387E-2,-5.6180067E-2,5E-1,5E-1,5E-1,-7.3169634E-2,5E-1,5E-1,5E-1,-5.549174E-2,5E-1,5E-1,5E-1,5E-1,5E-1,5E-1,5E-1,5E-1,5E-1,5E-1,5E-1,5E-1,5E-1,5E-1,5E-1,5E-1,1.15289286E-1,5E-1,5E-1,5E-1,5E-1,5E-1,8.6362734E-2,-5.0595053E-2,5E-1,-4.292332E-2,9.628444E-2,-6.3744545E-2,9.321379E-2,1.590944E-2,-2.5437145E-2,2.2787282E-2,-1.216302E-3,7.957372E-2,-4.060431E-2,4.995728E-2,-7.030212E-2,-1.9190097E-2,1.8451242E-3,-3.162208E-2,-3.1512287E-2,-2.0192924E-3,2.692912E-2,7.881529E-2,1.1667563E-2,-6.4677365E-2,-1.0410047E-2,2.7522568E-2,6.493347E-2,-6.2140502E-2,-6.409401E-2,-1.685081E-2,-5.6664623E-2,1.040129E-1,6.115417E-3,4.5894157E-2,3.0916775E-2,9.2816316E-2,7.780694E-2,-4.410626E-3,5.755886E-4,-6.1702568E-2,1.0652546E-1,-2.90169E-2,1.0034739E-1,1.0629225E-2,-3.1098866E-4,1.1527697E-1,-4.0323164E-2,4.0293142E-2,1.0272174E-1,3.4749255E-2,7.779244E-2,1.9579006E-3],"split_indices":[0,20,73,43,73,67,106,56,74,67,135,69,65,98,0,74,73,69,62,69,0,76,80,75,86,0,0,82,76,75,136,74,84,84,86,124,92,129,0,0,0,0,0,71,111,91,0,128,135,80,0,32,135,44,25,87,111,94,65,82,67,87,98,86,87,93,98,0,76,115,76,80,76,0,0,94,0,0,0,0,0,0,0,0,0,0,0,0,0,0,0,0,0,0,0,0,0,0,0,0,0,0,0,0,0,0,0,0,0,0,0,0,0,0,0,0,0,0,0,0,0,0,0,0,0],"split_type":[0,0,0,0,0,0,0,0,0,0,0,0,0,0,0,0,0,0,0,0,0,0,0,0,0,0,0,0,0,0,0,0,0,0,0,0,0,0,0,0,0,0,0,0,0,0,0,0,0,0,0,0,0,0,0,0,0,0,0,0,0,0,0,0,0,0,0,0,0,0,0,0,0,0,0,0,0,0,0,0,0,0,0,0,0,0,0,0,0,0,0,0,0,0,0,0,0,0,0,0,0,0,0,0,0,0,0,0,0,0,0,0,0,0,0,0,0,0,0,0,0,0,0,0,0],"sum_hessian":[5.0813184E3,4.478967E3,6.0235175E2,4.3956606E3,8.330617E1,5.0516745E2,9.718429E1,2.875824E3,1.5198365E3,6.54276E1,1.7878565E1,4.9548462E2,9.682838E0,9.113702E1,6.0472693E0,1.9668783E3,9.0894574E2,1.1754618E3,3.4437473E2,6.2068844E1,3.3587546E0,6.3716373E0,1.15069275E1,4.7693347E2,1.8551144E1,8.295192E0,1.3876467E0,6.721828E1,2.3918741E1,1.4795995E3,4.872788E2,6.8360736E2,2.253384E2,1.0969843E3,7.847752E1,2.409938E2,1.0338093E2,6.078465E1,1.2841947E0,2.2189074E0,4.1527305E0,1.3912649E0,1.0115663E1,4.474531E2,2.9480389E1,1.2262077E1,6.2890654E0,5.8618164E1,8.600114E0,1.0998634E1,1.2920106E1,1.4228468E3,5.675274E1,4.2423672E2,6.3042065E1,3.6933292E2,3.142744E2,2.1501414E2,1.0324249E1,1.0222816E3,7.470265E1,7.229544E1,6.1820803E0,2.2571295E2,1.5280862E1,9.68359E1,6.545023E0,4.9599274E1,1.1185377E1,4.0807297E2,3.9380123E1,1.893756E1,1.0542829E1,1.0081265E1,2.1808116E0,5.418131E1,4.436855E0,2.8373914E0,5.7627225E0,4.6689434E0,6.329691E0,1.3888599E3,3.3986885E1,3.940606E1,1.7346682E1,4.2149008E2,2.7466495E0,5.884463E1,4.197437E0,2.9619666E2,7.313627E1,2.7126862E2,4.3005802E1,2.008118E2,1.4202343E1,2.1945527E0,8.129697E0,8.840609E2,1.3822075E2,6.907554E1,5.6271205E0,5.9663246E1,1.26321945E1,3.4446058E0,2.7374744E0,1.836054E2,4.2107555E1,3.3020394E0,1.1978823E1,9.108195E1,5.753957E0,1.323426E0,5.2215967E0,6.2637196E0,4.9216576E0,4.023721E2,5.7008624E0,2.2460161E1,1.6919964E1,9.4469E0,9.490659E0,9.120662E0,1.4221675E0,4.653291E1,7.6484027E0],"tree_param":{"num_deleted":"0","num_feature":"137","num_nodes":"125","size_leaf_vector":"0"}},{"base_weights":[-7.9202274E-4,-1.4504442E-1,1.5859565E-1,-1.5585856E-1,4.817907E-1,3.5417847E-2,4.0635812E-1,-1.3079333E-1,-4.1817567E-1,1.0046314E-1,8.508904E-1,1.0860398E-1,-9.8650075E-2,2.5058505E-1,5.783615E-1,-1.7259097E-1,7.0430875E-2,-4.434288E-1,9.186971E-1,-3.7276012E-1,4.3886796E-1,4.7332534E-1,9.315629E-1,1.3046713E-1,-6.0872376E-1,-2.3142213E-1,6.763909E-2,-4.917924E-2,3.838173E-1,5.9047365E-1,-5.759497E-1,-1.814433E-1,7.065829E-1,1.9413E-1,-4.82234E-1,-5.869209E-1,-1.6095084E-1,-6.3778883E-1,4.3035308E-1,1.8436567E-1,1.1522729E0,-4.9026713E-1,9.8841065E-1,1.9815195E-2,2.1993428E-1,-6.851161E-1,-4.2651233E-1,-1.715971E-1,-6.9008285E-1,1.082357E-1,-6.554337E-1,-1.1791956E-1,1.0248908E0,4.199051E-1,-6.68595E-1,6.0059714E-1,-5.8109355E-1,-1.8636918E-1,1.1201497E0,-5.943805E-1,1.2152828E0,-1.0951971E-2,4.0612546E-1,-6.0006946E-1,8.045472E-1,-6.234816E-1,4.4663948E-1,-3.7820682E-1,6.2312955E-1,-4.144594E-1,2.9848766E-1,-9.2007935E-2,3.1270203E-1,2.8101E-1,1.1410043E-2,-2.3498093E-1,1.3291936E-1,5.016591E-2,5.564442E-1,-2.0780858E-1,7.046591E-1,4.3772662E-1,-5.989723E-1,5.7581884E-1,1.1572545E0,-2.033426E-1,1.5758891E-1,-1.4565067E-1,8.255039E-1,4.497464E-1,-6.390787E-1,-6.6546464E-1,3.8876173E-1,-4.2964762E-1,1.1799344E0,-7.120289E-1,-2.1522908E-1,-2.018521E-1,-6.953014E-1,-6.0752124E-1,1.1388015E0,-1.5014353E-1,5.537858E-1,-1.5820205E-1,5.24263E-1,2.4610387E-1,1.0282297E0,-2.0458014E-1,5.18125E-1,-3.065811E-1,2.4263687E-1,3.023533E-3,1.1687151E0,1.6992304E-2,9.1157866E-1,-6.070662E-1,8.224175E-1,-3.9238155E-1,1.5520032E-1,1.0410022E0,-5.4965734E-1,4.536838E-1,-6.106547E-1,5.5022234E-1,1.0674583E0],"categories":[],"categories_nodes":[],"categories_segments":[],"categories_sizes":[],"default_left":[1,1,1,1,1,1,1,1,1,1,1,1,1,1,1,1,1,1,0,1,1,1,0,1,1,1,1,1,1,1,0,1,1,1,1,1,1,0,0,1,0,0,0,1,1,0,0,1,0,1,0,1,0,1,0,1,0,1,0,0,0,1,1,1,1,1,0,1,1,0,0,1,1,1,1,1,1,1,1,1,1,1,0,1,0,0,0,0,0,0,0,0,0,0,0,0,0,0,0,0,0,0,0,0,0,0,0,0,0,0,0,0,0,0,0,0,0,0,0,0,0,0,0,0,0],"id":7,"left_children":[1,3,5,7,9,11,13,15,17,19,21,23,25,27,29,31,33,35,-1,37,39,41,-1,43,45,47,49,51,53,55,-1,57,59,61,63,65,67,-1,-1,69,-1,-1,-1,71,73,-1,-1,75,-1,77,-1,79,-1,81,-1,83,-1,85,-1,-1,-1,87,89,91,93,95,-1,97,99,-1,-1,101,103,105,107,109,111,113,115,117,119,121,-1,123,-1,-1,-1,-1,-1,-1,-1,-1,-1,-1,-1,-1,-1,-1,-1,-1,-1,-1,-1,-1,-1,-1,-1,-1,-1,-1,-1,-1,-1,-1,-1,-1,-1,-1,-1,-1,-1,-1,-1,-1,-1],"loss_changes":[1.18383965E2,1.8396381E1,7.463863E1,1.7419754E1,6.400449E0,1.605261E1,2.161644E1,2.0427853E1,8.217697E0,3.9748518E0,2.6823425E-1,1.6673365E1,1.2773942E1,1.7111141E1,5.725952E0,1.5772732E1,2.8683035E1,9.136284E0,0E0,2.5016694E0,2.3903806E0,3.5279975E0,0E0,1.0168688E1,1.4586067E-1,8.7043705E0,7.62444E0,9.908834E0,1.1537651E1,4.876251E0,0E0,1.2973465E1,1.4118942E1,1.4891802E1,1.2123251E1,5.9708176E0,1.3538277E1,0E0,0E0,9.271517E-1,0E0,0E0,0E0,1.5111254E1,7.231964E0,0E0,0E0,5.54696E0,0E0,6.3357973E0,0E0,9.425545E0,0E0,5.4768486E0,0E0,4.560318E0,0E0,1.1616463E1,0E0,0E0,0E0,1.9840042E1,7.965248E0,4.8435783E0,3.6886926E0,5.121395E0,0E0,3.313939E0,1.1683915E1,0E0,0E0,1.2624342E1,1.2782023E1,1.1206516E1,1.4305495E1,8.175632E0,6.7065663E0,6.2014194E0,9.147194E0,7.69261E0,5.8838334E0,5.0084686E0,0E0,4.0031357E0,0E0,0E0,0E0,0E0,0E0,0E0,0E0,0E0,0E0,0E0,0E0,0E0,0E0,0E0,0E0,0E0,0E0,0E0,0E0,0E0,0E0,0E0,0E0,0E0,0E0,0E0,0E0,0E0,0E0,0E0,0E0,0E0,0E0,0E0,0E0,0E0,0E0,0E0,0E0,0E0,0E0],"parents":[2147483647,0,0,1,1,2,2,3,3,4,4,5,5,6,6,7,7,8,8,9,9,10,10,11,11,12,12,13,13,14,14,15,15,16,16,17,17,19,19,20,20,21,21,23,23,24,24,25,25,26,26,27,27,28,28,29,29,31,31,32,32,33,33,34,34,35,35,36,36,39,39,43,43,44,44,47,47,49,49,51,51,53,53,55,55,57,57,61,61,62,62,63,63,64,64,65,65,67,67,68,68,71,71,72,72,73,73,74,74,75,75,76,76,77,77,78,78,79,79,80,80,81,81,83,83],"right_children":[2,4,6,8,10,12,14,16,18,20,22,24,26,28,30,32,34,36,-1,38,40,42,-1,44,46,48,50,52,54,56,-1,58,60,62,64,66,68,-1,-1,70,-1,-1,-1,72,74,-1,-1,76,-1,78,-1,80,-1,82,-1,84,-1,86,-1,-1,-1,88,90,92,94,96,-1,98,100,-1,-1,102,104,106,108,110,112,114,116,118,120,122,-1,124,-1,-1,-1,-1,-1,-1,-1,-1,-1,-1,-1,-1,-1,-1,-1,-1,-1,-1,-1,-1,-1,-1,-1,-1,-1,-1,-1,-1,-1,-1,-1,-1,-1,-1,-1,-1,-1,-1,-1,-1,-1],"split_conditions":[5E-1,5E-1,5E-1,5E-1,5E-1,5E-1,5E-1,5E-1,5E-1,5E-1,5E-1,5E-1,5E-1,5E-1,5E-1,5E-1,5E-1,5E-1,9.186971E-2,5E-1,5E-1,5E-1,9.315629E-2,5E-1,5E-1,5E-1,5E-1,5E-1,5E-1,5E-1,-5.7594974E-2,5E-1,5E-1,5E-1,5E-1,5E-1,5E-1,-6.3778885E-2,4.303531E-2,5E-1,1.152273E-1,-4.9026713E-2,9.884106E-2,5E-1,5E-1,-6.851161E-2,-4.2651232E-2,5E-1,-6.900828E-2,5E-1,-6.5543376E-2,5E-1,1.0248908E-1,5E-1,-6.6859506E-2,5E-1,-5.8109354E-2,5E-1,1.1201497E-1,-5.943805E-2,1.2152828E-1,5E-1,5E-1,5E-1,5E-1,5E-1,4.4663947E-2,5E-1,5E-1,-4.144594E-2,2.9848767E-2,5E-1,5E-1,5E-1,5E-1,5E-1,5E-1,5E-1,5E-1,5E-1,5E-1,5E-1,-5.9897233E-2,5E-1,1.1572545E-1,-2.033426E-2,1.5758893E-2,-1.4565067E-2,8.255039E-2,4.497464E-2,-6.390787E-2,-6.654646E-2,3.8876172E-2,-4.2964764E-2,1.1799344E-1,-7.12029E-2,-2.1522908E-2,-2.018521E-2,-6.9530144E-2,-6.0752124E-2,1.1388015E-1,-1.5014353E-2,5.5378582E-2,-1.5820205E-2,5.2426305E-2,2.4610387E-2,1.02822974E-1,-2.0458015E-2,5.18125E-2,-3.0658111E-2,2.4263687E-2,3.023533E-4,1.1687151E-1,1.6992305E-3,9.115787E-2,-6.0706623E-2,8.224175E-2,-3.9238155E-2,1.5520032E-2,1.0410022E-1,-5.4965734E-2,4.536838E-2,-6.1065473E-2,5.5022236E-2,1.0674583E-1],"split_indices":[63,116,73,88,73,74,43,43,6,38,62,86,43,38,89,101,74,56,0,32,84,76,0,76,75,135,124,113,91,111,0,22,65,80,92,75,129,0,0,87,0,0,0,78,98,0,0,86,0,78,0,25,0,84,0,132,0,128,0,0,0,79,98,93,98,111,0,76,80,0,0,31,43,92,87,31,41,118,98,31,80,134,0,88,0,0,0,0,0,0,0,0,0,0,0,0,0,0,0,0,0,0,0,0,0,0,0,0,0,0,0,0,0,0,0,0,0,0,0,0,0,0,0,0,0],"split_type":[0,0,0,0,0,0,0,0,0,0,0,0,0,0,0,0,0,0,0,0,0,0,0,0,0,0,0,0,0,0,0,0,0,0,0,0,0,0,0,0,0,0,0,0,0,0,0,0,0,0,0,0,0,0,0,0,0,0,0,0,0,0,0,0,0,0,0,0,0,0,0,0,0,0,0,0,0,0,0,0,0,0,0,0,0,0,0,0,0,0,0,0,0,0,0,0,0,0,0,0,0,0,0,0,0,0,0,0,0,0,0,0,0,0,0,0,0,0,0,0,0,0,0,0,0],"sum_hessian":[5.146907E3,2.7017776E3,2.4451294E3,2.6566956E3,4.508192E1,1.6339409E3,8.111886E2,2.4263489E3,2.3034674E2,2.2799395E1,2.2282526E1,1.057082E3,5.768589E2,4.2696716E2,3.8422147E2,2.0091559E3,4.1719305E2,2.2673215E2,3.6145952E0,9.463779E0,1.3335614E1,5.1318026E0,1.7150723E1,1.0266105E3,3.0471533E1,3.2053723E2,2.5632166E2,1.3157114E2,2.9539603E2,3.807151E2,3.5063686E0,1.9899132E3,1.9242676E1,3.414234E2,7.576968E1,1.4964053E2,7.7091606E1,7.2703924E0,2.1933873E0,1.0756676E1,2.5789385E0,1.8044056E0,3.3273969E0,4.595124E2,5.670981E2,1.9525457E1,1.0946074E1,2.847679E2,3.5769333E1,2.4350073E2,1.2820931E1,1.2449376E2,7.077369E0,2.8618362E2,9.212394E0,3.779367E2,2.7783813E0,1.9832643E3,6.648838E0,5.361808E0,1.3880867E1,1.7402345E2,1.6739995E2,6.990214E1,5.867538E0,1.4491129E2,4.7292523E0,6.0770676E1,1.6320929E1,1.3005676E0,9.456108E0,3.3304346E2,1.2646893E2,4.3835767E2,1.287404E2,2.3589558E2,4.8872326E1,2.1655574E2,2.6944988E1,1.1290337E2,1.1590386E1,2.8182452E2,4.359103E0,3.6377838E2,1.4158334E1,1.8903876E3,9.287677E1,1.505978E2,2.342565E1,1.6124037E2,6.159562E0,6.587274E1,4.0293965E0,1.334718E0,4.5328197E0,1.1847148E2,2.6439808E1,4.010341E1,2.0667269E1,4.7668133E0,1.1554115E1,3.0624243E2,2.6801027E1,3.9282967E1,8.718597E1,4.2006387E2,1.8293789E1,9.068265E1,3.8057743E1,2.0545387E2,3.044171E1,4.4317528E1,4.5548E0,2.095072E2,7.0485425E0,4.7748384E0,2.2170149E1,7.479349E1,3.810989E1,9.273718E0,2.3166687E0,2.78158E2,3.6665235E0,3.477903E2,1.5988052E1],"tree_param":{"num_deleted":"0","num_feature":"137","num_nodes":"125","size_leaf_vector":"0"}},{"base_weights":[3.7176174E-4,6.2461097E-2,-5.486238E-1,2.1807802E-1,-2.6679373E-1,-5.6764877E-1,-1.1192219E-2,1.0786535E-1,4.8768574E-1,-2.845581E-1,3.230611E-2,-5.766937E-1,-4.7573533E-2,-2.8915754E-1,9.834704E-1,8.9002945E-2,7.743785E-1,5.211545E-1,-6.070503E-1,-2.9243463E-1,2.5826025E-1,-2.1426199E-2,1.0400935E0,-5.797804E-1,-6.0320802E-2,6.421648E-1,-5.8681667E-1,-6.6001184E-2,-5.962916E-1,6.0713407E-2,4.4398618E-1,1.0353289E0,3.9932558E-1,6.900156E-1,2.4133794E-1,-6.705774E-1,-2.1594355E-1,-2.4628605E-1,-3.6291894E-1,-3.807396E-2,9.527894E-1,4.788257E-2,-5.542701E-1,-5.5017656E-1,-6.3252157E-1,2.6061967E-1,-4.1617045E-1,9.034105E-1,-7.835071E-3,1.4574571E-1,-5.065091E-1,5.1922277E-2,1.1494967E0,3.4296E-1,8.284682E-1,1.1692388E0,-5.095988E-1,6.635039E-1,-6.8121925E-3,7.281507E-1,1.9592339E-1,1.7271689E-1,8.3586913E-1,1.4544986E-1,-5.0497967E-1,-2.6298198E-1,8.8061415E-2,-3.872063E-1,3.8198806E-2,-3.0145884E-1,5.459699E-1,1.3303126E-1,-5.607273E-1,-5.311001E-1,-6.852811E-1,-6.370339E-1,-3.3728626E-1,-1.1432525E-1,3.8924575E-1,6.466815E-2,-4.416449E-1,3.7614918E-1,-5.753165E-1,1.0347624E0,-2.8260513E-3,1.1985826E0,3.165392E-1,1.1137224E0,3.1384334E-1,5.54731E-1,-3.9455315E-1,8.091936E-1,5.098834E-1,3.1466243E-1,-5.157634E-1,2.6957902E-1,-1.4458323E-1,1.1713027E0,5.261611E-1,-2.5136763E-1,-6.4249516E-1,4.01594E-1,-3.9429837E-1,-3.9926034E-1,3.5716078E-1,-2.814258E-1,6.991279E-1,-1.1660237E-1,-5.591196E-1,7.29313E-1,1.0107163E-2,2.889681E-1,-2.9615408E-1,-5.364309E-1,4.5224477E-2,6.591124E-2,-4.9877247E-1,1.0114246E-2,-1.7001975E-1,5.732498E-1,5.237758E-4],"categories":[],"categories_nodes":[],"categories_segments":[],"categories_sizes":[],"default_left":[1,1,1,1,1,1,1,1,1,1,1,1,1,1,0,1,1,1,1,1,1,1,0,1,1,1,0,1,0,1,1,1,1,1,1,0,1,1,1,1,0,1,0,1,1,0,0,0,0,1,0,1,0,1,1,1,0,1,1,1,1,1,1,0,0,1,1,1,1,1,1,1,0,1,0,0,1,1,1,0,0,0,0,0,0,0,0,0,0,0,0,0,0,0,0,0,0,0,0,0,0,0,0,0,0,0,0,0,0,0,0,0,0,0,0,0,0,0,0,0,0],"id":8,"left_children":[1,3,5,7,9,11,13,15,17,19,21,23,25,27,-1,29,31,33,35,37,39,41,-1,43,45,47,-1,49,-1,51,53,55,57,59,61,-1,63,65,67,69,-1,71,-1,73,75,-1,-1,-1,-1,77,-1,79,-1,81,83,85,-1,87,89,91,93,95,97,-1,-1,99,101,103,105,107,109,111,-1,113,-1,-1,115,117,119,-1,-1,-1,-1,-1,-1,-1,-1,-1,-1,-1,-1,-1,-1,-1,-1,-1,-1,-1,-1,-1,-1,-1,-1,-1,-1,-1,-1,-1,-1,-1,-1,-1,-1,-1,-1,-1,-1,-1,-1,-1,-1],"loss_changes":[1.7446233E2,2.3565613E2,5.3108063E0,9.274318E1,7.852722E0,2.335083E0,5.4821815E0,2.78164E1,3.350815E1,6.033638E0,4.5524426E0,7.516937E-1,3.975408E0,1.0206926E0,0E0,2.1645653E1,5.5481834E0,4.1393097E1,5.34379E-1,4.38015E0,4.2477627E0,2.9959E0,0E0,4.1784668E-1,5.7087284E-1,8.0903995E-1,0E0,1.0142591E0,0E0,1.908354E1,5.8970737E0,7.897297E0,2.8607087E0,1.0182953E1,1.3423412E1,0E0,6.265117E-1,4.6759644E0,5.290863E0,2.5188642E0,0E0,3.8093967E0,0E0,4.6555328E-1,1.1161804E-2,0E0,0E0,0E0,0E0,5.248852E-1,0E0,1.2516235E1,0E0,4.109128E0,5.5604E0,4.4083786E-1,0E0,2.1911674E0,2.718721E0,8.579895E0,3.5960221E0,9.24124E0,2.9316807E0,0E0,0E0,3.3387833E0,6.2669373E0,4.725334E0,6.9208035E0,4.67888E-1,4.9491215E-1,4.3709817E0,0E0,9.043808E-1,0E0,0E0,3.3754396E-1,3.2498606E-2,2.961561E-1,0E0,0E0,0E0,0E0,0E0,0E0,0E0,0E0,0E0,0E0,0E0,0E0,0E0,0E0,0E0,0E0,0E0,0E0,0E0,0E0,0E0,0E0,0E0,0E0,0E0,0E0,0E0,0E0,0E0,0E0,0E0,0E0,0E0,0E0,0E0,0E0,0E0,0E0,0E0,0E0,0E0,0E0],"parents":[2147483647,0,0,1,1,2,2,3,3,4,4,5,5,6,6,7,7,8,8,9,9,10,10,11,11,12,12,13,13,15,15,16,16,17,17,18,18,19,19,20,20,21,21,23,23,24,24,25,25,27,27,29,29,30,30,31,31,32,32,33,33,34,34,36,36,37,37,38,38,39,39,41,41,43,43,44,44,49,49,51,51,53,53,54,54,55,55,57,57,58,58,59,59,60,60,61,61,62,62,65,65,66,66,67,67,68,68,69,69,70,70,71,71,73,73,76,76,77,77,78,78],"right_children":[2,4,6,8,10,12,14,16,18,20,22,24,26,28,-1,30,32,34,36,38,40,42,-1,44,46,48,-1,50,-1,52,54,56,58,60,62,-1,64,66,68,70,-1,72,-1,74,76,-1,-1,-1,-1,78,-1,80,-1,82,84,86,-1,88,90,92,94,96,98,-1,-1,100,102,104,106,108,110,112,-1,114,-1,-1,116,118,120,-1,-1,-1,-1,-1,-1,-1,-1,-1,-1,-1,-1,-1,-1,-1,-1,-1,-1,-1,-1,-1,-1,-1,-1,-1,-1,-1,-1,-1,-1,-1,-1,-1,-1,-1,-1,-1,-1,-1,-1,-1,-1],"split_conditions":[5E-1,5E-1,5E-1,5E-1,5E-1,5E-1,5E-1,5E-1,5E-1,5E-1,5E-1,5E-1,5E-1,5E-1,9.834704E-2,5E-1,5E-1,5E-1,5E-1,5E-1,5E-1,5E-1,1.0400935E-1,5E-1,5E-1,5E-1,-5.8681667E-2,5E-1,-5.962916E-2,5E-1,5E-1,5E-1,5E-1,5E-1,5E-1,-6.705774E-2,5E-1,5E-1,5E-1,5E-1,9.527894E-2,5E-1,-5.542701E-2,5E-1,5E-1,2.6061967E-2,-4.1617047E-2,9.0341054E-2,-7.835071E-4,5E-1,-5.0650913E-2,5E-1,1.14949666E-1,5E-1,5E-1,5E-1,-5.095988E-2,5E-1,5E-1,5E-1,5E-1,5E-1,5E-1,1.4544986E-2,-5.0497968E-2,5E-1,5E-1,5E-1,5E-1,5E-1,5E-1,5E-1,-5.607273E-2,5E-1,-6.852811E-2,-6.370339E-2,5E-1,5E-1,5E-1,6.466815E-3,-4.416449E-2,3.761492E-2,-5.753165E-2,1.0347624E-1,-2.8260515E-4,1.19858265E-1,3.1653922E-2,1.1137225E-1,3.1384334E-2,5.54731E-2,-3.9455317E-2,8.091936E-2,5.0988343E-2,3.1466242E-2,-5.1576342E-2,2.6957903E-2,-1.4458323E-2,1.1713027E-1,5.261611E-2,-2.5136763E-2,-6.4249516E-2,4.01594E-2,-3.942984E-2,-3.9926033E-2,3.571608E-2,-2.814258E-2,6.991279E-2,-1.1660237E-2,-5.591196E-2,7.2931305E-2,1.0107163E-3,2.8896809E-2,-2.9615408E-2,-5.364309E-2,4.522448E-3,6.591124E-3,-4.987725E-2,1.0114246E-3,-1.7001975E-2,5.7324983E-2,5.237758E-5],"split_indices":[0,43,69,74,69,67,91,48,20,95,88,70,136,84,0,67,87,56,65,73,74,86,0,72,81,65,0,135,0,40,56,116,62,31,136,0,90,92,129,93,0,135,0,71,132,0,0,0,0,76,0,20,0,102,98,88,0,135,136,98,91,86,76,0,0,102,84,102,76,72,72,136,0,95,0,0,65,98,88,0,0,0,0,0,0,0,0,0,0,0,0,0,0,0,0,0,0,0,0,0,0,0,0,0,0,0,0,0,0,0,0,0,0,0,0,0,0,0,0,0,0],"split_type":[0,0,0,0,0,0,0,0,0,0,0,0,0,0,0,0,0,0,0,0,0,0,0,0,0,0,0,0,0,0,0,0,0,0,0,0,0,0,0,0,0,0,0,0,0,0,0,0,0,0,0,0,0,0,0,0,0,0,0,0,0,0,0,0,0,0,0,0,0,0,0,0,0,0,0,0,0,0,0,0,0,0,0,0,0,0,0,0,0,0,0,0,0,0,0,0,0,0,0,0,0,0,0,0,0,0,0,0,0,0,0,0,0,0,0,0,0,0,0,0,0],"sum_hessian":[5.1161777E3,4.597144E3,5.190335E2,3.1219453E3,1.4751989E3,5.0123367E2,1.7799809E1,2.2170427E3,9.049025E2,1.3925405E3,8.265827E1,4.9255844E2,8.675236E0,1.44663725E1,3.3334367E0,2.1571294E3,5.99135E1,8.785665E2,2.6335974E1,1.3730779E3,1.946271E1,7.940344E1,3.2548225E0,4.8950955E2,3.0488975E0,3.7227085E0,4.952527E0,9.08229E0,5.384083E0,1.9989952E3,1.581341E2,3.4292988E1,2.5620512E1,5.470013E2,3.3156525E2,2.2041267E1,4.2947054E0,8.3250275E2,5.4057513E2,1.4304571E1,5.1581397E0,7.106936E1,8.334089E0,3.2084802E2,1.6866154E2,1.743789E0,1.3051087E0,2.3773496E0,1.3453588E0,6.585743E0,2.4965463E0,1.9840233E3,1.4971852E1,1.2672734E2,3.1406761E1,3.178144E1,2.511547E0,1.5139263E1,1.0481248E1,5.0736783E2,3.9633457E1,2.984128E2,3.3152428E1,2.1292257E0,2.16548E0,7.931115E2,3.939124E1,5.0974515E2,3.0829943E1,1.0192103E1,4.1124673E0,6.3032146E1,8.037211E0,2.8547104E2,3.537697E1,1.649823E2,3.6792402E0,3.441031E0,3.1447122E0,1.9349248E3,4.9098503E1,1.22876595E2,3.8507397E0,2.4966345E1,6.4404163E0,3.0331997E1,1.4494443E0,5.6627827E0,9.4764805E0,4.105219E0,6.3760295E0,3.680158E2,1.3935202E2,3.4444534E1,5.1889215E0,2.287368E2,6.9676025E1,1.4579714E1,1.8572714E1,7.711734E2,2.193809E1,2.3974995E1,1.54162445E1,5.0207828E2,7.6668816E0,2.116754E1,9.662403E0,6.780229E0,3.4118745E0,2.7951212E0,1.3173461E0,4.6473526E1,1.6558619E1,2.829233E2,2.54773E0,1.2214298E0,2.4578104E0,1.316946E0,2.124085E0,1.8121942E0,1.3325179E0],"tree_param":{"num_deleted":"0","num_feature":"137","num_nodes":"121","size_leaf_vector":"0"}},{"base_weights":[-6.6453624E-3,-1.0070995E-1,6.9214827E-1,-1.14877574E-1,6.3674504E-1,7.7150226E-1,2.500124E-1,-1.9450198E-1,3.6712743E-2,8.221342E-1,-2.427561E-1,7.9011714E-1,-4.9157655E-1,3.0219772E-1,-5.973336E-1,-1.325183E-1,-3.5696378E-1,-5.003313E-2,3.1283265E-1,8.972075E-1,-5.362964E-1,3.0490646E-1,-4.1796044E-1,8.158969E-1,9.683759E-2,2.6066117E-2,-5.9441644E-1,4.2666018E-1,3.2216166E-3,-2.087544E-1,5.4237705E-2,-3.7079987E-1,1.6514254E-1,-1.19742796E-1,1.0566672E-1,1.8300343E-1,6.2760365E-1,9.512688E-1,-4.9368948E-1,-5.4969114E-1,2.1007521E-1,8.527883E-1,2.765229E-1,4.534102E-1,-7.012512E-1,5.013851E-1,-1.5672196E-1,1.9799547E-1,-6.207896E-1,-2.2493999E-1,2.0698835E-1,-3.6295038E-2,4.7104642E-1,-3.758296E-1,7.492782E-1,-5.3784292E-2,9.8459977E-1,-1.909342E-1,1.3223942E-1,6.339781E-2,7.2841704E-1,1.3639452E-1,8.271859E-1,6.985858E-1,-4.7252068E-1,1.0328676E0,5.258384E-1,8.882445E-1,4.4724116E-1,-9.071594E-2,9.676279E-1,7.16446E-1,-5.137528E-1,5.8559877E-1,-1.9173284E-1,3.684459E-1,-4.1792658E-1,-2.4605593E-1,-2.301472E-3,3.402378E-1,-6.40502E-1,-1.209178E-1,1.301981E-1,6.8340117E-1,8.772594E-2,-4.386925E-1,-2.8653127E-1,-3.4560233E-1,2.8708115E-1,-2.1118319E-1,6.6145676E-1,9.296374E-2,1.0701045E0,-1.4956826E-1,2.1530618E-1,9.126328E-1,-5.1457673E-1,1.8138364E-1,-2.252836E-1,4.942048E-1,9.184736E-1,7.589188E-1,-3.076804E-1,-2.1430035E-3,-5.844492E-1,1.0488431E0,2.8346705E-1,9.9839664E-1,-2.516795E-1,9.0587914E-1,-6.7612897E-3,-5.1328287E-2,1.0527774E0,-3.109508E-1,7.4251133E-1,6.6467005E-1,-4.369743E-2,7.878206E-1,-5.9566E-1,5.3841764E-1,-5.247441E-1],"categories":[],"categories_nodes":[],"categories_segments":[],"categories_sizes":[],"default_left":[1,1,1,1,1,1,1,1,1,1,1,1,1,1,0,1,1,1,1,1,0,0,1,1,1,0,0,1,1,1,1,1,1,1,1,1,1,1,0,0,0,1,1,1,0,1,0,1,0,1,1,1,1,1,0,1,0,1,1,1,1,1,1,1,1,1,1,1,1,1,0,0,0,1,1,1,0,0,0,0,0,0,0,0,0,0,0,0,0,0,0,0,0,0,0,0,0,0,0,0,0,0,0,0,0,0,0,0,0,0,0,0,0,0,0,0,0,0,0,0,0],"id":9,"left_children":[1,3,5,7,9,11,13,15,17,19,21,23,25,27,-1,29,31,33,35,37,-1,-1,39,41,43,-1,-1,45,47,49,51,53,55,57,59,61,63,65,-1,-1,-1,67,69,71,-1,73,-1,75,-1,77,79,81,83,85,-1,87,-1,89,91,93,95,97,99,101,103,105,107,109,111,113,-1,-1,-1,115,117,119,-1,-1,-1,-1,-1,-1,-1,-1,-1,-1,-1,-1,-1,-1,-1,-1,-1,-1,-1,-1,-1,-1,-1,-1,-1,-1,-1,-1,-1,-1,-1,-1,-1,-1,-1,-1,-1,-1,-1,-1,-1,-1,-1,-1,-1],"loss_changes":[3.3147794E2,4.650963E1,2.0798248E1,5.265305E1,1.3884312E1,1.2303589E1,4.2716475E0,2.8750252E1,3.601274E1,7.5736084E0,1.6035342E0,8.853607E0,4.4012403E-1,3.266387E0,0E0,2.9505493E1,5.762108E0,1.2434352E1,1.4572971E1,5.453335E0,0E0,0E0,1.1146069E0,9.349945E0,5.740071E0,0E0,0E0,2.781209E0,3.38261E0,9.946831E0,2.2707125E1,4.614464E0,3.8320918E0,1.4214865E1,9.284365E0,7.5695553E0,8.49361E0,1.6834717E0,0E0,0E0,0E0,6.0794373E0,8.290583E0,3.8728542E0,0E0,3.334034E0,0E0,2.379436E0,0E0,6.6592865E0,6.502756E0,6.9888783E0,8.680054E0,4.1761246E0,0E0,1.8471351E0,0E0,1.0791838E1,6.3407125E0,1.0806142E1,5.606662E0,3.94283E0,6.485748E-2,6.220108E0,3.6375368E-1,3.345871E-1,4.792427E0,6.527527E0,1.1594955E1,4.271562E0,0E0,0E0,0E0,2.4902534E0,3.1333232E0,2.8838665E0,0E0,0E0,0E0,0E0,0E0,0E0,0E0,0E0,0E0,0E0,0E0,0E0,0E0,0E0,0E0,0E0,0E0,0E0,0E0,0E0,0E0,0E0,0E0,0E0,0E0,0E0,0E0,0E0,0E0,0E0,0E0,0E0,0E0,0E0,0E0,0E0,0E0,0E0,0E0,0E0,0E0,0E0,0E0,0E0,0E0],"parents":[2147483647,0,0,1,1,2,2,3,3,4,4,5,5,6,6,7,7,8,8,9,9,10,10,11,11,12,12,13,13,15,15,16,16,17,17,18,18,19,19,22,22,23,23,24,24,27,27,28,28,29,29,30,30,31,31,32,32,33,33,34,34,35,35,36,36,37,37,41,41,42,42,43,43,45,45,47,47,49,49,50,50,51,51,52,52,53,53,55,55,57,57,58,58,59,59,60,60,61,61,62,62,63,63,64,64,65,65,66,66,67,67,68,68,69,69,73,73,74,74,75,75],"right_children":[2,4,6,8,10,12,14,16,18,20,22,24,26,28,-1,30,32,34,36,38,-1,-1,40,42,44,-1,-1,46,48,50,52,54,56,58,60,62,64,66,-1,-1,-1,68,70,72,-1,74,-1,76,-1,78,80,82,84,86,-1,88,-1,90,92,94,96,98,100,102,104,106,108,110,112,114,-1,-1,-1,116,118,120,-1,-1,-1,-1,-1,-1,-1,-1,-1,-1,-1,-1,-1,-1,-1,-1,-1,-1,-1,-1,-1,-1,-1,-1,-1,-1,-1,-1,-1,-1,-1,-1,-1,-1,-1,-1,-1,-1,-1,-1,-1,-1,-1,-1,-1],"split_conditions":[5E-1,5E-1,5E-1,5E-1,5E-1,5E-1,5E-1,5E-1,5E-1,5E-1,5E-1,5E-1,5E-1,5E-1,-5.973336E-2,5E-1,5E-1,5E-1,5E-1,5E-1,-5.3629644E-2,3.0490646E-2,5E-1,5E-1,5E-1,2.6066117E-3,-5.9441645E-2,5E-1,5E-1,5E-1,5E-1,5E-1,5E-1,5E-1,5E-1,5E-1,5E-1,5E-1,-4.9368948E-2,-5.4969113E-2,2.1007521E-2,5E-1,5E-1,5E-1,-7.0125125E-2,5E-1,-1.5672198E-2,5E-1,-6.207896E-2,5E-1,5E-1,5E-1,5E-1,5E-1,7.492782E-2,5E-1,9.845998E-2,5E-1,5E-1,5E-1,5E-1,5E-1,5E-1,5E-1,5E-1,5E-1,5E-1,5E-1,5E-1,5E-1,9.676279E-2,7.16446E-2,-5.137528E-2,5E-1,5E-1,5E-1,-4.1792657E-2,-2.4605593E-2,-2.301472E-4,3.402378E-2,-6.40502E-2,-1.209178E-2,1.301981E-2,6.8340115E-2,8.772594E-3,-4.3869253E-2,-2.8653128E-2,-3.4560233E-2,2.8708115E-2,-2.1118319E-2,6.614568E-2,9.296374E-3,1.0701045E-1,-1.4956826E-2,2.1530619E-2,9.126329E-2,-5.1457673E-2,1.8138364E-2,-2.252836E-2,4.942048E-2,9.184736E-2,7.589188E-2,-3.076804E-2,-2.1430035E-4,-5.8444917E-2,1.0488432E-1,2.8346706E-2,9.9839665E-2,-2.5167951E-2,9.0587914E-2,-6.7612896E-4,-5.132829E-3,1.0527774E-1,-3.1095078E-2,7.425114E-2,6.646701E-2,-4.369743E-3,7.878206E-2,-5.9566E-2,5.3841766E-2,-5.247441E-2],"split_indices":[0,20,73,43,73,67,106,74,74,67,80,69,80,98,0,56,36,62,62,69,0,0,93,75,86,0,0,94,93,75,135,44,111,72,88,124,92,129,0,0,0,71,111,91,0,128,0,91,0,85,86,73,87,56,0,87,0,86,102,73,116,78,80,93,98,128,76,115,76,90,0,0,0,82,80,87,0,0,0,0,0,0,0,0,0,0,0,0,0,0,0,0,0,0,0,0,0,0,0,0,0,0,0,0,0,0,0,0,0,0,0,0,0,0,0,0,0,0,0,0,0],"split_type":[0,0,0,0,0,0,0,0,0,0,0,0,0,0,0,0,0,0,0,0,0,0,0,0,0,0,0,0,0,0,0,0,0,0,0,0,0,0,0,0,0,0,0,0,0,0,0,0,0,0,0,0,0,0,0,0,0,0,0,0,0,0,0,0,0,0,0,0,0,0,0,0,0,0,0,0,0,0,0,0,0,0,0,0,0,0,0,0,0,0,0,0,0,0,0,0,0,0,0,0,0,0,0,0,0,0,0,0,0,0,0,0,0,0,0,0,0,0,0,0,0],"sum_hessian":[5.04083E3,4.443541E3,5.9728906E2,4.3606113E3,8.292969E1,5.057693E2,9.151976E1,2.8587434E3,1.5018679E3,6.8546135E1,1.4383547E1,4.9879266E2,6.976624E0,8.6816376E1,4.7033834E0,2.070577E3,7.881665E2,1.1434579E3,3.584101E2,6.527809E1,3.2680483E0,3.3067744E0,1.1076773E1,4.8073938E2,1.8053274E1,1.2800503E0,5.6965737E0,6.0996662E1,2.5819714E1,1.4702749E3,6.0030194E2,7.681012E2,2.0065279E1,7.89994E2,3.5346384E2,2.5486913E2,1.03540955E2,6.314004E1,2.1380486E0,9.259363E0,1.8174094E0,4.4941953E2,3.1319878E1,1.2776728E1,5.2765465E0,5.419538E1,6.8012834E0,2.0197983E1,5.6217313E0,1.4156212E3,5.4653633E1,4.9393088E2,1.063711E2,7.65329E2,2.772257E0,1.6572203E1,3.4930768E0,6.1615643E2,1.7383763E2,3.3202927E2,2.1434546E1,2.3880263E2,1.606649E1,9.760809E1,5.9328656E0,5.178056E1,1.1359482E1,4.121921E2,3.7227386E1,2.1019361E1,1.0300515E1,1.0248666E1,2.528062E0,4.846234E1,5.73304E0,1.6134668E1,4.063314E0,1.2928928E3,1.22728424E2,4.7745262E1,6.9083705E0,3.2766415E2,1.6626672E2,6.7946655E1,3.8424442E1,4.468498E2,3.184792E2,8.920977E0,7.6512265E0,6.0259375E2,1.3562678E1,1.6790526E2,5.9323707E0,1.3824034E2,1.9378894E2,1.8899374E1,2.5351717E0,2.1282753E2,2.597511E1,4.836944E0,1.12295475E1,9.231872E1,5.289377E0,1.3362869E0,4.5965786E0,5.0308514E1,1.4720438E0,6.8886375E0,4.4708443E0,4.0421558E2,7.9765453E0,2.0918959E1,1.630843E1,1.7120865E1,3.8984976E0,4.300281E1,5.459529E0,1.3963599E0,4.33668E0,1.3888852E1,2.2458162E0],"tree_param":{"num_deleted":"0","num_feature":"137","num_nodes":"121","size_leaf_vector":"0"}},{"base_weights":[1.3678307E-3,-1.2557586E-1,1.400311E-1,-1.8245895E-1,4.941366E-3,2.8212849E-2,3.5734046E-1,-1.1854508E-1,-3.9577028E-1,2.9127575E-2,-6.891402E-1,9.934345E-2,-1.0638521E-1,2.1430905E-1,5.1232576E-1,-2.893284E-2,-2.2490866E-1,-4.19906E-1,6.6093904E-1,7.4489E-3,7.132555E-1,1.3031617E-1,-2.5500393E-1,-2.0689394E-1,7.378805E-2,-5.8915544E-2,3.3124393E-1,6.2639743E-1,3.6467123E-1,-1.5002054E-1,8.662445E-2,-2.763543E-1,1.978902E-1,-4.663351E-1,1.195515E-1,1.061269E0,-5.140832E-1,-3.971983E-3,9.760489E-1,6.072435E-1,9.708506E-1,1.4480826E-1,-6.677503E-1,-4.3144193E-1,5.699147E-1,-2.2430512E-1,5.805569E-1,4.5596845E-2,9.650529E-1,3.382709E-2,-6.8640953E-1,3.6668122E-1,-6.6041833E-1,6.538396E-1,-6.057755E-1,4.0570548E-1,-6.4913976E-1,-1.9708413E-1,8.450586E-1,3.5708103E-2,7.607168E-1,-3.4468418E-1,4.661808E-2,4.821616E-1,-3.4307498E-1,-4.914805E-1,4.3231976E-1,4.81094E-1,-6.5992707E-1,2.5378073E-2,-7.234869E-1,-4.7987235E-1,7.41002E-1,1.6208455E-1,-5.374629E-1,-4.913885E-1,1.5771554E-1,-5.3378415E-1,8.3545625E-1,-3.1887874E-1,-8.1877254E-2,-5.0787604E-1,1.1608768E0,2.001121E-2,1.0858703E0,-1.3147798E-1,3.5512248E-1,3.160557E-1,7.7734965E-1,7.268924E-1,4.2969978E-1,2.8404248E-1,6.7662644E-1,-2.905906E-1,4.215777E-1,-5.66471E-1,1.1905395E0,-7.193293E-2,4.3664253E-1,9.14365E-1,-5.322787E-1,-3.60405E-1,8.5309607E-1,-1.0551254E-1,7.3904413E-1,5.3622305E-1,-4.7623488E-1,-6.816614E-1,7.6838356E-1,-5.3632325E-1,-1.2089342E-2,-5.559344E-1,1.0056912E0,9.908922E-1,-4.608664E-2,1.51013145E-2,1.035125E0,9.0238714E-1,5.618428E-1,1.7154631E-1,-6.9103396E-1,-7.3746896E-1,4.299181E-1,-5.54885E-1,-5.2008104E-2,-5.345663E-1,6.572967E-1,1.023962E0,-4.4084796E-1,-3.5345668E-1,6.1232895E-1,-2.920082E-1,3.7836948E-1,-1.7792644E-1,1.8826629E-1,-2.3256494E-1,7.174493E-1,6.0879254E-1,-6.5048045E-1,5.0800776E-1,1.6947486E-1,8.762851E-1,-5.203488E-1,8.1224656E-1,4.5473608E-1,6.442507E-1,-3.090962E-1,1.3672642E-1,8.6970836E-1,7.5895184E-1,-5.7672155E-1],"categories":[],"categories_nodes":[],"categories_segments":[],"categories_sizes":[],"default_left":[1,1,1,1,1,1,1,1,1,1,0,1,1,1,1,1,1,1,1,1,1,1,1,1,1,1,1,1,1,1,1,1,1,1,1,0,0,1,0,1,0,1,0,1,1,1,1,1,0,1,0,1,0,1,0,1,0,1,1,1,1,1,1,1,1,1,1,1,0,1,0,0,1,1,1,1,1,0,1,1,1,0,0,1,0,1,1,1,1,1,1,1,1,0,0,0,0,0,0,0,0,0,0,0,0,0,0,0,0,0,0,0,0,0,0,0,0,0,0,0,0,0,0,0,0,0,0,0,0,0,0,0,0,0,0,0,0,0,0,0,0,0,0,0,0,0,0,0,0,0,0],"id":10,"left_children":[1,3,5,7,9,11,13,15,17,19,-1,21,23,25,27,29,31,33,35,37,39,41,43,45,47,49,51,53,55,57,59,61,63,65,67,-1,-1,69,-1,71,-1,73,-1,75,77,79,81,83,-1,85,-1,87,-1,89,-1,91,-1,93,95,97,99,101,103,105,107,109,111,113,-1,115,-1,-1,117,119,121,123,125,-1,127,129,131,-1,-1,133,-1,135,137,139,141,143,145,147,149,-1,-1,-1,-1,-1,-1,-1,-1,-1,-1,-1,-1,-1,-1,-1,-1,-1,-1,-1,-1,-1,-1,-1,-1,-1,-1,-1,-1,-1,-1,-1,-1,-1,-1,-1,-1,-1,-1,-1,-1,-1,-1,-1,-1,-1,-1,-1,-1,-1,-1,-1,-1,-1,-1,-1,-1,-1,-1],"loss_changes":[9.035526E1,1.9896397E1,5.9603176E1,2.5398907E1,1.3691522E1,1.5529151E1,1.8364914E1,1.3695381E1,1.124115E1,1.1680516E1,0E0,1.1677739E1,1.0172762E1,1.3921867E1,6.496521E0,1.0946172E1,1.4349216E1,1.059742E1,5.243759E0,8.463665E0,7.105923E-2,1.1389053E1,1.2708016E1,5.0703344E0,5.021155E0,7.6621675E0,1.0955925E1,7.965431E0,7.6022663E0,1.8052341E1,1.3716939E1,1.29551735E1,1.1218203E1,8.974121E0,9.941232E0,0E0,0E0,1.6000875E1,0E0,3.2358513E0,0E0,1.1400127E1,0E0,2.5887928E0,4.9937887E0,4.7320633E0,5.688964E0,5.20727E0,0E0,6.1712346E0,0E0,5.887375E0,0E0,3.281105E0,0E0,5.4166107E0,0E0,2.1264969E1,9.177427E0,1.614489E1,6.0639057E0,9.422115E0,1.0955676E1,2.71805E0,1.0060883E1,8.111885E0,6.8408117E0,6.470835E0,0E0,7.5401254E0,0E0,0E0,1.4331818E-2,7.6807556E0,4.9479957E0,1.7784872E0,2.8843086E0,0E0,3.5545425E0,7.040716E0,1.3873087E1,0E0,0E0,6.4532847E0,0E0,6.763506E0,1.0457855E1,7.350561E0,4.5245647E0,3.4419098E0,9.137694E0,1.0161423E1,5.804327E0,0E0,0E0,0E0,0E0,0E0,0E0,0E0,0E0,0E0,0E0,0E0,0E0,0E0,0E0,0E0,0E0,0E0,0E0,0E0,0E0,0E0,0E0,0E0,0E0,0E0,0E0,0E0,0E0,0E0,0E0,0E0,0E0,0E0,0E0,0E0,0E0,0E0,0E0,0E0,0E0,0E0,0E0,0E0,0E0,0E0,0E0,0E0,0E0,0E0,0E0,0E0,0E0,0E0,0E0,0E0,0E0,0E0,0E0],"parents":[2147483647,0,0,1,1,2,2,3,3,4,4,5,5,6,6,7,7,8,8,9,9,11,11,12,12,13,13,14,14,15,15,16,16,17,17,18,18,19,19,20,20,21,21,22,22,23,23,24,24,25,25,26,26,27,27,28,28,29,29,30,30,31,31,32,32,33,33,34,34,37,37,39,39,41,41,43,43,44,44,45,45,46,46,47,47,49,49,51,51,53,53,55,55,57,57,58,58,59,59,60,60,61,61,62,62,63,63,64,64,65,65,66,66,67,67,69,69,72,72,73,73,74,74,75,75,76,76,78,78,79,79,80,80,83,83,85,85,86,86,87,87,88,88,89,89,90,90,91,91,92,92],"right_children":[2,4,6,8,10,12,14,16,18,20,-1,22,24,26,28,30,32,34,36,38,40,42,44,46,48,50,52,54,56,58,60,62,64,66,68,-1,-1,70,-1,72,-1,74,-1,76,78,80,82,84,-1,86,-1,88,-1,90,-1,92,-1,94,96,98,100,102,104,106,108,110,112,114,-1,116,-1,-1,118,120,122,124,126,-1,128,130,132,-1,-1,134,-1,136,138,140,142,144,146,148,150,-1,-1,-1,-1,-1,-1,-1,-1,-1,-1,-1,-1,-1,-1,-1,-1,-1,-1,-1,-1,-1,-1,-1,-1,-1,-1,-1,-1,-1,-1,-1,-1,-1,-1,-1,-1,-1,-1,-1,-1,-1,-1,-1,-1,-1,-1,-1,-1,-1,-1,-1,-1,-1,-1,-1,-1,-1,-1],"split_conditions":[5E-1,5E-1,5E-1,5E-1,5E-1,5E-1,5E-1,5E-1,5E-1,5E-1,-6.891402E-2,5E-1,5E-1,5E-1,5E-1,5E-1,5E-1,5E-1,5E-1,5E-1,5E-1,5E-1,5E-1,5E-1,5E-1,5E-1,5E-1,5E-1,5E-1,5E-1,5E-1,5E-1,5E-1,5E-1,5E-1,1.06126904E-1,-5.140832E-2,5E-1,9.760489E-2,5E-1,9.708506E-2,5E-1,-6.677503E-2,5E-1,5E-1,5E-1,5E-1,5E-1,9.650529E-2,5E-1,-6.8640955E-2,5E-1,-6.6041835E-2,5E-1,-6.057755E-2,5E-1,-6.491398E-2,5E-1,5E-1,5E-1,5E-1,5E-1,5E-1,5E-1,5E-1,5E-1,5E-1,5E-1,-6.5992706E-2,5E-1,-7.234869E-2,-4.7987234E-2,5E-1,5E-1,5E-1,5E-1,5E-1,-5.3378414E-2,5E-1,5E-1,5E-1,-5.0787605E-2,1.16087675E-1,5E-1,1.0858703E-1,5E-1,5E-1,5E-1,5E-1,5E-1,5E-1,5E-1,5E-1,-2.9059062E-2,4.215777E-2,-5.66471E-2,1.1905395E-1,-7.193293E-3,4.3664254E-2,9.14365E-2,-5.322787E-2,-3.60405E-2,8.530961E-2,-1.0551254E-2,7.390442E-2,5.3622305E-2,-4.762349E-2,-6.8166144E-2,7.683836E-2,-5.3632326E-2,-1.2089342E-3,-5.5593442E-2,1.0056912E-1,9.908922E-2,-4.608664E-3,1.5101315E-3,1.035125E-1,9.023871E-2,5.618428E-2,1.7154632E-2,-6.91034E-2,-7.37469E-2,4.2991813E-2,-5.5488504E-2,-5.2008103E-3,-5.345663E-2,6.572967E-2,1.02396205E-1,-4.40848E-2,-3.534567E-2,6.1232895E-2,-2.920082E-2,3.783695E-2,-1.7792644E-2,1.882663E-2,-2.3256494E-2,7.174493E-2,6.0879257E-2,-6.504805E-2,5.0800778E-2,1.6947486E-2,8.7628506E-2,-5.203488E-2,8.122466E-2,4.547361E-2,6.442507E-2,-3.0909618E-2,1.3672642E-2,8.6970836E-2,7.589518E-2,-5.7672154E-2],"split_indices":[63,73,73,0,78,74,43,76,115,116,0,75,98,38,76,56,86,75,65,106,84,86,90,37,41,98,91,94,129,102,128,136,82,67,111,0,0,89,0,62,0,128,0,81,76,43,86,58,0,31,0,98,0,135,0,136,0,84,43,129,91,6,69,81,100,71,136,80,0,22,0,0,76,96,31,78,76,0,95,91,82,0,0,43,0,78,87,76,93,92,93,85,78,0,0,0,0,0,0,0,0,0,0,0,0,0,0,0,0,0,0,0,0,0,0,0,0,0,0,0,0,0,0,0,0,0,0,0,0,0,0,0,0,0,0,0,0,0,0,0,0,0,0,0,0,0,0,0,0,0,0],"split_type":[0,0,0,0,0,0,0,0,0,0,0,0,0,0,0,0,0,0,0,0,0,0,0,0,0,0,0,0,0,0,0,0,0,0,0,0,0,0,0,0,0,0,0,0,0,0,0,0,0,0,0,0,0,0,0,0,0,0,0,0,0,0,0,0,0,0,0,0,0,0,0,0,0,0,0,0,0,0,0,0,0,0,0,0,0,0,0,0,0,0,0,0,0,0,0,0,0,0,0,0,0,0,0,0,0,0,0,0,0,0,0,0,0,0,0,0,0,0,0,0,0,0,0,0,0,0,0,0,0,0,0,0,0,0,0,0,0,0,0,0,0,0,0,0,0,0,0,0,0,0,0],"sum_hessian":[5.1311147E3,2.6788086E3,2.452306E3,1.8654116E3,8.133971E2,1.6199022E3,8.3240375E2,1.4365406E3,4.2887094E2,7.8693335E2,2.646372E1,1.059993E3,5.599092E2,4.3413553E2,3.9826822E2,7.80356E2,6.561847E2,4.1988324E2,8.987694E0,7.6374274E2,2.3190624E1,9.753703E2,8.4622734E1,3.5931744E2,2.005917E2,1.3026367E2,3.0387186E2,2.228564E2,1.7541182E2,3.8091388E2,3.994421E2,5.853111E2,7.087357E1,3.8673404E2,3.3149204E1,6.7759404E0,2.2117534E0,7.558266E2,7.9161463E0,1.8807743E1,4.382881E0,9.587784E2,1.6591906E1,7.010524E1,1.4517495E1,3.522442E2,7.0732536E0,1.9546036E2,5.1313586E0,1.14314285E2,1.5949381E1,2.9399606E2,9.875791E0,2.1846036E2,4.3960395E0,1.6916466E2,6.247159E0,3.644774E2,1.6436502E1,3.7236887E2,2.7073238E1,4.830476E2,1.0226353E2,4.6530823E1,2.4342747E1,3.7664807E2,1.0085962E1,2.2907097E1,1.0242108E1,7.271306E2,2.8695982E1,1.7770728E0,1.703067E1,9.358437E2,2.2934748E1,6.378145E1,6.323791E0,2.6195223E0,1.1897973E1,2.1093933E2,1.4130486E2,2.5031824E0,4.570071E0,1.9176315E2,3.6971984E0,7.587019E1,3.844409E1,2.6330634E2,3.0689728E1,1.6306902E2,5.5391354E1,1.18153625E2,5.1011036E1,3.170828E2,4.7394592E1,3.1061323E0,1.3330371E1,2.9420316E2,7.816572E1,2.4459517E1,2.6137207E0,4.774798E2,5.567797E0,8.453766E1,1.7725868E1,4.446323E1,2.0675929E0,1.8955101E1,5.387645E0,3.4432117E2,3.2326916E1,3.71436E0,6.3716025E0,1.1198364E1,1.1708733E1,7.2080945E2,6.321125E0,6.8360376E0,1.0194633E1,9.263684E2,9.475249E0,1.920233E1,3.732418E0,5.54983E1,8.283152E0,2.6213264E0,3.7024646E0,1.0539098E1,1.3588754E0,2.039853E2,6.954021E0,9.726359E1,4.404127E1,8.8083275E1,1.0367988E2,6.844596E1,7.4242306E0,3.1014961E1,7.429133E0,1.1294096E2,1.5036539E2,2.881745E1,1.8722787E0,1.2262625E2,4.0442757E1,4.302469E1,1.2366665E1,9.539245E1,2.276118E1,4.8237072E1,2.7739637E0],"tree_param":{"num_deleted":"0","num_feature":"137","num_nodes":"151","size_leaf_vector":"0"}},{"base_weights":[2.1345667E-3,5.823984E-2,-5.174684E-1,2.0001215E-1,-2.4796797E-1,-5.343436E-1,-4.6070423E-2,1.1113547E-1,4.121001E-1,-1.8723154E-1,-3.5210818E-1,-5.4156744E-1,-6.2943906E-2,-3.2939965E-1,9.1321313E-1,9.1675326E-2,7.56038E-1,4.8386902E-1,1.5235319E-3,-2.1022514E-1,5.4867566E-2,-3.630545E-1,3.5071743E-1,-5.020256E-1,-6.1835426E-1,6.8324655E-1,-5.735536E-1,-9.443776E-2,-5.971374E-1,1.707426E-1,-2.1314269E-2,8.263064E-1,-3.305612E-1,5.1629585E-1,-5.706576E-1,-4.061157E-2,9.029884E-1,-2.1866289E-1,4.1936454E-1,1.592968E-1,-3.41972E-1,-3.8366804E-1,-4.0809117E-2,8.227827E-1,-1.7976059E-1,-5.285343E-1,-2.5385666E-1,-6.235261E-1,-2.7970964E-1,1.7158143E-1,-5.0876456E-1,1.9196345E-1,-5.6135106E-1,-4.4664063E-2,7.913754E-1,1.0542399E0,4.57063E-1,6.124746E-1,3.0461466E-1,8.806125E-3,-6.524627E-1,-2.3346962E-1,6.994517E-2,9.4892615E-1,-3.912699E-1,2.091387E-1,-5.62568E-1,3.9497476E-2,-6.4799756E-1,-4.3019536E-1,-2.7546808E-1,-3.2980877E-1,5.78941E-1,-4.502116E-1,1.01269096E-1,-5.568219E-1,-4.2537832E-1,1.8035136E-2,-6.5703034E-1,8.498027E-2,-4.5403108E-1,-1.6839863E-1,3.8572723E-1,1.8054554E-1,1.0567598E0,-6.681654E-1,9.3461484E-1,-6.0240798E-2,8.800082E-1,9.438561E-1,3.4298506E-1,1.104487E0,1.022443E-1,1.092039E0,2.3570928E-1,6.9555485E-1,4.0237397E-1,5.000837E-1,-3.1154392E-2,-1.4734241E-1,2.2267663E-1,-2.2285682E-1,-5.8246547E-1,3.8028854E-1,-3.5677758E-1,1.0440682E0,3.3303437E-1,1.6593657E-2,-5.3126967E-1,2.6394626E-1,-3.1006965E-1,8.628465E-1,-2.312209E-1,-4.413156E-1,-1.7713451E-1,-1.944376E-1,-4.5218894E-1,9.736043E-2,-4.8542014E-1,4.2998546E-1,8.3403945E-1,-5.6844825E-1,2.2329392E-1,-4.475401E-1,1.6919E-1,-2.1124668E-1,2.0339228E-1,5.599937E-1,7.282674E-3],"categories":[],"categories_nodes":[],"categories_segments":[],"categories_sizes":[],"default_left":[1,1,1,1,1,1,1,1,1,1,1,1,1,1,0,1,1,1,1,1,1,1,1,1,1,0,0,1,0,1,1,1,0,1,0,1,0,1,1,1,1,1,1,0,1,1,1,0,1,1,0,1,1,1,1,1,1,1,1,1,0,1,1,1,1,1,0,1,0,1,1,1,1,0,0,1,1,1,0,0,0,0,1,0,0,0,0,0,0,0,0,0,0,0,0,0,0,0,0,0,0,0,0,0,0,0,0,0,0,0,0,0,0,0,0,0,0,0,0,0,0,0,0,0,0,0,0,0,0],"id":11,"left_children":[1,3,5,7,9,11,13,15,17,19,21,23,25,27,-1,29,31,33,35,37,39,41,43,45,47,-1,-1,49,-1,51,53,55,-1,57,-1,59,-1,61,63,65,67,69,71,-1,73,75,77,-1,79,81,-1,83,85,87,89,91,93,95,97,99,-1,101,103,105,107,109,-1,111,-1,113,115,117,119,-1,-1,121,123,125,-1,-1,-1,-1,127,-1,-1,-1,-1,-1,-1,-1,-1,-1,-1,-1,-1,-1,-1,-1,-1,-1,-1,-1,-1,-1,-1,-1,-1,-1,-1,-1,-1,-1,-1,-1,-1,-1,-1,-1,-1,-1,-1,-1,-1,-1,-1,-1,-1,-1,-1],"loss_changes":[1.4816266E2,1.9917975E2,3.9154205E0,5.9065063E1,9.118744E0,1.5939484E0,5.2507753E0,2.7681343E1,2.7276047E1,5.1291237E0,4.2338867E0,1.118866E0,3.57228E0,8.7430716E-1,0E0,1.9189768E1,5.2080345E0,2.7238434E1,5.306363E0,4.5528946E0,3.3918803E0,3.4789352E0,2.325218E0,1.9449539E0,9.8285675E-2,0E0,0E0,1.0866985E0,0E0,1.9738121E1,1.68297E1,4.651413E0,0E0,1.5387527E1,0E0,4.042254E0,0E0,3.5603676E0,5.2859693E0,2.436059E0,2.0212703E0,2.3701172E0,6.0564704E0,0E0,4.1913465E-1,5.936661E-1,3.5662563E0,0E0,3.0276746E-1,5.214325E-1,0E0,1.194178E1,6.352891E0,1.2457973E1,1.3699093E0,1.654419E0,3.2627935E0,8.884003E0,1.5831217E1,4.1908574E0,0E0,2.7928543E0,5.5972843E0,7.517338E-2,3.0755782E-1,1.8178248E0,0E0,2.1057408E0,0E0,8.896103E-1,2.0805235E0,1.5741999E0,5.090666E-2,0E0,0E0,2.1234741E0,9.3863106E-1,9.0733755E-1,0E0,0E0,0E0,0E0,2.6966178E-1,0E0,0E0,0E0,0E0,0E0,0E0,0E0,0E0,0E0,0E0,0E0,0E0,0E0,0E0,0E0,0E0,0E0,0E0,0E0,0E0,0E0,0E0,0E0,0E0,0E0,0E0,0E0,0E0,0E0,0E0,0E0,0E0,0E0,0E0,0E0,0E0,0E0,0E0,0E0,0E0,0E0,0E0,0E0,0E0,0E0,0E0],"parents":[2147483647,0,0,1,1,2,2,3,3,4,4,5,5,6,6,7,7,8,8,9,9,10,10,11,11,12,12,13,13,15,15,16,16,17,17,18,18,19,19,20,20,21,21,22,22,23,23,24,24,27,27,29,29,30,30,31,31,33,33,35,35,37,37,38,38,39,39,40,40,41,41,42,42,44,44,45,45,46,46,48,48,49,49,51,51,52,52,53,53,54,54,55,55,56,56,57,57,58,58,59,59,61,61,62,62,63,63,64,64,65,65,67,67,69,69,70,70,71,71,72,72,75,75,76,76,77,77,82,82],"right_children":[2,4,6,8,10,12,14,16,18,20,22,24,26,28,-1,30,32,34,36,38,40,42,44,46,48,-1,-1,50,-1,52,54,56,-1,58,-1,60,-1,62,64,66,68,70,72,-1,74,76,78,-1,80,82,-1,84,86,88,90,92,94,96,98,100,-1,102,104,106,108,110,-1,112,-1,114,116,118,120,-1,-1,122,124,126,-1,-1,-1,-1,128,-1,-1,-1,-1,-1,-1,-1,-1,-1,-1,-1,-1,-1,-1,-1,-1,-1,-1,-1,-1,-1,-1,-1,-1,-1,-1,-1,-1,-1,-1,-1,-1,-1,-1,-1,-1,-1,-1,-1,-1,-1,-1,-1,-1,-1,-1],"split_conditions":[5E-1,5E-1,5E-1,5E-1,5E-1,5E-1,5E-1,5E-1,5E-1,5E-1,5E-1,5E-1,5E-1,5E-1,9.132131E-2,5E-1,5E-1,5E-1,5E-1,5E-1,5E-1,5E-1,5E-1,5E-1,5E-1,6.8324655E-2,-5.7355363E-2,5E-1,-5.971374E-2,5E-1,5E-1,5E-1,-3.305612E-2,5E-1,-5.7065763E-2,5E-1,9.029884E-2,5E-1,5E-1,5E-1,5E-1,5E-1,5E-1,8.2278274E-2,5E-1,5E-1,5E-1,-6.235261E-2,5E-1,5E-1,-5.0876457E-2,5E-1,5E-1,5E-1,5E-1,5E-1,5E-1,5E-1,5E-1,5E-1,-6.524628E-2,5E-1,5E-1,5E-1,5E-1,5E-1,-5.62568E-2,5E-1,-6.4799756E-2,5E-1,5E-1,5E-1,5E-1,-4.502116E-2,1.012691E-2,5E-1,5E-1,5E-1,-6.5703034E-2,8.498027E-3,-4.5403108E-2,-1.6839864E-2,5E-1,1.8054554E-2,1.0567599E-1,-6.681654E-2,9.346148E-2,-6.02408E-3,8.800083E-2,9.438562E-2,3.4298506E-2,1.10448696E-1,1.0224431E-2,1.092039E-1,2.3570929E-2,