{"learner":{"attributes":{"best_iteration":"99","best_ntree_limit":"100","scikit_learn":"{\"use_label_encoder\": null, \"n_estimators\": 100, \"objective\": \"multi:softmax\", \"max_depth\": 7, \"max_leaves\": null, \"max_bin\": null, \"grow_policy\": null, \"learning_rate\": 0.1, \"verbosity\": null, \"booster\": null, \"tree_method\": null, \"gamma\": null, \"min_child_weight\": null, \"max_delta_step\": null, \"subsample\": 0.8, \"sampling_method\": null, \"colsample_bytree\": null, \"colsample_bylevel\": null, \"colsample_bynode\": null, \"reg_alpha\": null, \"reg_lambda\": null, \"scale_pos_weight\": null, \"base_score\": null, \"missing\": NaN, \"num_parallel_tree\": null, \"random_state\": null, \"n_jobs\": null, \"monotone_constraints\": null, \"interaction_constraints\": null, \"importance_type\": null, \"gpu_id\": null, \"validate_parameters\": null, \"predictor\": null, \"enable_categorical\": false, \"feature_types\": null, \"max_cat_to_onehot\": null, \"max_cat_threshold\": null, \"eval_metric\": \"mlogloss\", \"early_stopping_rounds\": null, \"callbacks\": null, \"kwargs\": {\"num_class\": 3}, \"classes_\": [0, 1, 2], \"n_classes_\": 3, \"_estimator_type\": \"classifier\"}"},"feature_names":["Species_Citrobacter amalonaticus","Species_Citrobacter braakii","Species_Citrobacter freundii","Species_Citrobacter koseri","Species_Citrobacter sedlakii","Species_Citrobacter spp","Species_Enterobacter asburiae","Species_Enterobacter bugandensis","Species_Enterobacter cloacae","Species_Enterobacter hormaechi","Species_Enterobacter kobei","Species_Enterobacter ludwigii","Species_Enterobacter roggenkampii","Species_Enterobacter spp","Species_Enterobacter xiangfangensis","Species_Enterococcus canintestini","Species_Enterococcus faecalis","Species_Enterococcus faecium","Species_Enterococcus hirae","Species_Enterococcus raffinosus","Species_Enterococcus spp","Species_Escherichia coli","Species_Escherichia spp","Species_Haemophilus influenzae","Species_Klebsiella aerogenes","Species_Klebsiella oxytoca","Species_Klebsiella pneumoniae","Species_Klebsiella spp","Species_Klebsiella variicola","Species_Morganella morganii","Species_Proteus hauseri","Species_Proteus mirabilis","Species_Proteus penneri","Species_Proteus spp","Species_Proteus vulgaris","Species_Providencia alcalifaciens","Species_Providencia rettgeri","Species_Providencia spp","Species_Providencia stuartii","Species_Raoultella ornithinolytica","Species_Serratia liquefaciens","Species_Serratia marcescens","Species_Serratia spp","Species_Serratia ureilytica","Species_Staphylococcus Coagulase Negative","Species_Staphylococcus arlettae","Species_Staphylococcus aureus","Species_Staphylococcus cohnii","Species_Staphylococcus epidermidis","Species_Staphylococcus haemolyticus","Species_Staphylococcus hominis","Species_Staphylococcus lugdunensis","Species_Staphylococcus pasteuri","Species_Staphylococcus saccharolyticus","Species_Staphylococcus saprophyticus","Species_Staphylococcus sciuri","Species_Staphylococcus simulans","Species_Staphylococcus spp","Species_Staphylococcus xylosus","Species_Streptococcus agalactiae","Species_Streptococcus anginosus","Species_Streptococcus constellatus","Species_Streptococcus dysgalactiae","Species_Streptococcus pneumoniae","Species_Streptococcus pyogenes","Species_Streptococcus, Beta Hemolytic","Family_Enterobacterales","Family_Enterobacteriaceae","Family_Enterococcus spp","Family_Haemophilus spp","Family_Staphylococcus spp","Family_Streptococcus pneumoniae","Family_Streptococcus spp (no S. pneumo)","Country_Cameroon","Country_Ghana","Country_Ivory Coast","Country_Kenya","Country_Malawi","Country_Morocco","Country_Nigeria","Country_South Africa","Country_Uganda","Gender_Female","Gender_Male","Age Group_0 to 2 Years","Age Group_13 to 18 Years","Age Group_19 to 64 Years","Age Group_3 to 12 Years","Age Group_65 to 84 Years","Age Group_85 and Over","Age Group_Unknown","Speciality_Emergency Room","Speciality_General Unspecified ICU","Speciality_Medicine General","Speciality_Medicine ICU","Speciality_None Given","Speciality_Other","Speciality_Pediatric General","Speciality_Pediatric ICU","Speciality_Surgery General","Speciality_Surgery ICU","Source_Abscess","Source_Appendix","Source_Bladder","Source_Blood","Source_Bronchiole","Source_Bronchoalveolar lavage","Source_Bronchus","Source_Burn","Source_CSF","Source_Carbuncle","Source_Catheters","Source_Cellulitis","Source_Cervix","Source_Colon","Source_Decubitus","Source_Diverticulum","Source_Endotracheal aspirate","Source_Furuncle","Source_Gall Bladder","Source_Gastric Abscess","Source_Genitourinary: Other","Source_Impetiginous lesions","Source_Intestinal: Other","Source_Kidney","Source_Liver","Source_None Given","Source_Pancreas","Source_Peritoneal Fluid","Source_Prostate","Source_Respiratory: Other","Source_Skin","Source_Skin: Other","Source_Sputum","Source_Stomach","Source_Thoracentesis Fluid","Source_Ulcer","Source_Ureter","Source_Urethra","Source_Urine","Source_Uterus","Source_Wound"],"feature_types":["float","float","float","float","float","float","float","float","float","float","float","float","float","float","float","float","float","float","float","float","float","float","float","float","float","float","float","float","float","float","float","float","float","float","float","float","float","float","float","float","float","float","float","float","float","float","float","float","float","float","float","float","float","float","float","float","float","float","float","float","float","float","float","float","float","float","float","float","float","float","float","float","float","float","float","float","float","float","float","float","float","float","float","float","float","float","float","float","float","float","float","float","float","float","float","float","float","float","float","float","float","float","float","float","float","float","float","float","float","float","float","float","float","float","float","float","float","float","float","float","float","float","float","float","float","float","float","float","float","float","float","float","float","float","float","float","float","float","float","float","float","float"],"gradient_booster":{"model":{"gbtree_model_param":{"num_parallel_tree":"1","num_trees":"300","size_leaf_vector":"0"},"tree_info":[0,1,2,0,1,2,0,1,2,0,1,2,0,1,2,0,1,2,0,1,2,0,1,2,0,1,2,0,1,2,0,1,2,0,1,2,0,1,2,0,1,2,0,1,2,0,1,2,0,1,2,0,1,2,0,1,2,0,1,2,0,1,2,0,1,2,0,1,2,0,1,2,0,1,2,0,1,2,0,1,2,0,1,2,0,1,2,0,1,2,0,1,2,0,1,2,0,1,2,0,1,2,0,1,2,0,1,2,0,1,2,0,1,2,0,1,2,0,1,2,0,1,2,0,1,2,0,1,2,0,1,2,0,1,2,0,1,2,0,1,2,0,1,2,0,1,2,0,1,2,0,1,2,0,1,2,0,1,2,0,1,2,0,1,2,0,1,2,0,1,2,0,1,2,0,1,2,0,1,2,0,1,2,0,1,2,0,1,2,0,1,2,0,1,2,0,1,2,0,1,2,0,1,2,0,1,2,0,1,2,0,1,2,0,1,2,0,1,2,0,1,2,0,1,2,0,1,2,0,1,2,0,1,2,0,1,2,0,1,2,0,1,2,0,1,2,0,1,2,0,1,2,0,1,2,0,1,2,0,1,2,0,1,2,0,1,2,0,1,2,0,1,2,0,1,2,0,1,2,0,1,2,0,1,2,0,1,2,0,1,2,0,1,2,0,1,2,0,1,2],"trees":[{"base_weights":[3.4823234E-3,-9.634812E-2,1.1213995E0,-1.8291941E-1,9.880133E-1,1.1895766E0,-7.200001E-1,-2.5859088E-1,1.28544E0,-7.402598E-1,1.2578888E0,1.2544883E0,-7.1641797E-1,-4.3956557E-1,4.02717E-1,1.392388E0,-7.0909095E-1,-7.142858E-1,1.343432E0,1.3016949E0,-7.021277E-1,-5.5362004E-1,1.1896054E0,5.7102644E-1,-7.459557E-1,1.470157E0,-6.9026554E-1,1.4236913E0,-7.0909095E-1,1.3481116E0,-6.992482E-1,-6.1022365E-1,1.4168675E0,-7.275748E-1,1.3900884E0,6.900949E-1,-7.428873E-1,-4.8000002E-1,1.4826255E0,1.4628471E0,-6.6666675E-1,1.3650911E0,-6.2264156E-1,-6.72698E-1,5.0021654E-1,-6.1224496E-1,1.4887967E0,-6.2264156E-1,1.4239482E0,7.5715E-1,-7.3572946E-1,1.485216E0,-6.1224496E-1,1.37604E0,-5.675676E-1],"categories":[],"categories_nodes":[],"categories_segments":[],"categories_sizes":[],"default_left":[1,1,1,1,1,1,0,1,1,0,1,1,0,1,1,1,0,0,1,1,0,1,1,1,0,1,0,1,0,1,0,1,1,0,1,1,0,0,0,1,0,1,0,0,0,0,0,0,0,0,0,0,0,0,0],"id":0,"left_children":[1,3,5,7,9,11,-1,13,15,-1,17,19,-1,21,23,25,-1,-1,27,29,-1,31,33,35,-1,37,-1,39,-1,41,-1,43,45,-1,47,49,-1,-1,-1,51,-1,53,-1,-1,-1,-1,-1,-1,-1,-1,-1,-1,-1,-1,-1],"loss_changes":[9.294937E2,7.1793524E2,8.6573364E1,7.8717224E2,2.6466486E2,8.2403625E1,0E0,8.0624835E2,7.505371E1,0E0,8.353186E1,5.9791504E1,0E0,9.8334735E2,2.8030692E2,5.4445557E1,0E0,0E0,7.834308E1,5.8784668E1,0E0,5.522151E2,1.3412888E2,1.9813834E2,0E0,8.452087E0,0E0,3.7980408E1,0E0,2.1228271E1,0E0,3.337406E2,2.1101593E1,0E0,2.227826E1,1.1134631E2,0E0,0E0,0E0,2.1523926E1,0E0,1.3564331E1,0E0,0E0,0E0,0E0,0E0,0E0,0E0,0E0,0E0,0E0,0E0,0E0,0E0],"parents":[2147483647,0,0,1,1,2,2,3,3,4,4,5,5,7,7,8,8,10,10,11,11,13,13,14,14,15,15,18,18,19,19,21,21,22,22,23,23,25,25,27,27,29,29,31,31,32,32,34,34,35,35,39,39,41,41],"right_children":[2,4,6,8,10,12,-1,14,16,-1,18,20,-1,22,24,26,-1,-1,28,30,-1,32,34,36,-1,38,-1,40,-1,42,-1,44,46,-1,48,50,-1,-1,-1,52,-1,54,-1,-1,-1,-1,-1,-1,-1,-1,-1,-1,-1,-1,-1],"split_conditions":[5E-1,5E-1,5E-1,5E-1,5E-1,5E-1,-7.200001E-2,5E-1,5E-1,-7.402598E-2,5E-1,5E-1,-7.1641795E-2,5E-1,5E-1,5E-1,-7.09091E-2,-7.142858E-2,5E-1,5E-1,-7.0212774E-2,5E-1,5E-1,5E-1,-7.459557E-2,5E-1,-6.902655E-2,5E-1,-7.09091E-2,5E-1,-6.9924824E-2,5E-1,5E-1,-7.275748E-2,5E-1,5E-1,-7.428873E-2,-4.8000004E-2,1.4826255E-1,5E-1,-6.666668E-2,5E-1,-6.2264156E-2,-6.72698E-2,5.0021656E-2,-6.1224498E-2,1.4887968E-1,-6.2264156E-2,1.4239483E-1,7.5715E-2,-7.357295E-2,1.485216E-1,-6.1224498E-2,1.37604E-1,-5.675676E-2],"split_indices":[41,100,100,36,78,139,0,66,82,0,67,93,0,89,21,139,0,0,128,135,0,34,104,141,0,86,0,26,0,79,0,74,79,0,67,8,0,0,0,21,0,99,0,0,0,0,0,0,0,0,0,0,0,0,0],"split_type":[0,0,0,0,0,0,0,0,0,0,0,0,0,0,0,0,0,0,0,0,0,0,0,0,0,0,0,0,0,0,0,0,0,0,0,0,0,0,0,0,0,0,0,0,0,0,0,0,0,0,0,0,0,0,0],"sum_hessian":[8.326666E3,7.6448887E3,6.817777E2,7.080444E3,5.644444E2,6.577777E2,2.3999998E1,6.7342217E3,3.462222E2,7.599999E1,4.8844443E2,6.364444E2,2.1333332E1,5.287555E3,1.4466666E3,3.2888885E2,1.7333332E1,1.9999998E1,4.6844443E2,6.217778E2,1.4666666E1,4.942222E3,3.453333E2,1.2622222E3,1.8444443E2,3.173333E2,1.1555555E1,4.5111108E2,1.7333332E1,6.0799994E2,1.3777777E1,4.8048887E3,1.3733333E2,3.2444443E1,3.1288885E2,1.1577777E3,1.04444435E2,1.7777777E0,3.1555554E2,4.4311108E2,7.9999995E0,6.031111E2,4.8888884E0,4.549333E3,2.5555554E2,4.444444E0,1.3288889E2,4.8888884E0,3.0799997E2,1.1062222E3,5.1555553E1,4.3866663E2,4.444444E0,5.9999994E2,3.111111E0],"tree_param":{"num_deleted":"0","num_feature":"142","num_nodes":"55","size_leaf_vector":"0"}},{"base_weights":[2.7913266E-4,-1.0261982E-1,4.9061227E-1,-1.6754326E-1,8.904899E-1,1.3451551E0,3.6052912E-3,-2.1574453E-1,1.1117398E0,9.716799E-1,-7.142858E-1,1.4105817E0,8.435852E-1,-2.9852968E-1,1.2773951E0,-2.677055E-1,1.0425436E0,1.3155531E0,4.29799E-2,1.016361E0,-6.8316835E-1,1.4188896E0,-4.8000002E-1,1.1042944E0,-6.741574E-1,-5.017474E-1,1.3710778E0,1.3620353E0,-6.575343E-1,-2.9486674E-1,8.601728E-1,1.1688534E0,5.705521E-1,1.4043787E0,6.835443E-1,-7.1707326E-1,1.0588235E0,1.0426568E0,-6.3934433E-1,1.4251627E0,-4.2857146E-1,1.2516556E0,-6E-1,-5.453155E-1,1.4014598E0,-3.255241E-1,6.34103E-1,1.072E0,-7.0700645E-1,1.2045323E0,-5.853659E-1,-7.0072997E-1,1.0387812E0,1.4211551E0,-4.2857146E-1,-6.741574E-1,1.4140128E0,-5.4545456E-1,1.3953488E0,1.0529801E0,-5.172414E-1,1.4527336E0,1.1662921E0,1.3441108E0,-5.172414E-1,-5.948683E-1,1.2484472E0,-3.69503E-1,3.1636694E-1,8.4573376E-1,-7.210301E-1,1.118505E0,-5.675676E-1,1.2182562E0,-4.2857146E-1,1.2127659E0,-5.853659E-1,1.4381949E0,-4.2857146E-1,1.0613248E0,-4.8000002E-1,1.2193996E0,-4.2857146E-1,1.4038005E0,-4.2857146E-1,-6.426658E-1,1.3404255E0,-4.2857146E-1,1.4093959E0],"categories":[],"categories_nodes":[],"categories_segments":[],"categories_sizes":[],"default_left":[1,1,1,1,1,1,1,1,1,1,0,1,1,1,1,1,1,1,1,1,0,1,0,1,0,1,0,0,0,1,1,1,1,1,1,0,1,1,0,1,0,1,0,1,0,1,1,1,0,1,0,0,1,1,0,0,0,0,0,1,0,0,1,1,0,1,1,0,0,0,0,0,0,0,0,0,0,0,0,0,0,0,0,0,0,0,0,0,0],"id":1,"left_children":[1,3,5,7,9,11,13,15,17,19,-1,21,23,25,27,29,31,33,35,37,-1,39,-1,41,-1,43,-1,-1,-1,45,47,49,51,53,55,-1,57,59,-1,61,-1,63,-1,65,-1,67,69,71,-1,73,-1,-1,75,77,-1,-1,-1,-1,-1,79,-1,-1,81,83,-1,85,87,-1,-1,-1,-1,-1,-1,-1,-1,-1,-1,-1,-1,-1,-1,-1,-1,-1,-1,-1,-1,-1,-1],"loss_changes":[4.2174567E2,4.456146E2,6.0339294E2,4.0017957E2,5.595227E1,1.6082275E1,3.5620248E2,4.0899582E2,5.1278137E1,3.0574463E1,0E0,7.970764E0,2.5760841E1,2.5451746E2,2.9956085E1,1.8418695E2,1.4124786E1,1.0149231E1,3.0699387E1,1.7815704E1,0E0,5.968811E0,0E0,1.4396629E1,0E0,5.612651E1,0E0,0E0,0E0,1.6720221E2,4.7713394E1,1.2895935E1,3.3069885E1,5.915222E0,2.7069569E1,0E0,9.939062E0,6.7945557E0,0E0,1.5960083E0,0E0,8.926941E0,0E0,5.882466E1,0E0,1.6037665E2,5.443032E1,1.01658325E1,0E0,4.8079224E0,0E0,0E0,1.204438E1,6.013092E0,0E0,0E0,0E0,0E0,0E0,5.445862E0,0E0,0E0,4.7105026E0,5.6922913E0,0E0,5.9744232E1,5.4324856E0,0E0,0E0,0E0,0E0,0E0,0E0,0E0,0E0,0E0,0E0,0E0,0E0,0E0,0E0,0E0,0E0,0E0,0E0,0E0,0E0,0E0,0E0],"parents":[2147483647,0,0,1,1,2,2,3,3,4,4,5,5,6,6,7,7,8,8,9,9,11,11,12,12,13,13,14,14,15,15,16,16,17,17,18,18,19,19,21,21,23,23,25,25,29,29,30,30,31,31,32,32,33,33,34,34,36,36,37,37,39,39,41,41,43,43,45,45,46,46,47,47,49,49,52,52,53,53,59,59,62,62,63,63,65,65,66,66],"right_children":[2,4,6,8,10,12,14,16,18,20,-1,22,24,26,28,30,32,34,36,38,-1,40,-1,42,-1,44,-1,-1,-1,46,48,50,52,54,56,-1,58,60,-1,62,-1,64,-1,66,-1,68,70,72,-1,74,-1,-1,76,78,-1,-1,-1,-1,-1,80,-1,-1,82,84,-1,86,88,-1,-1,-1,-1,-1,-1,-1,-1,-1,-1,-1,-1,-1,-1,-1,-1,-1,-1,-1,-1,-1,-1],"split_conditions":[5E-1,5E-1,5E-1,5E-1,5E-1,5E-1,5E-1,5E-1,5E-1,5E-1,-7.142858E-2,5E-1,5E-1,5E-1,5E-1,5E-1,5E-1,5E-1,5E-1,5E-1,-6.831684E-2,5E-1,-4.8000004E-2,5E-1,-6.741574E-2,5E-1,1.3710777E-1,1.3620353E-1,-6.575343E-2,5E-1,5E-1,5E-1,5E-1,5E-1,5E-1,-7.170733E-2,5E-1,5E-1,-6.393444E-2,5E-1,-4.2857148E-2,5E-1,-6.0000002E-2,5E-1,1.4014599E-1,5E-1,5E-1,5E-1,-7.0700645E-2,5E-1,-5.853659E-2,-7.0073E-2,5E-1,5E-1,-4.2857148E-2,-6.741574E-2,1.4140128E-1,-5.454546E-2,1.3953488E-1,5E-1,-5.1724143E-2,1.4527337E-1,5E-1,5E-1,-5.1724143E-2,5E-1,5E-1,-3.69503E-2,3.1636696E-2,8.457338E-2,-7.2103016E-2,1.118505E-1,-5.675676E-2,1.2182563E-1,-4.2857148E-2,1.21276595E-1,-5.853659E-2,1.438195E-1,-4.2857148E-2,1.06132485E-1,-4.8000004E-2,1.2193996E-1,-4.2857148E-2,1.4038005E-1,-4.2857148E-2,-6.4266585E-2,1.3404255E-1,-4.2857148E-2,1.409396E-1],"split_indices":[31,49,93,76,80,66,82,81,82,87,0,132,79,79,66,77,141,21,101,101,0,73,0,82,0,117,0,0,0,8,21,88,82,25,85,0,99,73,0,99,0,75,0,88,0,68,79,108,0,85,0,0,86,101,0,0,0,0,0,132,0,0,82,139,0,141,132,0,0,0,0,0,0,0,0,0,0,0,0,0,0,0,0,0,0,0,0,0,0],"split_type":[0,0,0,0,0,0,0,0,0,0,0,0,0,0,0,0,0,0,0,0,0,0,0,0,0,0,0,0,0,0,0,0,0,0,0,0,0,0,0,0,0,0,0,0,0,0,0,0,0,0,0,0,0,0,0,0,0,0,0,0,0,0,0,0,0,0,0,0,0,0,0,0,0,0,0,0,0,0,0,0,0,0,0,0,0,0,0,0,0],"sum_hessian":[8.356889E3,6.9079995E3,1.4488888E3,6.4848887E3,4.2311108E2,5.253333E2,9.235555E2,6.2502217E3,2.3466666E2,4.0311108E2,1.9999998E1,4.6311108E2,6.2222218E1,7.471111E2,1.7644443E2,6.003111E3,2.471111E2,1.9688887E2,3.7777775E1,3.9288885E2,1.0222221E1,4.613333E2,1.7777777E0,5.333333E1,8.888888E0,6.666666E2,8.044444E1,1.6933333E2,7.1111107E0,5.8626665E3,1.4044444E2,1.9377777E2,5.333333E1,1.7155554E2,2.5333332E1,2.1777777E1,1.5999999E1,3.8711108E2,5.7777777E0,4.5999997E2,1.3333333E0,4.9333332E1,3.9999998E0,6.524444E2,1.4222221E1,5.6759995E3,1.8666666E2,1.2399999E2,1.6444443E1,1.9022221E2,3.5555553E0,1.4222221E1,3.9111107E1,1.7022221E2,1.3333333E0,8.888888E0,1.6444443E1,2.6666665E0,1.3333332E1,3.8488885E2,2.222222E0,4.1155554E2,4.8444443E1,4.7111107E1,2.222222E0,6.3555554E2,1.6888887E1,5.3124443E3,3.6355554E2,1.6177777E2,2.4888887E1,1.20888885E2,3.111111E0,1.8888887E2,1.3333333E0,3.5555553E1,3.5555553E0,1.6888889E2,1.3333333E0,3.8311108E2,1.7777777E0,4.7111107E1,1.3333333E0,4.5777775E1,1.3333333E0,6.2088885E2,1.4666666E1,1.3333333E0,1.5555554E1],"tree_param":{"num_deleted":"0","num_feature":"142","num_nodes":"89","size_leaf_vector":"0"}},{"base_weights":[7.991586E-5,1.3881682E-1,-6.647373E-1,4.2305923E-1,-9.9239625E-2,-6.7009676E-1,1.1707317E0,3.5302746E-1,1.492228E0,-2.5549367E-1,6.248958E-1,-6.721134E-1,8.571428E-1,5.670828E-1,-3.0879155E-2,-4.246247E-1,5.092448E-2,1.1015903E0,-4.9582642E-1,-6.846111E-1,-3.9015824E-1,7.681311E-1,-1.5853335E-1,4.596828E-1,-4.654661E-1,-4.4415635E-1,1.4285715E0,1.9799918E-1,-4.6174747E-1,1.2863094E0,1.449271E-2,1.3246753E0,-5.743205E-1,-6.2674266E-1,-7.243088E-1,-4.7339454E-1,1.0909091E0,8.4886765E-1,-5.350319E-1,-2.2940685E-1,1.416149E0,1.0676289E0,-2.5764197E-1,-5.231209E-1,1.4117647E0,-4.9467802E-1,3.1154877E-1,3.2653368E-1,-5.461742E-1,-4.123716E-2,-7.3159856E-1,1.3846849E0,1.3310577E-1,-2.571429E-1,1.3714286E0,-6.0351914E-1,1.0909091E0,-6.3681203E-1,1.0909091E0,-5.3308135E-1,9.6E-1,9.1970617E-1,-5.48124E-1,-5.882354E-1,1.0344827E0,-2.7327764E-1,1.3608247E0,1.2465688E0,-1.4018697E-1,8.1096405E-1,-6.2297213E-1,-5.7381505E-1,1.3953488E0,-5.11126E-1,1.4068966E0,1.463807E0,-2.6294824E-1,2.5609162E-1,1.464567E0,-6.8571436E-1,1.3432832E-1,-2.6806837E-1,1.3884298E0,1.4946535E0,1.0224719E0,1.3846154E0,-6.648649E-1,-3.2673272E-1,1.0344827E0,-6.2344587E-1,9.6E-1,-6.792633E-1,-5.645413E-1,-4.0856037E-1,-6.298933E-1],"categories":[],"categories_nodes":[],"categories_segments":[],"categories_sizes":[],"default_left":[1,1,1,1,1,1,0,1,0,1,1,1,0,1,1,1,1,1,1,1,1,1,1,1,1,1,0,1,1,1,1,0,1,1,0,1,0,1,1,1,0,1,1,1,0,1,1,1,1,1,0,1,1,1,0,1,0,1,0,1,0,0,0,0,0,0,0,0,0,0,0,0,0,0,0,0,0,0,0,0,0,0,0,0,0,0,0,0,0,0,0,0,0,0,0],"id":2,"left_children":[1,3,5,7,9,11,-1,13,-1,15,17,19,-1,21,23,25,27,29,31,33,35,37,39,41,43,45,-1,47,49,51,53,-1,55,57,-1,59,-1,61,63,65,-1,67,69,71,-1,73,75,77,79,81,-1,83,85,87,-1,89,-1,91,-1,93,-1,-1,-1,-1,-1,-1,-1,-1,-1,-1,-1,-1,-1,-1,-1,-1,-1,-1,-1,-1,-1,-1,-1,-1,-1,-1,-1,-1,-1,-1,-1,-1,-1,-1,-1],"loss_changes":[7.690937E2,4.6685284E2,1.4946777E1,2.349242E2,4.2505966E2,4.9992676E0,0E0,2.4265042E2,0E0,1.6013155E2,3.5676688E2,4.7887573E0,0E0,2.7666907E2,2.257472E2,7.2692566E1,8.300747E1,9.398163E1,2.9292866E1,2.6990967E0,8.310377E0,1.566485E2,4.6317818E1,2.1720798E2,6.1504364E1,7.539743E1,0E0,8.198201E1,2.782167E1,4.5207092E1,2.5785507E1,0E0,9.999302E0,1.0482178E1,0E0,5.6925716E0,0E0,1.3888428E2,7.8918877E0,2.7944452E1,0E0,5.8408813E1,8.990543E1,5.3848022E1,0E0,5.8508606E1,8.2542595E1,5.8136772E1,1.2088402E1,3.182862E1,0E0,1.31521E1,3.3432774E1,5.581231E0,0E0,6.5008087E0,0E0,1.3444824E0,0E0,4.5122337E-1,0E0,0E0,0E0,0E0,0E0,0E0,0E0,0E0,0E0,0E0,0E0,0E0,0E0,0E0,0E0,0E0,0E0,0E0,0E0,0E0,0E0,0E0,0E0,0E0,0E0,0E0,0E0,0E0,0E0,0E0,0E0,0E0,0E0,0E0,0E0],"parents":[2147483647,0,0,1,1,2,2,3,3,4,4,5,5,7,7,9,9,10,10,11,11,13,13,14,14,15,15,16,16,17,17,18,18,19,19,20,20,21,21,22,22,23,23,24,24,25,25,27,27,28,28,29,29,30,30,32,32,33,33,35,35,37,37,38,38,39,39,41,41,42,42,43,43,45,45,46,46,47,47,48,48,49,49,51,51,52,52,53,53,55,55,57,57,59,59],"right_children":[2,4,6,8,10,12,-1,14,-1,16,18,20,-1,22,24,26,28,30,32,34,36,38,40,42,44,46,-1,48,50,52,54,-1,56,58,-1,60,-1,62,64,66,-1,68,70,72,-1,74,76,78,80,82,-1,84,86,88,-1,90,-1,92,-1,94,-1,-1,-1,-1,-1,-1,-1,-1,-1,-1,-1,-1,-1,-1,-1,-1,-1,-1,-1,-1,-1,-1,-1,-1,-1,-1,-1,-1,-1,-1,-1,-1,-1,-1,-1],"split_conditions":[5E-1,5E-1,5E-1,5E-1,5E-1,5E-1,1.1707317E-1,5E-1,1.492228E-1,5E-1,5E-1,5E-1,8.571428E-2,5E-1,5E-1,5E-1,5E-1,5E-1,5E-1,5E-1,5E-1,5E-1,5E-1,5E-1,5E-1,5E-1,1.4285715E-1,5E-1,5E-1,5E-1,5E-1,1.3246754E-1,5E-1,5E-1,-7.243088E-2,5E-1,1.0909092E-1,5E-1,5E-1,5E-1,1.416149E-1,5E-1,5E-1,5E-1,1.4117648E-1,5E-1,5E-1,5E-1,5E-1,5E-1,-7.315986E-2,5E-1,5E-1,5E-1,1.3714287E-1,5E-1,1.0909092E-1,5E-1,1.0909092E-1,5E-1,9.6E-2,9.1970615E-2,-5.48124E-2,-5.8823537E-2,1.0344827E-1,-2.7327765E-2,1.3608247E-1,1.2465688E-1,-1.4018697E-2,8.10964E-2,-6.2297214E-2,-5.7381507E-2,1.3953488E-1,-5.11126E-2,1.4068966E-1,1.4638071E-1,-2.6294826E-2,2.5609164E-2,1.464567E-1,-6.857144E-2,1.3432832E-2,-2.6806837E-2,1.3884299E-1,1.4946535E-1,1.0224719E-1,1.3846155E-1,-6.648649E-2,-3.2673273E-2,1.0344827E-1,-6.234459E-2,9.6E-2,-6.792633E-2,-5.645413E-2,-4.0856037E-2,-6.298933E-2],"split_indices":[31,67,75,21,21,121,0,66,0,26,74,99,0,49,88,25,92,81,86,80,82,81,80,78,139,8,0,76,89,85,99,0,96,104,0,139,0,76,93,87,0,91,139,94,0,3,93,141,82,82,0,88,76,94,0,91,0,82,0,78,0,0,0,0,0,0,0,0,0,0,0,0,0,0,0,0,0,0,0,0,0,0,0,0,0,0,0,0,0,0,0,0,0,0,0],"split_type":[0,0,0,0,0,0,0,0,0,0,0,0,0,0,0,0,0,0,0,0,0,0,0,0,0,0,0,0,0,0,0,0,0,0,0,0,0,0,0,0,0,0,0,0,0,0,0,0,0,0,0,0,0,0,0,0,0,0,0,0,0,0,0,0,0,0,0,0,0,0,0,0,0,0,0,0,0,0,0,0,0,0,0,0,0,0,0,0,0,0,0,0,0,0,0],"sum_hessian":[8.336444E3,6.8977773E3,1.4386666E3,3.1435554E3,3.754222E3,1.4351111E3,3.5555553E0,2.9515554E3,1.9199998E2,3.0884443E3,6.657777E2,1.4337777E3,1.3333333E0,1.8946665E3,1.0568888E3,1.9897777E3,1.0986666E3,4.6711108E2,1.9866666E2,1.3715554E3,6.2222218E1,1.4835554E3,4.1111108E2,4.9644443E2,5.604444E2,1.9697777E3,1.9999998E1,8.5422217E2,2.4444443E2,3.9911108E2,6.799999E1,7.5555553E0,1.911111E2,5.6488885E2,8.066666E2,5.9555553E1,2.6666665E0,1.3973333E3,8.622221E1,3.942222E2,1.6888887E1,2.6844443E2,2.2799998E2,5.444444E2,1.5999999E1,1.8466665E3,1.2311111E2,7.2888885E2,1.2533333E2,9.599999E1,1.4844444E2,3.6755554E2,3.1555553E1,5.733333E1,1.0666666E1,1.8844443E2,2.6666665E0,5.6222217E2,2.6666665E0,5.7777775E1,1.7777777E0,1.3302222E3,6.711111E1,8.399999E1,2.222222E0,3.8444443E2,9.777777E0,2.3377777E2,3.4666664E1,5.7777775E1,1.7022221E2,5.311111E2,1.3333332E1,1.8315554E3,1.5111111E1,4.0444443E1,8.2666664E1,6.8755554E2,4.1333332E1,1.0399999E2,2.1333332E1,8.355555E1,1.2444444E1,2.7955554E2,8.799999E1,1.1999999E1,1.9555553E1,5.5111107E1,2.222222E0,1.8666666E2,1.7777777E0,3.4888885E2,2.1333331E2,2.7555553E1,3.0222221E1],"tree_param":{"num_deleted":"0","num_feature":"142","num_nodes":"95","size_leaf_vector":"0"}},{"base_weights":[-7.357422E-3,1.2663302E-1,-7.2570336E-1,2.6794571E-2,9.843389E-1,-6.2218588E-2,9.106539E-1,1.0448861E0,-7.147807E-1,-1.3886984E-1,1.1425849E0,-7.16296E-1,1.1380665E0,1.0977753E0,-7.077586E-1,-2.2084974E-1,1.0397772E0,1.242762E0,-7.0250016E-1,1.1999193E0,-6.8037856E-1,1.1361604E0,-6.899614E-1,-4.6145448E-1,3.6551562E-1,-7.046909E-1,1.2168252E0,1.2964711E0,-6.5109533E-1,-6.659134E-1,1.244978E0,1.1739849E0,-6.912986E-1,-5.36251E-1,1.2855108E0,5.032174E-1,-7.140674E-1,-6.2979335E-1,1.2548764E0,-4.791319E-1,1.3080729E0,1.2799768E0,-6.557616E-1,1.1918317E0,-6.3121164E-1],"categories":[],"categories_nodes":[],"categories_segments":[],"categories_sizes":[],"default_left":[1,1,0,1,1,1,1,1,0,1,1,0,1,1,0,1,1,1,0,1,0,1,0,1,1,0,1,1,0,0,1,1,0,0,0,0,0,0,0,0,0,0,0,0,0],"id":3,"left_children":[1,3,-1,5,7,9,11,13,-1,15,17,-1,19,21,-1,23,25,27,-1,29,-1,31,-1,33,35,-1,37,39,-1,-1,41,43,-1,-1,-1,-1,-1,-1,-1,-1,-1,-1,-1,-1,-1],"loss_changes":[7.984792E2,5.986855E2,0E0,4.9285565E2,7.574017E1,5.257723E2,2.1287973E2,6.606128E1,0E0,5.173689E2,6.3819275E1,0E0,5.742102E1,4.772461E1,0E0,7.062548E2,1.0840735E2,3.3737183E1,0E0,4.177771E1,0E0,4.7127014E1,0E0,4.6443896E2,2.1691098E2,0E0,2.3029755E1,7.1115723E0,0E0,0E0,3.25E1,2.1913452E1,0E0,0E0,0E0,0E0,0E0,0E0,0E0,0E0,0E0,0E0,0E0,0E0,0E0],"parents":[2147483647,0,0,1,1,3,3,4,4,5,5,6,6,7,7,9,9,10,10,12,12,13,13,15,15,16,16,17,17,19,19,21,21,23,23,24,24,26,26,27,27,30,30,31,31],"right_children":[2,4,-1,6,8,10,12,14,-1,16,18,-1,20,22,-1,24,26,28,-1,30,-1,32,-1,34,36,-1,38,40,-1,-1,42,44,-1,-1,-1,-1,-1,-1,-1,-1,-1,-1,-1,-1,-1],"split_conditions":[5E-1,5E-1,-7.257034E-2,5E-1,5E-1,5E-1,5E-1,5E-1,-7.147807E-2,5E-1,5E-1,-7.1629606E-2,5E-1,5E-1,-7.077586E-2,5E-1,5E-1,5E-1,-7.025002E-2,5E-1,-6.803786E-2,5E-1,-6.899614E-2,5E-1,5E-1,-7.046909E-2,5E-1,5E-1,-6.5109536E-2,-6.6591345E-2,5E-1,5E-1,-6.912986E-2,-5.3625103E-2,1.2855108E-1,5.032174E-2,-7.1406744E-2,-6.297933E-2,1.2548764E-1,-4.791319E-2,1.308073E-1,1.2799768E-1,-6.557616E-2,1.19183175E-1,-6.312116E-2],"split_indices":[70,41,0,100,100,36,78,139,0,89,82,0,128,93,0,66,104,139,0,67,0,135,0,110,21,0,67,86,0,0,26,79,0,0,0,0,0,0,0,0,0,0,0,0,0],"split_type":[0,0,0,0,0,0,0,0,0,0,0,0,0,0,0,0,0,0,0,0,0,0,0,0,0,0,0,0,0,0,0,0,0,0,0,0,0,0,0,0,0,0,0,0,0],"sum_hessian":[8.293805E3,6.990682E3,1.3031226E3,6.2627217E3,7.279604E2,5.690557E3,5.721644E2,7.0328424E2,2.4676115E1,5.351004E3,3.3955347E2,6.990464E1,5.022598E2,6.830458E2,2.02385E1,5.003782E3,3.4722162E2,3.223768E2,1.7176674E1,4.860668E2,1.6192997E1,6.69045E2,1.4000767E1,3.5480962E3,1.455686E3,3.1718332E1,3.155033E2,3.1379315E2,8.583639E0,1.1136507E1,4.749303E2,6.558283E2,1.3216669E1,3.4030857E3,1.4501048E2,1.2914894E3,1.641967E2,6.055976E0,3.0944733E2,1.7754065E0,3.1201773E2,4.6666406E2,8.266237E0,6.4974445E2,6.083865E0],"tree_param":{"num_deleted":"0","num_feature":"142","num_nodes":"45","size_leaf_vector":"0"}},{"base_weights":[-1.4999846E-3,1.0436568E-1,-4.3193802E-1,-7.526977E-3,6.878223E-1,-4.8597887E-1,9.5707184E-1,-7.5394265E-2,8.028285E-1,9.099608E-1,-7.206147E-1,-5.070883E-1,9.177557E-1,-6.71222E-1,1.2581924E0,-1.298707E-1,9.487007E-1,8.708748E-1,-6.8569505E-1,1.2311705E0,3.8393292E-1,-5.2974945E-1,8.619393E-1,-6.2547845E-1,1.5279827E0,-1.8539633E-1,9.551193E-1,1.0997121E0,5.6981033E-1,9.116925E-1,-6.601171E-1,1.2423977E0,-2.678231E-1,-5.8608246E-1,6.1609425E-2,-6.1881095E-1,1.3085225E0,-2.7146283E-1,1.919308E-1,1.1075232E0,2.2702204E-2,1.1462848E0,-6.238716E-1,8.203994E-1,-6.8288463E-1,9.338987E-1,-6.275006E-1,1.2609209E0,-4.504042E-1,-5.825654E-1,1.145864E0,-6.123538E-1,4.8506486E-1,4.2264926E-1,-7.203333E-1,-3.3559558E-1,3.1803945E-1,3.8964275E-1,-7.2706664E-1,1.1974782E0,5.6761867E-1,-6.9753546E-1,1.0633638E0,1.1651558E0,-4.7907817E-1,8.903346E-1,-5.5589336E-1,9.433842E-1,-5.161979E-1,-6.303314E-1,8.428125E-1,-6.913724E-1,1.3967098E0,-7.020379E-1,6.9017893E-1],"categories":[],"categories_nodes":[],"categories_segments":[],"categories_sizes":[],"default_left":[1,1,1,1,1,1,1,1,1,1,0,1,1,0,0,1,1,1,0,0,1,1,1,0,0,1,1,1,1,1,0,1,1,1,1,0,0,1,1,1,1,1,0,1,0,1,0,0,0,0,0,1,1,1,0,0,0,0,0,0,0,0,0,0,0,0,0,0,0,0,0,0,0,0,0],"id":4,"left_children":[1,3,5,7,9,11,13,15,17,19,-1,21,23,-1,-1,25,27,29,-1,-1,31,33,35,-1,-1,37,39,41,43,45,-1,47,49,51,53,-1,-1,55,57,59,61,63,-1,65,-1,67,-1,-1,-1,-1,-1,69,71,73,-1,-1,-1,-1,-1,-1,-1,-1,-1,-1,-1,-1,-1,-1,-1,-1,-1,-1,-1,-1,-1],"loss_changes":[3.761467E2,4.3252124E2,1.2277539E2,3.0584186E2,3.3420233E2,4.6960205E1,3.0928795E1,2.8639075E2,4.412607E1,1.5519458E2,0E0,4.84339E1,2.318237E1,0E0,0E0,2.937474E2,1.4209076E1,2.6311157E1,0E0,0E0,1.9657564E2,5.0735474E1,1.7713408E1,0E0,0E0,1.5062543E2,3.371051E1,1.5510986E1,2.4407358E1,1.42969055E1,0E0,5.3197327E0,8.974446E1,3.940207E1,3.792903E1,0E0,0E0,1.42857E2,1.5685832E2,9.229355E0,2.6504995E1,6.0738373E0,0E0,6.6317673E0,0E0,5.9316406E0,0E0,0E0,0E0,0E0,0E0,3.602597E1,3.7242523E1,2.8107624E1,0E0,0E0,0E0,0E0,0E0,0E0,0E0,0E0,0E0,0E0,0E0,0E0,0E0,0E0,0E0,0E0,0E0,0E0,0E0,0E0,0E0],"parents":[2147483647,0,0,1,1,2,2,3,3,4,4,5,5,6,6,7,7,8,8,9,9,11,11,12,12,15,15,16,16,17,17,20,20,21,21,22,22,25,25,26,26,27,27,28,28,29,29,31,31,32,32,33,33,34,34,37,37,38,38,39,39,40,40,41,41,43,43,45,45,51,51,52,52,53,53],"right_children":[2,4,6,8,10,12,14,16,18,20,-1,22,24,-1,-1,26,28,30,-1,-1,32,34,36,-1,-1,38,40,42,44,46,-1,48,50,52,54,-1,-1,56,58,60,62,64,-1,66,-1,68,-1,-1,-1,-1,-1,70,72,74,-1,-1,-1,-1,-1,-1,-1,-1,-1,-1,-1,-1,-1,-1,-1,-1,-1,-1,-1,-1,-1],"split_conditions":[5E-1,5E-1,5E-1,5E-1,5E-1,5E-1,5E-1,5E-1,5E-1,5E-1,-7.206147E-2,5E-1,5E-1,-6.71222E-2,1.2581925E-1,5E-1,5E-1,5E-1,-6.85695E-2,1.2311705E-1,5E-1,5E-1,5E-1,-6.254785E-2,1.5279828E-1,5E-1,5E-1,5E-1,5E-1,5E-1,-6.601171E-2,5E-1,5E-1,5E-1,5E-1,-6.1881095E-2,1.3085225E-1,5E-1,5E-1,5E-1,5E-1,5E-1,-6.2387165E-2,5E-1,-6.828847E-2,5E-1,-6.2750064E-2,1.2609209E-1,-4.504042E-2,-5.8256544E-2,1.14586405E-1,5E-1,5E-1,5E-1,-7.203333E-2,-3.3559557E-2,3.1803947E-2,3.8964275E-2,-7.270666E-2,1.1974782E-1,5.676187E-2,-6.975355E-2,1.0633638E-1,1.1651558E-1,-4.7907818E-2,8.903346E-2,-5.5589337E-2,9.433842E-2,-5.1619794E-2,-6.303314E-2,8.428125E-2,-6.913724E-2,1.3967098E-1,-7.020379E-2,6.9017895E-2],"split_indices":[66,31,8,49,89,3,78,81,80,139,0,115,78,0,0,76,21,87,0,0,93,141,31,0,0,26,82,93,99,101,0,99,82,100,82,0,0,68,89,21,101,85,0,94,0,73,0,0,0,0,0,7,41,86,0,0,0,0,0,0,0,0,0,0,0,0,0,0,0,0,0,0,0,0,0],"split_type":[0,0,0,0,0,0,0,0,0,0,0,0,0,0,0,0,0,0,0,0,0,0,0,0,0,0,0,0,0,0,0,0,0,0,0,0,0,0,0,0,0,0,0,0,0,0,0,0,0,0,0,0,0,0,0,0,0,0,0,0,0,0,0,0,0,0,0,0,0,0,0,0,0,0,0],"sum_hessian":[8.252524E3,6.6240947E3,1.6284297E3,5.559002E3,1.065093E3,1.5680724E3,6.035731E1,5.13025E3,4.287516E2,9.2029767E2,1.4479536E2,1.5454703E3,2.260211E1,9.228045E0,5.1129265E1,4.871961E3,2.5828937E2,4.1040527E2,1.834632E1,5.7055676E2,3.497409E2,1.5209082E3,2.4562134E1,6.397685E0,1.6204426E1,4.6355596E3,2.3640106E2,1.8332176E2,7.496761E1,4.0014163E2,1.0263643E1,1.5054428E2,1.9919662E2,1.3886354E3,1.3227284E2,5.6019406E0,1.8960194E1,3.7748215E3,8.6073816E2,2.0302821E2,3.3372845E1,1.788247E2,4.497048E0,6.2758495E1,1.2209114E1,3.9483847E2,5.303155E0,1.4916718E2,1.3771122E0,1.6340431E2,3.5792313E1,1.3558105E3,3.2824806E1,9.080547E1,4.1467365E1,3.4048357E3,3.699859E2,7.0881964E2,1.5191853E2,1.7298825E2,3.0039967E1,1.9917645E1,1.3455201E1,1.7705222E2,1.7724893E0,6.00597E1,2.698794E0,3.926197E2,2.2187886E0,1.3398247E3,1.5985813E1,1.4436617E1,1.838819E1,1.7137167E1,7.366831E1],"tree_param":{"num_deleted":"0","num_feature":"142","num_nodes":"75","size_leaf_vector":"0"}},{"base_weights":[3.5527025E-3,1.3357596E-1,-6.2862265E-1,3.776281E-2,7.7099913E-1,-6.33257E-1,1.0588182E0,3.1857875E-1,-2.4351336E-1,1.1021355E0,-4.682304E-1,-6.359628E-1,9.6528345E-1,5.110707E-1,-3.0952025E-2,-3.986006E-1,3.293129E-2,1.2095945E0,5.6453235E-2,1.2289158E0,-5.531771E-1,-6.505656E-1,-3.3693033E-1,6.859168E-1,-1.3998641E-1,4.202668E-1,-4.4564533E-1,-4.4750193E-1,2.9908448E-1,-8.030187E-2,6.7332846E-1,1.2651088E0,2.9011095E-1,-2.1613549E-1,1.2363156E0,-5.8341753E-1,1.0293603E0,-6.526916E-1,8.225251E-1,-4.1012892E-1,9.965695E-1,7.5557446E-1,-4.974691E-1,-2.1978392E-1,1.250857E0,8.3593506E-1,-4.6147135E-1,-5.024129E-1,1.3029358E0,-4.6832314E-1,1.2608485E0,1.3286625E0,-3.064488E-1,2.586906E-2,-6.168062E-1,7.813599E-1,-3.4926498E-1,1.313344E0,1.0852317E0,1.254114E0,-6.8682075E-1,-3.0122343E-1,1.02879E0,-6.041467E-1,9.1479546E-1,-6.7702055E-1,-5.5410844E-1,-4.77402E-1,9.963614E-1,8.1410277E-1,-4.7381297E-1,-5.391847E-1,8.863984E-1,-2.6019093E-1,1.194824E0,1.3888122E0,6.330491E-1,1.333872E0,-6.8470234E-1,-5.500991E-1,1.3896646E0,-4.8236784E-1,1.39532E0,-4.5811662E-1,1.2581553E0,1.2512702E-1,-5.0574946E-1,1.250256E0,-7.07597E-1,9.251728E-1,2.3286201E-1,9.7737545E-1,-6.4146507E-1,1.3248315E0,6.472453E-1,-3.653585E-1,9.940562E-1,-4.311511E-1,-6.384318E-1,-6.806936E-1,1.0030886E0,-5.678333E-1,9.8364496E-1,-3.3837494E-1,-5.858718E-1],"categories":[],"categories_nodes":[],"categories_segments":[],"categories_sizes":[],"default_left":[1,1,1,1,1,1,0,1,1,1,1,1,0,1,1,1,1,1,1,0,1,1,1,1,1,1,1,1,1,1,1,1,1,1,0,1,0,1,0,1,0,1,1,1,0,1,1,1,0,1,0,0,1,1,1,1,1,0,1,0,0,1,0,1,0,1,1,1,0,0,0,0,0,0,0,0,0,0,0,0,0,0,0,0,0,0,0,0,0,0,0,0,0,0,0,0,0,0,0,0,0,0,0,0,0],"id":5,"left_children":[1,3,5,7,9,11,-1,13,15,17,19,21,-1,23,25,27,29,31,33,-1,35,37,39,41,43,45,47,49,51,53,55,57,59,61,-1,63,-1,65,-1,67,-1,69,71,73,-1,75,77,79,-1,81,-1,-1,83,85,87,89,91,-1,93,-1,-1,95,-1,97,-1,99,101,103,-1,-1,-1,-1,-1,-1,-1,-1,-1,-1,-1,-1,-1,-1,-1,-1,-1,-1,-1,-1,-1,-1,-1,-1,-1,-1,-1,-1,-1,-1,-1,-1,-1,-1,-1,-1,-1],"loss_changes":[6.7780164E2,4.1767136E2,1.1670898E1,4.6978488E2,3.6722955E2,6.6844482E0,0E0,2.002598E2,1.274086E2,7.920831E1,2.7947899E1,5.9016113E0,0E0,2.185787E2,1.9813843E2,6.508133E1,7.755939E1,3.2286987E1,2.1749287E1,0E0,9.253792E0,4.718994E0,6.9814873E0,1.2510736E2,4.546291E1,1.8626224E2,5.5422462E1,6.388159E1,7.851651E1,5.180113E1,1.8025612E1,3.8064575E0,3.6386257E1,6.1475487E0,0E0,6.082752E0,0E0,2.8242798E0,0E0,6.5824966E0,0E0,1.0323865E2,5.368717E0,2.236949E1,0E0,3.782248E1,6.6290985E1,4.904602E1,0E0,4.6704376E1,0E0,0E0,1.9489628E1,4.0161255E1,2.6350483E1,1.1273796E1,6.847039E0,0E0,1.3127274E1,0E0,0E0,4.7126713E0,0E0,7.7002716E-1,0E0,7.257721E0,6.247589E0,7.4081993E-1,0E0,0E0,0E0,0E0,0E0,0E0,0E0,0E0,0E0,0E0,0E0,0E0,0E0,0E0,0E0,0E0,0E0,0E0,0E0,0E0,0E0,0E0,0E0,0E0,0E0,0E0,0E0,0E0,0E0,0E0,0E0,0E0,0E0,0E0,0E0,0E0,0E0],"parents":[2147483647,0,0,1,1,2,2,3,3,4,4,5,5,7,7,8,8,9,9,10,10,11,11,13,13,14,14,15,15,16,16,17,17,18,18,20,20,21,21,22,22,23,23,24,24,25,25,26,26,27,27,28,28,29,29,30,30,31,31,32,32,33,33,35,35,37,37,39,39,41,41,42,42,43,43,45,45,46,46,47,47,49,49,52,52,53,53,54,54,55,55,56,56,58,58,61,61,63,63,65,65,66,66,67,67],"right_children":[2,4,6,8,10,12,-1,14,16,18,20,22,-1,24,26,28,30,32,34,-1,36,38,40,42,44,46,48,50,52,54,56,58,60,62,-1,64,-1,66,-1,68,-1,70,72,74,-1,76,78,80,-1,82,-1,-1,84,86,88,90,92,-1,94,-1,-1,96,-1,98,-1,100,102,104,-1,-1,-1,-1,-1,-1,-1,-1,-1,-1,-1,-1,-1,-1,-1,-1,-1,-1,-1,-1,-1,-1,-1,-1,-1,-1,-1,-1,-1,-1,-1,-1,-1,-1,-1,-1,-1],"split_conditions":[5E-1,5E-1,5E-1,5E-1,5E-1,5E-1,1.05881825E-1,5E-1,5E-1,5E-1,5E-1,5E-1,9.6528344E-2,5E-1,5E-1,5E-1,5E-1,5E-1,5E-1,1.2289158E-1,5E-1,5E-1,5E-1,5E-1,5E-1,5E-1,5E-1,5E-1,5E-1,5E-1,5E-1,5E-1,5E-1,5E-1,1.2363156E-1,5E-1,1.0293603E-1,5E-1,8.225251E-2,5E-1,9.9656954E-2,5E-1,5E-1,5E-1,1.250857E-1,5E-1,5E-1,5E-1,1.302936E-1,5E-1,1.2608485E-1,1.3286625E-1,5E-1,5E-1,5E-1,5E-1,5E-1,1.3133441E-1,5E-1,1.254114E-1,-6.8682075E-2,5E-1,1.02879E-1,5E-1,9.147955E-2,5E-1,5E-1,5E-1,9.963614E-2,8.141028E-2,-4.7381297E-2,-5.391847E-2,8.863984E-2,-2.6019095E-2,1.194824E-1,1.3888122E-1,6.330491E-2,1.333872E-1,-6.847023E-2,-5.500991E-2,1.3896647E-1,-4.8236784E-2,1.3953201E-1,-4.5811664E-2,1.2581554E-1,1.2512702E-2,-5.0574947E-2,1.250256E-1,-7.0759706E-2,9.251728E-2,2.3286201E-2,9.773754E-2,-6.414651E-2,1.3248315E-1,6.472453E-2,-3.653585E-2,9.9405624E-2,-4.311511E-2,-6.384318E-2,-6.806936E-2,1.0030886E-1,-5.678333E-2,9.8364495E-2,-3.3837494E-2,-5.8587182E-2],"split_indices":[31,21,75,67,74,96,0,66,26,81,86,99,0,49,88,8,79,85,99,0,96,121,82,81,80,87,139,25,93,89,94,88,76,94,0,91,0,79,0,139,0,76,93,87,0,86,99,141,0,28,0,0,79,76,92,88,104,0,79,0,0,96,0,139,0,95,132,78,0,0,0,0,0,0,0,0,0,0,0,0,0,0,0,0,0,0,0,0,0,0,0,0,0,0,0,0,0,0,0,0,0,0,0,0,0],"split_type":[0,0,0,0,0,0,0,0,0,0,0,0,0,0,0,0,0,0,0,0,0,0,0,0,0,0,0,0,0,0,0,0,0,0,0,0,0,0,0,0,0,0,0,0,0,0,0,0,0,0,0,0,0,0,0,0,0,0,0,0,0,0,0,0,0,0,0,0,0,0,0,0,0,0,0,0,0,0,0,0,0,0,0,0,0,0,0,0,0,0,0,0,0,0,0,0,0,0,0,0,0,0,0,0,0],"sum_hessian":[8.243991E3,6.838305E3,1.4056862E3,5.945654E3,8.9265137E2,1.4024592E3,3.2269304E0,2.9751946E3,2.970459E3,7.0450903E2,1.8814233E2,1.4006904E3,1.7687846E0,1.9182966E3,1.056898E3,1.9026295E3,1.0678295E3,6.387151E2,6.579392E1,8.326227E0,1.7981612E2,1.3343536E3,6.633681E1,1.5121456E3,4.06151E2,5.061517E2,5.507462E2,1.7783427E3,1.2428691E2,9.0813104E2,1.5969847E2,6.0199347E2,3.672162E1,5.410957E1,1.1684356E1,1.7706396E2,2.7521424E0,1.3329867E3,1.366895E0,6.3541336E1,2.7954748E0,1.4284258E3,8.371995E1,3.849094E2,2.1241608E1,3.440241E2,1.621276E2,5.341187E2,1.6627457E1,1.7576465E3,2.0696167E1,4.558511E1,7.87018E1,7.5890094E2,1.4923007E2,1.4465262E2,1.5045855E1,4.6973093E2,1.3226256E2,1.8340302E1,1.8381317E1,5.135744E1,2.752129E0,1.7523618E2,1.8277991E0,1.0644323E3,2.685545E2,6.1271275E1,2.2700608E0,1.3638345E3,6.4591225E1,8.186264E1,1.8573053E0,3.7501352E2,9.895856E0,9.0784706E1,2.5323941E2,1.737923E1,1.4474837E2,5.2168005E2,1.2438681E1,1.7452352E3,1.2411179E1,7.239159E1,6.3102145E0,6.401448E2,1.1875615E2,6.3279786E0,1.429021E2,1.1406001E2,3.0592602E1,2.2925203E0,1.2753334E1,8.4184654E1,4.8077908E1,4.9618534E1,1.7389053E0,3.123021E1,1.4400597E2,1.0627039E3,1.7284372E0,2.6680396E2,1.750552E0,2.8658663E1,3.2612614E1],"tree_param":{"num_deleted":"0","num_feature":"142","num_nodes":"105","size_leaf_vector":"0"}},{"base_weights":[6.459013E-4,1.2485126E-1,-7.029267E-1,3.1652037E-2,9.098057E-1,-5.458827E-2,8.5227925E-1,9.603916E-1,-6.879672E-1,-1.3079305E-1,1.0231513E0,-6.9276714E-1,1.0367631E0,1.0107176E0,-7.002177E-1,-2.1135183E-1,9.454079E-1,1.1155763E0,-6.9834113E-1,1.0930846E0,-6.6113293E-1,1.0473424E0,-6.889425E-1,-4.4473988E-1,3.3625618E-1,-6.7780656E-1,1.0694251E0,1.1752994E0,-6.538548E-1,1.1354437E0,-6.6106737E-1,1.0824605E0,-6.7760736E-1,-5.1564056E-1,1.1647204E0,4.6391028E-1,-6.8955237E-1,1.1073527E0,-6.578433E-1,-4.2777026E-1,1.1827561E0,-6.087129E-1,1.1595784E0,1.0974234E0,-6.1292386E-1],"categories":[],"categories_nodes":[],"categories_segments":[],"categories_sizes":[],"default_left":[1,1,0,1,1,1,1,1,0,1,1,0,1,1,0,1,1,1,0,1,0,1,0,1,1,0,1,1,0,1,0,1,0,0,0,0,0,0,0,0,0,0,0,0,0],"id":6,"left_children":[1,3,-1,5,7,9,11,13,-1,15,17,-1,19,21,-1,23,25,27,-1,29,-1,31,-1,33,35,-1,37,39,-1,41,-1,43,-1,-1,-1,-1,-1,-1,-1,-1,-1,-1,-1,-1,-1],"loss_changes":[7.212503E2,5.131731E2,0E0,4.4389365E2,6.083307E1,4.6630692E2,1.7073325E2,6.10506E1,0E0,4.598835E2,6.0437836E1,0E0,5.1716003E1,4.4372253E1,0E0,6.3070514E2,7.509442E1,3.8414062E1,0E0,3.9128845E1,0E0,4.2339294E1,0E0,3.9540375E2,1.934605E2,0E0,2.3238068E1,4.629425E0,0E0,2.1950745E1,0E0,1.7758057E1,0E0,0E0,0E0,0E0,0E0,0E0,0E0,0E0,0E0,0E0,0E0,0E0,0E0],"parents":[2147483647,0,0,1,1,3,3,4,4,5,5,6,6,7,7,9,9,10,10,12,12,13,13,15,15,16,16,17,17,19,19,21,21,23,23,24,24,26,26,27,27,29,29,31,31],"right_children":[2,4,-1,6,8,10,12,14,-1,16,18,-1,20,22,-1,24,26,28,-1,30,-1,32,-1,34,36,-1,38,40,-1,42,-1,44,-1,-1,-1,-1,-1,-1,-1,-1,-1,-1,-1,-1,-1],"split_conditions":[5E-1,5E-1,-7.0292674E-2,5E-1,5E-1,5E-1,5E-1,5E-1,-6.879672E-2,5E-1,5E-1,-6.927671E-2,5E-1,5E-1,-7.002177E-2,5E-1,5E-1,5E-1,-6.983411E-2,5E-1,-6.611329E-2,5E-1,-6.889425E-2,5E-1,5E-1,-6.778066E-2,5E-1,5E-1,-6.538548E-2,5E-1,-6.610674E-2,5E-1,-6.7760736E-2,-5.1564056E-2,1.1647204E-1,4.639103E-2,-6.8955235E-2,1.10735275E-1,-6.578433E-2,-4.2777028E-2,1.18275605E-1,-6.0871292E-2,1.1595785E-1,1.0974234E-1,-6.1292388E-2],"split_indices":[70,41,0,100,100,36,78,139,0,89,82,0,87,135,0,66,104,139,0,26,0,93,0,110,21,0,21,86,0,67,0,79,0,0,0,0,0,0,0,0,0,0,0,0,0],"split_type":[0,0,0,0,0,0,0,0,0,0,0,0,0,0,0,0,0,0,0,0,0,0,0,0,0,0,0,0,0,0,0,0,0,0,0,0,0,0,0,0,0,0,0,0,0],"sum_hessian":[8.251469E3,7.0140625E3,1.2374066E3,6.2705835E3,7.434787E2,5.675115E3,5.954685E2,7.21049E2,2.2429674E1,5.3011597E3,3.739556E2,6.322296E1,5.3224554E2,7.002197E2,2.082931E1,4.932725E3,3.6843442E2,3.5523538E2,1.8720213E1,5.1550183E2,1.6743687E1,6.8582513E2,1.4394577E1,3.4587917E3,1.4739335E3,2.5834248E1,3.426002E2,3.439615E2,1.127387E1,5.0369147E2,1.1810369E1,6.725061E2,1.3319046E1,3.3135034E3,1.4528838E2,1.3112999E3,1.6263359E2,3.3559015E2,7.0100465E0,1.3315414E0,3.4262994E2,6.5441055E0,4.9714737E2,6.6697235E2,5.533766E0],"tree_param":{"num_deleted":"0","num_feature":"142","num_nodes":"45","size_leaf_vector":"0"}},{"base_weights":[-1.9750753E-3,9.517235E-2,-4.0629274E-1,-6.431703E-3,6.1185336E-1,-4.5944938E-1,9.1156024E-1,1.17432535E-1,-3.93585E-1,8.0828077E-1,-6.964425E-1,-4.8334354E-1,8.895266E-1,-6.4737684E-1,1.1961652E0,1.7578855E-1,-6.2525356E-1,-4.9201497E-1,7.2657096E-1,1.1085532E0,3.1809217E-1,-5.0580055E-1,9.564047E-1,-5.822278E-1,1.2148955E0,4.193975E-1,-5.040865E-2,-7.079872E-1,1.3377469E0,-5.392328E-1,9.0972304E-1,8.5947543E-1,-6.808569E-1,1.1133704E0,-4.9983972E-1,1.1289483E0,-2.912105E-1,-5.6163186E-1,1.061254E-1,-5.873123E-1,1.4362003E0,6.059789E-1,1.0246152E-1,-1.07314035E-1,8.4619784E-1,-6.346153E-1,2.084948E-1,9.963509E-1,-5.5011934E-1,9.1954273E-1,-5.917065E-1,-5.827001E-1,1.0012162E0,-5.8777434E-1,4.4741926E-1,4.6003017E-1,-6.9116205E-1,7.6461154E-1,3.7223533E-1,-5.848635E-1,5.3752905E-1,5.19698E-3,-6.2081534E-1,8.727756E-1,-5.395298E-1,-6.644094E-1,7.4770147E-1,-2.6240647E-1,7.903055E-1,1.0621175E0,-4.604692E-1,9.6764404E-1,-5.5198926E-1,-6.019894E-1,1.214061E0,-6.7458075E-1,1.2322352E0,-6.691435E-1,7.1245736E-1],"categories":[],"categories_nodes":[],"categories_segments":[],"categories_sizes":[],"default_left":[1,1,1,1,1,1,1,1,1,1,0,1,1,0,0,1,1,1,1,1,1,1,1,0,0,1,1,0,0,1,1,1,0,0,0,0,1,1,1,0,0,1,1,1,1,1,1,1,0,1,0,0,0,1,1,1,0,0,0,0,0,0,0,0,0,0,0,0,0,0,0,0,0,0,0,0,0,0,0],"id":7,"left_children":[1,3,5,7,9,11,13,15,17,19,-1,21,23,-1,-1,25,27,29,31,33,35,37,39,-1,-1,41,43,-1,-1,45,47,49,-1,-1,-1,-1,51,53,55,-1,-1,57,59,61,63,65,67,69,-1,71,-1,-1,-1,73,75,77,-1,-1,-1,-1,-1,-1,-1,-1,-1,-1,-1,-1,-1,-1,-1,-1,-1,-1,-1,-1,-1,-1,-1],"loss_changes":[3.2338434E2,3.4848694E2,1.1215137E2,2.6611145E2,2.809012E2,4.986856E1,2.8360474E1,1.823219E2,1.4866035E2,1.3932092E2,0E0,4.9233246E1,1.36592655E1,0E0,0E0,2.1485527E2,5.0724228E1,8.236493E1,2.0983364E1,5.112854E0,1.7911491E2,5.0802795E1,1.825109E1,0E0,0E0,1.1094641E2,1.03282425E2,0E0,0E0,8.5526245E1,5.6930504E0,9.268188E0,0E0,0E0,0E0,0E0,7.8721085E1,3.617102E1,3.559505E1,0E0,0E0,4.3521057E1,2.0868651E2,1.0993016E2,4.920456E0,4.4240143E1,3.7525307E1,4.20269E0,0E0,7.364403E0,0E0,0E0,0E0,3.4726868E1,3.160162E1,2.5328453E1,0E0,0E0,0E0,0E0,0E0,0E0,0E0,0E0,0E0,0E0,0E0,0E0,0E0,0E0,0E0,0E0,0E0,0E0,0E0,0E0,0E0,0E0,0E0],"parents":[2147483647,0,0,1,1,2,2,3,3,4,4,5,5,6,6,7,7,8,8,9,9,11,11,12,12,15,15,16,16,17,17,18,18,19,19,20,20,21,21,22,22,25,25,26,26,29,29,30,30,31,31,36,36,37,37,38,38,41,41,42,42,43,43,44,44,45,45,46,46,47,47,49,49,53,53,54,54,55,55],"right_children":[2,4,6,8,10,12,14,16,18,20,-1,22,24,-1,-1,26,28,30,32,34,36,38,40,-1,-1,42,44,-1,-1,46,48,50,-1,-1,-1,-1,52,54,56,-1,-1,58,60,62,64,66,68,70,-1,72,-1,-1,-1,74,76,78,-1,-1,-1,-1,-1,-1,-1,-1,-1,-1,-1,-1,-1,-1,-1,-1,-1,-1,-1,-1,-1,-1,-1],"split_conditions":[5E-1,5E-1,5E-1,5E-1,5E-1,5E-1,5E-1,5E-1,5E-1,5E-1,-6.964425E-2,5E-1,5E-1,-6.4737685E-2,1.1961652E-1,5E-1,5E-1,5E-1,5E-1,5E-1,5E-1,5E-1,5E-1,-5.8222782E-2,1.2148955E-1,5E-1,5E-1,-7.079872E-2,1.3377468E-1,5E-1,5E-1,5E-1,-6.808569E-2,1.1133704E-1,-4.9983975E-2,1.1289483E-1,5E-1,5E-1,5E-1,-5.8731228E-2,1.4362003E-1,5E-1,5E-1,5E-1,5E-1,5E-1,5E-1,5E-1,-5.5011936E-2,5E-1,-5.9170652E-2,-5.8270007E-2,1.0012162E-1,5E-1,5E-1,5E-1,-6.9116205E-2,7.646116E-2,3.7223533E-2,-5.848635E-2,5.3752907E-2,5.19698E-4,-6.2081534E-2,8.727756E-2,-5.395298E-2,-6.644094E-2,7.4770145E-2,-2.6240647E-2,7.903055E-2,1.06211744E-1,-4.604692E-2,9.676441E-2,-5.5198926E-2,-6.019894E-2,1.214061E-1,-6.745808E-2,1.2322352E-1,-6.691435E-2,7.124574E-2],"split_indices":[66,31,8,78,89,115,78,36,16,139,0,3,31,0,0,82,85,49,88,85,93,141,78,0,0,80,81,0,0,26,88,87,0,0,0,0,82,100,82,0,0,79,67,21,84,48,99,98,0,141,0,0,0,36,41,86,0,0,0,0,0,0,0,0,0,0,0,0,0,0,0,0,0,0,0,0,0,0,0],"split_type":[0,0,0,0,0,0,0,0,0,0,0,0,0,0,0,0,0,0,0,0,0,0,0,0,0,0,0,0,0,0,0,0,0,0,0,0,0,0,0,0,0,0,0,0,0,0,0,0,0,0,0,0,0,0,0,0,0,0,0,0,0,0,0,0,0,0,0,0,0,0,0,0,0,0,0,0,0,0,0],"sum_hessian":[8.231145E3,6.6371646E3,1.5939802E3,5.547291E3,1.0898737E3,1.5328047E3,6.1175514E1,4.203225E3,1.3440659E3,9.479333E2,1.419404E2,1.5067574E3,2.6047234E1,9.247461E0,5.1928055E1,3.8977273E3,3.0549777E2,1.2360159E3,1.0805004E2,5.8705963E2,3.6087366E2,1.4842549E3,2.2502539E1,4.572919E0,2.1474316E1,1.8762246E3,2.0215028E3,2.9375632E2,1.1741469E1,1.1963325E3,3.9683376E1,9.90829E1,8.967142E0,5.856134E2,1.4461907E0,1.5446275E2,2.064109E2,1.3602314E3,1.2402345E2,5.282449E0,1.722009E1,1.1804042E3,6.958204E2,1.9016876E3,1.1981509E2,1.0611235E3,1.3520905E2,3.7760162E1,1.9232136E0,9.549646E1,3.586439E0,1.68873E2,3.7537903E1,1.3262875E3,3.394396E1,8.618856E1,3.7834892E1,7.01829E2,4.7857526E2,2.6958398E2,4.2623636E2,1.560716E3,3.4097174E2,1.1792352E2,1.8915656E0,1.0392433E3,2.1880192E1,7.503047E1,6.0178577E1,3.638838E1,1.3717818E0,9.2805275E1,2.6911879E0,1.3165668E3,9.720747E0,1.402862E1,1.9915339E1,1.5445576E1,7.074298E1],"tree_param":{"num_deleted":"0","num_feature":"142","num_nodes":"79","size_leaf_vector":"0"}},{"base_weights":[3.599671E-3,1.2548834E-1,-6.12977E-1,4.1471854E-2,6.8158925E-1,-6.17655E-1,9.9970907E-1,2.9801226E-1,-2.2240032E-1,9.884126E-1,-4.875877E-1,-6.211046E-1,1.0050013E0,4.6453786E-1,-1.655046E-2,-3.7034807E-1,3.415394E-2,1.0857662E0,7.6520674E-2,1.1082779E0,-5.662485E-1,-5.5262357E-1,-6.73428E-1,6.1804885E-1,-1.29553E-1,4.18463E-1,-4.110674E-1,-3.8734084E-1,1.4024016E0,-7.262299E-2,6.0554606E-1,1.125877E0,3.3943623E-1,-1.3684694E-1,1.100596E0,-5.9603566E-1,9.4805515E-1,-5.5898404E-1,1.073667E0,-6.9303066E-1,-6.0871583E-1,6.780764E-1,-4.640169E-1,-1.8819384E-1,1.1032761E0,7.9558957E-1,-4.263172E-1,-4.7573698E-1,1.3659867E0,-4.337291E-1,2.530551E-1,-1.108116E-1,1.3426845E0,7.3015976E-1,-4.499615E-1,1.1798936E0,9.3727547E-1,1.1329917E0,-6.035074E-1,-2.009513E-1,1.0286549E0,-6.1136484E-1,7.625057E-1,-5.637042E-1,8.9597493E-1,-5.8402354E-1,-7.1042085E-1,-6.293656E-1,1.0078497E0,7.3529196E-1,-5.0599146E-1,-5.0432104E-1,8.154182E-1,-2.2871651E-1,1.0792828E0,8.686483E-1,-5.0787437E-1,1.2358394E0,-6.7365205E-1,-5.2900064E-1,1.1935439E0,-4.542225E-1,1.1444993E0,1.1994295E0,-2.7070853E-1,-2.0779155E-1,4.3930525E-1,8.5972935E-1,1.54241705E-2,8.564431E-1,-6.4942646E-1,1.1881598E0,4.8755297E-1,-2.656225E-1,8.9267033E-1,-4.5876E-1,-6.406597E-1,-5.682665E-1,7.876309E-1,-5.2971286E-1,-6.7284584E-1,-7.169963E-1,-4.4996777E-1],"categories":[],"categories_nodes":[],"categories_segments":[],"categories_sizes":[],"default_left":[1,1,1,1,1,1,0,1,1,1,1,1,0,1,1,1,1,1,1,0,1,1,1,1,1,1,1,1,0,1,1,1,1,1,0,1,0,1,0,1,1,1,1,1,0,1,1,1,0,1,1,1,0,1,1,0,1,0,0,1,0,1,0,1,0,1,1,0,0,0,0,0,0,0,0,0,0,0,0,0,0,0,0,0,0,0,0,0,0,0,0,0,0,0,0,0,0,0,0,0,0,0,0],"id":8,"left_children":[1,3,5,7,9,11,-1,13,15,17,19,21,-1,23,25,27,29,31,33,-1,35,37,39,41,43,45,47,49,-1,51,53,55,57,59,-1,61,-1,63,-1,65,67,69,71,73,-1,75,77,79,-1,81,83,85,-1,87,89,-1,91,-1,-1,93,-1,95,-1,97,-1,99,101,-1,-1,-1,-1,-1,-1,-1,-1,-1,-1,-1,-1,-1,-1,-1,-1,-1,-1,-1,-1,-1,-1,-1,-1,-1,-1,-1,-1,-1,-1,-1,-1,-1,-1,-1,-1],"loss_changes":[6.1829736E2,3.2090924E2,1.0861847E1,4.0410522E2,3.238854E2,8.206848E0,0E0,1.5855875E2,1.11712845E2,6.3342773E1,2.4236782E1,4.473572E0,0E0,1.8057431E2,1.8014427E2,5.6771667E1,6.576963E1,1.8940002E1,1.5444332E1,0E0,8.679817E0,6.716797E0,5.447998E-1,1.0248047E2,2.9646812E1,1.5938882E2,6.390654E1,5.505655E1,0E0,4.925441E1,2.2652142E1,5.130005E0,2.6388458E1,4.6008883E0,0E0,4.1531677E0,0E0,4.5547028E0,0E0,6.8014526E-1,6.8230057E0,1.013584E2,4.704876E0,2.0256176E1,0E0,3.3342804E1,6.44446E1,4.7919113E1,0E0,5.6314148E1,6.256355E1,4.7338215E1,0E0,1.4079933E1,5.387461E0,0E0,1.5345543E1,0E0,0E0,4.2390575E0,0E0,4.9121857E-1,0E0,4.0750885E0,0E0,5.4094315E-2,5.226288E-1,0E0,0E0,0E0,0E0,0E0,0E0,0E0,0E0,0E0,0E0,0E0,0E0,0E0,0E0,0E0,0E0,0E0,0E0,0E0,0E0,0E0,0E0,0E0,0E0,0E0,0E0,0E0,0E0,0E0,0E0,0E0,0E0,0E0,0E0,0E0,0E0],"parents":[2147483647,0,0,1,1,2,2,3,3,4,4,5,5,7,7,8,8,9,9,10,10,11,11,13,13,14,14,15,15,16,16,17,17,18,18,20,20,21,21,22,22,23,23,24,24,25,25,26,26,27,27,29,29,30,30,31,31,32,32,33,33,35,35,37,37,39,39,40,40,41,41,42,42,43,43,45,45,46,46,47,47,49,49,50,50,51,51,53,53,54,54,56,56,59,59,61,61,63,63,65,65,66,66],"right_children":[2,4,6,8,10,12,-1,14,16,18,20,22,-1,24,26,28,30,32,34,-1,36,38,40,42,44,46,48,50,-1,52,54,56,58,60,-1,62,-1,64,-1,66,68,70,72,74,-1,76,78,80,-1,82,84,86,-1,88,90,-1,92,-1,-1,94,-1,96,-1,98,-1,100,102,-1,-1,-1,-1,-1,-1,-1,-1,-1,-1,-1,-1,-1,-1,-1,-1,-1,-1,-1,-1,-1,-1,-1,-1,-1,-1,-1,-1,-1,-1,-1,-1,-1,-1,-1,-1],"split_conditions":[5E-1,5E-1,5E-1,5E-1,5E-1,5E-1,9.997091E-2,5E-1,5E-1,5E-1,5E-1,5E-1,1.0050013E-1,5E-1,5E-1,5E-1,5E-1,5E-1,5E-1,1.10827796E-1,5E-1,5E-1,5E-1,5E-1,5E-1,5E-1,5E-1,5E-1,1.4024016E-1,5E-1,5E-1,5E-1,5E-1,5E-1,1.100596E-1,5E-1,9.480552E-2,5E-1,1.073667E-1,5E-1,5E-1,5E-1,5E-1,5E-1,1.1032762E-1,5E-1,5E-1,5E-1,1.3659868E-1,5E-1,5E-1,5E-1,1.3426845E-1,5E-1,5E-1,1.1798936E-1,5E-1,1.1329917E-1,-6.0350742E-2,5E-1,1.02865495E-1,5E-1,7.6250575E-2,5E-1,8.959749E-2,5E-1,5E-1,-6.293657E-2,1.0078497E-1,7.35292E-2,-5.0599147E-2,-5.0432105E-2,8.154182E-2,-2.287165E-2,1.07928276E-1,8.686483E-2,-5.0787438E-2,1.23583935E-1,-6.736521E-2,-5.2900065E-2,1.1935439E-1,-4.5422252E-2,1.1444993E-1,1.19942956E-1,-2.7070854E-2,-2.0779155E-2,4.3930527E-2,8.5972935E-2,1.5424171E-3,8.564431E-2,-6.494265E-2,1.1881598E-1,4.87553E-2,-2.656225E-2,8.926704E-2,-4.5876E-2,-6.406597E-2,-5.682665E-2,7.876309E-2,-5.2971285E-2,-6.7284584E-2,-7.1699634E-2,-4.499678E-2],"split_indices":[31,21,75,67,74,96,0,66,26,81,86,80,0,49,88,73,79,85,99,0,96,136,82,81,80,87,94,8,0,75,94,88,76,96,0,91,0,90,0,93,66,77,93,87,0,120,99,139,0,25,93,78,0,133,104,0,79,0,0,94,0,139,0,121,0,87,88,0,0,0,0,0,0,0,0,0,0,0,0,0,0,0,0,0,0,0,0,0,0,0,0,0,0,0,0,0,0,0,0,0,0,0,0],"split_type":[0,0,0,0,0,0,0,0,0,0,0,0,0,0,0,0,0,0,0,0,0,0,0,0,0,0,0,0,0,0,0,0,0,0,0,0,0,0,0,0,0,0,0,0,0,0,0,0,0,0,0,0,0,0,0,0,0,0,0,0,0,0,0,0,0,0,0,0,0,0,0,0,0,0,0,0,0,0,0,0,0,0,0,0,0,0,0,0,0,0,0,0,0,0,0,0,0,0,0,0,0,0,0],"sum_hessian":[8.225079E3,6.86814E3,1.3569396E3,5.9676187E3,9.005213E2,1.3536301E3,3.3095057E0,3.0257808E3,2.941838E3,7.1344806E2,1.8707329E2,1.3513744E3,2.2556572E0,1.9781147E3,1.0476661E3,1.865571E3,1.0762667E3,6.444553E2,6.89927E1,8.172887E0,1.789004E2,5.903217E2,7.610527E2,1.5719008E3,4.0621396E2,4.9823138E2,5.494347E2,1.8486324E3,1.6938654E1,9.075452E2,1.6872148E2,6.111036E2,3.3351784E1,5.781353E1,1.1179166E1,1.7604391E2,2.8564847E0,5.8867566E2,1.6460483E0,5.766605E2,1.843922E2,1.4896365E3,8.22642E1,3.8857816E2,1.763579E1,3.4449863E2,1.5373277E2,5.3084863E2,1.8586061E1,1.724069E3,1.2456346E2,8.845982E2,2.2947012E1,1.511812E2,1.7540287E1,4.7096136E2,1.401422E2,1.8001049E1,1.5350736E1,5.5583916E1,2.2296145E0,1.7462352E2,1.4203913E0,5.873827E2,1.2930076E0,8.409708E1,4.9256345E2,1.8266948E2,1.7227142E0,1.421335E3,6.830158E1,8.033922E1,1.9249802E0,3.7733392E2,1.1244242E1,3.2653027E2,1.796833E1,1.93952E1,1.3433757E2,5.1509595E2,1.5752655E1,1.7026719E3,2.1397089E1,4.3918423E1,8.0645035E1,7.525531E2,1.320451E2,1.2780875E2,2.337245E1,1.887079E0,1.5653209E1,8.8903885E1,5.1238316E1,5.319533E1,2.388584E0,3.0806124E1,1.438174E2,5.8598376E2,1.3988907E0,5.6508503E1,2.758857E1,4.7872458E2,1.3838875E1],"tree_param":{"num_deleted":"0","num_feature":"142","num_nodes":"103","size_leaf_vector":"0"}},{"base_weights":[-2.2270088E-3,1.1533911E-1,-6.8361914E-1,3.0673958E-2,8.1257814E-1,-4.5231644E-2,7.5486034E-1,8.578618E-1,-6.6828966E-1,-1.1604351E-1,9.397826E-1,-6.7540026E-1,9.3436825E-1,8.9961934E-1,-6.888865E-1,-1.935022E-1,8.825374E-1,1.0130163E0,-6.7349076E-1,9.8112345E-1,-6.362205E-1,9.3443555E-1,-6.69753E-1,-4.1949442E-1,3.042826E-1,-6.6027254E-1,1.003294E0,1.0563444E0,-6.155548E-1,-6.3721347E-1,1.0212395E0,9.666565E-1,-6.7512536E-1,-4.9286976E-1,1.0723395E0,4.2157042E-1,-6.682337E-1,1.0308146E0,-6.147171E-1,-4.769642E-1,1.0654448E0,1.0440702E0,-6.058118E-1,9.800389E-1,-6.763574E-1],"categories":[],"categories_nodes":[],"categories_segments":[],"categories_sizes":[],"default_left":[1,1,0,1,1,1,1,1,0,1,1,0,1,1,0,1,1,1,0,1,0,1,0,1,1,0,1,1,0,0,1,1,0,0,0,0,0,0,0,0,0,0,0,0,0],"id":9,"left_children":[1,3,-1,5,7,9,11,13,-1,15,17,-1,19,21,-1,23,25,27,-1,29,-1,31,-1,33,35,-1,37,39,-1,-1,41,43,-1,-1,-1,-1,-1,-1,-1,-1,-1,-1,-1,-1,-1],"loss_changes":[6.540702E2,4.110353E2,0E0,3.4141895E2,5.113321E1,3.922587E2,1.5191547E2,4.7900024E1,0E0,4.0594135E2,4.524405E1,0E0,3.9099976E1,3.9595703E1,0E0,5.4788776E2,7.105051E1,2.6137268E1,0E0,3.3708893E1,0E0,3.6860107E1,0E0,3.6714935E2,1.7376564E2,0E0,1.6253632E1,5.4227295E0,0E0,0E0,1.9104492E1,1.5721252E1,0E0,0E0,0E0,0E0,0E0,0E0,0E0,0E0,0E0,0E0,0E0,0E0,0E0],"parents":[2147483647,0,0,1,1,3,3,4,4,5,5,6,6,7,7,9,9,10,10,12,12,13,13,15,15,16,16,17,17,19,19,21,21,23,23,24,24,26,26,27,27,30,30,31,31],"right_children":[2,4,-1,6,8,10,12,14,-1,16,18,-1,20,22,-1,24,26,28,-1,30,-1,32,-1,34,36,-1,38,40,-1,-1,42,44,-1,-1,-1,-1,-1,-1,-1,-1,-1,-1,-1,-1,-1],"split_conditions":[5E-1,5E-1,-6.8361916E-2,5E-1,5E-1,5E-1,5E-1,5E-1,-6.6828966E-2,5E-1,5E-1,-6.754003E-2,5E-1,5E-1,-6.888866E-2,5E-1,5E-1,5E-1,-6.7349076E-2,5E-1,-6.362205E-2,5E-1,-6.69753E-2,5E-1,5E-1,-6.6027254E-2,5E-1,5E-1,-6.1555482E-2,-6.372135E-2,5E-1,5E-1,-6.7512535E-2,-4.9286976E-2,1.0723396E-1,4.2157043E-2,-6.682337E-2,1.03081465E-1,-6.147171E-2,-4.7696423E-2,1.0654449E-1,1.0440703E-1,-6.0581177E-2,9.800389E-2,-6.763574E-2],"split_indices":[70,41,0,100,100,36,78,139,0,89,82,0,87,93,0,66,104,139,0,67,0,135,0,110,21,0,21,86,0,0,26,99,0,0,0,0,0,0,0,0,0,0,0,0,0],"split_type":[0,0,0,0,0,0,0,0,0,0,0,0,0,0,0,0,0,0,0,0,0,0,0,0,0,0,0,0,0,0,0,0,0,0,0,0,0,0,0,0,0,0,0,0,0],"sum_hessian":[8.162807E3,6.9623643E3,1.2004426E3,6.2094053E3,7.529589E2,5.621161E3,5.8824445E2,7.3102545E2,2.193345E1,5.2449854E3,3.7617548E2,6.528804E1,5.229564E2,7.122162E2,1.8809296E1,4.8681733E3,3.7681204E2,3.601966E2,1.5978863E1,5.0820294E2,1.4753475E1,6.9715454E2,1.5061648E1,3.3482427E3,1.5199308E3,2.7028086E1,3.4978397E2,3.512042E2,8.992401E0,1.1932811E1,4.9627014E2,6.83864E2,1.329049E1,3.191919E3,1.5632378E2,1.356857E3,1.630737E2,3.4429086E2,5.4931116E0,1.7688122E0,3.494354E2,4.897562E2,6.5139337E0,6.787392E2,5.1248245E0],"tree_param":{"num_deleted":"0","num_feature":"142","num_nodes":"45","size_leaf_vector":"0"}},{"base_weights":[2.6191564E-3,9.450843E-2,-3.8794425E-1,-9.98245E-4,5.678485E-1,-4.4241002E-1,8.964056E-1,1.1180955E-1,-3.6381534E-1,7.330134E-1,-6.749774E-1,-4.9658784E-1,1.2099523E-1,-6.148898E-1,1.1326039E0,1.6555044E-1,-5.961547E-1,-4.683265E-1,7.2878253E-1,9.928184E-1,2.9856983E-1,-5.2157974E-1,8.4690905E-1,4.3549424E-1,-6.692539E-1,3.8775846E-1,-4.796214E-2,-6.8392265E-1,1.1962594E0,-5.140523E-1,9.0129894E-1,8.482801E-1,-6.5904576E-1,9.98524E-1,-5.50747E-1,1.005898E0,-2.7048436E-1,-5.4360324E-1,9.036669E-1,-5.493332E-1,1.1297972E0,-6.562608E-1,6.714317E-1,5.5770534E-1,9.997207E-2,-1.016261E-1,7.893789E-1,-6.071446E-1,2.0992349E-1,9.6747184E-1,-4.914982E-1,9.373735E-1,-6.262188E-1,1.0100042E0,8.5604376E-1,1.0266768E0,-5.246987E-1,-5.7830626E-1,9.2277E-1,-5.716546E-1,4.571687E-1,-5.4327804E-1,1.2991642E0,8.886773E-1,-6.772013E-1,6.3445807E-1,5.0846167E-2,-5.5871856E-1,4.9385926E-1,5.3036604E-3,-5.9296817E-1,8.2129395E-1,-5.757071E-1,-6.3877165E-1,7.082821E-1,-2.3368259E-1,7.972902E-1,9.8205185E-1,-5.33876E-1,9.011799E-1,-4.6262714E-1,-5.866476E-1,1.1484122E0,-6.594923E-1,1.1114348E0,1.0337406E0,-6.2261E-1],"categories":[],"categories_nodes":[],"categories_segments":[],"categories_sizes":[],"default_left":[1,1,1,1,1,1,1,1,1,1,0,1,1,0,0,1,1,1,1,1,1,1,1,1,0,1,1,0,0,1,1,1,0,1,0,1,1,1,1,0,0,0,1,1,1,1,1,1,1,0,0,1,0,0,1,0,0,0,0,1,1,0,0,1,0,0,0,0,0,0,0,0,0,0,0,0,0,0,0,0,0,0,0,0,0,0,0],"id":10,"left_children":[1,3,5,7,9,11,13,15,17,19,-1,21,23,-1,-1,25,27,29,31,33,35,37,39,41,-1,43,45,-1,-1,47,49,51,-1,53,-1,55,57,59,61,-1,-1,-1,63,65,67,69,71,73,75,-1,-1,77,-1,-1,79,-1,-1,-1,-1,81,83,-1,-1,85,-1,-1,-1,-1,-1,-1,-1,-1,-1,-1,-1,-1,-1,-1,-1,-1,-1,-1,-1,-1,-1,-1,-1],"loss_changes":[2.9536313E2,3.0119177E2,1.1004878E2,2.2698448E2,2.3011084E2,4.5980804E1,2.35779E1,1.6105547E2,1.5054016E2,1.1120404E2,0E0,4.652997E1,3.3291443E1,0E0,0E0,1.8660811E2,4.7807716E1,7.568686E1,1.9668324E1,5.9904175E0,1.4964767E2,4.2809204E1,1.067238E1,2.506213E1,0E0,9.4204254E1,9.0244255E1,0E0,0E0,7.850717E1,4.08547E0,1.4581413E1,0E0,1.4276123E-1,0E0,5.8075256E0,7.636324E1,3.7550446E1,1.2661089E1,0E0,0E0,0E0,2.3775093E1,4.709854E1,1.8624344E2,9.912219E1,5.7428894E0,4.3333466E1,3.4904488E1,0E0,0E0,7.154045E0,0E0,0E0,3.5404968E0,0E0,0E0,0E0,0E0,3.400644E1,2.7598442E1,0E0,0E0,1.5672665E1,0E0,0E0,0E0,0E0,0E0,0E0,0E0,0E0,0E0,0E0,0E0,0E0,0E0,0E0,0E0,0E0,0E0,0E0,0E0,0E0,0E0,0E0,0E0],"parents":[2147483647,0,0,1,1,2,2,3,3,4,4,5,5,6,6,7,7,8,8,9,9,11,11,12,12,15,15,16,16,17,17,18,18,19,19,20,20,21,21,22,22,23,23,25,25,26,26,29,29,30,30,31,31,33,33,35,35,36,36,37,37,38,38,42,42,43,43,44,44,45,45,46,46,47,47,48,48,51,51,54,54,59,59,60,60,63,63],"right_children":[2,4,6,8,10,12,14,16,18,20,-1,22,24,-1,-1,26,28,30,32,34,36,38,40,42,-1,44,46,-1,-1,48,50,52,-1,54,-1,56,58,60,62,-1,-1,-1,64,66,68,70,72,74,76,-1,-1,78,-1,-1,80,-1,-1,-1,-1,82,84,-1,-1,86,-1,-1,-1,-1,-1,-1,-1,-1,-1,-1,-1,-1,-1,-1,-1,-1,-1,-1,-1,-1,-1,-1,-1],"split_conditions":[5E-1,5E-1,5E-1,5E-1,5E-1,5E-1,5E-1,5E-1,5E-1,5E-1,-6.7497745E-2,5E-1,5E-1,-6.1488982E-2,1.1326039E-1,5E-1,5E-1,5E-1,5E-1,5E-1,5E-1,5E-1,5E-1,5E-1,-6.692539E-2,5E-1,5E-1,-6.839227E-2,1.1962594E-1,5E-1,5E-1,5E-1,-6.590458E-2,5E-1,-5.50747E-2,5E-1,5E-1,5E-1,5E-1,-5.493332E-2,1.12979725E-1,-6.562608E-2,5E-1,5E-1,5E-1,5E-1,5E-1,5E-1,5E-1,9.674718E-2,-4.9149822E-2,5E-1,-6.2621884E-2,1.0100042E-1,5E-1,1.0266768E-1,-5.246987E-2,-5.7830628E-2,9.2277005E-2,5E-1,5E-1,-5.4327805E-2,1.2991641E-1,5E-1,-6.772013E-2,6.344581E-2,5.0846166E-3,-5.5871855E-2,4.9385928E-2,5.3036603E-4,-5.9296817E-2,8.21294E-2,-5.7570707E-2,-6.3877165E-2,7.0828214E-2,-2.336826E-2,7.972902E-2,9.820519E-2,-5.33876E-2,9.011799E-2,-4.6262715E-2,-5.8664765E-2,1.1484122E-1,-6.594923E-2,1.11143485E-1,1.03374064E-1,-6.2260997E-2],"split_indices":[66,31,8,78,89,141,78,36,16,139,0,115,82,0,0,82,85,49,88,85,93,3,31,86,0,80,81,0,0,26,88,87,0,99,0,99,82,100,78,0,0,0,21,21,67,21,84,48,99,0,0,141,0,0,82,0,0,0,0,36,41,0,0,80,0,0,0,0,0,0,0,0,0,0,0,0,0,0,0,0,0,0,0,0,0,0,0],"split_type":[0,0,0,0,0,0,0,0,0,0,0,0,0,0,0,0,0,0,0,0,0,0,0,0,0,0,0,0,0,0,0,0,0,0,0,0,0,0,0,0,0,0,0,0,0,0,0,0,0,0,0,0,0,0,0,0,0,0,0,0,0,0,0,0,0,0,0,0,0,0,0,0,0,0,0,0,0,0,0,0,0,0,0,0,0,0,0],"sum_hessian":[8.22798E3,6.6614697E3,1.5665103E3,5.543871E3,1.1175989E3,1.5034103E3,6.3099976E1,4.229514E3,1.3143569E3,9.8686066E2,1.3073825E2,1.371631E3,1.3177931E2,8.312142E0,5.4787834E1,3.9318196E3,2.9769446E2,1.2001312E3,1.1422577E2,6.1674866E2,3.7011203E2,1.3471823E3,2.4448717E1,9.458558E1,3.7193737E1,1.9262773E3,2.0055424E3,2.8438748E2,1.3306976E1,1.161963E3,3.816818E1,1.0552815E2,8.6976185E0,6.148291E2,1.9195442E0,1.6466614E2,2.0544589E2,1.327291E3,1.9891247E1,3.960269E0,2.048845E1,1.6491737E1,7.809384E1,1.2105009E3,7.157765E2,1.8855771E3,1.19965225E2,1.0297183E3,1.3224477E2,3.6728546E1,1.4396286E0,9.985868E1,5.669474E0,5.6334924E2,5.1479816E1,1.6278546E2,1.8806778E0,1.637253E2,4.1720596E1,1.2915189E3,3.5772102E1,4.1896305E0,1.5701615E1,6.7553055E1,1.0540784E1,1.0510852E3,1.5941565E2,2.6769553E2,4.4808096E2,1.5493783E3,3.361988E2,1.1761383E2,2.3513963E0,1.0060441E3,2.367411E1,7.568566E1,5.6559105E1,9.723829E1,2.620389E0,5.008218E1,1.3976396E0,1.2810118E3,1.0507038E1,1.3212994E1,2.2559109E1,6.1925068E1,5.6279907E0],"tree_param":{"num_deleted":"0","num_feature":"142","num_nodes":"87","size_leaf_vector":"0"}},{"base_weights":[7.7844397E-3,1.2066505E-1,-5.982227E-1,3.3369133E-1,-7.222799E-2,-6.0374147E-1,9.773496E-1,3.8532743E-1,-5.968463E-1,-2.1023688E-1,4.858358E-1,-6.066015E-1,8.848696E-1,4.3712604E-1,-5.093392E-1,1.0629164E0,-6.5533125E-1,-3.701883E-1,6.147914E-2,8.495166E-1,-4.793733E-1,-6.443967E-1,-5.090474E-1,4.8905358E-1,-5.833782E-1,1.1323397E0,-6.525485E-1,-6.7097086E-1,6.471088E-1,-4.1210705E-1,1.9237912E-1,1.814484E-1,-4.3213293E-1,9.628533E-1,7.508811E-2,1.0277549E0,-5.55919E-1,-6.476141E-1,9.858772E-1,-5.840712E-1,1.4556425E0,5.9527725E-1,-1.2158495E-1,1.1471016E0,-6.955618E-1,-4.924155E-1,-6.723917E-1,-4.0137643E-1,-6.963455E-1,-4.3010417E-1,1.059308E0,1.1056198E0,-3.0219668E-1,2.811856E-1,-4.508497E-1,6.538903E-2,-5.786107E-1,1.0233529E0,1.0709426E-1,-1.5039302E-1,1.0492127E0,-5.8807623E-1,9.108269E-1,-5.450214E-1,-6.820867E-1,-5.605848E-1,-6.402547E-1,7.031977E-1,-7.559093E-4,-1.7846325E-1,1.0115119E0,8.5433084E-1,-6.687064E-1,9.796615E-1,-6.3004243E-1,-4.4467604E-1,1.2845529E0,-4.462636E-1,1.2557353E0,2.1789356E-1,1.218089E0,-5.0351757E-1,1.1386101E0,1.2779486E0,-3.8652065E-1,-6.303963E-1,1.143992E0,1.086654E0,7.9195446E-1,1.0254003E0,-5.985503E-1,-2.2573626E-1,9.083701E-1,-6.1196715E-1,8.5011804E-1,-5.7723296E-1,-3.7667125E-1,-6.8938684E-1,-3.4856334E-1,-5.717553E-1,9.5206606E-1],"categories":[],"categories_nodes":[],"categories_segments":[],"categories_sizes":[],"default_left":[1,1,1,1,1,1,0,1,1,1,1,1,0,1,1,0,1,1,1,1,1,1,1,1,1,0,1,1,0,1,1,1,1,1,1,0,1,1,0,1,0,1,1,0,0,1,0,1,0,1,0,0,1,1,1,1,1,1,1,1,0,1,0,1,1,1,0,0,0,0,0,0,0,0,0,0,0,0,0,0,0,0,0,0,0,0,0,0,0,0,0,0,0,0,0,0,0,0,0,0,0],"id":11,"left_children":[1,3,5,7,9,11,-1,13,15,17,19,21,-1,23,25,-1,27,29,31,33,35,37,39,41,43,-1,45,47,-1,49,51,53,55,57,59,-1,61,63,-1,65,-1,67,69,-1,-1,71,-1,73,-1,75,-1,-1,77,79,81,83,85,87,89,91,-1,93,-1,95,97,99,-1,-1,-1,-1,-1,-1,-1,-1,-1,-1,-1,-1,-1,-1,-1,-1,-1,-1,-1,-1,-1,-1,-1,-1,-1,-1,-1,-1,-1,-1,-1,-1,-1,-1,-1],"loss_changes":[5.5810126E2,2.8262833E2,1.1729279E1,1.5727234E2,2.7814526E2,5.9745483E0,0E0,1.4375165E2,1.741423E1,1.2584535E2,2.5176874E2,4.374359E0,0E0,1.5545575E2,4.0697926E1,0E0,3.8354416E0,4.3056488E1,6.3654938E1,4.5609406E1,2.3252949E1,5.440216E0,5.40459E1,1.8084473E2,2.8410988E1,0E0,1.6766357E-1,8.525772E-1,0E0,4.537802E1,5.772352E1,5.463822E1,1.5356972E1,2.3391968E1,1.4990467E1,0E0,9.391373E0,2.8616943E0,0E0,1.0072327E-1,0E0,1.5271503E2,2.6848991E1,0E0,0E0,5.5669866E0,0E0,5.858415E0,0E0,4.246225E1,0E0,0E0,1.9236393E1,4.4044464E1,1.0464384E1,2.7185669E1,1.5216976E1,5.347748E0,2.0759783E1,4.649174E0,0E0,6.8539124E0,0E0,1.0564957E0,1.4161987E0,4.830864E0,0E0,0E0,0E0,0E0,0E0,0E0,0E0,0E0,0E0,0E0,0E0,0E0,0E0,0E0,0E0,0E0,0E0,0E0,0E0,0E0,0E0,0E0,0E0,0E0,0E0,0E0,0E0,0E0,0E0,0E0,0E0,0E0,0E0,0E0,0E0],"parents":[2147483647,0,0,1,1,2,2,3,3,4,4,5,5,7,7,8,8,9,9,10,10,11,11,13,13,14,14,16,16,17,17,18,18,19,19,20,20,21,21,22,22,23,23,24,24,26,26,27,27,29,29,30,30,31,31,32,32,33,33,34,34,36,36,37,37,39,39,41,41,42,42,45,45,47,47,49,49,52,52,53,53,54,54,55,55,56,56,57,57,58,58,59,59,61,61,63,63,64,64,65,65],"right_children":[2,4,6,8,10,12,-1,14,16,18,20,22,-1,24,26,-1,28,30,32,34,36,38,40,42,44,-1,46,48,-1,50,52,54,56,58,60,-1,62,64,-1,66,-1,68,70,-1,-1,72,-1,74,-1,76,-1,-1,78,80,82,84,86,88,90,92,-1,94,-1,96,98,100,-1,-1,-1,-1,-1,-1,-1,-1,-1,-1,-1,-1,-1,-1,-1,-1,-1,-1,-1,-1,-1,-1,-1,-1,-1,-1,-1,-1,-1,-1,-1,-1,-1,-1,-1],"split_conditions":[5E-1,5E-1,5E-1,5E-1,5E-1,5E-1,9.773496E-2,5E-1,5E-1,5E-1,5E-1,5E-1,8.848696E-2,5E-1,5E-1,1.06291644E-1,5E-1,5E-1,5E-1,5E-1,5E-1,5E-1,5E-1,5E-1,5E-1,1.13233976E-1,5E-1,5E-1,6.471088E-2,5E-1,5E-1,5E-1,5E-1,5E-1,5E-1,1.0277549E-1,5E-1,5E-1,9.858772E-2,5E-1,1.4556424E-1,5E-1,5E-1,1.1471017E-1,-6.9556184E-2,5E-1,-6.723917E-2,5E-1,-6.963455E-2,5E-1,1.05930805E-1,1.1056198E-1,5E-1,5E-1,5E-1,5E-1,5E-1,5E-1,5E-1,5E-1,1.04921274E-1,5E-1,9.108269E-2,5E-1,5E-1,5E-1,-6.402547E-2,7.031977E-2,-7.5590935E-5,-1.7846325E-2,1.0115119E-1,8.543309E-2,-6.6870645E-2,9.796616E-2,-6.300425E-2,-4.4467606E-2,1.284553E-1,-4.4626363E-2,1.2557353E-1,2.1789355E-2,1.218089E-1,-5.0351758E-2,1.1386102E-1,1.2779486E-1,-3.8652066E-2,-6.303963E-2,1.14399195E-1,1.086654E-1,7.919545E-2,1.0254003E-1,-5.9855033E-2,-2.2573626E-2,9.083701E-2,-6.1196715E-2,8.50118E-2,-5.7723295E-2,-3.7667125E-2,-6.893869E-2,-3.4856334E-2,-5.717553E-2,9.520661E-2],"split_indices":[31,67,75,129,21,96,0,41,66,26,74,82,0,29,88,0,21,8,92,81,86,73,66,49,104,0,92,91,0,25,93,76,104,85,99,0,96,93,0,88,0,87,80,0,0,100,0,8,0,28,0,0,88,141,104,117,88,88,76,94,0,91,0,66,88,132,0,0,0,0,0,0,0,0,0,0,0,0,0,0,0,0,0,0,0,0,0,0,0,0,0,0,0,0,0,0,0,0,0,0,0],"split_type":[0,0,0,0,0,0,0,0,0,0,0,0,0,0,0,0,0,0,0,0,0,0,0,0,0,0,0,0,0,0,0,0,0,0,0,0,0,0,0,0,0,0,0,0,0,0,0,0,0,0,0,0,0,0,0,0,0,0,0,0,0,0,0,0,0,0,0,0,0,0,0,0,0,0,0,0,0,0,0,0,0,0,0,0,0,0,0,0,0,0,0,0,0,0,0,0,0,0,0,0,0],"sum_hessian":[8.156549E3,6.876473E3,1.2800759E3,3.2673562E3,3.6091167E3,1.2762225E3,3.8534129E0,3.0961357E3,1.7122055E2,2.8940444E3,7.1507245E2,1.2743666E3,1.855924E0,2.9271724E3,1.689634E2,5.243367E0,1.6597719E2,1.8214479E3,1.0725964E3,5.1946375E2,1.956087E2,9.1446954E2,3.5989703E2,2.785933E3,1.4123915E2,1.3002495E1,1.559609E2,1.644869E2,1.4903041E0,1.6953865E3,1.26061386E2,8.6338794E2,2.0920851E2,4.5293405E2,6.6529686E1,8.853966E0,1.8675473E2,9.1326996E2,1.1995828E0,3.4733633E2,1.25607E1,2.3731387E3,4.1279434E2,8.037172E0,1.3320198E2,2.004165E1,1.3591925E2,1.5596725E1,1.4889017E2,1.6755996E3,1.978685E1,4.385221E1,8.2209175E1,7.46234E2,1.1715389E2,4.7710407E1,1.6149811E2,4.228444E2,3.0089663E1,5.471125E1,1.1818431E1,1.8333434E2,3.4204004E0,2.3391982E2,6.7935016E2,2.5268437E2,9.465197E1,2.0091696E3,3.639692E2,3.9386588E2,1.8928467E1,1.874623E0,1.8167027E1,1.7490457E0,1.384768E1,1.6622141E3,1.3385507E1,7.590367E1,6.3055005E0,7.001672E2,4.606688E1,1.14057724E2,3.0961688E0,1.2457278E1,3.5253128E1,1.5740031E2,4.097787E0,3.2911584E2,9.3728546E1,1.2877764E1,1.7211899E1,5.1811085E1,2.9001658E0,1.809037E2,2.4306307E0,1.9431207E2,3.960775E1,6.637549E2,1.5595272E1,2.5144951E2,1.2348657E0],"tree_param":{"num_deleted":"0","num_feature":"142","num_nodes":"101","size_leaf_vector":"0"}},{"base_weights":[-6.2370347E-3,1.0190509E-1,-6.6609854E-1,2.0967977E-2,7.531734E-1,-5.1999647E-2,7.111619E-1,7.944583E-1,-6.4946353E-1,-1.2032722E-1,8.6971974E-1,-6.571469E-1,8.569097E-1,8.3439493E-1,-6.837852E-1,-1.9270343E-1,8.201465E-1,9.388489E-1,-6.5694755E-1,9.008248E-1,-6.261336E-1,8.629818E-1,-6.6470295E-1,-4.0681505E-1,2.6589474E-1,-6.4569855E-1,9.245176E-1,9.7301346E-1,-5.872723E-1,9.385573E-1,-6.3625264E-1,8.900976E-1,-6.4404505E-1,-4.7610542E-1,1.004595E0,3.6909792E-1,-6.5337515E-1,-6.1685944E-1,9.5428836E-1,-4.8284546E-1,9.816489E-1,-5.884105E-1,9.618398E-1,9.0070283E-1,-5.861986E-1],"categories":[],"categories_nodes":[],"categories_segments":[],"categories_sizes":[],"default_left":[1,1,0,1,1,1,1,1,0,1,1,0,1,1,0,1,1,1,0,1,0,1,0,1,1,0,1,1,0,1,0,1,0,0,0,0,0,0,0,0,0,0,0,0,0],"id":12,"left_children":[1,3,-1,5,7,9,11,13,-1,15,17,-1,19,21,-1,23,25,27,-1,29,-1,31,-1,33,35,-1,37,39,-1,41,-1,43,-1,-1,-1,-1,-1,-1,-1,-1,-1,-1,-1,-1,-1],"loss_changes":[5.718701E2,3.629369E2,0E0,3.0852884E2,4.4589508E1,3.490559E2,1.17376434E2,4.4244537E1,0E0,3.513377E2,4.0986267E1,0E0,3.5068268E1,3.146222E1,0E0,4.7058084E2,5.702954E1,1.9672974E1,0E0,3.046399E1,0E0,2.9493896E1,0E0,3.199593E2,1.4497917E2,0E0,1.6408722E1,4.9837036E0,0E0,1.8449432E1,0E0,1.1419189E1,0E0,0E0,0E0,0E0,0E0,0E0,0E0,0E0,0E0,0E0,0E0,0E0,0E0],"parents":[2147483647,0,0,1,1,3,3,4,4,5,5,6,6,7,7,9,9,10,10,12,12,13,13,15,15,16,16,17,17,19,19,21,21,23,23,24,24,26,26,27,27,29,29,31,31],"right_children":[2,4,-1,6,8,10,12,14,-1,16,18,-1,20,22,-1,24,26,28,-1,30,-1,32,-1,34,36,-1,38,40,-1,42,-1,44,-1,-1,-1,-1,-1,-1,-1,-1,-1,-1,-1,-1,-1],"split_conditions":[5E-1,5E-1,-6.660985E-2,5E-1,5E-1,5E-1,5E-1,5E-1,-6.494635E-2,5E-1,5E-1,-6.571469E-2,5E-1,5E-1,-6.837852E-2,5E-1,5E-1,5E-1,-6.569476E-2,5E-1,-6.261336E-2,5E-1,-6.6470295E-2,5E-1,5E-1,-6.456985E-2,5E-1,5E-1,-5.872723E-2,5E-1,-6.362527E-2,5E-1,-6.440451E-2,-4.7610544E-2,1.0045951E-1,3.6909793E-2,-6.533752E-2,-6.1685946E-2,9.542884E-2,-4.8284546E-2,9.816489E-2,-5.884105E-2,9.618398E-2,9.0070285E-2,-5.8619864E-2],"split_indices":[70,41,0,100,100,36,78,139,0,89,82,0,31,135,0,66,104,66,0,26,0,93,0,110,21,0,67,86,0,67,0,79,0,0,0,0,0,0,0,0,0,0,0,0,0],"split_type":[0,0,0,0,0,0,0,0,0,0,0,0,0,0,0,0,0,0,0,0,0,0,0,0,0,0,0,0,0,0,0,0,0,0,0,0,0,0,0,0,0,0,0,0,0],"sum_hessian":[8.0120557E3,6.8846094E3,1.1274462E3,6.1245107E3,7.600984E2,5.5397686E3,5.8474225E2,7.387867E2,2.1311687E1,5.158254E3,3.8151477E2,5.5951324E1,5.2879095E2,7.197766E2,1.9010107E1,4.7903936E3,3.6786008E2,3.653561E2,1.615869E1,5.139643E2,1.4826662E1,7.067241E2,1.3052465E1,3.2657732E3,1.5246207E3,2.4106628E1,3.4375345E2,3.5771063E2,7.645476E0,5.0202972E2,1.1934557E1,6.9463495E2,1.2089156E1,3.1135808E3,1.5219237E2,1.3712714E3,1.5334929E2,6.139925E0,3.376135E2,1.7854491E0,3.5592517E2,7.1752014E0,4.9485452E2,6.900676E2,4.5673246E0],"tree_param":{"num_deleted":"0","num_feature":"142","num_nodes":"45","size_leaf_vector":"0"}},{"base_weights":[5.9961523E-3,9.215641E-2,-3.7276822E-1,8.068915E-3,5.036533E-1,-4.2134342E-1,8.5016316E-1,1.1569652E-1,-3.5453343E-1,6.6034985E-1,-6.562917E-1,-4.433322E-1,8.261836E-1,-5.900632E-1,1.0690686E0,1.6400489E-1,-5.698732E-1,-4.5146236E-1,6.6387314E-1,9.225234E-1,2.2355524E-1,-4.6465725E-1,8.449703E-1,-5.1785386E-1,1.0594819E0,3.6837858E-1,-3.3587236E-2,-6.636975E-1,1.0836996E0,-5.025069E-1,8.224077E-1,7.487175E-1,-6.165436E-1,9.265406E-1,-4.764764E-1,9.2195034E-1,-3.1795472E-1,-5.1897365E-1,9.139779E-2,-5.55308E-1,1.2472838E0,5.2084905E-1,1.0670244E-1,-8.508263E-2,7.626906E-1,-5.8790714E-1,1.1425193E-1,8.822494E-1,-5.4275525E-1,8.268944E-1,-6.0850435E-1,9.423162E-1,-5.2510613E-1,-5.666886E-1,7.777731E-1,-5.3921837E-1,9.775036E-1,3.8663304E-1,-6.483717E-1,6.971236E-1,2.8208122E-1,-5.6398076E-1,4.868847E-1,2.1583833E-2,-5.957574E-1,7.867741E-1,-5.184935E-1,-6.4115006E-1,1.2504889E-1,3.2794905E-1,-7.2333556E-1,9.415095E-1,-4.8646548E-1,8.543742E-1,-4.5289877E-1,-5.5568826E-1,1.1030593E0,-5.723631E-1,1.675416E0,-6.323155E-1,5.927653E-1],"categories":[],"categories_nodes":[],"categories_segments":[],"categories_sizes":[],"default_left":[1,1,1,1,1,1,1,1,1,1,0,1,1,0,0,1,1,1,1,1,1,1,1,0,0,1,1,0,0,1,1,1,0,0,0,1,1,1,1,0,0,1,1,1,1,1,1,1,0,1,0,0,0,0,0,1,1,1,0,0,0,0,0,0,0,0,0,0,0,0,0,0,0,0,0,0,0,0,0,0,0],"id":13,"left_children":[1,3,5,7,9,11,13,15,17,19,-1,21,23,-1,-1,25,27,29,31,33,35,37,39,-1,-1,41,43,-1,-1,45,47,49,-1,-1,-1,51,53,55,57,-1,-1,59,61,63,65,67,69,71,-1,73,-1,-1,-1,-1,-1,75,77,79,-1,-1,-1,-1,-1,-1,-1,-1,-1,-1,-1,-1,-1,-1,-1,-1,-1,-1,-1,-1,-1,-1,-1],"loss_changes":[2.624591E2,2.2670366E2,8.889575E1,2.1239124E2,2.024898E2,3.9707504E1,1.8686508E1,1.390794E2,1.2326207E2,1.1200412E2,0E0,3.9128815E1,8.447178E0,0E0,0E0,1.5835765E2,4.361213E1,7.441046E1,1.2265926E1,3.8810425E0,1.3978941E2,4.195865E1,1.3826429E1,0E0,0E0,7.685037E1,8.185089E1,0E0,0E0,5.7730316E1,4.091543E0,1.1363716E1,0E0,0E0,0E0,5.249832E0,5.726804E1,3.8830566E1,2.740649E1,0E0,0E0,5.1053284E1,1.8154204E2,1.0210955E2,4.1492615E0,3.6589386E1,2.421995E1,3.925167E0,0E0,3.8055649E0,0E0,0E0,0E0,0E0,0E0,3.437137E1,1.9597473E1,1.9172348E1,0E0,0E0,0E0,0E0,0E0,0E0,0E0,0E0,0E0,0E0,0E0,0E0,0E0,0E0,0E0,0E0,0E0,0E0,0E0,0E0,0E0,0E0,0E0],"parents":[2147483647,0,0,1,1,2,2,3,3,4,4,5,5,6,6,7,7,8,8,9,9,11,11,12,12,15,15,16,16,17,17,18,18,19,19,20,20,21,21,22,22,25,25,26,26,29,29,30,30,31,31,35,35,36,36,37,37,38,38,41,41,42,42,43,43,44,44,45,45,46,46,47,47,49,49,55,55,56,56,57,57],"right_children":[2,4,6,8,10,12,14,16,18,20,-1,22,24,-1,-1,26,28,30,32,34,36,38,40,-1,-1,42,44,-1,-1,46,48,50,-1,-1,-1,52,54,56,58,-1,-1,60,62,64,66,68,70,72,-1,74,-1,-1,-1,-1,-1,76,78,80,-1,-1,-1,-1,-1,-1,-1,-1,-1,-1,-1,-1,-1,-1,-1,-1,-1,-1,-1,-1,-1,-1,-1],"split_conditions":[5E-1,5E-1,5E-1,5E-1,5E-1,5E-1,5E-1,5E-1,5E-1,5E-1,-6.562918E-2,5E-1,5E-1,-5.9006322E-2,1.0690685E-1,5E-1,5E-1,5E-1,5E-1,5E-1,5E-1,5E-1,5E-1,-5.1785387E-2,1.0594819E-1,5E-1,5E-1,-6.636975E-2,1.0836996E-1,5E-1,5E-1,5E-1,-6.165436E-2,9.2654064E-2,-4.764764E-2,5E-1,5E-1,5E-1,5E-1,-5.5530798E-2,1.2472838E-1,5E-1,5E-1,5E-1,5E-1,5E-1,5E-1,5E-1,-5.4275524E-2,5E-1,-6.0850438E-2,9.423162E-2,-5.2510615E-2,-5.666886E-2,7.777731E-2,5E-1,5E-1,5E-1,-6.483717E-2,6.971236E-2,2.8208122E-2,-5.6398075E-2,4.868847E-2,2.1583834E-3,-5.9575744E-2,7.867741E-2,-5.1849347E-2,-6.411501E-2,1.250489E-2,3.2794904E-2,-7.233356E-2,9.415095E-2,-4.864655E-2,8.543742E-2,-4.5289878E-2,-5.5568825E-2,1.1030593E-1,-5.723631E-2,1.6754161E-1,-6.323155E-2,5.927653E-2],"split_indices":[66,31,8,78,89,115,78,36,16,139,0,120,31,0,0,82,85,49,88,85,93,141,3,0,0,80,81,0,0,26,94,87,0,0,0,99,82,7,82,0,0,79,67,21,84,139,104,93,0,141,0,0,0,0,0,36,91,86,0,0,0,0,0,0,0,0,0,0,0,0,0,0,0,0,0,0,0,0,0,0,0],"split_type":[0,0,0,0,0,0,0,0,0,0,0,0,0,0,0,0,0,0,0,0,0,0,0,0,0,0,0,0,0,0,0,0,0,0,0,0,0,0,0,0,0,0,0,0,0,0,0,0,0,0,0,0,0,0,0,0,0,0,0,0,0,0,0,0,0,0,0,0,0,0,0,0,0,0,0,0,0,0,0,0,0],"sum_hessian":[8.040344E3,6.5509165E3,1.4894275E3,5.4402466E3,1.1106699E3,1.4331576E3,5.6269966E1,4.1955923E3,1.2446544E3,9.7886597E2,1.3180396E2,1.4089679E3,2.4189697E1,7.2005367E0,4.9069427E1,3.9201233E3,2.7546906E2,1.1369954E3,1.0765916E2,6.1101154E2,3.678544E2,1.3866542E3,2.231371E1,3.3974118E0,2.0792286E1,1.9265686E3,1.9935547E3,2.6124457E2,1.4224481E1,1.0937728E3,4.3222458E1,1.0135811E2,6.3010454E0,6.095988E2,1.4127523E0,1.6034807E2,2.0750633E2,1.2633177E3,1.23336334E2,4.8952365E0,1.7418472E1,1.2166654E3,7.099032E2,1.8733011E3,1.20253494E2,9.607836E2,1.3298921E2,4.1746254E1,1.4762009E0,9.620725E1,5.150861E0,1.5846661E2,1.8814476E0,1.6950986E2,3.7996487E1,1.2470865E3,1.6231232E1,8.849583E1,3.4840515E1,6.9882556E2,5.1783984E2,2.56654E2,4.532492E2,1.5504176E3,3.2288354E2,1.18413475E2,1.8400184E0,8.941128E2,6.6670845E1,1.06440956E2,2.6548258E1,4.031298E1,1.4332738E0,9.451034E1,1.6969134E0,1.2353591E3,1.1727404E1,5.095486E0,1.1135745E1,1.4542434E1,7.395339E1],"tree_param":{"num_deleted":"0","num_feature":"142","num_nodes":"81","size_leaf_vector":"0"}},{"base_weights":[4.1122744E-3,1.11008056E-1,-5.749274E-1,3.0849737E-1,-7.1974605E-2,-5.7968724E-1,9.010162E-1,3.5439932E-1,-5.5752087E-1,-1.999768E-1,4.4310597E-1,-5.8328307E-1,9.4198465E-1,3.981376E-1,-5.726317E-1,1.0276363E0,-6.324085E-1,-3.481146E-1,4.583211E-2,7.777183E-1,-4.762611E-1,-6.221743E-1,-4.389995E-1,4.830758E-1,-1.3390814E-1,1.0129325E0,-6.7406577E-1,-6.4815354E-1,6.064704E-1,-3.6312824E-1,1.2799084E0,1.2355572E-1,-5.1078916E-1,8.771685E-1,1.0107173E-1,9.6150124E-1,-5.621683E-1,-6.270446E-1,1.0863491E0,-5.276307E-1,7.8614786E-2,5.467455E-1,-4.5641333E-1,-1.9148466E-1,9.383152E-1,-3.308849E-1,-6.814733E-1,-3.7786466E-1,1.2800002E0,1.9727147E-1,-4.4313252E-1,1.1883124E0,-6.4461464E-1,9.325418E-1,1.4747097E-1,-1.4117923E-1,9.9510664E-1,-5.9016937E-1,8.0871487E-1,-6.3088036E-1,9.3816245E-1,-5.397172E-1,9.15831E-1,1.3468173E0,-2.51545E-1,6.488363E-1,-2.7063174E-2,1.0494118E0,-6.1894476E-1,-2.3062843E-1,1.0150973E0,1.0107055E0,-6.068533E-1,-3.956667E-1,9.957771E-1,1.4099775E-1,1.1392567E0,-4.913786E-1,1.0316584E0,1.0062604E0,6.849531E-1,9.6295077E-1,-5.892315E-1,-2.4039456E-1,1.0924702E0,-6.1455995E-1,7.8993267E-1,-6.390764E-1,-3.4809652E-1,-5.51785E-1,8.895851E-1,-4.316698E-1,1.0699635E0],"categories":[],"categories_nodes":[],"categories_segments":[],"categories_sizes":[],"default_left":[1,1,1,1,1,1,0,1,1,1,1,1,0,1,1,0,1,1,1,1,1,1,1,1,1,0,0,1,0,1,0,1,1,1,1,0,1,1,0,1,1,1,1,1,0,1,0,1,0,1,1,0,0,1,1,1,0,1,0,1,0,1,0,0,1,0,0,0,0,0,0,0,0,0,0,0,0,0,0,0,0,0,0,0,0,0,0,0,0,0,0,0,0],"id":14,"left_children":[1,3,5,7,9,11,-1,13,15,17,19,21,-1,23,25,-1,27,29,31,33,35,37,39,41,43,-1,-1,45,-1,47,-1,49,51,53,55,-1,57,59,-1,61,63,65,67,69,-1,71,-1,73,-1,75,77,-1,-1,79,81,83,-1,85,-1,87,-1,89,-1,-1,91,-1,-1,-1,-1,-1,-1,-1,-1,-1,-1,-1,-1,-1,-1,-1,-1,-1,-1,-1,-1,-1,-1,-1,-1,-1,-1,-1,-1],"loss_changes":[4.977659E2,2.4534213E2,9.326569E0,1.2999014E2,2.3246536E2,7.3880615E0,0E0,1.25976685E2,2.020562E1,1.0283603E2,2.1628107E2,6.7269897E0,0E0,1.339288E2,2.3221722E1,0E0,3.4735985E0,4.3532333E1,4.6037598E1,3.4563446E1,2.3749031E1,8.8377075E0,1.2348427E1,1.5305853E2,2.5403162E1,0E0,0E0,1.4281387E0,0E0,4.2777115E1,0E0,3.9074234E1,3.0416962E1,1.7997772E1,1.467657E1,0E0,7.3076515E0,6.46402E0,0E0,4.492508E0,1.7124521E1,1.4019641E2,4.0465443E1,1.8587097E1,0E0,6.8372025E0,0E0,4.274556E1,0E0,4.365378E1,8.172703E0,0E0,0E0,6.921509E0,2.0299656E1,6.8332677E0,0E0,6.37471E0,0E0,2.0402527E0,0E0,4.4217606E0,0E0,0E0,8.233988E0,0E0,0E0,0E0,0E0,0E0,0E0,0E0,0E0,0E0,0E0,0E0,0E0,0E0,0E0,0E0,0E0,0E0,0E0,0E0,0E0,0E0,0E0,0E0,0E0,0E0,0E0,0E0,0E0],"parents":[2147483647,0,0,1,1,2,2,3,3,4,4,5,5,7,7,8,8,9,9,10,10,11,11,13,13,14,14,16,16,17,17,18,18,19,19,20,20,21,21,22,22,23,23,24,24,27,27,29,29,31,31,32,32,33,33,34,34,36,36,37,37,39,39,40,40,41,41,42,42,43,43,45,45,47,47,49,49,50,50,53,53,54,54,55,55,57,57,59,59,61,61,64,64],"right_children":[2,4,6,8,10,12,-1,14,16,18,20,22,-1,24,26,-1,28,30,32,34,36,38,40,42,44,-1,-1,46,-1,48,-1,50,52,54,56,-1,58,60,-1,62,64,66,68,70,-1,72,-1,74,-1,76,78,-1,-1,80,82,84,-1,86,-1,88,-1,90,-1,-1,92,-1,-1,-1,-1,-1,-1,-1,-1,-1,-1,-1,-1,-1,-1,-1,-1,-1,-1,-1,-1,-1,-1,-1,-1,-1,-1,-1,-1],"split_conditions":[5E-1,5E-1,5E-1,5E-1,5E-1,5E-1,9.010162E-2,5E-1,5E-1,5E-1,5E-1,5E-1,9.4198465E-2,5E-1,5E-1,1.0276363E-1,5E-1,5E-1,5E-1,5E-1,5E-1,5E-1,5E-1,5E-1,5E-1,1.0129326E-1,-6.740658E-2,5E-1,6.064704E-2,5E-1,1.2799084E-1,5E-1,5E-1,5E-1,5E-1,9.615012E-2,5E-1,5E-1,1.0863491E-1,5E-1,5E-1,5E-1,5E-1,5E-1,9.3831524E-2,5E-1,-6.814733E-2,5E-1,1.2800002E-1,5E-1,5E-1,1.1883124E-1,-6.446146E-2,5E-1,5E-1,5E-1,9.951066E-2,5E-1,8.0871485E-2,5E-1,9.381624E-2,5E-1,9.15831E-2,1.3468173E-1,5E-1,6.4883634E-2,-2.7063175E-3,1.0494118E-1,-6.1894476E-2,-2.3062844E-2,1.0150973E-1,1.01070546E-1,-6.0685333E-2,-3.956667E-2,9.957771E-2,1.4099776E-2,1.1392567E-1,-4.913786E-2,1.0316584E-1,1.00626044E-1,6.849531E-2,9.629508E-2,-5.892315E-2,-2.4039457E-2,1.0924702E-1,-6.1455995E-2,7.899327E-2,-6.3907646E-2,-3.4809653E-2,-5.51785E-2,8.895851E-2,-4.316698E-2,1.0699635E-1],"split_indices":[31,67,75,129,21,96,0,29,66,26,74,79,0,49,104,0,21,3,89,81,86,85,66,41,80,0,0,91,0,73,0,76,92,85,99,0,96,95,0,132,93,87,88,87,0,8,0,25,0,141,104,0,0,88,76,96,0,91,0,99,0,90,0,0,82,0,0,0,0,0,0,0,0,0,0,0,0,0,0,0,0,0,0,0,0,0,0,0,0,0,0,0,0],"split_type":[0,0,0,0,0,0,0,0,0,0,0,0,0,0,0,0,0,0,0,0,0,0,0,0,0,0,0,0,0,0,0,0,0,0,0,0,0,0,0,0,0,0,0,0,0,0,0,0,0,0,0,0,0,0,0,0,0,0,0,0,0,0,0,0,0,0,0,0,0,0,0,0,0,0,0,0,0,0,0,0,0,0,0,0,0,0,0,0,0,0,0,0,0],"sum_hessian":[8.039824E3,6.787585E3,1.2522391E3,3.2640637E3,3.523521E3,1.2488191E3,3.420108E0,3.1003267E3,1.6373723E2,2.822673E3,7.008481E2,1.2464902E3,2.3288887E0,2.9611853E3,1.3914124E2,6.8125505E0,1.5692467E2,1.7609891E3,1.0616838E3,5.139465E2,1.8690163E2,9.792294E2,2.6726083E2,2.553608E3,4.0757745E2,7.82583E0,1.3131541E2,1.5542616E2,1.498505E0,1.7456675E3,1.5321626E1,9.322829E2,1.2940096E2,4.478303E2,6.61162E1,9.963181E0,1.7693843E2,9.770771E2,2.1522603E0,2.2817162E2,3.9089214E1,2.3919238E3,1.6168399E2,3.8758615E2,1.999129E1,1.5810475E1,1.3961569E2,1.7309138E3,1.4753663E1,8.255464E2,1.0673656E2,8.872504E0,1.2052846E2,4.1598514E2,3.1845161E1,5.2683086E1,1.3433114E1,1.739548E2,2.9836283E0,9.7528394E2,1.7931364E0,2.2689784E2,1.2737811E0,7.4382577E0,3.1650957E1,2.0305262E3,3.6139764E2,1.5219681E1,1.4646431E2,3.7619067E2,1.1395468E1,2.2431674E0,1.3567307E1,1.7094714E3,2.1442364E1,7.800936E2,4.5452713E1,1.040011E2,2.7354612E0,3.1818314E2,9.7801994E1,1.4968706E1,1.6876455E1,4.9506683E1,3.1764026E0,1.7147896E2,2.4758544E0,9.465887E2,2.8695282E1,2.2560696E2,1.2908828E0,2.8446924E1,3.2040334E0],"tree_param":{"num_deleted":"0","num_feature":"142","num_nodes":"93","size_leaf_vector":"0"}},{"base_weights":[-6.721985E-3,9.678962E-2,-6.5116006E-1,1.9263541E-2,6.981178E-1,-5.0458558E-2,6.667931E-1,7.354432E-1,-6.732069E-1,-2.7952898E-1,1.953673E-1,-6.423611E-1,7.9779696E-1,7.6987076E-1,-6.410061E-1,-3.6915496E-1,7.1464574E-1,3.2131726E-1,-6.946082E-1,8.367056E-1,-6.082776E-1,7.9804236E-1,-6.5702486E-1,-4.594818E-1,7.562428E-1,1.0552968E0,-6.726431E-1,4.186564E-1,-6.6885847E-1,8.716539E-1,-6.2224925E-1,8.254595E-1,-6.375764E-1,-5.5776924E-1,7.820513E-1,-6.7087E-1,8.960092E-1,-4.787959E-1,1.0767341E0,3.4960088E-1,1.2702293E0,8.91708E-1,-6.482551E-1,8.373007E-1,-6.003691E-1],"categories":[],"categories_nodes":[],"categories_segments":[],"categories_sizes":[],"default_left":[1,1,0,1,1,1,1,1,0,1,1,0,1,1,0,1,1,1,0,1,0,1,0,1,1,1,0,1,0,1,0,1,0,0,0,0,0,0,0,0,0,0,0,0,0],"id":15,"left_children":[1,3,-1,5,7,9,11,13,-1,15,17,-1,19,21,-1,23,25,27,-1,29,-1,31,-1,33,35,37,-1,39,-1,41,-1,43,-1,-1,-1,-1,-1,-1,-1,-1,-1,-1,-1,-1,-1],"loss_changes":[5.180963E2,3.11956E2,0E0,2.676996E2,3.961093E1,3.0151004E2,9.936548E1,3.5770447E1,0E0,2.4721802E2,2.8973868E2,0E0,2.9198273E1,2.9736908E1,0E0,2.5885233E2,1.0918386E2,2.1842389E2,0E0,2.6582123E1,0E0,2.859433E1,0E0,2.877707E2,3.8363228E1,6.588867E0,0E0,1.2077478E2,0E0,1.579303E1,0E0,1.2324188E1,0E0,0E0,0E0,0E0,0E0,0E0,0E0,0E0,0E0,0E0,0E0,0E0,0E0],"parents":[2147483647,0,0,1,1,3,3,4,4,5,5,6,6,7,7,9,9,10,10,12,12,13,13,15,15,16,16,17,17,19,19,21,21,23,23,24,24,25,25,27,27,29,29,31,31],"right_children":[2,4,-1,6,8,10,12,14,-1,16,18,-1,20,22,-1,24,26,28,-1,30,-1,32,-1,34,36,38,-1,40,-1,42,-1,44,-1,-1,-1,-1,-1,-1,-1,-1,-1,-1,-1,-1,-1],"split_conditions":[5E-1,5E-1,-6.511601E-2,5E-1,5E-1,5E-1,5E-1,5E-1,-6.73207E-2,5E-1,5E-1,-6.423611E-2,5E-1,5E-1,-6.4100616E-2,5E-1,5E-1,5E-1,-6.9460824E-2,5E-1,-6.0827762E-2,5E-1,-6.570249E-2,5E-1,5E-1,5E-1,-6.726431E-2,5E-1,-6.688585E-2,5E-1,-6.2224925E-2,5E-1,-6.375764E-2,-5.5776924E-2,7.820513E-2,-6.7087E-2,8.960092E-2,-4.7879588E-2,1.0767341E-1,3.4960087E-2,1.2702294E-1,8.9170806E-2,-6.482551E-2,8.373007E-2,-6.003691E-2],"split_indices":[70,41,0,100,139,93,78,100,0,129,26,0,31,135,0,89,78,141,0,26,0,93,0,36,92,91,0,74,0,21,0,79,0,0,0,0,0,0,0,0,0,0,0,0,0],"split_type":[0,0,0,0,0,0,0,0,0,0,0,0,0,0,0,0,0,0,0,0,0,0,0,0,0,0,0,0,0,0,0,0,0,0,0,0,0,0,0,0,0,0,0,0,0],"sum_hessian":[7.7648213E3,6.6909507E3,1.073871E3,5.927749E3,7.632015E2,5.352361E3,5.7538806E2,7.434301E2,1.9771345E1,2.7705315E3,2.5818296E3,5.1985065E1,5.23403E2,7.257192E2,1.7710915E1,2.5419963E3,2.2853516E2,2.2623057E3,3.1952408E2,5.097035E2,1.3699497E1,7.121007E2,1.3618477E1,2.3536768E3,1.8831946E2,1.8367322E2,4.4861942E1,2.060341E3,2.0196448E2,4.9817267E2,1.1530838E1,6.991731E2,1.2927659E1,2.1815244E3,1.7215225E2,1.6459234E1,1.7186023E2,2.2372437E0,1.8143597E2,1.9071014E3,1.5323958E2,4.9209317E2,6.0795026E0,6.938237E2,5.349312E0],"tree_param":{"num_deleted":"0","num_feature":"142","num_nodes":"45","size_leaf_vector":"0"}},{"base_weights":[-3.2818152E-4,7.791586E-2,-3.4786865E-1,-1.2912687E-3,4.701661E-1,-4.0202615E-1,8.412239E-1,9.574668E-2,-3.3776286E-1,6.048236E-1,-6.377709E-1,-4.236182E-1,7.7311766E-1,-5.777996E-1,1.0409064E0,1.3927905E-1,-5.600241E-1,-4.322954E-1,6.079888E-1,8.477864E-1,1.9212238E-1,-4.7643945E-1,1.05078265E-1,-5.097667E-1,1.0048321E0,2.1622807E-1,-3.1797397E-1,-6.449206E-1,9.8602104E-1,-4.773641E-1,6.903208E-1,7.2294295E-1,-6.2613374E-1,8.51642E-1,-4.7635093E-1,8.5050434E-1,-3.345496E-1,-4.9907964E-1,9.121966E-1,3.7707895E-1,-6.3020784E-1,2.5828448E-1,-6.8112034E-1,-4.8974517E-1,3.0660728E-1,-5.6498396E-1,1.5268716E-1,7.6481533E-1,-5.874304E-1,7.923563E-1,-5.9046566E-1,8.569951E-1,6.6418654E-1,8.700614E-1,-5.2355325E-1,-5.826166E-1,7.160003E-1,-5.194829E-1,9.337254E-1,-4.8241413E-1,1.1874491E0,-6.227665E-1,6.022504E-1,2.954489E-1,-6.76751E-1,-6.0733527E-1,4.7261545E-1,5.2578163E-1,-6.496785E-1,-6.0029304E-1,6.951896E-1,3.6447555E-1,-7.053037E-1,8.428399E-1,-5.414853E-1,8.386422E-1,-5.242595E-1,-6.1972934E-1,8.26625E-1,-5.367199E-1,1.0480716E0,-5.546122E-1,1.5477313E0,8.2267964E-1,-6.6599405E-1],"categories":[],"categories_nodes":[],"categories_segments":[],"categories_sizes":[],"default_left":[1,1,1,1,1,1,1,1,1,1,0,1,1,0,0,1,1,1,1,1,1,1,1,0,0,1,1,0,0,1,1,1,0,1,0,1,1,1,1,1,0,1,0,1,1,1,1,1,0,1,0,0,1,0,0,0,0,1,1,0,0,0,1,0,0,0,0,0,0,0,0,0,0,0,0,0,0,0,0,0,0,0,0,0,0],"id":16,"left_children":[1,3,5,7,9,11,13,15,17,19,-1,21,23,-1,-1,25,27,29,31,33,35,37,39,-1,-1,41,43,-1,-1,45,47,49,-1,51,-1,53,55,57,59,61,-1,63,-1,65,67,69,71,73,-1,75,-1,-1,77,-1,-1,-1,-1,79,81,-1,-1,-1,83,-1,-1,-1,-1,-1,-1,-1,-1,-1,-1,-1,-1,-1,-1,-1,-1,-1,-1,-1,-1,-1,-1],"loss_changes":[2.1564595E2,2.0110794E2,9.418515E1,1.7590227E2,1.6262985E2,3.5710846E1,1.868076E1,1.194484E2,1.08078674E2,9.711508E1,0E0,3.830844E1,8.096567E0,0E0,0E0,1.3806494E2,3.4827805E1,5.582878E1,1.6058254E1,3.521759E0,1.2538954E2,3.961917E1,2.5289118E1,0E0,0E0,1.2689116E2,6.080358E1,0E0,0E0,5.8337906E1,4.5181484E0,9.684242E0,0E0,4.18396E-2,0E0,4.772026E0,5.2841652E1,3.6336853E1,8.379921E0,2.1101185E1,0E0,1.1168013E2,0E0,5.050802E1,2.6029175E1,4.164572E1,2.380959E1,4.617546E0,0E0,6.31707E0,0E0,0E0,4.965255E0,0E0,0E0,0E0,0E0,3.325122E1,1.6920166E1,0E0,0E0,0E0,2.1695602E1,0E0,0E0,0E0,0E0,0E0,0E0,0E0,0E0,0E0,0E0,0E0,0E0,0E0,0E0,0E0,0E0,0E0,0E0,0E0,0E0,0E0,0E0],"parents":[2147483647,0,0,1,1,2,2,3,3,4,4,5,5,6,6,7,7,8,8,9,9,11,11,12,12,15,15,16,16,17,17,18,18,19,19,20,20,21,21,22,22,25,25,26,26,29,29,30,30,31,31,33,33,35,35,36,36,37,37,38,38,39,39,41,41,43,43,44,44,45,45,46,46,47,47,49,49,52,52,57,57,58,58,62,62],"right_children":[2,4,6,8,10,12,14,16,18,20,-1,22,24,-1,-1,26,28,30,32,34,36,38,40,-1,-1,42,44,-1,-1,46,48,50,-1,52,-1,54,56,58,60,62,-1,64,-1,66,68,70,72,74,-1,76,-1,-1,78,-1,-1,-1,-1,80,82,-1,-1,-1,84,-1,-1,-1,-1,-1,-1,-1,-1,-1,-1,-1,-1,-1,-1,-1,-1,-1,-1,-1,-1,-1,-1],"split_conditions":[5E-1,5E-1,5E-1,5E-1,5E-1,5E-1,5E-1,5E-1,5E-1,5E-1,-6.377709E-2,5E-1,5E-1,-5.7779964E-2,1.04090646E-1,5E-1,5E-1,5E-1,5E-1,5E-1,5E-1,5E-1,5E-1,-5.097667E-2,1.0048322E-1,5E-1,5E-1,-6.449206E-2,9.860211E-2,5E-1,5E-1,5E-1,-6.2613375E-2,5E-1,-4.7635093E-2,5E-1,5E-1,5E-1,5E-1,5E-1,-6.302079E-2,5E-1,-6.811204E-2,5E-1,5E-1,5E-1,5E-1,5E-1,-5.874304E-2,5E-1,-5.9046566E-2,8.569951E-2,5E-1,8.7006144E-2,-5.2355327E-2,-5.8261663E-2,7.1600035E-2,5E-1,5E-1,-4.8241414E-2,1.1874491E-1,-6.227665E-2,5E-1,2.954489E-2,-6.7675106E-2,-6.0733527E-2,4.7261547E-2,5.2578162E-2,-6.4967856E-2,-6.0029306E-2,6.951896E-2,3.6447555E-2,-7.053038E-2,8.428399E-2,-5.4148532E-2,8.386422E-2,-5.242595E-2,-6.1972935E-2,8.26625E-2,-5.3671993E-2,1.0480716E-1,-5.5461224E-2,1.5477313E-1,8.226796E-2,-6.659941E-2],"split_indices":[66,31,8,78,89,115,78,36,16,139,0,141,31,0,0,21,85,49,88,85,93,3,82,0,0,89,141,0,0,26,98,87,0,132,0,99,82,7,78,86,0,34,0,81,79,48,104,93,0,141,0,0,88,0,0,0,0,36,91,0,0,0,21,0,0,0,0,0,0,0,0,0,0,0,0,0,0,0,0,0,0,0,0,0,0],"split_type":[0,0,0,0,0,0,0,0,0,0,0,0,0,0,0,0,0,0,0,0,0,0,0,0,0,0,0,0,0,0,0,0,0,0,0,0,0,0,0,0,0,0,0,0,0,0,0,0,0,0,0,0,0,0,0,0,0,0,0,0,0,0,0,0,0,0,0,0,0,0,0,0,0,0,0,0,0,0,0,0,0,0,0,0,0],"sum_hessian":[7.928212E3,6.4719224E3,1.4562899E3,5.385437E3,1.0864851E3,1.3934852E3,6.28047E1,4.1805015E3,1.2049355E3,9.691498E2,1.17335365E2,1.3689713E3,2.4513914E1,7.5139527E0,5.529075E1,3.9209993E3,2.5950214E2,1.0959344E3,1.0900116E2,6.093581E2,3.5979172E2,1.2447129E3,1.2425845E2,3.5667367E0,2.0947178E1,3.3566511E3,5.643482E2,2.4654662E2,1.2955519E1,1.0541876E3,4.1746777E1,1.0009213E2,8.909028E0,6.079447E2,1.4133644E0,1.596285E2,2.0016321E2,1.2253751E3,1.9337807E1,9.106019E1,3.319827E1,3.2070566E3,1.4959433E2,4.4278906E2,1.21559166E2,9.255734E2,1.2861421E2,3.982629E1,1.9204881E0,9.544462E1,4.64751E0,5.8759344E2,2.0351305E1,1.5775002E2,1.8784784E0,1.6228755E2,3.7875645E1,1.2087991E3,1.657598E1,3.0634956E0,1.6274311E1,1.6413294E1,7.46469E1,3.085118E3,1.21938736E2,3.9490485E2,4.7884212E1,9.925968E1,2.2299479E1,9.008558E2,2.4717627E1,1.0361328E2,2.5000935E1,3.7916355E1,1.9099331E0,9.25539E1,2.8907156E0,1.9694647E0,1.838184E1,1.196302E3,1.2497061E1,4.869396E0,1.1706584E1,6.3893166E1,1.0753729E1],"tree_param":{"num_deleted":"0","num_feature":"142","num_nodes":"85","size_leaf_vector":"0"}},{"base_weights":[1.8837785E-3,1.01805344E-1,-5.5866563E-1,3.2878548E-2,5.383283E-1,-5.6490827E-1,9.102947E-1,2.3459843E-1,-1.8894209E-1,8.0215454E-1,-4.6449527E-1,-6.0852003E-1,-3.9715323E-1,2.786835E-1,-5.6425214E-1,-3.1823173E-1,1.8009424E-2,8.6542714E-1,1.7070456E-1,8.979534E-1,-5.40672E-1,-6.1244845E-1,9.1278183E-1,-4.9133682E-1,1.290351E-1,3.2104176E-1,-5.789686E-1,9.3746245E-1,-6.2846667E-1,-3.3413404E-1,1.2211677E0,-7.0439294E-2,4.7753805E-1,8.970155E-1,2.6244515E-1,-6.502097E-2,9.6152735E-1,-5.667101E-1,7.552134E-1,-6.153311E-1,7.569124E-1,-5.0454235E-1,9.983527E-1,1.2800802E0,-2.4374259E-1,3.6783126E-1,-4.4214523E-1,9.371815E-1,-6.679227E-1,-2.3621993E-1,-6.683285E-1,-3.7879267E-1,2.0841634E-1,-9.935631E-2,1.1785233E0,5.8429754E-1,-4.1873866E-1,9.424607E-1,7.451314E-1,9.1635007E-1,-5.6266063E-1,-1.452832E-1,1.01262E0,-5.8484393E-1,6.887693E-1,-6.4453584E-1,-5.257363E-1,-5.175351E-1,8.9277047E-1,-4.698709E-1,1.0587775E0,2.2056344E-1,6.815393E-1,9.9388677E-1,-6.0200924E-1,1.0147817E0,-5.82791E-1,-4.0543723E-1,6.432701E-1,1.0442821E0,-2.6597956E-1,-1.8286337E-1,3.2300848E-1,6.8474954E-1,-7.003686E-2,8.312145E-1,-6.558852E-1,9.6602714E-1,3.4447813E-1,-2.2890857E-1,8.952346E-1,-3.6993763E-1,-6.237357E-1,-5.201471E-1,-6.7049E-1,-5.6814533E-1,1.2076727E0,-5.3704506E-1,-3.394814E-1,-3.5248893E-1,-5.6984764E-1],"categories":[],"categories_nodes":[],"categories_segments":[],"categories_sizes":[],"default_left":[1,1,1,1,1,1,0,1,1,1,1,1,1,1,1,1,1,1,1,0,1,1,0,1,1,1,1,0,1,1,0,1,1,1,1,1,0,1,0,1,0,1,0,0,1,1,1,0,0,1,0,1,1,1,0,1,1,0,1,0,0,1,0,1,0,1,1,1,0,1,0,0,0,0,0,0,0,0,0,0,0,0,0,0,0,0,0,0,0,0,0,0,0,0,0,0,0,0,0,0,0],"id":17,"left_children":[1,3,5,7,9,11,-1,13,15,17,19,21,23,25,27,29,31,33,35,-1,37,39,-1,41,43,45,47,-1,49,51,-1,53,55,57,59,61,-1,63,-1,65,-1,67,-1,-1,69,71,73,-1,-1,75,-1,77,79,81,-1,83,85,-1,87,-1,-1,89,-1,91,-1,93,95,97,-1,99,-1,-1,-1,-1,-1,-1,-1,-1,-1,-1,-1,-1,-1,-1,-1,-1,-1,-1,-1,-1,-1,-1,-1,-1,-1,-1,-1,-1,-1,-1,-1],"loss_changes":[4.4183923E2,2.0142218E2,1.1458252E1,2.5881204E2,2.4190308E2,8.457123E0,0E0,1.0683835E2,7.3716805E1,2.8743927E1,2.0286045E1,6.187439E0,1.23641205E1,1.0450212E2,1.5898403E1,4.1917175E1,4.312649E1,1.2279053E1,1.2572188E1,0E0,6.545597E0,4.1761475E0,0E0,4.649269E0,1.6820713E1,9.7897125E1,1.8900501E1,0E0,2.2319603E0,4.076233E1,0E0,3.2259575E1,1.6631866E1,3.6042175E0,1.8924591E1,4.6995487E0,0E0,4.462181E0,0E0,2.1169128E0,0E0,4.266323E0,0E0,0E0,9.304798E0,1.19015686E2,3.6998627E1,0E0,0E0,7.375161E0,0E0,4.251837E1,5.116982E1,3.0771004E1,0E0,1.0134056E1,6.1211243E0,0E0,1.2806549E1,0E0,0E0,4.543357E0,0E0,1.2428322E0,0E0,1.9221191E0,1.8045921E1,5.4109955E-1,0E0,1.0626936E-1,0E0,0E0,0E0,0E0,0E0,0E0,0E0,0E0,0E0,0E0,0E0,0E0,0E0,0E0,0E0,0E0,0E0,0E0,0E0,0E0,0E0,0E0,0E0,0E0,0E0,0E0,0E0,0E0,0E0,0E0,0E0],"parents":[2147483647,0,0,1,1,2,2,3,3,4,4,5,5,7,7,8,8,9,9,10,10,11,11,12,12,13,13,14,14,15,15,16,16,17,17,18,18,20,20,21,21,23,23,24,24,25,25,26,26,28,28,29,29,31,31,32,32,33,33,34,34,35,35,37,37,39,39,41,41,44,44,45,45,46,46,49,49,51,51,52,52,53,53,55,55,56,56,58,58,61,61,63,63,65,65,66,66,67,67,69,69],"right_children":[2,4,6,8,10,12,-1,14,16,18,20,22,24,26,28,30,32,34,36,-1,38,40,-1,42,44,46,48,-1,50,52,-1,54,56,58,60,62,-1,64,-1,66,-1,68,-1,-1,70,72,74,-1,-1,76,-1,78,80,82,-1,84,86,-1,88,-1,-1,90,-1,92,-1,94,96,98,-1,100,-1,-1,-1,-1,-1,-1,-1,-1,-1,-1,-1,-1,-1,-1,-1,-1,-1,-1,-1,-1,-1,-1,-1,-1,-1,-1,-1,-1,-1,-1,-1],"split_conditions":[5E-1,5E-1,5E-1,5E-1,5E-1,5E-1,9.102947E-2,5E-1,5E-1,5E-1,5E-1,5E-1,5E-1,5E-1,5E-1,5E-1,5E-1,5E-1,5E-1,8.979534E-2,5E-1,5E-1,9.127819E-2,5E-1,5E-1,5E-1,5E-1,9.3746245E-2,5E-1,5E-1,1.2211677E-1,5E-1,5E-1,5E-1,5E-1,5E-1,9.615274E-2,5E-1,7.552134E-2,5E-1,7.5691245E-2,5E-1,9.983527E-2,1.2800802E-1,5E-1,5E-1,5E-1,9.371815E-2,-6.679227E-2,5E-1,-6.6832855E-2,5E-1,5E-1,5E-1,1.1785233E-1,5E-1,5E-1,9.4246075E-2,5E-1,9.163501E-2,-5.6266066E-2,5E-1,1.01261996E-1,5E-1,6.887693E-2,5E-1,5E-1,5E-1,8.927705E-2,5E-1,1.0587775E-1,2.2056345E-2,6.815393E-2,9.938868E-2,-6.0200926E-2,1.01478174E-1,-5.8279097E-2,-4.0543724E-2,6.432701E-2,1.0442821E-1,-2.6597956E-2,-1.8286338E-2,3.230085E-2,6.8474956E-2,-7.003686E-3,8.312145E-2,-6.558853E-2,9.6602716E-2,3.4447815E-2,-2.2890856E-2,8.952346E-2,-3.6993764E-2,-6.2373575E-2,-5.201471E-2,-6.7049004E-2,-5.6814533E-2,1.2076727E-1,-5.3704508E-2,-3.3948142E-2,-3.5248894E-2,-5.6984764E-2],"split_indices":[31,21,75,67,74,79,0,129,26,81,86,85,66,29,66,28,79,85,99,0,96,95,0,136,93,41,104,0,91,8,0,75,94,88,76,96,0,91,0,82,0,132,0,0,82,80,88,0,0,8,0,133,93,78,0,133,104,0,79,0,0,94,0,139,0,93,66,99,0,115,0,0,0,0,0,0,0,0,0,0,0,0,0,0,0,0,0,0,0,0,0,0,0,0,0,0,0,0,0,0,0],"split_type":[0,0,0,0,0,0,0,0,0,0,0,0,0,0,0,0,0,0,0,0,0,0,0,0,0,0,0,0,0,0,0,0,0,0,0,0,0,0,0,0,0,0,0,0,0,0,0,0,0,0,0,0,0,0,0,0,0,0,0,0,0,0,0,0,0,0,0,0,0,0,0,0,0,0,0,0,0,0,0,0,0,0,0,0,0,0,0,0,0,0,0,0,0,0,0,0,0,0,0,0,0],"sum_hessian":[7.8864253E3,6.6939956E3,1.1924298E3,5.7820825E3,9.119131E2,1.1879966E3,4.433213E0,3.0282168E3,2.753866E3,7.221322E2,1.8978088E2,9.407894E2,2.472071E2,2.8704597E3,1.57757E2,1.6946333E3,1.0592327E3,6.560264E2,6.610579E1,9.477871E0,1.8030301E2,9.389622E2,1.8272417E0,2.0973282E2,3.74743E1,2.7359602E3,1.3449963E2,5.9115314E0,1.5184546E2,1.6780813E3,1.6551985E1,8.8897253E2,1.7026012E2,6.229067E2,3.3119755E1,5.1632996E1,1.4472792E1,1.7730315E2,2.9998565E0,9.3753925E2,1.4229772E0,2.0854546E2,1.1873598E0,8.572047E0,2.8902254E1,2.5784014E3,1.5755872E2,6.9254494E0,1.2757418E2,1.4646603E1,1.3719887E2,1.5507382E3,1.27343124E2,8.697557E2,1.921685E1,1.524493E2,1.7810823E1,4.754441E2,1.4746259E2,1.841505E1,1.4704703E1,4.885917E1,2.773826E0,1.7530525E2,1.9978967E0,7.023908E2,2.351484E2,2.07248E2,1.2974519E0,2.5171528E1,3.7307262E0,1.7558392E3,8.2256213E2,1.526036E1,1.4229836E2,2.7591093E0,1.1887493E1,1.5119265E3,3.881169E1,4.567116E1,8.167197E1,7.2665375E2,1.4310193E2,1.3212003E2,2.032927E1,2.4407964E0,1.5370028E1,9.414541E1,5.331717E1,4.5946503E1,2.912669E0,2.8474442E1,1.4683081E2,1.2488837E2,5.7750244E2,2.3018892E2,4.9594893E0,1.849646E2,2.2283401E1,1.3659601E1,1.1511927E1],"tree_param":{"num_deleted":"0","num_feature":"142","num_nodes":"101","size_leaf_vector":"0"}},{"base_weights":[-6.2113483E-3,9.2221774E-2,-6.374687E-1,1.8968161E-2,6.5718913E-1,-4.822216E-2,6.3068765E-1,6.96789E-1,-6.4627033E-1,-2.7337623E-1,1.8444753E-1,-6.2980795E-1,7.5332344E-1,7.329432E-1,-6.6389984E-1,-3.5580665E-1,6.658512E-1,3.003274E-1,-6.779561E-1,7.8690684E-1,-5.854043E-1,7.5646156E-1,-6.3783646E-1,-4.3871865E-1,7.370536E-1,9.668294E-1,-6.5370345E-1,3.8918924E-1,-6.5461665E-1,-5.9285045E-1,8.12785E-1,7.791861E-1,-6.20468E-1,-5.397472E-1,6.9503546E-1,8.476774E-1,-6.369308E-1,-4.3884942E-1,9.83731E-1,4.4198987E-1,-6.452629E-1,8.324617E-1,-5.762941E-1,7.907116E-1,-6.92319E-1],"categories":[],"categories_nodes":[],"categories_segments":[],"categories_sizes":[],"default_left":[1,1,0,1,1,1,1,1,0,1,1,0,1,1,0,1,1,1,0,1,0,1,0,1,1,1,0,1,0,0,1,1,0,0,0,0,0,0,0,0,0,0,0,0,0],"id":18,"left_children":[1,3,-1,5,7,9,11,13,-1,15,17,-1,19,21,-1,23,25,27,-1,29,-1,31,-1,33,35,37,-1,39,-1,-1,41,43,-1,-1,-1,-1,-1,-1,-1,-1,-1,-1,-1,-1,-1],"loss_changes":[4.7428333E2,2.732714E2,0E0,2.4032797E2,3.9569885E1,2.7606168E2,8.992793E1,3.6694702E1,0E0,2.0757169E2,2.592081E2,0E0,2.4191223E1,2.3611786E1,0E0,2.2346274E2,8.65844E1,1.9419125E2,0E0,1.8882202E1,0E0,2.2567993E1,0E0,2.6262637E2,2.6991455E1,4.6280518E0,0E0,1.14521545E2,0E0,0E0,1.4317383E1,1.2330841E1,0E0,0E0,0E0,0E0,0E0,0E0,0E0,0E0,0E0,0E0,0E0,0E0,0E0],"parents":[2147483647,0,0,1,1,3,3,4,4,5,5,6,6,7,7,9,9,10,10,12,12,13,13,15,15,16,16,17,17,19,19,21,21,23,23,24,24,25,25,27,27,30,30,31,31],"right_children":[2,4,-1,6,8,10,12,14,-1,16,18,-1,20,22,-1,24,26,28,-1,30,-1,32,-1,34,36,38,-1,40,-1,-1,42,44,-1,-1,-1,-1,-1,-1,-1,-1,-1,-1,-1,-1,-1],"split_conditions":[5E-1,5E-1,-6.374687E-2,5E-1,5E-1,5E-1,5E-1,5E-1,-6.462704E-2,5E-1,5E-1,-6.298079E-2,5E-1,5E-1,-6.6389985E-2,5E-1,5E-1,5E-1,-6.779561E-2,5E-1,-5.854043E-2,5E-1,-6.3783646E-2,5E-1,5E-1,5E-1,-6.537034E-2,5E-1,-6.5461665E-2,-5.9285045E-2,5E-1,5E-1,-6.2046804E-2,-5.3974718E-2,6.9503546E-2,8.4767744E-2,-6.3693084E-2,-4.3884944E-2,9.83731E-2,4.4198986E-2,-6.452629E-2,8.324617E-2,-5.7629414E-2,7.907116E-2,-6.92319E-2],"split_indices":[70,41,0,100,100,93,78,139,0,129,26,0,128,135,0,36,78,141,0,67,0,93,0,89,82,91,0,68,0,0,26,99,0,0,0,0,0,0,0,0,0,0,0,0,0],"split_type":[0,0,0,0,0,0,0,0,0,0,0,0,0,0,0,0,0,0,0,0,0,0,0,0,0,0,0,0,0,0,0,0,0,0,0,0,0,0,0,0,0,0,0,0,0],"sum_hessian":[7.6309644E3,6.602308E3,1.0286562E3,5.845425E3,7.5688354E2,5.267745E3,5.776798E2,7.350187E2,2.1864882E1,2.677021E3,2.5907239E3,5.0853497E1,5.268263E2,7.164438E2,1.8574907E1,2.461602E3,2.1541902E2,2.2844214E3,3.063025E2,5.143358E2,1.2490466E1,7.0479974E2,1.164404E1,2.2885735E3,1.7302856E2,1.7562735E2,3.9791668E1,2.0904849E3,1.9393658E2,9.065714E0,5.052701E2,6.937838E2,1.1015947E1,2.101806E3,1.8676749E2,1.6049005E2,1.2538509E1,1.7900105E0,1.7383734E2,1.9895088E3,1.0097599E2,4.986079E2,6.6622114E0,6.888511E2,4.9327426E0],"tree_param":{"num_deleted":"0","num_feature":"142","num_nodes":"45","size_leaf_vector":"0"}},{"base_weights":[9.0009614E-4,7.518994E-2,-3.3755767E-1,2.123099E-3,4.4812945E-1,-3.8382268E-1,7.472278E-1,9.7891055E-2,-3.334711E-1,5.7760894E-1,-6.2894356E-1,-4.060472E-1,7.2887653E-1,-5.68136E-1,9.4783634E-1,6.749229E-2,9.775052E-1,-4.2581305E-1,5.4154533E-1,7.9600257E-1,2.0674013E-1,-4.5867902E-1,9.392037E-2,-5.1187694E-1,9.575267E-1,2.4488501E-2,7.026056E-1,1.0289702E0,-6.6480196E-1,-4.75138E-1,6.8755263E-1,2.813314E-1,9.809035E-1,7.9959124E-1,-4.4134963E-1,8.0716515E-1,-2.8700706E-1,-4.8104936E-1,7.8617114E-1,3.519924E-1,-6.192543E-1,-4.1148603E-2,5.4315966E-1,8.1472707E-1,2.3243528E-2,1.0766897E0,7.6725996E-1,-5.619153E-1,1.028446E-1,7.548617E-1,-5.623951E-1,-6.9501036E-1,6.147065E-1,-5.00289E-1,1.0460736E0,8.265068E-1,-5.225936E-1,-5.604064E-1,7.646931E-1,-4.9754632E-1,1.0736804E0,-5.002553E-1,1.0982777E0,-1.0736734E-1,7.985255E-1,-1.0361026E-1,6.4707506E-1,5.8213E-1,-7.9357284E-1,8.8518107E-1,3.6169863E-1,-6.7632633E-1,8.004143E-1,-6.0483575E-1,9.768228E-1,-6.137424E-1,9.459335E-2,-2.872875E-1,6.260045E-1,6.1700636E-1,8.6196417E-1,8.2344776E-1,-7.1514225E-1,-5.1697236E-1,8.5451216E-1,-6.90344E-1,6.706652E-1,-6.084023E-1,1.0307987E0],"categories":[],"categories_nodes":[],"categories_segments":[],"categories_sizes":[],"default_left":[1,1,1,1,1,1,1,1,1,1,0,1,1,0,0,1,1,1,1,1,1,1,1,0,0,1,1,1,0,1,1,1,1,0,0,1,1,1,1,1,0,1,1,1,1,0,1,1,1,1,0,0,1,0,0,0,0,0,0,1,0,0,0,1,1,0,0,0,0,0,0,0,0,0,0,0,0,0,0,0,0,0,0,0,0,0,0,0,0],"id":19,"left_children":[1,3,5,7,9,11,13,15,17,19,-1,21,23,-1,-1,25,27,29,31,33,35,37,39,-1,-1,41,43,45,-1,47,49,51,53,-1,-1,55,57,59,61,63,-1,65,67,69,71,-1,73,75,77,79,-1,-1,81,-1,-1,-1,-1,-1,-1,83,-1,-1,-1,85,87,-1,-1,-1,-1,-1,-1,-1,-1,-1,-1,-1,-1,-1,-1,-1,-1,-1,-1,-1,-1,-1,-1,-1,-1],"loss_changes":[1.9677635E2,1.748697E2,7.0980484E1,1.725257E2,1.4697945E2,3.372072E1,1.5831772E1,1.11604355E2,9.652768E1,7.5891785E1,0E0,3.4930588E1,8.100613E0,0E0,0E0,1.1026562E2,1.2469177E1,5.955873E1,1.2780815E1,2.9756775E0,1.0380611E2,3.378711E1,2.3611727E1,0E0,0E0,1.2880487E2,1.9483131E1,8.672333E-1,0E0,5.188942E1,4.3085556E0,2.422937E1,4.585087E0,0E0,0E0,4.4935226E0,5.5766045E1,3.0777191E1,9.205005E0,1.9360668E1,0E0,1.4445428E2,2.260176E1,6.6931458E0,2.0820002E1,0E0,7.603879E0,3.0635193E1,2.7885876E1,1.21248245E-1,0E0,0E0,1.5868868E1,0E0,0E0,0E0,0E0,0E0,0E0,3.1104858E1,0E0,0E0,0E0,2.1872124E1,1.623747E1,0E0,0E0,0E0,0E0,0E0,0E0,0E0,0E0,0E0,0E0,0E0,0E0,0E0,0E0,0E0,0E0,0E0,0E0,0E0,0E0,0E0,0E0,0E0,0E0],"parents":[2147483647,0,0,1,1,2,2,3,3,4,4,5,5,6,6,7,7,8,8,9,9,11,11,12,12,15,15,16,16,17,17,18,18,19,19,20,20,21,21,22,22,25,25,26,26,27,27,29,29,30,30,31,31,32,32,35,35,36,36,37,37,38,38,39,39,41,41,42,42,43,43,44,44,46,46,47,47,48,48,49,49,52,52,59,59,63,63,64,64],"right_children":[2,4,6,8,10,12,14,16,18,20,-1,22,24,-1,-1,26,28,30,32,34,36,38,40,-1,-1,42,44,46,-1,48,50,52,54,-1,-1,56,58,60,62,64,-1,66,68,70,72,-1,74,76,78,80,-1,-1,82,-1,-1,-1,-1,-1,-1,84,-1,-1,-1,86,88,-1,-1,-1,-1,-1,-1,-1,-1,-1,-1,-1,-1,-1,-1,-1,-1,-1,-1,-1,-1,-1,-1,-1,-1],"split_conditions":[5E-1,5E-1,5E-1,5E-1,5E-1,5E-1,5E-1,5E-1,5E-1,5E-1,-6.289436E-2,5E-1,5E-1,-5.6813598E-2,9.4783634E-2,5E-1,5E-1,5E-1,5E-1,5E-1,5E-1,5E-1,5E-1,-5.1187694E-2,9.575267E-2,5E-1,5E-1,5E-1,-6.64802E-2,5E-1,5E-1,5E-1,5E-1,7.9959124E-2,-4.4134963E-2,5E-1,5E-1,5E-1,5E-1,5E-1,-6.192543E-2,5E-1,5E-1,5E-1,5E-1,1.0766897E-1,5E-1,5E-1,5E-1,5E-1,-5.623951E-2,-6.9501035E-2,5E-1,-5.00289E-2,1.0460736E-1,8.2650684E-2,-5.2259363E-2,-5.604064E-2,7.646931E-2,5E-1,1.07368045E-1,-5.002553E-2,1.0982777E-1,5E-1,5E-1,-1.0361026E-2,6.470751E-2,5.8213003E-2,-7.935729E-2,8.8518105E-2,3.6169864E-2,-6.763264E-2,8.004143E-2,-6.0483575E-2,9.768228E-2,-6.1374243E-2,9.459335E-3,-2.8728751E-2,6.2600456E-2,6.170064E-2,8.6196415E-2,8.234478E-2,-7.151423E-2,-5.1697236E-2,8.5451216E-2,-6.90344E-2,6.706652E-2,-6.084023E-2,1.0307987E-1],"split_indices":[66,31,8,78,89,115,78,29,16,139,0,141,31,0,0,76,104,49,84,85,93,3,82,0,0,49,82,82,0,26,88,86,104,0,0,99,82,36,78,26,0,81,99,21,101,0,88,139,99,108,0,0,82,0,0,0,0,0,0,7,0,0,0,78,79,0,0,0,0,0,0,0,0,0,0,0,0,0,0,0,0,0,0,0,0,0,0,0,0],"split_type":[0,0,0,0,0,0,0,0,0,0,0,0,0,0,0,0,0,0,0,0,0,0,0,0,0,0,0,0,0,0,0,0,0,0,0,0,0,0,0,0,0,0,0,0,0,0,0,0,0,0,0,0,0,0,0,0,0,0,0,0,0,0,0,0,0,0,0,0,0,0,0,0,0,0,0,0,0,0,0,0,0,0,0,0,0,0,0,0,0],"sum_hessian":[7.823975E3,6.416387E3,1.4075881E3,5.3660654E3,1.0503215E3,1.3506312E3,5.6956898E1,4.175281E3,1.1907847E3,9.3802167E2,1.1229983E2,1.3248053E3,2.5825933E1,7.294667E0,4.966223E1,4.0368474E3,1.384335E2,1.0775793E3,1.1320541E2,5.896488E2,3.483729E2,1.1987002E3,1.2610514E2,3.825958E0,2.1999975E1,3.7818176E3,2.550299E2,1.3458932E2,3.8441668E0,1.032414E3,4.5165344E1,7.212753E1,4.1077873E1,5.882963E2,1.3524461E0,1.5691745E2,1.9145543E2,1.1781421E3,2.055801E1,9.296935E1,3.313579E1,3.3578118E3,4.240057E2,2.1873138E2,3.6298527E1,1.11199486E2,2.3389843E1,8.976676E2,1.3474635E2,4.3233334E1,1.9320095E0,1.8083216E1,5.404432E1,1.4498073E0,3.9628067E1,1.550408E2,1.8766551E0,1.5232442E2,3.913102E1,1.1664452E3,1.1696956E1,3.8961601E0,1.666185E1,4.6200893E1,4.6768456E1,3.0792E3,2.786119E2,4.1254315E2,1.1462544E1,1.8846742E2,3.0263962E1,1.9171272E1,1.7127253E1,2.8491414E0,2.0540703E1,8.320479E2,6.5619705E1,7.744485E1,5.7301502E1,2.1858877E1,2.1374458E1,4.7041237E1,7.003085E0,1.1505322E3,1.5912915E1,2.6475565E1,1.9725328E1,6.397585E0,4.0370872E1],"tree_param":{"num_deleted":"0","num_feature":"142","num_nodes":"89","size_leaf_vector":"0"}},{"base_weights":[6.8555945E-3,1.0229557E-1,-5.4152805E-1,1.5215379E-1,-4.4744864E-1,-5.4713255E-1,8.7001014E-1,1.9561523E-1,-5.006936E-1,-5.0467217E-1,1.3020467E0,-5.908887E-1,-3.7464917E-1,2.3210397E-1,-5.5214036E-1,-1.376306E-1,-6.0550916E-1,-5.306017E-1,1.2754846E0,-5.957982E-1,9.2470217E-1,-4.7728565E-1,1.5680964E-1,2.6166484E-1,-3.9796573E-1,-5.867088E-1,1.180823E0,5.4461896E-1,-5.6855005E-1,-6.209093E-1,9.308396E-1,